tree
version=v4
num_class=1
num_tree_per_iteration=1
label_index=0
max_feature_idx=116
objective=quantile
feature_names=price_lag_1d price_lag_7d price_lag_14d price_lag_30d price_lag_60d return_1d return_3d return_7d return_14d return_30d return_60d price_std_7d price_std_14d price_std_20d price_min_20d price_max_20d price_std_30d price_mean_60d price_std_60d price_min_60d price_max_60d price_zscore_30d vol_regime_60_30 trend_divergence_30_60 price_accel_7d price_tier autocorr_1d autocorr_7d bb_pct_b macd_line macd_signal macd_histogram distance_to_support distance_to_resistance high_low_range_30d volume_missing volume_lag_1d volume_lag_7d volume_mean_7d volume_mean_30d volume_std_30d volume_mean_60d volume_std_60d volume_log_change_1d volume_log_change_7d volume_zscore_30d volume_price_conf_7d volume_price_conf_1d rsi_missing macd_missing is_weekend dow_sin dow_cos month_sin month_cos doy_cos item_age_days is_stattrak is_souvenir is_knife is_glove is_sticker is_case is_capsule is_agent is_music_kit is_graffiti is_charm is_patch quality_rank event_decay_major events_next_30d_major event_density_30d_major event_density_90d_major event_decay_operation events_next_30d_operation event_density_30d_operation event_density_90d_operation event_decay_case_drop events_next_30d_case_drop event_density_30d_case_drop event_density_90d_case_drop event_decay_update events_next_30d_update event_density_30d_update event_density_90d_update event_decay_game_update events_next_30d_game_update event_density_30d_game_update event_density_90d_game_update event_decay_major_weighted event_decay_operation_weighted event_decay_case_drop_weighted event_decay_update_weighted event_decay_game_update_weighted market_return_1d item_return_vs_market_1d market_return_7d item_return_vs_market_7d market_return_14d item_return_vs_market_14d market_return_30d item_return_vs_market_30d market_volatility_30d market_volume_mean_30d market_regime_crash market_regime_bear market_regime_range market_regime_bull market_regime_mania market_regime_duration_days market_return_30d_percentile supply_listings_log supply_listings_zscore supply_change_7d supply_skinport_qty_log supply_to_volume_ratio
feature_infos=[39.790000915527344:66.569999694824219] [39.790000915527344:66.569999694824219] [39.790000915527344:66.569999694824219] [39.790000915527344:66.569999694824219] [39.849998474121094:66.569999694824219] [-6.0415120124816895:6.2258315086364746] [-10.281366348266602:11.818019866943359] [-17.372880935668945:15.222199440002441] [-24.630624771118164:24.511468887329102] [-24.868003845214844:39.543319702148438] [-35.815872192382812:34.754096984863281] [0.042426407337188721:3.2751080989837646] [0.042426407337188721:4.7465720176696777] [0.042426407337188721:5.344205379486084] [38.569999694824219:61.619998931884766] [43.290000915527344:66.569999694824219] [0.042426407337188721:5.4625492095947266] [42.844001770019531:62.902332305908203] [0.042426407337188721:6.2239170074462891] [38.569999694824219:58.759998321533203] [46.650001525878906:66.569999694824219] [-3.4853887557983398:3.0036964416503906] [0.75597286224365234:4.9742584228515625] [-106.84011840820312:164.20773315429688] [-22.191015243530273:26.589687347412109] [3:3] [-17.983921051025391:24.913341522216797] [-165.46697998046875:159.38456726074219] [-0.22173035144805908:1.266255259513855] [-3.1355800628662109:3.1830518245697021] [-2.6216168403625488:2.7723205089569092] [-1.2678171396255493:0.94621419906616211] [0.018351990729570389:39.335178375244141] [0.054525628685951233:35.731788635253906] [0.12307692319154739:39.335178375244141] none [161:245] [161:245] [176:219] [176:219] [4.0414519309997559:20.361700057983398] [176:219] [4.0414519309997559:19.928762435913086] [-0.31321537494659424:0.36533302068710327] [-0.29612094163894653:0.40341803431510925] [-2.8260855674743652:2.671764612197876] [-17.372880935668945:15.222199440002441] [-6.0415120124816895:6.2258315086364746] [0:1] [0:1] [0:1] [-0.97492790222167969:0.97492790222167969] [-0.90096884965896606:1] [-0.86602538824081421:1] [-1:0.86602538824081421] [-1:0.99985265731811523] [0:234] none none none none none none none none none none none none none [0:0.98347145318984985] [0:1] [0:1] [0:1] none none none none none none none none none none none none none none none none none none none none none [-2.4910855293273926:2.5970833301544189] [-5.0148625373840332:6.6300463676452637] [-5.9873161315917969:6.6842527389526367] [-15.224418640136719:14.81980037689209] [-7.8436169624328613:8.0323085784912109] [-21.144741058349609:25.597810745239258] [-8.3750972747802734:10.840641021728516] [-26.866291046142578:40.982707977294922] [0.43699198961257935:3.9606008529663086] [195.10000610351562:203.39999389648438] none [0:1] [0:1] [0:1] [0:1] [1:30] [0.0086206896230578423:1] none none none none none
tree_sizes=1723 1695 1601 1801 1716 1718 1614 1914 1602 1707 1813 1926 1818 1480 1611 1715 1823 1501 1917 1724 1932 1712 1704 1723

Tree=0
num_leaves=16
num_cat=0
split_feature=3 13 15 99 32 30 24 98 2 0 41 8 18 24 8
split_gain=2.2026 1.89707 4.31115 0.930987 1.4443 1.3389 1.09179 0.848487 0.798171 0.754535 0.434466 0.26576 0.184394 0.24519 0.16104
threshold=49.604999542236335 1.464102625846863 49.965000152587898 -0.17668464034795758 5.1164422035217294 -0.080180756747722612 3.7578715085983281 -3.9857167005538936 47.585000991821296 44.899999618530281 202.42820739746097 0.89857208728790294 3.5462518930435185 -2.0308634042739864 3.5902647972106938
decision_type=2 2 2 2 2 2 2 2 2 2 2 2 2 2 2
left_child=1 2 9 4 5 6 -2 -3 -5 -1 -9 -10 13 -6 -13
right_child=3 7 -4 8 12 -7 -8 10 11 -11 -12 14 -14 -15 -16
leaf_value=7.2058904104002757 7.0471570356915416 7.170461821130937 7.233997725774354 7.1431602788360626 7.131694025024327 7.165202714679145 7.1674718391796528 7.0212111689808845 7.0297566358416166 7.0394388682641855 7.1437493121547977 7.1155650791733391 7.0154426348578696 7.0175008583736043 7.0621459440629906
leaf_weight=22.6513951420784 45.302790284156799 21.812454581260681 32.718681871891022 27.685038506984711 20.973514020442963 20.973514020442963 25.168216824531555 74.665709912776947 260.07158517837524 36.913384675979614 20.973514020442963 28.523979067802429 63.759482622146606 23.490335702896118 66.276304304599762
leaf_count=27 54 26 39 33 25 25 30 89 139 44 25 34 76 28 79
internal_value=7.08411 7.08607 7.08851 7.08332 7.08455 7.08671 7.08492 7.08411 7.08265 7.08452 7.08316 7.08234 7.08283 7.08411 7.08357
internal_weight=0 209.735 92.2835 582.225 199.668 91.4445 70.471 117.452 382.557 59.5648 95.6392 354.872 108.223 44.4638 94.8003
internal_count=773 250 110 523 238 109 84 140 285 71 114 252 129 53 113
is_linear=0
shrinkage=1


Tree=1
num_leaves=15
num_cat=0
split_feature=14 15 33 98 13 42 13 40 104 110 0 98 4 31
split_gain=1.90028 1.28242 2.52378 1.85296 1.35183 1.03094 1.33604 2.63036 0.917105 0.838862 0.378195 0.263321 0.180199 0.107193
threshold=48.70000076293946 50.614999771118171 6.814711570739747 -3.7456063032150264 1.5288293957710268 14.708600521087648 1.682783901691437 16.407489776611332 199.9533386230469 14.500000000000002 47.449998855590827 -1.2429446578025816 50.895000457763679 -0.22064989805221555
decision_type=2 2 2 2 2 2 2 2 2 2 2 2 2 2
left_child=1 3 4 -1 -3 12 7 -7 10 11 -4 -5 13 -2
right_child=5 2 8 9 -6 6 -8 -9 -10 -11 -12 -13 -14 -15
leaf_value=0.11063078253718665 -0.050919667642155692 0.13036839528022284 0.0405303803484112 0.022931294067168422 0.091868653328499125 0.11243105495344227 -0.0834404346140626 -0.023757583953960205 0.081433780273567791 0.11896475201147447 -0.050839999061331284 -0.050707203385374967 -0.056127657098570663 0.019440347970416789
leaf_weight=31.879741311073303 22.6513951420784 21.812454581260681 22.6513951420784 30.201860189437866 27.685038506984711 26.846097946166992 73.826769351959229 41.947029232978821 27.685038506984711 23.490335702896118 48.658552527427673 117.45167970657349 239.93700933456421 35.235503554344177
leaf_count=38 27 26 27 36 33 32 88 32 33 28 58 122 151 42
internal_value=0 0.00117901 0.00279532 0 0.00696445 -0.00109098 0.000456215 0.00279374 0.000499746 -0.000985555 -0.00076779 -0.00168421 -0.00186853 -0.000422043
internal_weight=0 351.516 148.492 203.024 49.4975 440.444 142.62 68.7931 98.995 171.144 71.3099 147.654 297.824 57.8869
internal_count=773 401 177 224 59 372 152 64 118 186 85 158 220 69
is_linear=0
shrinkage=0.0231034


Tree=2
num_leaves=14
num_cat=0
split_feature=3 13 1 101 55 103 99 22 32 22 42 5 7
split_gain=1.97229 1.55911 2.62532 1.09745 0.94259 1.2675 0.964827 0.781265 0.601211 0.356554 0.312905 0.202204 0.162807
threshold=49.604999542236335 1.464102625846863 48.914999008178718 -2.0793392658233638 0.97702786326408397 1.7518948912620547 -0.15281165391206739 0.87482139468193065 1.2456527948379519 1.4583458304405215 14.064373016357424 -2.3574684858322139 0.2403172850608826
decision_type=2 2 2 2 2 2 2 2 2 2 2 2 2
left_child=1 2 3 -1 5 6 -2 -7 -9 10 -3 -10 -5
right_child=4 9 -4 12 -6 7 -8 8 11 -11 -12 -13 -14
leaf_value=0.12094135517697391 0.076619541017917597 0.083958178711986894 0.14382515369664423 0.035121176037203099 -0.054830917583696445 0.063954663060932365 0.02812870348503068 0.044262789770848861 0.020460253569335129 0.039133238291595603 -0.059540071896886267 -0.039636208387114499 -0.072472963570661825
leaf_weight=25.168216824531555 20.973514020442963 22.6513951420784 20.973514020442963 20.973514020442963 177.85541021823883 20.973514020442963 34.396562993526459 36.074444115161896 39.43020635843277 26.007157385349274 68.793125987052917 252.52110880613327 25.168216824531555
leaf_count=30 25 27 25 25 41 25 41 43 47 31 82 301 30
internal_value=0 0.00177626 0.00398899 0.00156096 -0.000822904 -0.000171899 0.00297442 -0.000718089 -0.00102801 0 -0.000685322 -0.00139814 -0.000363965
internal_weight=0 209.735 92.2835 71.3099 582.225 404.369 55.3701 348.999 328.026 117.452 91.4445 291.951 46.1417
internal_count=773 250 110 85 523 482 66 416 391 140 109 348 55
is_linear=0
shrinkage=0.0231034


Tree=3
num_leaves=16
num_cat=0
split_feature=3 12 28 30 55 103 24 14 42 99 14 26 11 23 7
split_gain=1.97229 1.38787 2.5476 1.58687 0.94259 1.2675 1.22447 0.546677 1.25812 0.539289 0.386535 0.317457 0.344193 0.237054 0.152125
threshold=49.604999542236335 1.3373059034347536 0.50280985236167919 -0.37780518829822535 0.97702786326408397 1.7518948912620547 -0.27275350689887995 47.230001449584968 13.665360927581789 2.1466740369796757 45.954999923706062 -0.93484288454055775 0.89697772264480602 0.62817895412445079 6.79689645767212
decision_type=2 2 2 2 2 2 2 2 2 2 2 2 2 2 2
left_child=1 2 3 -1 5 6 -2 8 -7 14 -4 12 -9 -10 -3
right_child=4 9 10 -5 -6 7 -8 11 13 -11 -12 -13 -14 -15 -16
leaf_value=0.080894625936261622 0.057574268238268056 -0.071827556187649313 -0.08642767127015348 0.140502304148448 -0.053564137155952533 0.098337928059929386 -0.018761048737870278 0.026665500032321019 -0.048749691369557958 0.038229127572194238 0.058055251375640299 -0.056418382574232852 -0.063286049697238791 0.028105078667082509 0.082018459622314119
leaf_weight=21.812454581260681 26.007157385349274 48.658552527427673 35.235503554344177 31.040800750255585 177.85541021823883 22.6513951420784 29.362919628620148 28.523979067802429 39.43020635843277 30.201860189437866 20.973514020442963 181.2111611366272 47.819611966609955 29.362919628620148 21.812454581260681
leaf_count=26 31 58 42 37 41 27 35 34 47 36 25 216 57 35 26
internal_value=0 0.00177626 0.00356087 0.00710374 -0.000822904 -0.000171899 0.00297442 -0.000718089 0.000726806 -7.62687e-05 0 -0.00127725 0 -0.00071295 -0.00128483
internal_weight=0 209.735 109.062 52.8533 582.225 404.369 55.3701 348.999 91.4445 100.673 56.209 257.555 76.3436 68.7931 70.471
internal_count=773 250 130 63 523 482 66 416 109 120 67 307 91 82 84
is_linear=0
shrinkage=0.0231034


Tree=4
num_leaves=15
num_cat=0
split_feature=19 40 42 13 43 7 98 7 98 9 18 99 111 110
split_gain=1.82112 1.56653 1.51729 1.76316 2.00111 1.16284 0.901942 0.664649 0.893079 0.54162 0.53259 0.667848 0.397111 0.354614
threshold=48.70000076293946 13.924632072448732 13.665360927581789 1.5754765272140505 0.040512129664421088 0.2403172850608826 -3.9857167005538936 -2.5301712751388545 -3.9857167005538936 -8.5436153411865217 2.6134420633316044 -0.17668464034795758 0.15828157961368564 12.500000000000002
decision_type=2 2 2 2 2 2 2 2 2 2 2 2 2 2
left_child=1 7 -3 4 10 -6 -5 8 -1 -2 11 -4 -8 -11
right_child=9 2 3 6 5 -7 12 -9 -10 13 -12 -13 -14 -15
leaf_value=-0.027888372044318148 0.020712306762352979 0.11015698580528319 0.11584980665400274 0.037345904881195893 0.13725622371077353 0.099772710511659368 0.034850241025871372 -0.053671124329633078 0.075802873285074984 -0.041661412016273235 -0.018327604790688359 -0.011778987033858093 -0.069762517410561095 0.026148673750659667
leaf_weight=30.201860189437866 38.591265797615051 23.490335702896118 23.490335702896118 35.235503554344177 22.6513951420784 21.812454581260681 27.685038506984711 122.4853230714798 22.6513951420784 242.45383220911026 31.040800750255585 21.812454581260681 90.605580568313599 37.752325236797333
leaf_count=36 46 28 28 42 27 26 33 128 27 136 37 26 108 45
internal_value=0 0.000775193 0.00180388 0.00124178 0.00331501 0.00713493 -0.000336987 -0.000907595 0.0010968 -0.00147448 0.000817419 0.00246015 -0.00137025 -0.00184094
internal_weight=0 473.162 297.824 274.334 120.807 44.4638 153.526 175.339 52.8533 318.797 76.3436 45.3028 118.291 280.206
internal_count=773 546 355 327 144 53 183 191 63 227 91 54 141 181
is_linear=0
shrinkage=0.0231034


Tree=5
num_leaves=15
num_cat=0
split_feature=14 14 101 103 16 97 38 0 14 103 7 44 44 4
split_gain=1.55963 3.74389 1.38303 1.33 1.09532 1.71792 1.18981 0.996945 1.43686 0.415642 0.439905 0.298584 0.162966 0.144478
threshold=47.230001449584968 46.784999847412116 -1.9019227027893064 2.1054999828338627 1.9215502142906191 -0.86316344141960133 202.3571472167969 47.994998931884773 42.23500061035157 2.4653469324111943 -2.5301712751388545 0.0055249182041734466 0.1351900324225426 49.07500076293946
decision_type=2 2 2 2 2 2 2 2 2 2 2 2 2 2
left_child=1 2 7 -3 5 -2 11 8 -1 13 -11 -7 -6 -4
right_child=4 3 9 -5 12 6 -8 -9 -10 10 -12 -13 -14 -15
leaf_value=0.078162868073975836 0.049826362647301753 0.11341451650904426 -0.028462350500152077 0.055688421669289077 -0.052987811796486629 -0.056771746241557883 0.00041430255065208488 -0.07378240032115474 0.10749950164979034 0.055088147540266058 -0.084618231103254837 0.045953971448971134 0.0073082163586890847 -0.054016839163098483
leaf_weight=31.879741311073303 33.55762243270874 20.973514020442963 40.269146919250488 20.973514020442963 246.64852726459503 130.87473344802856 64.598425567150116 23.490335702896118 30.201860189437866 20.973514020442963 23.490335702896118 32.718681871891022 23.490335702896118 83.894056677818298
leaf_count=38 40 25 48 25 258 66 41 28 36 25 28 39 28 91
internal_value=0 0.00143697 0.000310483 0.00767586 -0.00064636 0.000382431 -0.000303462 0.00270112 0.00423571 -0.000852418 0.000877687 -0.00139334 -0.00168113 -0.00156764
internal_weight=0 296.146 254.199 41.947 531.888 261.749 228.192 85.5719 62.0816 168.627 44.4638 163.593 270.139 124.163
internal_count=816 344 294 50 472 186 146 102 74 192 53 105 286 139
is_linear=0
shrinkage=0.0231034


Tree=6
num_leaves=14
num_cat=0
split_feature=41 42 45 27 33 39 10 34 70 107 70 44 44
split_gain=1.87757 4.25202 2.7088 1.38234 1.32822 1.30598 1.26444 1.29939 0.881676 0.420874 0.365174 0.339663 0.169808
threshold=201.72499847412112 14.096479415893556 0.60499718785285961 -2.0352139472961421 25.768899917602543 202.01667022705081 1.7875922918319704 11.864880084991457 0.32466374337673193 1.0000000180025095e-35 0.40998613834381109 0.1351900324225426 -0.10874412208795546
decision_type=2 2 2 2 2 2 2 2 2 2 2 2 2
left_child=3 2 -2 6 11 -3 7 -1 9 -9 -8 12 -5
right_child=1 5 -4 4 -6 -7 10 8 -10 -11 -12 -13 -14
leaf_value=0.13325336429168938 0.079834927628150698 0.10997988097122414 0.0033553277014016689 -0.004224798360259097 0.072274531880010845 -0.05013990511535768 -0.082107995847920501 -0.066785893085415438 0.08364653487176861 0.050215512819898778 0.03289392387948642 0.014287791177279029 -0.05546012607985127
leaf_weight=23.490335702896118 37.752325832843781 29.362919628620148 27.685039103031158 40.269146919250488 27.685038506984711 94.80028635263443 70.471007108688354 51.175374209880829 24.329276263713837 20.973514020442963 23.490335702896118 31.879741311073303 324.67000418901443
leaf_count=28 36 35 24 48 33 68 84 61 29 25 28 38 279
internal_value=0 0.00210454 0.0067841 -0.000499485 -0.00127264 -0.000338601 0.000978769 0.00255914 0.00116202 -1.04874e-06 -0.000929923 -0.001638 -0.00184369
internal_weight=0 189.601 65.4374 638.434 424.504 124.163 213.93 119.969 96.4782 72.1489 93.9613 396.819 364.939
internal_count=816 163 60 653 398 103 255 143 115 86 112 365 327
is_linear=0
shrinkage=0.0231034


Tree=7
num_leaves=17
num_cat=0
split_feature=19 41 103 30 42 6 51 103 0 40 38 42 28 45 5 44
split_gain=2.31117 1.6318 3.1364 1.61278 0.885994 0.683845 1.13957 0.597019 0.432954 0.787102 0.343197 0.341613 0.262595 0.336927 0.131252 0.124674
threshold=46.854999542236335 202.25833129882815 1.9703571796417239 -1.4441540241241453 16.872324943542484 -0.45770035684108729 0.6078576147556306 2.4341427087783818 49.085000991821296 14.291000843048097 206.78571319580081 13.932839393615724 0.22221878916025165 0.41305442154407507 -0.94813391566276539 -0.073715597391128526
decision_type=2 2 2 2 2 2 2 2 2 2 2 2 2 2 2 2
left_child=1 3 -3 11 8 6 12 -4 10 14 -5 -1 -2 -14 -10 -7
right_child=5 2 7 4 -6 15 -8 -9 9 -11 -12 -13 13 -15 -16 -17
leaf_value=0.083128442181630943 -0.054178808798758457 0.1107167365025232 -0.048322101683441913 -0.059446116672016582 0.11411794532219693 -0.013347240442210882 0.039994003535070974 0.070286144356905347 0.013957694673031382 0.050970762958737648 0.03327784526230957 0.075732796023122842 -0.035512945193469356 0.049055363918281879 -0.056840223585125672 -0.04898150300851499
leaf_weight=20.973514020442963 67.115246057510376 21.812454581260681 28.523979067802429 125.00214415788651 26.846097946166992 31.879741311073303 37.752325236797333 23.490335702896118 20.973514020442963 31.040800750255585 20.973514020442963 21.812454581260681 35.235504150390625 22.6513951420784 36.074444115161896 255.87687999010086
leaf_count=25 62 26 34 140 32 38 45 28 25 37 25 26 33 27 43 170
internal_value=0 0.00119525 0.00424422 0.000393359 -0.000258324 -0.00124661 0 0.000790882 -0.000763918 0.000409643 -0.00154613 0.00445935 -0.0011147 0 -0.00105171 -0.00192007
internal_weight=0 377.523 73.8268 303.696 260.911 450.511 162.754 52.0143 234.064 88.0888 145.976 42.786 125.002 57.8869 57.048 287.757
internal_count=816 441 88 353 302 375 167 62 270 105 165 51 122 60 68 208
is_linear=0
shrinkage=0.0231034


Tree=8
num_leaves=14
num_cat=0
split_feature=55 18 21 104 39 22 13 42 55 3 1 55 4
split_gain=1.92058 2.64558 1.48894 1.38416 0.946153 2.07425 0.787611 1.22877 1.22248 2.18615 1.20184 0.379661 0.107973
threshold=0.97702786326408397 1.388233006000519 0.35171706974506384 197.95475769042972 203.03666687011722 1.277322590351105 1.5754765272140505 13.460104942321779 -0.80999499559402455 49.125000000000007 54.095001220703132 0.33662487566471105 46.364999771118171
decision_type=2 2 2 2 2 2 2 2 2 2 2 2 2
left_child=1 2 -1 -3 6 -6 8 10 9 -5 -8 -10 -9
right_child=-2 3 -4 4 5 -7 7 12 11 -11 -12 -13 -14
leaf_value=0.10097529892229225 -0.047849863924818221 0.094346786017310572 0.022455562892976014 0.12753824685040421 0.068771816736223068 -0.031395602752712783 0.068684195357664943 -0.0446206555608143 -0.070463555061480262 -0.0026078695773074103 -0.11103443544869922 0.016080617819580503 -0.067530241732475446
leaf_weight=20.973514020442963 183.72799414396286 30.201860189437866 20.973514020442963 21.812454581260681 29.362919628620148 39.43020635843277 29.362919628620148 33.55762243270874 77.182531595230103 31.879741311073303 23.490335702896118 43.624909162521362 242.45382207632065
leaf_count=25 48 36 25 26 35 47 35 40 92 38 28 52 289
internal_value=0 0.000437966 0.0059117 1.93707e-05 -0.000222938 0.00224617 -0.000590795 -0.00126558 0.000615406 0.00348166 0.0018035 -0.000600377 -0.00190358
internal_weight=0 644.306 41.947 602.359 572.157 68.7931 503.364 328.865 174.5 53.6922 52.8533 120.807 276.011
internal_count=816 768 50 718 682 82 600 392 208 64 63 144 329
is_linear=0
shrinkage=0.0231034


Tree=9
num_leaves=15
num_cat=0
split_feature=41 51 30 97 32 16 30 17 33 24 30 44 9 28
split_gain=1.54252 3.26254 1.28552 1.06513 1.49895 1.31387 0.885874 1.21045 0.465911 0.426467 0.366754 0.317006 0.121206 0.115324
threshold=202.25833129882815 -0.60785761475563038 0.056683856993913657 -0.86316344141960133 4.9078567028045663 1.6601912975311282 -1.3570625782012937 53.198749542236335 2.7140009403228764 -8.8380222320556623 -1.4441540241241453 0.11966546252369882 8.6332554817199725 0.06992680206894876
decision_type=2 2 2 2 2 2 2 2 2 2 2 2 2 2
left_child=3 -2 -3 4 5 -1 7 -5 -6 -8 -7 12 -11 -10
right_child=1 2 -4 6 8 10 9 -9 13 11 -12 -13 -14 -15
leaf_value=0.10418210249267872 0.06587495323980716 -0.046744369547532937 0.079763242807634735 0.077017764318938975 0.039692372895385096 0.067097357161101517 0.023332325896911824 -0.15448433437795125 0.030421452532371159 -0.051821599921529175 -0.012778263876034484 0.0075693974291491471 -0.024709655703772992 -0.061497394263791409
leaf_weight=26.846097946166992 40.269148111343384 69.632069528102875 37.752325236797333 20.973514020442963 21.812454581260681 22.6513951420784 31.040800750255585 26.846097946166992 22.6513951420784 299.50178736448288 22.6513951420784 44.463849723339081 62.081601500511169 78.86041271686554
leaf_count=32 30 38 45 25 26 27 37 32 27 249 27 53 74 94
internal_value=0 0.00217637 0 -0.000411973 0.000991728 0.00360834 -0.0010033 0.0018301 -0.00048006 -0.00134652 0.000821145 -0.0015582 -0.00178608 -0.00121786
internal_weight=0 147.654 107.384 680.381 195.473 72.1489 484.908 47.8196 123.324 437.088 45.3028 406.047 361.583 101.512
internal_count=816 113 83 703 233 86 470 57 147 413 54 376 323 121
is_linear=0
shrinkage=0.0231034


Tree=10
num_leaves=16
num_cat=0
split_feature=1 4 56 55 39 38 15 44 13 22 3 53 38 1 39
split_gain=2.37007 1.07673 1.20568 2.72169 1.74515 1.71141 1.18463 0.803702 0.972352 0.453573 0.373485 0.364004 0.618357 0.186182 0.170223
threshold=50.055000305175788 46.364999771118171 52.500000000000007 -0.6471368372440337 202.01667022705081 194.07142639160159 48.815000534057624 0.027175785973668102 1.338122606277466 0.9932488501071931 47.159999847412116 0.68301269412040722 201.92857360839847 48.229999542236335 200.55000305175784
decision_type=2 2 2 2 2 2 2 2 2 2 2 2 2 2 2
left_child=1 -1 13 5 -5 -4 -7 9 -9 14 -8 -10 -13 -3 -2
right_child=7 2 3 4 -6 6 10 8 11 -11 -12 12 -14 -15 -16
leaf_value=-0.0327457881198739 -0.11303347127612721 -0.050297982499051985 0.10761783787719702 0.044543502462231988 0.11584433751687652 0.098994473421605222 0.022553121894019746 0.034085012972407465 -0.064905831926413637 -0.046953507353304516 -0.053058574550383687 0.0350741832480157 -0.090931254832925343 0.040921085446882222 0.038775344267552352
leaf_weight=52.853255331516266 21.812454581260681 32.718681871891022 21.812454581260681 21.812454581260681 22.6513951420784 24.329276263713837 26.846097946166992 21.812454581260681 56.20901757478714 323.83106541633606 83.894056081771851 28.523979067802429 21.812454581260681 22.6513951420784 25.168216824531555
leaf_count=63 26 39 26 26 27 29 32 26 67 251 100 34 26 27 30
internal_value=0 0.00152437 0.00215793 0.00299335 0.00796923 0.0014278 0.000325799 -0.00104049 0.000461522 -0.00159109 -0.000619605 -0.000375702 0.000890305 -0.000677052 0.000318158
internal_weight=0 309.569 256.716 201.346 44.4638 156.882 135.069 499.17 128.358 370.812 110.74 106.545 50.3364 55.3701 46.9807
internal_count=829 369 306 240 53 187 161 460 153 307 132 127 60 66 56
is_linear=0
shrinkage=0.0231034


Tree=11
num_leaves=17
num_cat=0
split_feature=1 4 56 103 38 43 103 28 56 16 14 15 47 1 7 43
split_gain=2.37007 1.07673 1.20568 2.68194 1.15318 0.965096 0.766738 1.42222 0.456447 1.48608 0.495205 0.957393 0.364903 0.186182 0.15073 0.102776
threshold=50.055000305175788 46.364999771118171 52.500000000000007 2.1416666507720952 195.21428680419925 0.0051822282839566478 2.4821296930313115 0.58310356736183178 12.500000000000002 1.4344320297241213 49.444999694824226 58.420000076293952 -1.6097022891044614 48.229999542236335 2.6472109556198125 0.049150239676237113
decision_type=2 2 2 2 2 2 2 2 2 2 2 2 2 2 2 2
left_child=1 -1 13 5 -5 -4 14 -8 -2 -10 11 15 -12 -3 -6 -11
right_child=8 2 3 4 6 -7 7 -9 9 10 12 -13 -14 -15 -16 -17
leaf_value=-0.03198924919422149 -0.045868721857269298 -0.049135928267740867 0.11316793985843256 0.10365558595666759 -0.05700185390430744 0.045276499574677491 0.073944207654776842 -0.079557009288199698 0.10285992756975902 -0.014688823696277345 0.030281989008613588 0.050277589380644194 -0.056470685610419957 0.039975669385824711 0.031218284960494114 0.0022057478831723522
leaf_weight=52.853255331516266 137.58626091480255 32.718681871891022 20.973514020442963 29.362919628620148 44.463849723339081 20.973514020442963 35.235503554344177 29.362919628620148 25.168216824531555 45.302790284156799 29.362919628620148 23.490335702896118 217.28560525178909 22.6513951420784 20.973514020442963 20.973514020442963
leaf_count=63 29 39 25 35 53 25 42 35 30 54 35 28 259 27 25 25
internal_value=0 0.00152437 0.00215793 0.00299335 0.0014896 0.0081169 0.000426298 0.00224213 -0.00104049 -0.000559962 -0.00100252 0.00035991 -0.00154374 -0.000677052 -0.00120829 -0.000937948
internal_weight=0 309.569 256.716 201.346 159.399 41.947 130.036 64.5984 499.17 361.583 336.415 89.7666 246.649 55.3701 65.4374 66.2763
internal_count=829 369 306 240 190 50 155 77 460 431 401 107 294 66 78 79
is_linear=0
shrinkage=0.0231034


Tree=12
num_leaves=16
num_cat=0
split_feature=1 4 56 55 39 38 15 44 13 3 21 10 1 111 3
split_gain=2.44304 1.07673 1.20568 2.72169 1.74515 1.71141 1.18463 0.698614 0.751344 0.373485 0.336849 0.230471 0.186182 0.169398 0.279971
threshold=50.055000305175788 46.364999771118171 52.500000000000007 -0.6471368372440337 202.01667022705081 194.07142639160159 48.815000534057624 0.027175785973668102 1.5288293957710268 47.159999847412116 1.3690126538276675 -10.63189649581909 48.229999542236335 0.73178392648696911 51.980001449584968
decision_type=2 2 2 2 2 2 2 2 2 2 2 2 2 2 2
left_child=1 -1 12 5 -5 -4 -7 11 -9 -8 -10 -2 -3 -13 -15
right_child=7 2 3 4 -6 6 9 8 10 -11 -12 13 -14 14 -16
leaf_value=-0.031250188887313339 0.00040730406156449535 -0.048000721436055251 0.10273670420281246 0.040899832482459722 0.11055337607620272 0.094999002507717964 0.020323705831168413 0.033564233688616475 -0.074353378545354648 -0.052553989680971303 0.01627794530932428 -0.04480899859063376 0.039052095646854808 0.049116006299632912 -0.039076875661128385
leaf_weight=52.853255331516266 27.685038506984711 32.718681871891022 21.812454581260681 21.812454581260681 22.6513951420784 24.329276263713837 26.846097946166992 36.074444115161896 70.471007108688354 83.894056081771851 21.812454581260681 289.4345024228096 22.6513951420784 22.6513951420784 31.040800750255585
leaf_count=63 33 39 26 26 27 29 32 43 84 100 26 210 27 27 37
internal_value=0 0.00152437 0.00215793 0.00299335 0.00796923 0.0014278 0.000325799 -0.00107917 0.000312836 -0.000619605 -0.000699782 -0.00159109 -0.000677052 -0.00175804 -0.000279818
internal_weight=0 309.569 256.716 201.346 44.4638 156.882 135.069 499.17 128.358 110.74 92.2835 370.812 55.3701 343.127 53.6922
internal_count=829 369 306 240 53 187 161 460 153 132 110 307 66 274 64
is_linear=0
shrinkage=0.0231034


Tree=13
num_leaves=13
num_cat=0
split_feature=1 14 53 3 30 12 23 2 45 24 13 1
split_gain=2.21745 1.1318 2.61091 3.43687 1.52611 0.906503 0.550396 0.990409 0.513899 0.500613 1.4654 0.219596
threshold=50.055000305175788 44.659999847412116 0.68301269412040722 47.159999847412116 -1.6737203598022459 0.89064654707908641 0.87798792123794567 52.244998931884773 0.84257358312606823 -3.1881111860275264 1.5288293957710268 57.295000076293952
decision_type=2 2 2 2 2 2 2 2 2 2 2 2
left_child=1 4 3 -3 -1 -6 9 -8 -5 10 -2 -9
right_child=6 2 -4 8 5 -7 7 11 -10 -11 -12 -13
leaf_value=0.073450020968350682 0.032788785890500383 0.10036313739360524 0.089312549813971423 -0.04164345287588396 0.099341050734443187 -0.051234753068742415 0.10972285822010483 0.025304411902985782 0.03814985959814552 -0.043773758530775669 -0.049889050445844942 -0.0793832159205035
leaf_weight=26.846097946166992 25.168216824531555 20.973514020442963 31.040800750255585 68.793125987052917 23.490335702896118 107.38439178466797 22.6513951420784 31.879741311073303 31.040800750255585 299.50178915262222 78.86041271686554 41.108087480068207
leaf_count=32 30 25 37 82 28 128 27 38 37 222 94 49
internal_value=0 0.00139995 0.00280994 0.00110542 0 -0.00102167 -0.00107917 0.000397816 -0.000628863 -0.00145794 0 -0.000802305
internal_weight=0 309.569 151.848 120.807 157.721 130.875 499.17 95.6392 99.8339 403.53 104.029 72.9878
internal_count=829 369 181 144 188 156 460 114 119 346 124 87
is_linear=0
shrinkage=0.0231034


Tree=14
num_leaves=14
num_cat=0
split_feature=1 42 42 24 56 21 23 15 46 55 99 40 26
split_gain=2.71263 1.04134 1.09847 1.74952 0.835369 1.76006 0.551211 1.04991 0.38905 0.402383 0.357011 0.356116 0.278154
threshold=50.055000305175788 16.872324943542484 14.096479415893556 4.9081158638000497 188.50000000000003 0.65691125392913829 0.97523805499076854 61.600000381469734 -1.6405515670776365 -0.15388490259647367 3.317292451858521 13.60909414291382 -3.9408111572265621
decision_type=2 2 2 2 2 2 2 2 2 2 2 2 2
left_child=1 2 3 11 10 -6 8 -8 9 -2 -4 -1 -10
right_child=6 -3 4 -5 5 -7 7 -9 12 -11 -12 -13 -14
leaf_value=-0.025358822122609211 -0.058742318936015704 0.098044408039438882 -0.053345317927887971 0.084015708353164062 0.071753076013197248 -0.043198245364229462 0.055427740990421123 -0.083880540823371652 0.0081475784097040892 0.029388139598205881 0.010574517916884851 0.061348319629430853 -0.042762436032461992
leaf_weight=30.201860189437866 35.235503554344177 21.812454581260681 110.74015402793884 40.269146919250488 28.523979067802429 30.201860189437866 38.591265797615051 39.43020635843277 27.685038506984711 26.007157385349274 21.812454581260681 26.007157385349274 332.22047102451324
leaf_count=36 42 26 132 48 34 36 46 47 33 31 26 31 261
internal_value=0 0.00158658 0.00114412 0.00313021 6.0571e-05 0.0023632 -0.00115652 0.000509622 -0.00149343 3.18762e-05 -0.000893692 0.00023442 -0.00178365
internal_weight=0 309.569 287.757 96.4782 191.278 58.7258 499.17 78.0215 421.148 61.2427 132.553 56.209 359.906
internal_count=829 369 343 115 228 70 460 93 367 73 158 67 294
is_linear=0
shrinkage=0.0231034


Tree=15
num_leaves=15
num_cat=0
split_feature=19 42 30 14 20 34 27 28 34 7 45 42 22 53
split_gain=1.479 1.45899 1.49458 1.2271 2.57014 0.839011 1.16572 0.898043 0.740952 0.375094 0.480461 0.46445 0.352692 0.263934
threshold=46.854999542236335 16.872324943542484 -1.4441540241241453 46.784999847412116 56.680000305175788 13.007372856140138 -6.6115808486938468 0.46544757485389715 15.730524063110353 -0.41627885401248926 0.17308332771062854 15.001450061798097 0.92159578204154979 0.68301269412040722
decision_type=2 2 2 2 2 2 2 2 2 2 2 2 2 2
left_child=1 2 -1 9 -5 6 -2 -8 -6 10 11 -4 -7 -10
right_child=5 -3 3 4 8 12 7 -9 13 -11 -12 -13 -14 -15
leaf_value=0.070095336250130313 0.036865672457865269 0.11658209937970529 -0.0082916022843749371 0.12327732942776902 0.036179832488756385 0.014022561225331841 -0.010731849004091822 0.0044544999027940433 -0.11816945016205534 -0.063630991060591072 -0.038433644839771117 0.031820317750976962 -0.044119696045109603 0.015642841207204054
leaf_weight=36.913384675979614 38.591265797615051 23.490335702896118 22.6513951420784 21.812454581260681 27.685038506984711 23.490335702896118 114.93486160039902 62.081603288650513 47.819611966609955 98.994986772537231 44.463849723339081 20.973514020442963 202.1846781373024 20.973514020442963
leaf_count=44 46 28 27 26 33 28 65 47 57 109 53 25 196 25
internal_value=0 0.0011491 0.000709568 0.000126368 0.00198254 -0.000830944 0.000151776 -0.000595928 0.000177926 -0.000994728 0 0.00178595 -0.00181365 -0.000986739
internal_weight=0 365.778 342.288 305.374 118.291 441.283 215.608 177.016 96.4782 187.084 88.0888 43.6249 225.675 68.7931
internal_count=809 427 399 355 141 382 158 112 115 214 105 52 224 82
is_linear=0
shrinkage=0.0231034


Tree=16
num_leaves=16
num_cat=0
split_feature=19 42 30 41 104 54 34 21 28 11 10 16 22 34 17
split_gain=1.40043 1.49104 1.53718 1.27158 1.11505 1.16991 0.839011 1.42211 4.09246 0.53167 0.370896 0.884108 0.352692 0.312425 0.155639
threshold=46.854999542236335 16.872324943542484 -1.4441540241241453 201.50555419921878 200.80036926269534 -0.68301269412040699 13.007372856140138 -0.25361083447933191 0.69254285097122203 1.006131708621979 -4.9663829803466788 1.9908702373504641 0.92159578204154979 15.730524063110353 53.198749542236335
decision_type=2 2 2 2 2 2 2 2 2 2 2 2 2 2 2
left_child=1 2 -1 10 5 -5 7 9 -9 -2 11 -4 -8 -7 -12
right_child=6 -3 3 4 -6 13 12 8 -10 -11 14 -13 -14 -15 -16
leaf_value=0.068475895906053408 -0.010483906841695314 0.11388865691644401 0.0310851603341783 -0.014206178871842577 -0.071712004155089742 0.118792780374368 0.013698592433819715 0.027857451510632996 -0.031623217728539675 0.036013950210942162 -0.067595753830998001 -0.034286160780304602 -0.043100381215248458 0.037303578202293304 -0.020632018571962559
leaf_weight=36.913384675979614 99.833931505680084 23.490335702896118 20.973514020442963 23.490335702896118 31.040800750255585 29.362919628620148 23.490335702896118 29.362920224666595 56.209018766880035 30.201860189437866 114.09591686725616 39.43020635843277 202.1846781373024 21.812454581260681 25.168216824531555
leaf_count=44 47 28 25 28 37 35 28 26 49 36 127 47 196 26 30
internal_value=0 0.0010964 0.000653271 6.33103e-05 0.0021242 0.00366686 -0.000830944 0.000151776 0.00247979 -0.00130708 -0.000980712 0.000373961 -0.00181365 0.0055783 -0.00164703
internal_weight=0 365.778 342.288 305.374 105.707 74.6657 441.283 215.608 85.5719 130.036 199.668 60.4037 225.675 51.1754 139.264
internal_count=809 427 399 355 126 89 382 158 75 83 229 72 224 61 157
is_linear=0
shrinkage=0.0231034


Tree=17
num_leaves=13
num_cat=0
split_feature=19 42 30 14 15 111 24 40 28 16 39 55
split_gain=1.3387 1.49104 1.53718 1.30995 2.84741 1.27599 0.789748 1.09813 3.69694 0.833976 0.269908 0.201133
threshold=46.854999542236335 16.872324943542484 -1.4441540241241453 46.784999847412116 56.680000305175788 0.34678861498832708 -8.20593214035034 12.750861644744875 0.46544757485389715 1.9215502142906191 202.78333282470706 -0.49252992868423456
decision_type=2 2 2 2 2 2 2 2 2 2 2 2
left_child=1 2 -1 10 5 -5 9 8 -8 -2 -4 -6
right_child=6 -3 3 4 11 -7 7 -9 -10 -11 -12 -13
leaf_value=0.066893870134305033 0.036614383425882115 0.1112574421222803 -0.039600580533523194 0.061945009918541412 -0.074038411409442742 0.10501313086192872 -0.044955160099605818 -0.030993771898135861 0.025182814971935252 -0.088949473128064421 0.024153184971772584 0.023609744981801573
leaf_weight=36.913384675979614 24.329276263713837 23.490335702896118 148.49247986078262 20.973514020442963 46.980671405792236 21.812454581260681 74.665713489055634 283.56191492080688 36.074444711208344 22.6513951420784 38.591265797615051 28.523979067802429
leaf_count=44 29 28 168 25 56 26 35 257 34 27 46 34
internal_value=0 0.0010964 0.000653271 6.33103e-05 0.00198254 0.00662324 -0.000787219 -0.00114465 0.000722756 0.00190102 -0.00109723 -0.000601196
internal_weight=0 365.778 342.288 305.374 118.291 42.786 441.283 394.302 110.74 46.9807 187.084 75.5047
internal_count=809 427 399 355 141 51 382 326 69 56 214 90
is_linear=0
shrinkage=0.0231034


Tree=18
num_leaves=17
num_cat=0
split_feature=32 11 2 14 33 11 12 55 100 5 23 14 98 24 41 10
split_gain=1.38494 1.5446 1.17463 1.28333 1.81185 0.866287 1.47324 0.555601 0.978522 0.524978 0.449898 1.10814 0.229045 0.223287 0.171532 0.142061
threshold=4.6661846637725839 0.5451473891735078 50.88750076293946 46.784999847412116 4.9748592376708993 0.97426769137382518 1.3373059034347536 -0.84831994771957386 3.6518284082412724 -0.31394995748996729 0.7177988886833192 49.745000839233406 -1.2429446578025816 -6.7022345066070548 200.75735473632815 -8.0806112289428693
decision_type=2 2 2 2 2 2 2 2 2 2 2 2 2 2 2 2
left_child=1 -1 3 7 -5 12 -7 8 -2 -8 13 -12 -3 -4 -6 -9
right_child=2 5 10 4 14 6 9 15 -10 -11 11 -13 -14 -15 -16 -17
leaf_value=0.032924886988847941 0.054278841861677057 0.014298652468306383 -0.0053720168334795964 0.082397033558740118 -0.023229139105155484 0.046429379491856354 0.047162101387100988 -0.0024372053388139968 -0.046666471720130567 -0.029965021204765241 0.04940023019594577 -0.095055237647182836 -0.0095256315851183111 -0.039043337093445471 0.034015578848492815 -0.078310431302102634
leaf_weight=49.497494280338287 31.040800750255585 37.752325236797333 38.591265797615051 36.074444115161896 20.973514020442963 21.812454581260681 22.6513951420784 26.846097946166992 26.846097946166992 36.074444115161896 25.168216824531555 46.141730844974518 72.148890018463135 215.60773128271103 24.329276263713837 75.504650473594666
leaf_count=41 37 45 46 43 25 26 27 32 32 43 30 55 59 149 29 90
internal_value=0 0.00150645 -0.000579098 0.000604986 0.00295325 0.000473784 0.00230226 -0.00053809 0.00113407 0.000128951 -0.0014916 0 -0.000780139 -0.0019446 0 -0.00159813
internal_weight=0 239.937 567.124 241.615 81.3772 190.44 80.5383 160.238 57.8869 58.7258 325.509 71.3099 109.901 254.199 45.3028 102.351
internal_count=809 241 568 288 97 200 96 191 69 70 280 85 104 195 54 122
is_linear=0
shrinkage=0.0231034


Tree=19
num_leaves=15
num_cat=0
split_feature=32 11 27 1 15 19 27 14 22 41 103 34 4 26
split_gain=1.41477 1.62035 1.20892 1.09869 1.80011 1.03346 0.855639 0.781552 0.603916 0.407974 0.272211 0.264091 0.243056 0.284151
threshold=4.6661846637725839 0.5451473891735078 -2.0352139472961421 51.505001068115241 50.940000534057624 46.82500076293946 -3.7966171503067012 42.23500061035157 0.95312270522117626 200.28453063964847 2.4821296930313115 13.007372856140138 49.975000381469734 0.19351593405008319
decision_type=2 2 2 2 2 2 2 2 2 2 2 2 2 2
left_child=1 -1 3 4 10 7 -7 -3 9 -4 -2 -5 13 -10
right_child=2 5 8 11 -6 6 -8 -9 12 -11 -12 -13 -14 -15
leaf_value=0.032164210271018311 -0.040087721636997926 -0.00022951033709402337 -0.021855561271501518 0.024122426950471915 0.080493382224489846 0.03502828278910556 -0.0093055571419812279 0.072762349328429565 0.034234863967429398 0.068893907721813308 0.030192423527512079 -0.084041037864677468 -0.038141303397068109 -0.096986413675990341
leaf_weight=49.497494280338287 45.302790284156799 22.6513951420784 23.490335702896118 29.362919628620148 31.040800750255585 28.523979067802429 101.51180964708328 37.752325236797333 31.040800750255585 21.812454581260681 27.685038506984711 67.11524486541748 255.87687820196152 34.396562993526459
leaf_count=41 54 27 28 35 37 34 94 45 37 26 33 80 197 41
internal_value=0 0.00142634 -0.000681267 0.000718225 0.00237717 0.000373065 -0.000719891 0.00285873 -0.00147775 0.000821145 0.000181968 -0.000965203 -0.00184068 -0.000346049
internal_weight=0 239.937 567.124 200.507 104.029 190.44 130.036 60.4037 366.617 45.3028 72.9878 96.4782 321.314 65.4374
internal_count=809 241 568 239 124 200 128 72 329 54 87 115 275 78
is_linear=0
shrinkage=0.0231034


Tree=20
num_leaves=17
num_cat=0
split_feature=19 32 13 110 32 20 24 55 110 41 19 28 39 14 46 34
split_gain=1.68973 1.53401 1.50259 1.8434 1.40385 1.00034 0.978714 1.48554 0.607672 0.575427 0.582341 0.451316 0.283349 0.265898 0.234377 0.129017
threshold=46.854999542236335 0.88964584469795238 1.1195819377899172 8.5000000000000018 2.490466952323914 56.680000305175788 -4.1928200721740714 0.52211335301399242 4.5000000000000009 199.35486602783206 42.619998931884773 0.83422279357910167 201.55000305175784 46.085000991821296 2.4070471525192265 12.613485336303713
decision_type=2 2 2 2 2 2 2 2 2 2 2 2 2 2 2 2
left_child=2 -2 3 -1 5 -4 7 15 9 10 -6 -11 -10 -14 -8 -3
right_child=1 6 4 -5 8 -7 14 -9 12 11 -12 -13 13 -15 -16 -17
leaf_value=0.010774258596922886 0.0016223963001875707 0.023565116956819246 0.047699932078690846 0.10667561248512787 0.084363285572237184 0.11327995655007143 -0.03597101823464411 0.059795377088464718 -0.039161559110443833 -0.068638142546861555 0.010350494168736591 0.059491412115072667 -0.051389870259882925 0.047309331727227059 -0.0045601201537227793 -0.079348301337276494
leaf_weight=37.752325236797333 44.463851511478424 20.973514020442963 20.973514020442963 21.812454581260681 20.973514020442963 23.490335702896118 271.81674945354462 20.973514020442963 124.16320359706879 42.785968601703644 20.973514020442963 20.973514020442963 24.329276263713837 21.812454581260681 38.591265797615051 35.235503554344177
leaf_count=45 26 25 25 26 25 28 207 25 139 51 25 25 29 26 46 42
internal_value=0 -0.000933454 0.00117216 0.00450332 0.000493102 0.00421488 -0.00142307 0.00078428 -9.09134e-05 0.00122442 0.00326546 -1.18248e-06 -0.000979104 0.000363964 -0.00201041 -0.00103357
internal_weight=0 432.054 380.04 59.5648 320.475 44.4638 387.591 77.1825 276.011 105.707 41.947 63.7595 170.305 46.1417 310.408 56.209
internal_count=815 371 444 71 373 53 345 92 320 126 50 76 194 55 253 67
is_linear=0
shrinkage=0.0231034


Tree=21
num_leaves=15
num_cat=0
split_feature=3 32 95 14 18 39 15 27 103 22 28 95 110 2
split_gain=1.53207 1.92921 1.89046 1.46435 2.1976 1.93539 0.791101 0.771398 0.957856 0.424147 0.281809 0.200107 0.193592 0.309326
threshold=48.975000381469734 2.0407447814941411 -0.46447677910327906 44.659999847412116 2.6134420633316044 203.65000152587893 45.635000228881843 -2.8974041938781734 1.7518948912620547 0.9636991322040559 0.2088388800621033 0.47557151317596441 3.5000000000000004 49.299999237060554
decision_type=2 2 2 2 2 2 2 2 2 2 2 2 2 2
left_child=3 2 -2 6 5 -5 -1 8 -3 -9 -4 -8 -10 -14
right_child=1 7 10 4 -6 -7 11 9 12 -11 -12 -13 13 -15
leaf_value=0.10421104351621577 0.033674576244256807 0.044652785088530801 -0.045142650488970593 0.097998630018754432 -0.0008519504634325911 0.046597901636290094 -0.049154420304344519 0.027580571059256067 0.023020682716906566 -0.035139965538943545 0.028803956020718072 0.0042675688495953041 0.030966389942369207 -0.050085818580456576
leaf_weight=23.490335702896118 38.591266989707947 23.490335702896118 29.362919628620148 36.074444115161896 41.108087480068207 22.6513951420784 65.437363743782043 30.201860189437866 36.074444115161896 311.24695581197739 41.947029232978821 25.168216824531555 20.973514020442963 66.276304304599762
leaf_count=28 28 28 35 43 49 27 78 36 43 254 32 30 25 79
internal_value=0 -0.000571753 0.00213117 0.00169687 0.00371226 0.00651252 -6.69996e-07 -0.00120992 0.000117742 -0.00181178 0 -0.0010892 -0.000634718 -0.00126046
internal_weight=0 598.165 109.901 213.93 99.8339 58.7258 114.096 488.263 146.815 341.449 71.3099 90.6056 123.324 87.2498
internal_count=815 560 95 255 119 70 136 465 175 290 67 108 147 104
is_linear=0
shrinkage=0.0231034


Tree=22
num_leaves=15
num_cat=0
split_feature=11 39 27 13 101 15 3 32 22 41 39 2 1 110
split_gain=4.10341 3.34702 1.5933 1.34671 1.75127 1.71962 1.1106 1.10643 0.464628 0.331378 0.328627 0.267401 0.235564 0.291832
threshold=0.5451473891735078 201.23667144775393 -2.0352139472961421 1.5754765272140505 0.48866087198257452 49.86000061035157 49.604999542236335 6.8711707592010507 0.92159578204154979 201.50555419921878 202.1166687011719 50.694999694824226 56.82500076293946 3.5000000000000004
decision_type=2 2 2 2 2 2 2 2 2 2 2 2 2 2
left_child=1 -1 3 4 5 -2 7 -4 -8 -9 12 -6 13 -5
right_child=2 -3 6 10 11 -7 8 9 -10 -11 -12 -13 -14 -15
leaf_value=-0.044099701937022305 0.047455070703269417 0.0081177075739931309 0.080240053723240501 0.026409791539883515 -0.038355389419031022 0.080557291392748115 0.026943366191208157 -0.065058398219368332 -0.034328112983159104 0.073132032416909673 0.030250961158289499 0.031031902527179134 -0.053079800114504805 -0.037745349561642591
leaf_weight=36.074444711208344 33.55762243270874 44.463851511478424 31.879741311073303 23.490335702896118 29.362919628620148 39.43020635843277 26.846097946166992 52.853255331516266 327.18682646751404 21.812454581260681 24.329276263713837 22.6513951420784 54.531136453151703 43.624909162521362
leaf_count=34 40 26 38 28 35 47 32 63 273 26 29 27 65 52
internal_value=0 0.00512021 -0.000306607 0.00107244 0.00282398 0.00509297 -0.00114406 0.000839969 -0.00177496 -0.000582493 -0.00036728 -0.000216742 -0.000925493 0
internal_weight=0 80.5383 731.556 270.978 125.002 72.9878 460.578 106.545 354.033 74.6657 145.976 52.0143 121.646 67.1152
internal_count=815 60 755 323 149 87 432 127 305 89 174 62 145 80
is_linear=0
shrinkage=0.0231034


Tree=23
num_leaves=15
num_cat=0
split_feature=13 19 40 14 24 101 40 46 13 21 95 24 46 2
split_gain=2.7358 1.91051 1.37564 1.53799 1.43193 1.19175 1.20892 0.924392 1.15167 0.710805 0.499043 0.168767 0.204633 0.145221
threshold=0.73423889279365551 46.854999542236335 13.924632072448732 46.784999847412116 1.0000000180025095e-35 -1.9019227027893064 15.392004013061525 -1.3996356725692747 1.682783901691437 -1.0086637735366819 0.8441448211669923 -7.0719032287597647 2.4070471525192265 45.965000152587898
decision_type=2 2 2 2 2 2 2 2 2 2 2 2 2 2
left_child=-1 2 9 5 -5 6 -4 8 -3 -2 -7 -9 -13 -8
right_child=1 7 3 4 -6 10 13 11 -10 -11 -12 12 -14 -15
leaf_value=0.00061936973279790443 0.050220714302341048 0.033768624934147409 0.078696144351161096 0.0007017742586642794 0.09404493047634864 -0.057349274005216819 0.10070704114835559 0.021789926807855197 -0.10554904680002722 -0.048926585359566573 0.017031640503180775 -0.041407581723307517 -0.0057144540292577888 -0.021091869257675838
leaf_weight=46.141733825206757 41.108088076114655 32.718681871891022 36.913384675979614 25.168216824531555 39.43020635843277 78.021472156047821 20.973514020442963 24.329276263713837 38.591265797615051 91.444521129131317 23.490335702896118 251.68217480182648 39.43020635843277 22.6513951420784
leaf_count=10 40 39 44 30 47 93 25 29 46 109 28 201 47 27
internal_value=0 -6.82471e-05 0.00107813 0.00210499 0.00515246 0.000916622 0.00300675 -0.00122172 0.00103218 -0.000749641 -0.000656119 -0.00177093 -0.00192454 8.66672e-05
internal_weight=0 765.953 379.201 246.649 64.5984 182.05 80.5383 386.752 71.3099 132.553 101.512 315.442 291.112 43.6249
internal_count=815 805 443 294 77 217 96 362 85 149 121 277 248 52
is_linear=0
shrinkage=0.0231034


end of trees

feature_importances:
price_min_20d=16
volume_std_60d=14
price_lag_7d=13
price_std_20d=13
price_accel_7d=11
doy_cos=11
price_lag_30d=10
price_max_20d=10
macd_signal=10
volume_mean_30d=10
market_volatility_30d=10
price_min_60d=9
vol_regime_60_30=9
bb_pct_b=9
distance_to_support=9
volume_mean_60d=9
volume_log_change_7d=8
price_lag_60d=7
return_7d=7
high_low_range_30d=7
volume_std_30d=7
price_lag_14d=6
price_std_7d=6
autocorr_7d=6
volume_mean_7d=6
item_return_vs_market_7d=6
market_regime_duration_days=6
price_std_30d=5
price_zscore_30d=5
item_age_days=5
market_return_14d=5
price_lag_1d=4
return_60d=4
price_std_60d=4
trend_divergence_30_60=4
distance_to_resistance=4
volume_zscore_30d=4
volume_price_conf_7d=4
market_return_30d=4
return_1d=3
price_std_14d=3
autocorr_1d=3
volume_log_change_1d=3
month_sin=3
market_return_1d=3
market_volume_mean_30d=3
market_return_30d_percentile=3
return_14d=2
return_30d=2
price_mean_60d=2
price_max_60d=2
dow_sin=2
event_decay_major=2
market_return_7d=2
return_3d=1
macd_histogram=1
volume_price_conf_1d=1
month_cos=1
item_return_vs_market_14d=1
market_regime_range=1

parameters:
[boosting: gbdt]
[objective: quantile]
[metric: quantile]
[tree_learner: serial]
[device_type: cpu]
[data_sample_strategy: bagging]
[data: ]
[valid: ]
[num_iterations: 1000]
[learning_rate: 0.0231034]
[num_leaves: 63]
[num_threads: -1]
[seed: 73]
[deterministic: 0]
[force_col_wise: 0]
[force_row_wise: 0]
[histogram_pool_size: -1]
[max_depth: 7]
[min_data_in_leaf: 25]
[min_sum_hessian_in_leaf: 0.001]
[bagging_fraction: 0.7]
[pos_bagging_fraction: 1]
[neg_bagging_fraction: 1]
[bagging_freq: 5]
[bagging_seed: 5921]
[feature_fraction: 0.65]
[feature_fraction_bynode: 1]
[feature_fraction_seed: 22355]
[extra_trees: 0]
[extra_seed: 3536]
[early_stopping_round: 0]
[early_stopping_min_delta: 0]
[first_metric_only: 0]
[max_delta_step: 0]
[lambda_l1: 0.5]
[lambda_l2: 2]
[linear_lambda: 0]
[min_gain_to_split: 0.1]
[drop_rate: 0.1]
[max_drop: 50]
[skip_drop: 0.5]
[xgboost_dart_mode: 0]
[uniform_drop: 0]
[drop_seed: 14602]
[top_rate: 0.2]
[other_rate: 0.1]
[min_data_per_group: 100]
[max_cat_threshold: 32]
[cat_l2: 10]
[cat_smooth: 10]
[max_cat_to_onehot: 4]
[top_k: 20]
[monotone_constraints: ]
[monotone_constraints_method: basic]
[monotone_penalty: 0]
[feature_contri: ]
[forcedsplits_filename: ]
[refit_decay_rate: 0.9]
[cegb_tradeoff: 1]
[cegb_penalty_split: 0]
[cegb_penalty_feature_lazy: ]
[cegb_penalty_feature_coupled: ]
[path_smooth: 0]
[interaction_constraints: ]
[verbosity: -1]
[saved_feature_importance_type: 0]
[use_quantized_grad: 0]
[num_grad_quant_bins: 4]
[quant_train_renew_leaf: 0]
[stochastic_rounding: 1]
[linear_tree: 0]
[max_bin: 63]
[max_bin_by_feature: ]
[min_data_in_bin: 3]
[bin_construct_sample_cnt: 200000]
[data_random_seed: 277]
[is_enable_sparse: 1]
[enable_bundle: 1]
[use_missing: 1]
[zero_as_missing: 0]
[feature_pre_filter: 0]
[pre_partition: 0]
[two_round: 0]
[header: 0]
[label_column: ]
[weight_column: ]
[group_column: ]
[ignore_column: ]
[categorical_feature: ]
[forcedbins_filename: ]
[precise_float_parser: 0]
[parser_config_file: ]
[objective_seed: 8155]
[num_class: 1]
[is_unbalance: 0]
[scale_pos_weight: 1]
[sigmoid: 1]
[boost_from_average: 1]
[reg_sqrt: 0]
[alpha: 0.9]
[fair_c: 1]
[poisson_max_delta_step: 0.7]
[tweedie_variance_power: 1.5]
[lambdarank_truncation_level: 30]
[lambdarank_norm: 1]
[label_gain: ]
[lambdarank_position_bias_regularization: 0]
[eval_at: ]
[multi_error_top_k: 1]
[auc_mu_weights: ]
[num_machines: 1]
[local_listen_port: 12400]
[time_out: 120]
[machine_list_filename: ]
[machines: ]
[gpu_platform_id: -1]
[gpu_device_id: -1]
[gpu_use_dp: 0]
[num_gpu: 1]

end of parameters

pandas_categorical:[]
