tree
version=v4
num_class=1
num_tree_per_iteration=1
label_index=0
max_feature_idx=121
objective=quantile
feature_names=price_lag_1d price_lag_7d price_lag_14d price_lag_30d price_lag_60d return_1d return_3d return_7d return_14d return_30d return_60d price_std_7d price_std_14d price_std_20d price_min_20d price_max_20d price_std_30d price_mean_60d price_std_60d price_min_60d price_max_60d price_zscore_30d vol_regime_60_30 trend_divergence_30_60 price_accel_7d price_tier autocorr_1d autocorr_7d bb_pct_b macd_line macd_signal macd_histogram distance_to_support distance_to_resistance high_low_range_30d volume_missing volume_lag_1d volume_lag_7d volume_mean_7d volume_mean_30d volume_std_30d volume_mean_60d volume_std_60d volume_log_change_1d volume_log_change_7d volume_zscore_30d volume_price_conf_7d volume_price_conf_1d rsi_missing macd_missing is_weekend dow_sin dow_cos month_sin month_cos doy_cos item_age_days is_stattrak is_souvenir is_knife is_glove is_sticker is_case is_capsule is_agent is_music_kit is_graffiti is_charm is_patch quality_rank event_decay_major events_next_30d_major event_density_30d_major event_density_90d_major event_decay_operation events_next_30d_operation event_density_30d_operation event_density_90d_operation event_decay_case_drop events_next_30d_case_drop event_density_30d_case_drop event_density_90d_case_drop event_decay_update events_next_30d_update event_density_30d_update event_density_90d_update event_decay_game_update events_next_30d_game_update event_density_30d_game_update event_density_90d_game_update event_decay_major_weighted event_decay_operation_weighted event_decay_case_drop_weighted event_decay_update_weighted event_decay_game_update_weighted social_mentions_1d social_mentions_7d social_mention_velocity social_sentiment_7d social_score_7d market_return_1d item_return_vs_market_1d market_return_7d item_return_vs_market_7d market_return_14d item_return_vs_market_14d market_return_30d item_return_vs_market_30d market_volatility_30d market_volume_mean_30d market_regime_crash market_regime_bear market_regime_range market_regime_bull market_regime_mania market_regime_duration_days market_return_30d_percentile supply_listings_log supply_listings_zscore supply_change_7d supply_skinport_qty_log supply_to_volume_ratio
feature_infos=[39.790000915527344:66.569999694824219] [39.790000915527344:66.569999694824219] [39.790000915527344:66.569999694824219] [39.790000915527344:66.569999694824219] [39.849998474121094:66.569999694824219] [-6.0415120124816895:6.2258315086364746] [-10.281366348266602:11.818019866943359] [-17.372880935668945:15.222199440002441] [-24.630624771118164:24.511468887329102] [-24.868003845214844:39.543319702148438] [-35.815872192382812:34.754096984863281] [0.042426407337188721:3.2751080989837646] [0.042426407337188721:4.7465720176696777] [0.042426407337188721:5.344205379486084] [38.569999694824219:61.619998931884766] [43.290000915527344:66.569999694824219] [0.042426407337188721:5.4625492095947266] [42.844001770019531:62.902332305908203] [0.042426407337188721:6.2239170074462891] [38.569999694824219:58.759998321533203] [46.650001525878906:66.569999694824219] [-3.4853887557983398:3.0036964416503906] [0.75597286224365234:4.9742584228515625] [-106.84011840820312:164.20773315429688] [-22.191015243530273:26.589687347412109] [3:3] [-17.983921051025391:24.913341522216797] [-165.46697998046875:159.38456726074219] [-0.22173035144805908:1.266255259513855] [-3.1355800628662109:3.1830518245697021] [-2.6216168403625488:2.7723205089569092] [-1.2678171396255493:0.94621419906616211] [0.018351990729570389:39.335178375244141] [0.054525628685951233:35.731788635253906] [0.12307692319154739:39.335178375244141] none [161:245] [161:245] [176:219] [176:219] [4.0414519309997559:20.361700057983398] [176:219] [4.0414519309997559:19.928762435913086] [-0.31321537494659424:0.36533302068710327] [-0.29612094163894653:0.40341803431510925] [-2.8260855674743652:2.671764612197876] [-17.372880935668945:15.222199440002441] [-6.0415120124816895:6.2258315086364746] [0:1] [0:1] [0:1] [-0.97492790222167969:0.97492790222167969] [-0.90096884965896606:1] [-0.86602538824081421:1] [-1:0.86602538824081421] [-1:0.99985265731811523] [0:234] none none none none none none none none none none none none none [0:0.98347145318984985] [0:1] [0:1] [0:1] none none none none none none none none none none none none none none none none none none none none none none none none none none [-2.4910855293273926:2.5970833301544189] [-5.0148625373840332:6.6300463676452637] [-5.9873161315917969:6.6842527389526367] [-15.224418640136719:14.81980037689209] [-7.8436169624328613:8.0323085784912109] [-21.144741058349609:25.597810745239258] [-8.3750972747802734:10.840641021728516] [-26.866291046142578:40.982707977294922] [0.43699198961257935:3.9606008529663086] [195.10000610351562:203.39999389648438] none [0:1] [0:1] [0:1] [0:1] [1:30] [0.0086206896230578423:1] none none none none none
tree_sizes=1472 1486 966 1174 1488 1158 1383 1706 1600 1605 1166 1369 1372 1487 975 1375

Tree=0
num_leaves=13
num_cat=0
split_feature=15 41 15 101 56 115 7 34 29 109 13 100
split_gain=8.15199 6.85105 7.48706 5.47272 3.53015 3.32616 3.27182 2.63407 2.51059 2.01606 1.53086 0.41358
threshold=59.57500076293946 200.54167175292972 48.815000534057624 1.6717662215232851 104.50000000000001 2.5000000000000004 -4.0701735019683829 26.267909049987797 0.19437316060066226 201.52333068847659 1.9500163197517397 -0.49307084083557123
decision_type=2 2 2 2 2 2 2 2 2 2 2 2
left_child=1 2 8 9 6 -4 -2 11 -1 -3 -8 -6
right_child=4 3 5 -5 7 -7 10 -9 -10 -11 -12 -13
leaf_value=-0.011949364851554234 0.10144904184674283 0.1395881092800389 -0.12190477940904952 -0.23110842637757667 -0.36287097886927977 -0.25789742179730635 -0.11491590330302057 -0.12066592821748415 -0.14074380230022229 -0.02846669932937454 -0.31212517527691575 -0.4247058828970558
leaf_weight=60.403721570968628 17.617751777172089 140.94201600551605 83.055116713047028 35.235504150390625 35.235503554344177 218.1245481967926 36.074444115161896 17.617751777172089 20.973514020442963 36.074445903301239 26.007157385349274 62.920542061328888
leaf_count=54 21 141 81 33 42 224 43 21 25 16 31 75
internal_value=-0.13132 -0.127827 -0.132734 -0.11889 -0.142424 -0.137339 -0.131901 -0.149302 -0.116265 -0.11439 -0.13904 -0.153267
internal_weight=0 594.809 382.557 212.252 195.473 301.18 79.6994 115.774 81.3772 177.016 62.0816 98.156
internal_count=807 574 384 190 233 305 95 138 79 157 74 117
is_linear=0
shrinkage=1


Tree=1
num_leaves=13
num_cat=0
split_feature=17 21 55 12 17 55 34 14 6 31 22 39
split_gain=11.4022 8.19761 7.20918 4.47449 4.29925 3.32831 3.71912 3.17616 2.97415 2.68012 2.6171 1.398
threshold=53.620000839233406 0.70764085650444042 0.97702786326408397 1.637601435184479 51.857625961303718 -0.20454452931880948 26.267909049987797 46.784999847412116 2.3338309526443486 0.092606950551271452 1.0427914857864382 202.1166687011719
decision_type=2 2 2 2 2 2 2 2 2 2 2 2
left_child=1 3 7 8 -5 6 11 -3 -1 10 -7 -2
right_child=5 2 -4 4 -6 9 -8 -9 -10 -11 -12 -13
leaf_value=0.19058794380419222 -0.25355654697809826 -0.087521440633923614 -0.4077266472442645 -0.16151492196169037 0.18594415000987194 -0.16465761873125873 0.010010481803741264 0.17367128598481552 -0.0047708572231348343 -0.26894206959729722 0.13615204560447267 -0.060604425479333764
leaf_weight=228.19183850288391 105.70651066303253 74.665709912776947 39.430208742618561 40.269146919250488 18.456692337989807 17.617751777172089 30.201860189437866 91.444521129131317 38.591266393661499 20.973514020442963 61.242660939693451 23.490335702896118
leaf_count=182 126 89 11 48 22 21 36 109 37 25 73 28
internal_value=0 0.00508713 -0.00451364 0.0112375 -0.00381678 -0.0107909 -0.016351 0.00106004 0.0146701 -0.00149581 0.00350999 -0.0209282
internal_weight=0 531.049 205.54 325.509 58.7258 259.233 159.399 166.11 266.783 99.8339 78.8604 129.197
internal_count=807 498 209 289 70 309 190 198 219 119 94 154
is_linear=0
shrinkage=0.0622158


Tree=2
num_leaves=8
num_cat=0
split_feature=12 20 41 23 1 101 14
split_gain=8.29562 6.308 6.57605 4.5234 3.87179 3.35168 2.58183
threshold=0.6281915307044984 61.954999923706062 199.76705169677737 0.58713996410369884 63.329999923706062 1.6717662215232851 47.230001449584968
decision_type=2 2 2 2 2 2 2
left_child=-1 2 3 -2 6 -4 -3
right_child=1 4 5 -5 -6 -7 -8
leaf_value=0.12504618670899997 -0.13153067217005007 0.10298912009560944 0.17679108209168498 0.13513101771060956 0.16190959149415435 -0.073886158311581324 -0.17638658685592654
leaf_weight=38.591268181800842 218.96348994970322 17.617751777172089 230.70865660905838 63.759482622146606 20.973514020442963 52.014315366744995 147.65353870391846
leaf_count=10 207 21 239 76 25 53 176
internal_value=0 -0.00245346 0.000773708 -0.00585893 -0.0123449 0.00751171 -0.0156187
internal_weight=0 751.691 565.446 282.723 186.245 282.723 165.271
internal_count=807 797 575 283 222 292 197
is_linear=0
shrinkage=0.0622158


Tree=3
num_leaves=10
num_cat=0
split_feature=17 40 17 12 4 108 56 33 32
split_gain=9.80566 5.6561 5.33423 3.70582 3.46642 3.21838 4.82637 2.96753 0.698688
threshold=54.355499267578132 11.692660808563234 51.857625961303718 1.1443445086479189 58.399999618530281 3.2885285615921025 104.50000000000001 4.9748592376708993 1.4754674434661867
decision_type=2 2 2 2 2 2 2 2 2
left_child=1 -1 3 -3 -4 6 7 -2 -8
right_child=5 2 4 -5 -6 -7 8 -9 -10
leaf_value=0.16587608378297142 -0.16983409700366556 0.058403020115099416 0.18682382224885385 -0.091166953583491472 -0.064687873745627997 0.040069655852096507 -0.12448461032514298 0.10514830397589042 -0.23033682436883784
leaf_weight=56.209019958972931 33.55762243270874 151.00930392742157 123.32426363229752 214.76878595352173 16.77881121635437 25.168216824531555 16.77881121635437 55.370077013969421 97.317105054855347
leaf_count=31 40 135 129 220 20 30 20 66 116
internal_value=0 0.00401975 0.00184182 -0.00204701 0.0121285 -0.0112266 -0.0138842 -0.00254202 -0.0223075
internal_weight=0 562.09 505.881 365.778 140.103 228.192 203.024 88.9277 114.096
internal_count=807 535 504 355 149 272 242 106 136
is_linear=0
shrinkage=0.0622158


Tree=4
num_leaves=13
num_cat=0
split_feature=17 17 12 28 15 38 34 56 3 31 115 44
split_gain=7.67583 7.27087 4.77677 4.82724 3.6546 2.81059 2.09773 3.347 2.09402 1.43832 1.42956 1.14776
threshold=53.620000839233406 51.857625961303718 1.1443445086479189 0.69254285097122203 48.729999542236335 204.50000000000003 25.793267250061039 104.50000000000001 50.070001602172859 1.0000000180025095e-35 6.5000000000000009 0.060331460088491447
decision_type=2 2 2 2 2 2 2 2 2 2 2 2
left_child=1 2 3 -1 -4 6 7 -2 9 -3 -7 -10
right_child=5 8 4 -5 -6 10 -8 -9 11 -11 -12 -13
leaf_value=0.14453460177502808 -0.060489410471059907 -0.08757779058229738 0.19435612154974755 -0.14473308098664461 -0.12303055616766032 0.072466658718494045 0.028087135683677697 -0.21426042537206025 0.25350516354907249 0.2773181811440919 -0.060273980093354822 0.2152888962961472
leaf_weight=135.06943386793137 76.343591034412384 16.77881121635437 35.235503554344177 48.658553719520569 183.72798520326614 26.007157385349274 25.168216824531555 108.22333234548569 73.826771140098572 18.456692337989807 23.490335702896118 19.295632898807526
leaf_count=107 91 20 42 40 183 31 30 129 61 22 28 23
internal_value=0 0.00322494 -0.000826984 0.00645412 -0.00707986 -0.00978997 -0.0129488 -0.0152614 0.0160391 0.00199488 0.00297222 0.0209085
internal_weight=0 531.049 402.691 183.728 218.963 259.233 209.735 184.567 128.358 35.2355 49.4975 93.1224
internal_count=807 498 372 147 225 309 250 220 126 42 59 84
is_linear=0
shrinkage=0.0622158


Tree=5
num_leaves=10
num_cat=0
split_feature=39 12 14 9 13 17 23 15 15
split_gain=9.3318 7.52474 4.46368 3.31269 3.30251 3.14411 3.07636 1.62045 2.31062
threshold=197.1166687011719 0.70094600319862377 47.230001449584968 -17.848183631896969 1.7124015092849734 53.620000839233406 0.51653054356575023 50.614999771118171 55.725000381469734
decision_type=2 2 2 2 2 2 2 2 2
left_child=2 -2 4 -3 -1 -5 -6 -4 -9
right_child=1 3 7 5 6 -7 -8 8 -10
leaf_value=0.053370802799751052 0.18569028521797387 0.2681775182941451 -0.25187143995198275 0.040033180800969848 -0.33579900612127561 -0.10760539573809962 0.10990804191242116 0.042447377340958721 -0.17929047162140174
leaf_weight=21.812455177307129 55.37007999420166 20.973514020442963 50.336437225341797 369.97279089689255 19.295632898807526 192.11738842725754 16.77881121635437 22.651395738124847 57.886898696422577
leaf_count=17 21 25 6 387 23 229 20 18 69
internal_value=0 0.00170501 -0.0139647 -0.000348587 0 -0.00133399 -0.0109796 -0.0202686 -0.0136179
internal_weight=0 638.434 188.762 583.064 57.8869 562.09 36.0744 130.875 80.5383
internal_count=815 662 153 641 60 616 43 93 87
is_linear=0
shrinkage=0.0622158


Tree=6
num_leaves=12
num_cat=0
split_feature=39 20 42 42 23 103 22 56 42 4 27
split_gain=6.44416 5.8465 4.63239 4.37304 5.52078 3.99514 3.91098 2.81107 2.58294 1.97206 1.11629
threshold=200.55000305175784 60.579999923706062 13.374972343444826 11.577460289001467 1.5691595673561098 0.46376323699951177 1.7625870108604433 52.500000000000007 15.184644222259523 50.300001144409187 -6.6115808486938468
decision_type=2 2 2 2 2 2 2 2 2 2 2
left_child=3 2 -2 -1 6 8 -5 -4 -3 -6 -7
right_child=1 5 7 4 9 10 -8 -9 -10 -11 -12
leaf_value=0.050050294221075216 0.29294632080772676 -0.06745760325568996 -0.018822358296734381 -0.151346980897132 0.25149263248785819 -0.0060546194706097775 0.016215650399325068 0.24366244829088957 0.25104983972794809 -0.021661454657014131 -0.12579677273338571
leaf_weight=60.403723955154419 46.141733229160309 27.685038506984711 79.699355065822601 297.82390266656876 31.040800750255585 18.456692337989807 93.122402250766754 93.122402250766754 20.134573459625244 28.523979067802429 31.040800750255585
leaf_count=18 19 33 68 301 37 22 111 111 24 34 37
internal_value=0 0.00638997 0.0120517 -0.00487958 -0.00703281 -0.00602362 -0.00976274 0.00700762 0.00624827 0.010175 -0.0183246
internal_weight=0 316.281 218.963 510.915 450.511 97.3171 390.946 172.822 47.8196 59.5648 49.4975
internal_count=815 314 198 501 483 116 412 179 57 71 59
is_linear=0
shrinkage=0.0622158


Tree=7
num_leaves=15
num_cat=0
split_feature=20 39 42 23 42 104 103 55 12 103 42 42 12 41
split_gain=6.05508 7.80021 6.73211 4.52987 3.16248 3.12312 2.41272 2.36213 1.89792 1.94757 1.46748 1.46676 1.35193 0.331091
threshold=59.530000686645515 199.77619171142581 13.374972343444826 1.3513280749320986 11.577460289001467 -0.51840603351593006 0.46376323699951177 0.57939976453781139 1.4604326486587527 -3.4083752632141109 15.184644222259523 14.064373016357424 2.0716743469238286 198.95832824707034
decision_type=2 2 2 2 2 2 2 2 2 2 2 2 2 2
left_child=1 3 -3 4 -1 6 12 -4 10 -10 -7 -8 -2 -5
right_child=5 2 7 13 -6 8 11 -9 9 -11 -12 -13 -14 -15
leaf_value=-0.043450477838313184 0.10206115222131502 0.23408047881489813 0.19693402824603945 0.32012977505871554 -0.13733043402635572 -0.14217047944780972 0.0068577131249087514 -0.017651309728667717 -0.10528652099307963 -0.20437871870953001 0.092650467045494136 -0.075832038537642144 -0.078910191596785834 0.13502842786602159
leaf_weight=50.336436629295349 62.920542061328888 58.725842237472534 100.67286729812622 16.77881121635437 183.72798639535904 41.947028040885925 24.329276263713837 86.410879552364349 37.752325236797333 57.886898696422577 21.812454581260681 34.396562993526459 32.718681871891022 16.77881121635437
leaf_count=15 75 25 120 20 165 50 29 76 45 69 26 41 39 20
internal_value=0 0.00358868 0.0115876 -0.00366637 -0.00684758 -0.00735157 -0.000805044 0.00550894 -0.0134314 -0.0190235 -0.0043222 -0.0107501 0.00505301 0.0169788
internal_weight=0 513.432 245.81 267.622 234.064 313.764 154.365 187.084 159.399 95.6392 63.7595 58.7258 95.6392 33.5576
internal_count=815 441 221 220 180 374 184 196 190 114 76 70 114 40
is_linear=0
shrinkage=0.0622158


Tree=8
num_leaves=14
num_cat=0
split_feature=20 41 109 56 3 40 104 102 11 9 12 104 40
split_gain=5.54607 5.30553 4.8196 3.96179 3.06937 2.85657 2.77915 4.31785 2.47077 1.53209 1.51948 1.79063 1.17091
threshold=59.530000686645515 199.97499847412112 197.95475769042972 52.500000000000007 52.244998931884773 12.007181644439699 -0.51840603351593006 -1.3701952695846555 0.78377443552017223 -15.495306015014647 1.4604326486587527 5.2966892719268808 13.809312820434572
decision_type=2 2 2 2 2 2 2 2 2 2 2 2 2
left_child=1 4 -3 -4 5 -1 7 9 -9 -2 12 -12 -8
right_child=6 2 3 -5 -6 -7 10 8 -10 -11 11 -13 -14
leaf_value=-0.038968518018508098 0.012208394984467784 0.27597177116509158 -0.00047108717429071443 0.17180219460343846 0.1715977224429199 -0.12878630764308316 -0.3680817780373204 -0.064081076398586234 0.17877876682249727 -0.11024423913829198 -0.15873292374055684 0.012809260628436301 0.040922732541157546
leaf_weight=54.531139433383942 20.134573459625244 42.785970985889435 92.283464074134827 109.90121346712112 29.362919628620148 184.56692695617676 19.295632898807526 17.617751777172089 62.081601500511169 54.531136453151703 78.86041271686554 16.77881121635437 44.463849723339081
leaf_count=20 24 15 74 131 35 166 23 21 74 65 94 20 53
internal_value=0 0.00277777 0.00940349 0.00510052 -0.00317162 -0.00561962 -0.00768269 -0.00147479 0.00829477 -0.0122694 -0.0134314 -0.0184862 -0.00512201
internal_weight=0 513.432 244.971 202.185 268.461 239.098 313.764 154.365 79.6994 74.6657 159.399 95.6392 63.7595
internal_count=815 441 220 205 221 186 374 184 95 89 190 114 76
is_linear=0
shrinkage=0.0622158


Tree=9
num_leaves=14
num_cat=0
split_feature=17 17 21 15 24 20 101 104 102 23 102 11 101
split_gain=5.78486 3.52699 3.9099 4.6944 3.37518 3.04966 3.08278 2.30428 2.21415 1.26052 1.28466 1.0911 1.06643
threshold=53.872343063354499 51.857625961303718 -0.93083631992340077 51.260000228881843 3.7578715085983281 62.010000228881843 0.75186604261398327 -0.51840603351593006 -0.89225804805755604 1.1298454403877261 -0.14342800527811048 0.97426769137382518 0.35381110012531286
decision_type=2 2 2 2 2 2 2 2 2 2 2 2 2
left_child=1 2 3 -1 -4 6 -3 8 11 10 -9 -2 -10
right_child=7 5 4 -5 -6 -7 -8 9 12 -11 -12 -13 -14
leaf_value=0.10268396629936226 0.0019122724726228792 0.24190299714458569 -0.093617898774531708 -0.13858735982000592 0.076467387079439217 -0.07713382685552253 0.0084941952202859505 -0.21827875463546073 0.16765589817938298 0.0091382017652209477 -0.12062564702364702 -0.13455217620611165 -0.010891080819286674
leaf_weight=72.987830579280853 25.168216824531555 84.732998430728912 257.55475932359695 19.295632898807526 77.182531595230103 20.134573459625244 49.49749368429184 37.752325236797333 29.362919628620148 17.617751777172089 83.055115520954132 33.55762243270874 19.295632898807526
leaf_count=60 30 74 199 23 92 24 50 45 35 21 99 40 23
internal_value=0 0.00249871 -0.000353719 0.0107993 -0.00355548 0.0105164 0.0139992 -0.00884396 -0.00163176 -0.0141391 -0.0163891 -0.00988341 0.00770467
internal_weight=0 581.386 427.021 92.2835 334.737 154.365 134.23 245.81 107.384 138.425 120.807 58.7258 48.6586
internal_count=815 522 374 83 291 148 124 293 128 165 144 70 58
is_linear=0
shrinkage=0.0622158


Tree=10
num_leaves=10
num_cat=0
split_feature=19 34 38 20 11 4 20 36 101
split_gain=4.9044 7.52631 6.43834 4.44364 5.89758 2.8407 2.64902 0.80718 0.695109
threshold=48.70000076293946 9.4147434234619158 203.78571319580081 50.614999771118171 0.41002364456653601 43.739999771118171 64.92999649047853 203.50000000000003 -0.22199556231498715
decision_type=2 2 2 2 2 2 2 2 2
left_child=1 8 3 -2 -5 -3 -7 -4 -1
right_child=2 5 7 4 -6 6 -8 -9 -10
leaf_value=0.1393446135483716 -0.20699776684009641 -0.16645184345407704 0.16354410658681073 0.23050601593003064 -0.093776112416383242 0.057645825283701449 -0.13913805608889782 0.12117172363260827 0.13923728733526042
leaf_weight=43.624910950660706 41.947031021118164 31.879741311073303 37.752327024936676 26.846099138259888 146.81459933519363 374.16749012470245 31.040800750255585 33.557623028755188 30.201860189437866
leaf_count=25 5 38 18 14 157 446 37 31 36
internal_value=0 0.00426841 -0.0058642 -0.0112763 -0.00652708 0.00105965 0.0025544 0.00996739 0.0224534
internal_weight=0 510.915 286.918 215.608 173.661 437.088 405.208 71.31 73.8268
internal_count=807 582 225 176 171 521 483 49 61
is_linear=0
shrinkage=0.0622158


Tree=11
num_leaves=12
num_cat=0
split_feature=20 15 16 16 21 19 29 42 15 42 16
split_gain=3.75552 4.21072 6.50849 4.77457 3.9681 3.33102 2.68532 3.29369 2.52432 1.35917 0.596427
threshold=61.954999923706062 50.614999771118171 0.87770369648933422 0.74371084570884716 0.78052991628646862 49.605001449584968 -2.0186102390289302 15.560910701751711 64.759998321533217 13.863764286041262 2.496051669120789
decision_type=2 2 2 2 2 2 2 2 2 2 2
left_child=1 3 -3 -1 -5 -4 9 10 -9 -2 -8
right_child=6 2 5 4 -6 -7 7 8 -10 -11 -12
leaf_value=-0.25308337437477779 0.098087499795999164 0.074920099918384803 0.081381665568128092 0.057019625792140441 -0.075382100889310119 -0.13234106523021985 -0.26196568026941786 0.25849215139471027 -0.078689916356225159 -0.073547822112883132 -0.080772284855530813
leaf_weight=36.913387060165405 17.617751777172089 42.785971581935883 234.06441646814346 165.27129346132278 71.309948265552521 64.598423779010773 43.624909162521362 23.490335702896118 32.718681871891022 16.77881121635437 48.658552527427673
leaf_count=8 21 6 279 152 76 68 52 28 39 20 58
internal_value=0 0.00236268 0.0069864 -0.00330337 0 0.00354806 -0.00775731 -0.0114502 0 0.00713067 -0.0185911
internal_weight=0 614.943 341.449 273.495 236.581 298.663 182.889 148.492 56.209 34.3966 92.2835
internal_count=807 589 353 236 228 347 218 177 67 41 110
is_linear=0
shrinkage=0.0622158


Tree=12
num_leaves=12
num_cat=0
split_feature=39 19 34 20 0 0 55 38 19 38 38
split_gain=5.04051 4.50978 7.16311 4.65158 4.00335 2.5361 2.35205 2.96271 2.20341 1.61609 1.59288
threshold=200.55000305175784 48.70000076293946 9.4147434234619158 50.614999771118171 59.129999160766609 50.465000152587898 -0.72209000587463368 208.07142639160159 48.640001296997077 204.92857360839847 198.73213958740237
decision_type=2 2 2 2 2 2 2 2 2 2 2
left_child=1 2 -1 -3 6 -5 10 -8 -4 -6 -2
right_child=4 3 8 5 9 -7 7 -9 -10 -11 -12
leaf_value=0.033458608611151144 0.17111261771822842 -0.16872678148283343 -0.06134441415965293 0.092089671429255879 -0.20002289262215628 -0.10512863309294899 0.15652010875277833 -0.023603860568703575 0.2156695272261373 0.012982100624841597 -0.035598920972179288
leaf_weight=44.463850915431976 23.490335702896118 41.947031021118164 244.9706437587738 26.007157981395721 29.362919628620148 95.63922393321991 171.98281913995743 30.201860785484314 18.456692337989807 16.77881121635437 54.531136453151703
leaf_count=35 28 5 292 22 35 114 142 27 22 20 65
internal_value=0 -0.00335518 0.000996027 -0.0116674 0.00667137 -0.00504549 0.00952429 0.0130444 -0.00283785 -0.00975507 0
internal_weight=0 471.485 307.891 163.593 326.348 121.646 280.206 202.185 263.427 46.1417 78.0215
internal_count=807 490 349 141 317 136 262 169 314 55 93
is_linear=0
shrinkage=0.0622158


Tree=13
num_leaves=13
num_cat=0
split_feature=19 42 38 47 43 16 17 3 17 14 44 14
split_gain=4.46727 5.63559 4.59646 4.76929 2.9457 2.86084 2.6746 2.21841 2.07342 1.9443 1.52436 1.25856
threshold=48.70000076293946 13.70727062225342 203.78571319580081 -0.32536952197551722 -0.025005210191011425 1.9215502142906191 55.394666671752937 43.539999008178718 52.989082336425788 48.229999542236335 0.019560642540454868 46.784999847412116
decision_type=2 2 2 2 2 2 2 2 2 2 2 2
left_child=1 8 3 6 -5 9 -2 -7 11 -3 -4 -1
right_child=2 5 10 4 -6 7 -8 -9 -10 -11 -12 -13
leaf_value=0.14210358321887004 0.25640020139701974 0.030619931234938683 0.09781511512854725 -0.067532663402155094 -0.12398425636614784 -0.22579460688130037 -0.060745754976795324 -0.019046209325248187 -4.7344828515463944e-05 0.24944075299285282 -0.004582741214789271 0.16962063573634339
leaf_weight=28.523979067802429 22.651395738124847 114.09591627120972 49.497495472431183 72.148889422416687 98.99498975276947 29.362919628620148 21.812454581260681 208.89619964361191 21.812454581260681 37.752325236797333 21.812454581260681 70.471008896827698
leaf_count=34 18 136 23 68 64 35 26 249 26 45 26 57
internal_value=0 0.00345352 -0.00622615 -0.0107955 -0.015541 -0.000120491 0.00670444 -0.00444194 0.0151089 0.00643439 0.0070999 0.0189076
internal_weight=0 510.915 286.918 215.608 171.144 390.107 44.4639 238.259 120.807 151.848 71.31 98.995
internal_count=807 582 225 176 132 465 44 284 117 181 49 91
is_linear=0
shrinkage=0.0622158


Tree=14
num_leaves=8
num_cat=0
split_feature=19 42 19 16 109 9 20
split_gain=3.42264 3.59388 3.5584 3.41808 3.63095 2.37554 3.48828
threshold=48.70000076293946 11.141586780548097 48.640001296997077 0.87770369648933422 199.91666412353518 -17.848183631896969 65.36999893188478
decision_type=2 2 2 2 2 2 2
left_child=2 -2 5 -3 -5 -1 -7
right_child=1 3 -4 4 -6 6 -8
leaf_value=0.19456312008173093 -0.18943156844920994 -0.023679777645137418 0.15906754778306259 -0.090782992458181458 -0.00078873740537135104 0.0086711043137036991 -0.22352676762124957
leaf_weight=30.201860189437866 25.168218612670898 33.557624816894531 38.591266393661499 88.927700638771057 139.26413547992706 416.95345991849899 25.168216824531555
leaf_count=36 3 4 37 88 130 479 30
internal_value=0 -0.00622615 0.00223118 -0.0038473 -0.00668179 0.000650373 -0.000459336
internal_weight=0 286.918 510.915 261.749 228.192 472.324 442.122
internal_count=807 225 582 222 218 545 509
is_linear=0
shrinkage=0.0622158


Tree=15
num_leaves=12
num_cat=0
split_feature=21 34 14 27 39 20 42 14 42 0 106
split_gain=5.71058 8.26383 4.51355 4.45041 4.01251 3.03786 2.53403 2.34 3.41865 2.77937 1.59146
threshold=0.70764085650444042 7.7869880199432382 49.55999946594239 0.33864903450012213 197.1166687011719 61.954999923706062 14.188706398010256 45.954999923706062 14.226075172424318 47.449998855590827 -0.62265211343765248
decision_type=2 2 2 2 2 2 2 2 2 2 2
left_child=1 -1 7 -4 6 -6 -3 9 -9 -2 -5
right_child=2 4 3 10 5 -7 -8 8 -10 -11 -12
leaf_value=0.1270831744263447 0.050532786237583865 0.0074880644054899515 -0.29757251143178265 -0.0987329669604321 0.10233210487391617 -0.042683828061325431 -0.12513955594345549 0.23166653188825506 -0.11360549094846181 -0.19783517022635494 0.048577473563054585
leaf_weight=76.343595206737518 36.913384675979614 39.43020635843277 71.309949457645416 20.973514020442963 228.19183373451233 116.61273795366287 52.853255927562714 44.463849723339081 27.685038506984711 37.752325236797333 25.168216824531555
leaf_count=28 44 47 58 25 254 139 54 53 33 45 30
internal_value=0 0.00338595 -0.00783698 -0.0168515 0 0.00315067 -0.0113559 -0.000318142 0.00737338 -0.00815766 -0.000990417
internal_weight=0 513.432 264.266 117.452 437.088 344.805 92.2835 146.815 72.1489 74.6657 46.1417
internal_count=810 522 288 113 494 393 101 175 86 89 55
is_linear=0
shrinkage=0.0622158


end of trees

feature_importances:
volume_std_60d=13
price_mean_60d=11
price_max_60d=11
price_std_14d=8
price_max_20d=8
price_min_20d=7
price_min_60d=7
high_low_range_30d=6
volume_mean_7d=6
volume_mean_30d=6
price_std_30d=5
trend_divergence_30_60=5
item_age_days=5
item_return_vs_market_1d=5
price_zscore_30d=4
volume_mean_60d=4
doy_cos=4
market_return_14d=4
price_lag_1d=3
price_lag_30d=3
price_lag_60d=3
return_30d=3
price_std_7d=3
volume_std_30d=3
market_return_7d=3
item_return_vs_market_7d=3
market_volume_mean_30d=3
price_std_20d=2
vol_regime_60_30=2
autocorr_7d=2
macd_line=2
macd_histogram=2
volume_log_change_7d=2
market_regime_duration_days=2
price_lag_7d=1
return_3d=1
return_7d=1
price_accel_7d=1
bb_pct_b=1
distance_to_support=1
distance_to_resistance=1
volume_lag_1d=1
volume_log_change_1d=1
volume_price_conf_1d=1
market_return_1d=1
market_return_30d=1
market_volatility_30d=1

parameters:
[boosting: gbdt]
[objective: quantile]
[metric: quantile]
[tree_learner: serial]
[device_type: cpu]
[data_sample_strategy: bagging]
[data: ]
[valid: ]
[num_iterations: 1000]
[learning_rate: 0.0622158]
[num_leaves: 15]
[num_threads: -1]
[seed: 42]
[deterministic: 0]
[force_col_wise: 0]
[force_row_wise: 0]
[histogram_pool_size: -1]
[max_depth: 4]
[min_data_in_leaf: 20]
[min_sum_hessian_in_leaf: 0.001]
[bagging_fraction: 0.7]
[pos_bagging_fraction: 1]
[neg_bagging_fraction: 1]
[bagging_freq: 5]
[bagging_seed: 400]
[feature_fraction: 0.6]
[feature_fraction_bynode: 1]
[feature_fraction_seed: 30056]
[extra_trees: 0]
[extra_seed: 12879]
[early_stopping_round: 0]
[early_stopping_min_delta: 0]
[first_metric_only: 0]
[max_delta_step: 0]
[lambda_l1: 0.5]
[lambda_l2: 1.5]
[linear_lambda: 0]
[min_gain_to_split: 0.1]
[drop_rate: 0.1]
[max_drop: 50]
[skip_drop: 0.5]
[xgboost_dart_mode: 0]
[uniform_drop: 0]
[drop_seed: 17869]
[top_rate: 0.2]
[other_rate: 0.1]
[min_data_per_group: 100]
[max_cat_threshold: 32]
[cat_l2: 10]
[cat_smooth: 10]
[max_cat_to_onehot: 4]
[top_k: 20]
[monotone_constraints: ]
[monotone_constraints_method: basic]
[monotone_penalty: 0]
[feature_contri: ]
[forcedsplits_filename: ]
[refit_decay_rate: 0.9]
[cegb_tradeoff: 1]
[cegb_penalty_split: 0]
[cegb_penalty_feature_lazy: ]
[cegb_penalty_feature_coupled: ]
[path_smooth: 0]
[interaction_constraints: ]
[verbosity: -1]
[saved_feature_importance_type: 0]
[use_quantized_grad: 0]
[num_grad_quant_bins: 4]
[quant_train_renew_leaf: 0]
[stochastic_rounding: 1]
[linear_tree: 0]
[max_bin: 63]
[max_bin_by_feature: ]
[min_data_in_bin: 3]
[bin_construct_sample_cnt: 200000]
[data_random_seed: 175]
[is_enable_sparse: 1]
[enable_bundle: 1]
[use_missing: 1]
[zero_as_missing: 0]
[feature_pre_filter: 0]
[pre_partition: 0]
[two_round: 0]
[header: 0]
[label_column: ]
[weight_column: ]
[group_column: ]
[ignore_column: ]
[categorical_feature: ]
[forcedbins_filename: ]
[precise_float_parser: 0]
[parser_config_file: ]
[objective_seed: 16083]
[num_class: 1]
[is_unbalance: 0]
[scale_pos_weight: 1]
[sigmoid: 1]
[boost_from_average: 1]
[reg_sqrt: 0]
[alpha: 0.5]
[fair_c: 1]
[poisson_max_delta_step: 0.7]
[tweedie_variance_power: 1.5]
[lambdarank_truncation_level: 30]
[lambdarank_norm: 1]
[label_gain: ]
[lambdarank_position_bias_regularization: 0]
[eval_at: ]
[multi_error_top_k: 1]
[auc_mu_weights: ]
[num_machines: 1]
[local_listen_port: 12400]
[time_out: 120]
[machine_list_filename: ]
[machines: ]
[gpu_platform_id: -1]
[gpu_device_id: -1]
[gpu_use_dp: 0]
[num_gpu: 1]

end of parameters

pandas_categorical:[]
