tree
version=v4
num_class=1
num_tree_per_iteration=1
label_index=0
max_feature_idx=19
objective=quantile
feature_names=event_decay_major event_density_30d_major event_density_90d_major event_decay_operation event_density_30d_operation event_density_90d_operation event_decay_case_drop event_density_30d_case_drop event_density_90d_case_drop event_decay_update event_density_30d_update event_density_90d_update event_decay_game_update event_density_30d_game_update event_density_90d_game_update event_decay_major_weighted event_decay_operation_weighted event_decay_case_drop_weighted event_decay_update_weighted event_decay_game_update_weighted
feature_infos=[0.031220927834510803:0.98347145318984985] [0:2] [0:3] [1.5229979055675358e-08:0.95349693298339844] [0:1] [0:1] [0:0.93106275796890259] [0:1] [0:3] none none none [0:0.86687791347503662] [0:2] [0:3] [0:0.98347145318984985] [0:0.95349693298339844] [0:0.93106275796890259] none [0:0.26006338000297546]
tree_sizes=4243 4452 4452 4466 4454 4439 4477 4446

Tree=0
num_leaves=39
num_cat=0
split_feature=16 15 2 17 12 15 3 3 3 14 3 3 17 14 16 16 15 17 3 12 12 12 3 3 17 17 19 16 19 16 3 3 16 16 12 16 16 12
split_gain=80.8179 198.197 59.8167 103.145 69.3481 50.6191 70.1033 23.7583 129.676 22.5076 15.6335 15.0624 13.7829 13.1084 12.1527 10.7892 10.1978 10.1571 28.9699 20.383 9.37977 24.3068 13.4167 8.63761 8.59972 13.9929 8.30902 7.83096 7.58683 7.55018 11.0102 6.78712 10.2478 8.10237 6.35423 5.89701 5.84618 4.65528
threshold=4.1121879235106469e-08 0.05249301344156266 1.0000000180025095e-35 3.2049462106442666e-07 5.1423764801938894e-08 0.11112770810723306 0.0027929162606596951 0.0010775665869005027 0.0044963988475501546 2.5000000000000004 0.29700618982315069 0.030205942690372471 0.01548805693164468 1.0000000180025095e-35 8.8097582562340917e-08 6.3124673488346175e-08 0.067402362823486342 6.0955099456805339e-07 8.1219440062341174e-07 1.0683193440996776e-08 2.2194142079712269e-09 0.00098189854179509006 5.1154045650037012e-05 0.0044963988475501546 0.04210090450942517 0.18868316709995273 0.0028964162338525061 1.0000000180025095e-35 0.050431555137038238 0.22697485983371737 0.52593708038330089 0.078289981931447997 0.0041571895126253375 0.040876427665352828 0.034923546016216285 0.0060847864951938399 0.0023476403439417486 0.0030789537122473125
decision_type=2 2 2 2 2 2 2 2 2 2 2 2 2 2 2 2 2 2 2 2 2 2 2 2 2 2 2 2 2 2 2 2 2 2 2 2 2 2
left_child=1 27 3 7 17 6 9 13 36 16 24 20 29 14 -2 -15 -3 18 -5 -19 22 -22 -7 -8 31 26 -26 -1 -27 30 -12 32 -4 -33 -13 -10 -9 -29
right_child=2 5 10 4 -6 11 23 8 35 -11 12 34 -14 15 -16 -17 -18 19 -20 -21 21 -23 -24 -25 25 28 -28 37 -30 -31 -32 33 -34 -35 -36 -37 -38 -39
leaf_value=10.213964017106429 10.80193351344051 11.770353867765149 10.660981951522411 11.060482608165033 10.654941149870703 10.524909425843436 15.505689610277738 11.256273618932847 10.548883364568294 10.486103559278167 10.848117189657367 10.64771200413707 10.618446711109698 10.463103632058758 10.570778657897764 10.887679076379088 11.073393449130174 11.536895415399256 11.70490809998029 11.508136033518554 11.152305905285765 10.726009525813597 11.022422121877504 13.503793318802799 10.725812456755738 10.595055370562454 10.870605855985527 10.597422386109301 11.061521202600998 10.678038001411212 10.983924096862284 10.793024907009993 10.532722124766751 10.647972576028341 10.414408166451333 10.745706927201892 12.161319028664693 10.330889776147814
leaf_weight=44788.053385198116 3345.9029458761215 2250.0473354458809 42393.899484932423 907.94579893350601 2281.1998119354248 8727.5047875642776 412.47170704603195 2747.458670258522 3796.5957682728767 2029.083941757679 4795.4610685706139 14511.34966647625 3423.450257062912 880.07311487197876 11871.917584836483 4029.5089883804321 4624.4380374550819 3366.0198329687119 788.20451056957245 1962.4265585541725 9620.0493224859238 23402.986075639725 2499.6485303044319 351.64483630657196 13010.048510015011 11494.086624085903 8914.9325460195541 5676.3565629124641 634.61449414491653 1559.1557398438454 2818.2162347435951 5503.0352950692177 10662.061113536358 5775.73344373703 5336.1380096077919 5179.0468842387199 33.988199949264526 2570.460106253624
leaf_count=53748 3257 1983 36441 791 2348 8919 469 3030 3195 2562 3967 17276 3301 942 11540 4142 5040 3108 658 1783 10328 26104 2991 423 11749 10547 7320 4316 535 1411 2320 4617 9208 5355 6452 4243 44 2562
internal_value=10.6852 10.6843 10.6858 10.6873 10.6914 10.6858 10.6888 10.6861 10.6877 10.6877 10.6853 10.6854 10.6868 10.6852 10.6845 10.6871 10.6889 10.6935 10.6965 10.6926 10.6858 10.6862 10.6847 10.7016 10.6851 10.6857 10.6863 10.6823 10.6845 10.6877 10.6882 10.6848 10.6846 10.6858 10.6844 10.6851 10.696 10.6835
internal_weight=278975 126800 152175 41190.3 9305.8 73765.4 9667.69 31884.5 11757.1 8903.57 110985 64097.7 12596.3 20127.4 15217.8 4909.58 6874.49 7024.6 1696.15 5328.45 44250.2 33023 11227.2 764.117 98388.4 34053.7 21925 53034.9 12128.7 9172.83 7613.68 64334.7 53056 11278.8 19847.5 8975.64 2781.45 8246.82
internal_count=279025 143173 135852 39081 8688 82547 10477 30393 10512 9585 96771 72070 10999 19881 14797 5084 7023 6340 1449 4891 48342 36432 11910 892 85772 30151 19069 60626 11082 7698 6287 55621 45649 9972 23728 7438 3074 6878
is_linear=0
shrinkage=1


Tree=1
num_leaves=39
num_cat=0
split_feature=16 0 6 0 16 16 6 0 16 0 16 6 16 6 13 6 0 14 0 0 8 16 0 0 16 0 6 16 0 0 5 0 0 0 16 5 5 0
split_gain=76.845 60.2841 139.258 30.6631 28.672 100.608 20.295 56.6471 13.2662 17.1781 16.3418 14.6226 13.0965 13.4932 11.3324 10.7476 10.3968 10.3001 11.5635 11.8608 9.91033 8.91565 8.42913 7.54199 7.53985 7.46871 7.41278 6.61997 6.39895 5.20323 5.05441 4.98531 4.56247 6.16249 4.47914 4.46874 4.41802 3.68469
threshold=4.1121879235106469e-08 0.18421864509582522 7.4751966394615021e-07 0.10807117074728013 0.00031771855719853198 0.0013257549726404252 1.0000000180025095e-35 0.32466374337673193 0.023083658888936046 0.73469588160514843 0.0060847864951938399 0.079255644232034697 1.2678929692810927e-06 5.5234647788893207e-06 1.5000000000000002 0.0052508653607219466 0.32466374337673193 1.0000000180025095e-35 0.14109827578067782 0.059310715645551688 1.5000000000000002 8.8097582562340917e-08 0.097786840051412596 0.048559507355093963 0.087571736425161376 0.43825021386146551 0.40974530577659612 6.3124673488346175e-08 0.71060970425605785 0.065548479557037367 1.0000000180025095e-35 0.89735960960388195 0.22500516474246982 0.18421864509582522 1.3343175009339349e-08 1.0000000180025095e-35 1.0000000180025095e-35 0.059310715645551688
decision_type=2 2 2 2 2 2 2 2 2 2 2 2 2 2 2 2 2 2 2 2 2 2 2 2 2 2 2 2 2 2 2 2 2 2 2 2 2 2
left_child=6 2 4 22 14 37 17 29 10 16 11 30 13 -5 21 36 -10 18 19 -1 -13 -2 -4 -7 -11 -17 -18 -16 -20 -8 -3 -26 33 -31 -21 -27 -9 -6
right_child=1 8 3 12 5 23 7 15 9 24 -12 20 -14 -15 27 25 26 -19 28 34 -22 -23 -24 -25 31 35 -28 -29 -30 32 -32 -33 -34 -35 -36 -37 -38 -39
leaf_value=-0.38661829872537129 0.084903068080941946 -0.018739402889909048 0.3674864134283693 0.77743256973082486 -0.18110492084242166 0.12552527754637341 0.72552653602605666 0.14646519261387175 0.19848790945035852 -0.10550287242280551 -0.11188793022636005 0.21015903543669284 -0.068970241114398631 0.80576335474463012 -0.16791586816498563 0.24697016620193513 0.14640201756803237 -0.34622289026995945 -0.28954908629053899 0.33211121392728765 0.035884503973867291 -0.10469051050568762 0.86738722678915237 -0.084763640363590256 -0.073810997302840756 -0.12485265433367194 -0.11010990868249353 0.24335635828546504 -0.038328220073343383 0.30309072535008019 -0.22393597685887806 0.30302461494319427 0.62178743330767594 -0.16591107863024318 -0.089341706355279854 -0.23846002646691811 -0.099127629967796962 0.54593367521770131
leaf_weight=3694.2992881536484 3872.6187916994095 45504.815650880337 331.91375136375427 3498.7705329656601 51.754759013652802 2283.8113516569138 1029.8113020658493 7328.0881378650665 1572.7845123410225 7188.8392098546028 16340.119715034962 6227.5919588804245 413.67240047454834 1757.5091295838356 485.08307546377182 1931.4968732595444 17206.390563249588 14179.765995979309 20530.695015311241 7356.8607177734375 16896.244270443916 11717.323220729828 1170.2063159346581 5321.3241987228394 581.51330918073654 22969.312436759472 1742.4494028091431 2064.6306489109993 5615.1891347765923 8149.3050729632378 2205.0594018697739 1020.1347082257271 2638.3895696401596 1517.7783851623535 2426.9971712231636 22059.824325919151 5372.4188776016235 2720.4226021170616
leaf_count=3693 3823 39702 298 3213 67 2062 1014 8588 1177 7004 14753 4443 385 1583 512 2315 15424 17124 21863 8682 14559 11502 991 4444 474 25909 1729 2116 5560 8851 1873 723 3020 1695 1913 26506 6440 2995
internal_value=-2.93755e-05 0.000638704 0.00222436 0.00771663 0.000842818 0.00269139 -0.000831147 -0.000352171 0.000152876 0.000964421 -0.000120013 0.000169981 0.00623055 0.00682501 -0.000214804 -0.000932953 0.00166308 -0.00148096 -0.00111592 -6.66871e-05 0.00108004 -0.000660586 0.0133181 6.9558e-05 -0.000666624 -0.00124075 0.00137695 0.00251007 -0.00165677 0.00224608 -0.000271117 0.00206865 0.00199377 0.00154988 0.000737165 -0.00135593 0.000205141 0.00988147
internal_weight=278975 152175 35689 7172.07 28517 10377.3 126800 72996.4 116486 29312.1 87173.8 70833.7 5669.95 5256.28 18139.7 59661.1 20521.6 53803.8 39624 13478.2 23123.8 15589.9 1502.12 7605.14 8790.49 46960.6 18948.8 2549.71 26145.9 13335.3 47709.9 1601.65 12305.5 9667.08 9783.86 45029.1 12700.5 2772.18
internal_count=279025 135852 33991 6470 27521 9568 143173 84338 101861 26531 75330 60577 5181 4796 17953 69758 18330 58835 41711 14288 19002 15325 1289 6506 8201 54730 17153 2628 27423 14580 41575 1197 13566 10546 10595 52415 15028 3062
is_linear=0
shrinkage=0.0440977


Tree=2
num_leaves=39
num_cat=0
split_feature=19 19 0 0 0 0 14 12 0 12 12 0 0 14 12 0 5 14 12 13 1 12 0 5 12 12 12 8 0 12 0 0 5 0 5 2 0 0
split_gain=50.3714 94.4601 82.631 29.5919 50.9439 28.5484 25.6916 19.6388 10.689 18.5842 9.51537 9.33037 8.29535 18.5062 23.6389 9.78573 9.61683 8.86694 8.00052 7.61299 7.14012 13.2035 10.5639 8.9874 6.89165 6.6414 6.19435 8.0471 6.16452 5.54145 5.42361 3.59067 3.45941 3.27188 2.49047 2.88896 2.38074 2.26513
threshold=1.0000000180025095e-35 1.3373437024455372e-08 0.097786840051412596 0.11746299266815187 0.059310715645551688 0.10807117074728013 2.5000000000000004 1.0683193440996776e-08 0.097786840051412596 9.5788380699568533e-11 0.034923546016216285 0.12767100334167483 0.54427608847618114 2.5000000000000004 0.00055449589854106318 0.65379247069358837 1.0000000180025095e-35 1.5000000000000002 1.9899862140071448e-11 1.0000000180025095e-35 1.0000000180025095e-35 2.2194142079712269e-09 0.32466374337673193 1.0000000180025095e-35 0.071339275687932982 0.00098189854179509006 0.00098189854179509006 1.5000000000000002 0.50917410850524913 1.0000000180025095e-35 0.097786840051412596 0.088481191545724883 1.0000000180025095e-35 0.16948933899402621 1.0000000180025095e-35 1.5000000000000002 0.43825021386146551 0.60151812434196483
decision_type=2 2 2 2 2 2 2 2 2 2 2 2 2 2 2 2 2 2 2 2 2 2 2 2 2 2 2 2 2 2 2 2 2 2 2 2 2 2
left_child=3 2 18 4 -1 -4 8 11 29 -10 20 -7 13 17 -15 26 25 28 -2 -19 21 23 -23 -5 -18 -17 27 -14 -3 -6 -16 -20 -22 -9 35 -12 -36 -37
right_child=1 12 5 10 6 7 -8 33 9 -11 34 -13 15 14 30 16 24 19 31 -21 32 22 -24 -25 -26 -27 -28 -29 -30 -31 -32 -33 -34 -35 36 37 -38 -39
leaf_value=-0.26333554803018588 0.24987752816716777 0.029920847750210776 0.82785703450124171 -0.11154871319612378 0.37425468234541331 1.4391361675554584 -0.30015317631559396 0.84169219136257367 -0.15170351031311094 0.47162800778573799 -0.34139995464647116 0.18296525597339333 -0.031683793225727744 0.48723818233362176 -0.2589079143443167 -0.047814149410545272 -0.072687305216399059 0.070904734091300131 -0.17782838673179013 0.28749626117278843 -0.090814984716419522 0.28230239359630499 -0.024191316440045074 0.0014485211381239334 0.10601631347863265 0.086348960861482943 -0.12457322808028809 0.53819975351972904 0.33374713258505845 0.24227827099901011 0.098177625681594313 0.11007147790196517 -0.21023196023599683 0.20440404031858386 0.16144909255049489 0.097868520142127158 -0.29501727706359854 -0.14344607381391378
leaf_weight=10132.330485641956 1605.2985644936562 17072.97342646122 1157.8469704985619 31419.230845808983 10591.923999667168 1812.6268211603165 2934.4105632305145 1595.4474397301674 3810.3330973386765 1931.6254543066025 2817.065653026104 1318.726719379425 2912.8019243478775 362.25632929801941 4879.7232061028481 2485.6171200275421 16637.697767496109 4847.8200017809868 2613.0541085004807 5419.1551307439804 21868.074246168137 7467.9523832201958 15349.659373641014 16663.871615350246 5688.8939343094826 23375.020743787289 13758.437948524952 842.62150424718857 1650.0398709774017 4272.4900652766228 461.76017153263092 1066.2733945846558 15056.377777338028 163.02007496356964 421.20838326215744 1144.688255906105 11447.804175794125 9919.0562379360199
leaf_count=11226 1788 16579 975 27947 10800 1610 3702 1450 3957 2262 3525 1267 2672 300 4773 1976 14684 4399 2232 4991 23368 8428 18073 15694 5053 19536 12349 826 1508 4395 478 929 17965 157 524 1401 13793 11433
internal_value=-5.30227e-05 0.000671955 0.0044882 -0.000537332 0.000630924 0.00800775 0.0017562 0.00653101 0.00230594 0.000689839 -0.000831842 0.00443443 0.000241147 0.000792754 -0.00150318 -5.01396e-05 0.000274315 0.00124451 0.000459719 0.00228592 -0.000649948 -0.000390974 0.000482579 -0.000805515 -0.000396139 0.000853139 -0.000942801 0.000644438 0.00067335 0.00293013 -0.00224306 -0.000673704 -0.00114719 0.0102598 -0.00159345 -0.00119228 -0.00206249 -0.000871116
internal_weight=278975 111727 11332.3 167248 33673.1 6047.67 23540.8 4889.82 20606.4 5741.96 133575 3131.35 100395 34693.7 5703.74 65701.1 48187.2 28990 5284.63 10267 107825 70900.7 22817.6 48083.1 22326.6 25860.6 17513.9 3755.42 18723 14864.4 5341.48 3679.33 36924.5 1758.47 25749.8 13880.8 11869 11063.7
internal_count=279025 100532 10408 178493 36342 5459 25116 4484 21414 6219 142151 2877 90124 33028 5551 57096 41249 27477 4949 9390 111475 70142 26501 43641 19737 21512 15847 3498 18087 15195 5251 3161 41333 1607 30676 16359 14317 12834
is_linear=0
shrinkage=0.0440977


Tree=3
num_leaves=39
num_cat=0
split_feature=16 16 6 6 3 3 3 6 3 3 6 19 6 19 3 3 1 13 16 16 3 3 3 16 6 3 19 6 3 1 3 3 3 14 3 3 6 6
split_gain=63.5085 34.1725 123.179 19.6781 57.1738 17.627 27.7376 45.8446 36.1515 19.7385 17.0165 13.2473 11.5172 13.0264 10.4431 32.4134 8.92736 7.91479 9.16123 7.26639 7.24666 16.177 6.69931 6.68746 5.06609 4.80224 9.48525 6.47807 5.05837 4.42092 4.07455 5.40617 3.71504 3.68303 3.40755 3.38437 2.78176 2.62198
threshold=4.1121879235106469e-08 1.2678929692810927e-06 7.4751966394615021e-07 1.0000000180025095e-35 0.00028404347540345048 0.0010775665869005027 0.0079622003249824064 0.033633943647146232 0.0044963988475501546 0.078289981931447997 1.421712966021005e-06 0.050431555137038238 5.5234647788893207e-06 1.3373437024455372e-08 0.0010775665869005027 0.014099423773586752 1.0000000180025095e-35 1.0000000180025095e-35 6.3124673488346175e-08 0.0089061674661934393 0.0027929162606596951 0.0044963988475501546 2.14092125361276e-07 6.3124673488346175e-08 2.7039660608352283e-06 2.1708387976104863e-05 0.00092368613695725809 0.033633943647146232 9.2124505499668902e-06 1.0000000180025095e-35 0.030205942690372471 0.13863550126552585 0.0013672488275915386 1.0000000180025095e-35 8.1219440062341174e-07 0.63629209995269786 0.023532746359705928 3.6594201446860103e-07
decision_type=2 2 2 2 2 2 2 2 2 2 2 2 2 2 2 2 2 2 2 2 2 2 2 2 2 2 2 2 2 2 2 2 2 2 2 2 2 2
left_child=3 2 17 14 22 25 7 8 -7 19 34 -9 24 -14 29 20 -11 23 -19 -8 32 -22 -5 -2 -12 28 -27 -28 -3 -1 -6 -32 -16 35 -4 -17 -33 -25
right_child=1 5 10 4 30 6 9 11 -10 16 12 -13 13 -15 15 33 -18 18 -20 -21 21 -23 -24 37 -26 26 27 -29 -30 -31 31 36 -34 -35 -36 -37 -38 -39
leaf_value=-0.27683035769140696 0.13337895277887285 -0.042537989732774804 0.45514116396661602 0.90820005089723954 -0.099704476424408564 0.53692798821155485 -0.01083590280800192 0.026169407235268675 0.14508590881305886 0.11875767812653927 1.6275930785537829 0.24839736461686862 0.89855413597308553 0.19942951413144169 0.57234790561929783 -0.18122446691387228 0.013649789323295084 -0.189996910454447 0.18549563318334536 -0.12973071000287592 2.9782689115514192 0.65891927430252872 0.24468110929883405 -0.023062206057799555 0.2140430810405155 -0.13715544351200823 0.095896403778147898 -0.12032464603416052 0.12819613864850768 -0.10089411504110532 -0.29554237471614031 -0.023124534703892606 -0.099482232403855952 -0.37585912199379529 0.78188354997006559 0.18458612824506399 -0.20231850771950755 -0.24678062207564733
leaf_weight=29974.706213772297 1603.9471051692963 8026.634336411953 527.14172786474228 576.2129892706871 31443.122713625431 2781.4468702077866 19931.509482204914 15903.018945455551 2734.7061312794685 17144.527825176716 1596.2715778946877 2258.9332928657532 1397.2301949858665 360.27893459796906 378.89734542369843 6122.9338997006416 14769.980496346951 861.53409671783447 4019.467020213604 12425.954051375389 716.86997836828232 1692.2066143751144 18971.449188947678 11069.166876733303 1679.9640390872955 15692.363458096981 6784.586709856987 3016.7584350705147 4494.1004728674889 7846.5376865267754 9727.2984788417816 5803.1682139635086 1166.3381497263908 5260.4973365068436 1197.513255417347 644.82009881734848 6475.1733965873718 1897.9481455087662
leaf_count=31222 1513 5140 462 572 36000 3074 15882 13880 2581 15129 1446 1855 1279 304 433 7700 13617 918 4129 11339 861 2120 21247 10498 1595 15777 5519 2615 4681 7829 11813 6832 1311 6576 999 783 7874 1620
internal_value=-7.86948e-05 0.000528652 0.00197729 -0.00080758 -0.00033594 0.000227208 0.000570162 0.00186036 0.00538085 9.48236e-05 0.00710552 0.000790884 0.00580823 0.00868823 -0.00144744 -0.000502319 0.000872946 0.000195272 0.00173198 -0.00067265 0.00296075 0.00447216 0.00170473 -0.000319574 0.0042611 -0.000566242 -0.000913577 0.0001627 0.000140989 -0.00184681 -0.00108229 -0.00154253 0.000603045 -0.00164096 0.0108863 -0.000960427 -0.000927204 -0.000651879
internal_weight=278975 152175 26210.5 126800 72996.4 125965 87950.1 23678.1 5516.15 64272 6758.4 18162 5033.74 1757.51 53803.8 15982.6 31914.5 19452.1 4881 32357.5 3954.31 2409.08 19547.7 14571.1 3276.24 38014.4 25493.7 9801.35 12520.7 37821.2 53448.8 22005.6 1545.24 12028.3 1724.65 6767.75 12278.3 12967.1
internal_count=279025 135852 24763 143173 84338 111089 77357 21390 5655 55967 6085 15735 4624 1583 58835 19784 28746 18678 5047 27221 4725 2981 21819 13631 3041 33732 23911 8134 9821 39051 62519 26519 1744 15059 1461 8483 14706 12118
is_linear=0
shrinkage=0.0440977


Tree=4
num_leaves=39
num_cat=0
split_feature=17 17 2 3 3 6 17 6 17 3 3 3 3 17 3 3 12 17 12 12 13 14 17 3 2 1 6 6 3 6 3 3 6 3 6 12 12 12
split_gain=45.585 133.015 18.0473 23.9643 76.3505 28.3754 12.102 11.4199 19.0785 22.3926 11.3542 10.1997 15.8694 10.253 8.55794 8.30796 8.19618 7.51291 7.13317 7.04816 6.56357 8.32101 6.5001 6.30466 17.6467 9.97745 4.86463 4.35323 25.4485 7.3879 4.85173 13.6231 4.29765 4.15906 4.1012 4.81273 4.09752 3.65844
threshold=3.2049462106442666e-07 4.5040064833301594e-06 1.0000000180025095e-35 0.0010775665869005027 0.0044963988475501546 1.0000000180025095e-35 8.9571930317333694e-08 5.5234647788893207e-06 6.0955099456805339e-07 8.1219440062341174e-07 0.0027929162606596951 0.094717219471931471 0.020637014880776409 0.20265353471040728 0.76980245113372814 0.0013672488275915386 0.00098189854179509006 0.0027892800280824308 0.017096530646085743 1.3978428370364784e-07 1.5000000000000002 2.5000000000000004 0.01548805693164468 0.63629209995269786 1.5000000000000002 1.0000000180025095e-35 7.4751966394615021e-07 2.3047948161547541e-05 0.00028404347540345048 0.0001032937398122158 0.16772477328777316 0.078289981931447997 3.6594201446860103e-07 0.52593708038330089 2.7039660608352283e-06 1.0683193440996776e-08 0.22369961440563205 0.0003131338744424284
decision_type=2 2 2 2 2 2 2 2 2 2 2 2 2 2 2 2 2 2 2 2 2 2 2 2 2 2 2 2 2 2 2 2 2 2 2 2 2 2
left_child=2 7 3 5 10 20 19 8 9 26 -5 12 15 14 18 22 37 -17 -13 -7 21 -1 -3 27 25 -25 -2 30 29 -29 31 -4 -8 -32 -10 -36 -22 -6
right_child=1 11 23 4 16 6 32 -9 34 -11 -12 13 -14 -15 -16 17 -18 -19 -20 -21 36 -23 -24 24 -26 -27 -28 28 -30 -31 33 -33 -34 -35 35 -37 -38 -39
leaf_value=-0.089698131339539869 0.11087267833738614 0.011145620400476168 -0.11948847532682129 0.35355183237701315 -0.015762197451067408 0.27338103388200702 0.027241757060717152 0.96545620616409211 1.1877512590526069 0.86554872958396833 1.5206158198184521 0.16127546364423623 -0.124904854377746 -0.092480929060645881 -0.12916299103580645 0.25704587318735039 -0.40695779561070866 0.049482654390917043 0.33769568937736294 -0.2810692051448076 0.20338701949604177 -0.32147982127880159 -0.09413623069817266 0.25994420769328047 -0.198695138520702 -0.00096119196112995863 0.43536379955478577 0.63348963312089746 -0.13188284020347313 0.14052270719076984 -0.30828774399500619 0.064870504505997739 -0.33200799610794818 0.030417093010008358 0.16105806473654014 0.35069439529861013 -0.030962653741172467 0.12471893373537837
leaf_weight=26265.710193037987 387.75620287656784 19273.220835387707 36529.82760822773 3356.6188411712646 11434.843852758408 10954.166048705578 1818.2923716306686 1234.2101200222969 2030.2990136146545 788.20451056957245 1686.9335025548935 10967.876330792904 12856.722831785679 2879.856174826622 1763.7909463047981 1918.1943495869637 1407.1410551071167 28142.593148648739 2503.0021473169327 1039.4523195624352 1095.8692329525948 5672.7317310571671 6126.5638321638107 1174.8381941318512 2679.000030875206 610.27285999059677 520.18959605693817 2042.3552712798119 50769.762772142887 6808.4121467471123 6726.5476682782173 6394.2748586535454 1508.6470244526863 788.77725380659103 1333.4034420847893 361.23731970787048 3559.5737324953079 1564.0464144945145
leaf_count=27208 338 17965 32457 3774 11233 11861 1649 1122 1819 658 1905 10234 12310 2820 1705 1821 1448 23209 2157 1159 1234 6335 5256 1100 3240 525 453 2326 59279 7933 7041 6081 1280 754 1286 328 4079 1643
internal_value=-9.08645e-05 0.000705703 -0.000489763 6.06714e-05 0.00138086 -0.000433949 0.00115935 0.00671245 0.00583882 0.00971497 0.00604978 0.000243108 -3.5703e-06 0.00117338 0.00162951 0.000320031 -0.00025404 0.000816139 0.00200769 0.00181208 -0.00110102 -0.00132649 -0.000267124 -0.000832756 0.000791706 0.004187 0.00498562 -0.000898652 -0.000643543 0.00153837 -0.00120018 -0.00101917 -0.00119359 -0.00223376 0.00407168 0.00246784 0.000445786 9.21346e-05
internal_weight=278975 93087.1 185888 71364 19449.6 51914.4 15320.6 6655.3 5421.09 1696.15 5043.55 86431.8 68317.3 18114.5 15234.7 55460.6 14406 30060.8 13470.9 11993.6 36593.9 31938.4 25399.8 114524 4464.11 1785.11 907.946 110060 59620.5 8850.77 50439.4 42924.1 3326.94 7515.32 3724.94 1694.64 4655.44 12998.9
internal_count=279025 83481 195544 74808 20003 54805 15949 6004 4882 1449 5679 77477 60561 16916 14096 48251 14324 25030 12391 13020 38856 33543 23221 120736 4865 1625 791 115871 69538 10259 46333 38538 2929 7795 3433 1614 5313 12876
is_linear=0
shrinkage=0.0440977


Tree=5
num_leaves=39
num_cat=0
split_feature=16 15 15 3 2 6 17 3 3 14 17 6 16 3 6 6 16 6 3 3 17 15 3 16 3 12 16 16 3 12 3 16 6 15 12 16 3 15
split_gain=54.1343 195.376 32.3813 38.6034 21.7708 41.9981 36.7321 16.714 55.9587 16.489 16.1951 12.8357 11.6896 9.8275 10.5736 19.4332 9.11072 9.03493 18.0663 10.9402 8.41133 8.06371 7.77911 7.71608 7.47469 6.60426 6.49304 6.25938 14.8611 6.19361 6.15763 5.32155 5.25031 5.07029 5.03854 4.59156 11.5724 2.71069
threshold=4.1121879235106469e-08 0.05249301344156266 0.11112770810723306 0.0027929162606596951 1.0000000180025095e-35 7.4751966394615021e-07 4.5040064833301594e-06 0.0010775665869005027 0.0044963988475501546 2.5000000000000004 6.0955099456805339e-07 5.5234647788893207e-06 1.0000000180025095e-35 0.030205942690372471 2.7039660608352283e-06 0.0052508653607219466 0.18760957568883899 2.3047948161547541e-05 0.63629209995269786 0.88801717758178722 0.23377402126789096 0.067402362823486342 5.1154045650037012e-05 9.0848502054541324e-07 8.1219440062341174e-07 0.034923546016216285 0.0023476403439417486 0.22697485983371737 0.29700618982315069 0.1681051775813103 0.0044963988475501546 0.0019404782797209921 3.6594201446860103e-07 1.0000000180025095e-35 0.0030789537122473125 0.040876427665352828 0.078289981931447997 0.082325432449579253
decision_type=2 2 2 2 2 2 2 2 2 2 2 2 2 2 2 2 2 2 2 2 2 2 2 2 2 2 2 2 2 2 2 2 2 2 2 2 2 2
left_child=1 12 3 9 5 7 10 23 26 21 24 -12 33 14 22 -16 -10 18 35 -20 27 -3 -4 32 -7 -15 -9 28 -19 -22 -5 -31 -2 -1 -14 36 -6 -11
right_child=4 2 13 30 17 6 -8 8 16 37 11 -13 34 25 15 -17 -18 20 19 -21 29 -23 -24 -25 -26 -27 -28 -29 -30 31 -32 -33 -34 -35 -36 -37 -38 -39
leaf_value=-0.3957047578578779 0.037936128948589234 0.93049152206889041 -0.11841291268924216 4.5820427027022879 -0.060850591589714197 0.3494936688070967 -0.01878182009426627 0.53205420647237178 0.055536366336138135 -0.26214829238430348 0.51313506881109849 0.87150337693951119 -0.044792152831691606 0.0032221967990670934 0.4307812168287074 0.058775936834558687 -0.35548885247602857 0.034749611034487933 0.25785845183307171 -0.12230388380854032 -0.098334616767823263 0.35024317292195795 0.24089103964184747 -0.21568866878389642 0.80336786431795204 -0.2089522651628973 1.7489741922104072 -0.17080258345116023 0.2793585484488465 0.41962890919882317 1.9078996432778093 0.021783968750332391 -0.20528309286385574 -0.21194039834341832 -0.28076680140623095 -0.20285907287547705 0.090360206235403778 0.12055061753420715
leaf_weight=41049.064950942993 15248.238884449005 2249.7787342071533 10482.565057814121 410.43227702379227 17390.07947665453 555.80745196342468 2733.8355264663696 2752.5266122817993 7865.2849276065826 1322.73402094841 3667.4025861024857 1157.4398757219315 5795.1884394884109 14509.072227299213 10377.022189795971 20775.301317095757 993.61245334148407 64693.434242129326 876.9309224486351 255.60462552309036 9793.5905622243881 4730.6189424991608 2472.4481663107872 3611.5191480517387 771.04667502641678 5373.7918893694878 30.125904500484467 1908.2485238313675 6632.0813221931458 233.57798993587494 336.76064234972 405.10435420274734 1942.1070978045464 3490.3926441669464 2669.2717128992081 5433.4899214506149 3092.1516925096512 714.18481057882309
leaf_count=50069 14705 2020 11065 471 13871 473 2721 2982 6425 1669 3420 1096 4357 17318 11566 22811 934 57737 674 195 9066 5075 2963 4006 640 6489 39 1858 5603 211 413 341 1625 3552 2616 4819 2313 900
internal_value=-8.04883e-05 -0.000753461 0.000714187 0.00307943 0.000480571 0.00134422 0.00403016 0.000608499 0.00194637 0.00228051 0.00592001 0.00473172 -0.00279566 0.000353223 0.000720133 0.00116042 0.000232605 0.000158166 -0.000542439 0.00490686 0.000384668 0.00329904 -0.000338613 -0.000140282 0.0102342 -0.000460709 0.00740028 0.00055155 0.000618243 -0.000786774 0.012705 0.00341746 0.000249032 -0.00308115 -0.00129323 -0.000780757 -0.000478389 -0.00120985
internal_weight=278802 126759 73754.7 9764.51 152043 41328.9 8885.53 32443.4 11641.5 9017.32 6151.7 4824.84 53003.9 63990.2 44107.3 31152.3 8858.9 110714 27048.3 1132.54 83666 6980.4 12955 20801.9 1326.85 19882.9 2782.65 73233.8 71325.5 10432.3 747.193 638.682 17190.3 44539.5 8464.46 25915.7 20482.2 2036.92
internal_count=279108 143354 82760 10548 135754 39066 8350 30716 10380 9664 5629 4516 60594 72212 48405 34377 7359 96688 21872 869 74816 7095 14028 20336 1113 23807 3021 65198 63340 9618 884 552 16330 53621 6973 21003 16184 2569
is_linear=0
shrinkage=0.0440977


Tree=6
num_leaves=39
num_cat=0
split_feature=16 6 3 16 6 17 3 3 17 3 12 19 19 3 12 3 3 3 3 17 3 17 6 3 6 19 6 17 6 3 16 3 3 3 3 3 3 3
split_gain=51.2913 16.9278 45.2647 14.8092 61.5926 13.6871 13.6798 21.191 16.5602 28.4097 13.9553 12.8951 9.90943 8.64289 7.75841 11.4925 12.3668 9.89076 7.67589 7.531 7.16402 5.9573 6.6163 4.90291 4.52957 5.22117 3.84548 9.37236 3.85567 3.72755 3.32088 3.15082 3.12661 6.53841 3.08383 2.78191 2.60211 2.4572
threshold=4.1121879235106469e-08 1.0000000180025095e-35 0.00028404347540345048 1.2678929692810927e-06 7.4751966394615021e-07 6.0955099456805339e-07 0.0010775665869005027 0.0096328733488917368 0.0019515826134011152 0.0044963988475501546 0.00073787444853223871 0.10301790013909341 4.1935285466365719e-08 8.1219440062341174e-07 3.7361638760557985e-06 0.0010775665869005027 0.0054398581851273784 0.0027929162606596951 0.43472141027450567 0.0053049516864120969 1.3946797139396952e-07 0.017866481095552448 0.0075047470163553962 2.14092125361276e-07 3.6594201446860103e-07 1.0000000180025095e-35 5.5234647788893207e-06 4.5040064833301594e-06 2.7039660608352283e-06 1.1335085901009736e-06 3.3421297018776391e-07 4.4477250327190638e-08 0.030205942690372471 0.13863550126552585 0.63629209995269786 3.3323743991786621e-05 0.52593708038330089 0.0010775665869005027
decision_type=2 2 2 2 2 2 2 2 2 2 2 2 2 2 2 2 2 2 2 2 2 2 2 2 2 2 2 2 2 2 2 2 2 2 2 2 2 2
left_child=1 14 23 4 24 13 12 8 9 -8 18 -10 35 -6 15 20 17 -17 -9 -12 31 22 -14 -3 25 30 28 -28 -7 -27 -2 -1 37 -34 -18 -5 -35 -4
right_child=3 2 32 6 5 26 7 10 11 -11 19 -13 21 -15 -16 16 34 -19 -20 -21 -22 -23 -24 -25 -26 29 27 -29 -30 -31 -32 -33 33 36 -36 -37 -38 -39
leaf_value=-0.1429889279192943 -0.076597818822905325 0.81244440301768861 -0.19630387781794301 -0.042969633637206267 0.33408179720811459 1.0981560941926378 0.52921685008635178 0.033185381094632663 0.048971344216022748 0.079782061719770911 -0.16882371278641201 0.25132961155257705 0.0015923921163977527 0.76794117858176281 -0.28513764668326474 0.1126537055121561 -0.12456314100071832 2.0718978248653572 0.15092466481022726 -0.028777961667737894 -0.27605637709425873 -0.12457750739763855 0.15990947360394323 0.21700860292017635 -0.19623057789424719 0.087988565025573159 0.83307207090379409 0.061983446036174165 0.16734494190544177 0.31544670081322446 0.027852631820414284 0.045839522850642168 -0.2747305528135357 -0.037430070529298871 0.21160693711775846 -0.1667916674709839 -0.22319718701046187 -0.063072594567292778
leaf_weight=4642.1990317702293 4653.4413976669312 590.31556785106659 6048.9686186313629 9400.6078056097031 555.80745196342468 2010.3563308119774 2782.6525167822838 23527.307964324951 18787.514944195747 2934.5815023183823 4468.2378131151199 1793.9210613369942 13495.676214516163 771.04667502641678 13927.241209149361 1558.748115003109 7763.8565392494202 1027.6994639635086 5282.335668861866 28093.851818561554 19768.867582261562 3597.8004304766655 4201.4842590689659 18994.866722464561 1942.1070978045464 7418.2864024043083 1157.4398757219315 547.19492644071579 1631.5551053285599 420.02478730678558 5315.7712640762329 4647.2765353322029 9679.3566420674324 8480.0380083322525 661.87791234254837 7254.2374626994133 3842.2348460555077 25125.08122831583
leaf_count=4163 4250 589 6755 6422 473 1823 3021 20375 16419 2798 4083 1493 13126 640 16746 1752 9769 1253 4490 24487 20349 3031 3370 21307 1625 7435 1096 454 1564 406 5084 4153 11789 10125 801 7789 4657 29146
internal_value=-0.00011047 -0.000765533 -0.000326523 0.000435658 0.00138457 0.00504688 0.000236052 0.000538815 0.00158612 0.00368548 9.00127e-05 0.00100279 -0.000463376 0.00905518 -0.00135707 -0.0010454 0.000167727 0.00283434 0.000796948 -0.000535461 -0.00150513 0.000166811 0.000499384 0.00148577 0.000146889 0.000367468 0.00405063 0.00577981 0.0032399 0.00121896 -0.000302072 -0.00049498 -0.000994025 -0.00139653 -0.000651083 -0.0012691 -0.00072268 -0.000709916
internal_weight=278802 126759 72760.9 152043 26423 6673.4 125620 87670.4 26298.7 5717.23 61371.7 20581.4 37949.8 1326.85 53997.8 40070.5 11012.2 2586.45 28809.6 32562.1 29058.3 21295 17697.2 19585.2 19749.6 17807.5 5346.55 1704.63 3641.91 7838.31 9969.21 9289.48 53175.7 22001.6 8425.73 16654.8 12322.3 31174
internal_count=279108 143354 84368 135754 24850 6050 110904 77166 23731 5819 53435 17912 33738 1113 58986 42240 13575 3005 24865 28570 28665 19527 16496 21896 18800 17175 4937 1550 3387 7841 9334 8316 62472 26571 10570 14211 14782 35901
is_linear=0
shrinkage=0.0440977


Tree=7
num_leaves=39
num_cat=0
split_feature=17 15 17 6 15 3 3 3 19 6 3 12 6 15 3 19 15 3 3 3 6 17 3 6 12 12 6 6 6 17 3 12 15 17 6 3 8 3
split_gain=41.7492 85.6862 60.1913 38.6063 22.4607 27.7776 13.1091 35.5076 13.0637 12.8711 8.87855 8.46676 7.90161 16.595 7.8891 7.66544 6.81295 6.57588 6.41333 6.24792 6.05797 6.06679 14.6022 13.8193 6.01814 5.87825 4.77562 8.40293 5.54801 7.78917 4.71866 4.3715 3.30012 3.24318 2.34171 2.28383 1.72982 1.55658
threshold=3.2049462106442666e-07 0.05249301344156266 4.5040064833301594e-06 5.5234647788893207e-06 0.11112770810723306 0.0027929162606596951 0.0010775665869005027 0.0044963988475501546 0.032853083685040481 7.4751966394615021e-07 0.030205942690372471 0.00073787444853223871 2.7039660608352283e-06 0.49803984165191656 2.14092125361276e-07 1.1399192345606936e-07 0.067402362823486342 5.1154045650037012e-05 0.0044963988475501546 0.078289981931447997 0.50766482949256908 0.048566129058599479 0.24549505859613421 0.10546645149588586 0.1681051775813103 0.0030789537122473125 5.5234647788893207e-06 2.7039660608352283e-06 7.4751966394615021e-07 6.0955099456805339e-07 0.0065812794491648683 5.1423764801938894e-08 1.0000000180025095e-35 0.00030467727629002189 0.6755557954311372 0.064711794257164015 1.0000000180025095e-35 0.0044963988475501546
decision_type=2 2 2 2 2 2 2 2 2 2 2 2 2 2 2 2 2 2 2 2 2 2 2 2 2 2 2 2 2 2 2 2 2 2 2 2 2 2
left_child=1 3 26 6 5 9 8 32 25 16 12 -9 17 -14 -10 33 -3 -6 -7 31 21 22 -17 -23 37 -1 27 28 -2 -30 -26 -12 -8 -4 -35 -20 -5 -22
right_child=2 4 15 36 10 18 7 11 14 -11 19 -13 13 -15 -16 20 -18 -19 35 -21 24 23 -24 -25 30 -27 -28 -29 29 -31 -32 -33 -34 34 -36 -37 -38 -39
leaf_value=-0.11095333492005323 0.049676751942190872 0.60057178552277901 -0.020848352896255338 -0.36285673218397896 -0.10001069096199344 4.2886191411592094 0.31356669125964504 -0.030134608063497381 -0.20739814678237453 0.6499795838819824 0.20029398264861245 -0.30094155566872322 0.43504761525620916 0.062879799924934102 0.16150316925979541 -0.0026972143207790473 0.0539186808120845 0.23100542459520038 1.6115897862928907 0.0083261065724363394 -0.31174666755359465 1.0694785500671911 0.21081516492775948 0.070935422127007777 0.39896470958247404 -0.28304943083188644 0.7963354975824789 0.15523705736732465 0.54333588578517822 1.0042746775718565 0.084569071252289574 -0.24683415828583766 0.92940774939750614 -0.19198732853836836 0.035276288596413914 -0.052231264627550511 -0.37847418879651606 -0.060979634383174948
leaf_weight=49128.882042884827 419.02291059494019 3035.3347584605217 2712.9625581502914 4153.0253619551659 10572.170312225819 410.43227702379227 3682.4009889364243 24814.945237934589 1008.4300626516342 1029.0850846171379 728.29814177751541 3739.2645485401154 9801.974149286747 21350.34935760498 3412.5681141018867 41706.664729118347 5227.8920993208885 2522.658007144928 379.24589228630066 14294.789386868477 1426.4980471730232 1225.7413817644119 7756.6115354895592 22266.461809515953 233.57798993587494 5573.8098775148392 1157.4398757219315 1645.4593689441681 1326.8541269898415 2021.9432171583176 387.33779513835907 5029.7175877690315 84.198040783405304 2053.0866801142693 430.02599275112152 50.209840834140778 15801.59560829401 6200.9040018320084
leaf_count=45229 359 3017 2725 5151 11181 471 4175 22850 1034 1132 917 3877 10968 23409 3461 37088 5736 3028 468 17058 1260 945 6681 19764 211 6221 1096 1582 1113 1838 318 6052 109 2446 479 65 19974 5620
internal_value=-0.000120477 -0.000502162 0.000642438 -0.00127618 0.00065627 0.00258591 -0.000892673 -0.000178558 -0.00128304 0.00189115 0.000352167 -0.000709452 0.000701003 0.00108306 0.00102252 0.000332984 0.00131154 -0.000207909 0.0102612 -0.000417546 0.000438058 0.000566129 0.000288986 0.00114962 -0.000694641 -0.00146939 0.00471085 0.00415965 0.00530763 0.00590604 0.00347675 -0.00164386 0.00384521 -0.00130888 -0.0024601 0.00647038 -0.00303349 -0.00103463
internal_weight=278802 185831 92970.6 111399 74432.2 10132.2 91444.5 32320.8 59123.7 9292.31 64300 28554.2 44247.2 31152.3 4421 86399.9 8263.23 13094.8 839.888 20052.8 81203.8 72955.5 49463.3 23492.2 8248.32 54702.7 6570.72 5413.28 3767.82 3348.8 620.916 5758.02 3766.6 5196.08 2483.11 429.456 19954.6 7627.4
internal_count=279108 195583 83525 112081 83502 10889 86956 31011 55945 9885 72613 26727 48586 34377 4495 77537 8753 14209 1004 24027 71887 64478 43769 20709 7409 51450 5988 4892 3310 2951 529 6969 4284 5650 2925 533 25125 6880
is_linear=0
shrinkage=0.0440977


end of trees

feature_importances:
event_decay_operation=82
event_decay_case_drop=43
event_decay_operation_weighted=35
event_decay_major=31
event_decay_game_update=31
event_decay_case_drop_weighted=25
event_decay_major_weighted=13
event_decay_game_update_weighted=12
event_density_90d_game_update=9
event_density_90d_operation=7
event_density_90d_major=5
event_density_30d_major=4
event_density_30d_game_update=4
event_density_90d_case_drop=3

parameters:
[boosting: gbdt]
[objective: quantile]
[metric: quantile]
[tree_learner: serial]
[device_type: cpu]
[data_sample_strategy: bagging]
[data: ]
[valid: ]
[num_iterations: 1000]
[learning_rate: 0.0440977]
[num_leaves: 39]
[num_threads: -1]
[seed: 42]
[deterministic: 0]
[force_col_wise: 0]
[force_row_wise: 0]
[histogram_pool_size: -1]
[max_depth: 6]
[min_data_in_leaf: 5]
[min_sum_hessian_in_leaf: 0.001]
[bagging_fraction: 0.7]
[pos_bagging_fraction: 1]
[neg_bagging_fraction: 1]
[bagging_freq: 5]
[bagging_seed: 400]
[bagging_by_query: 0]
[feature_fraction: 0.6]
[feature_fraction_bynode: 1]
[feature_fraction_seed: 30056]
[extra_trees: 0]
[extra_seed: 12879]
[early_stopping_round: 0]
[early_stopping_min_delta: 0]
[first_metric_only: 0]
[max_delta_step: 0]
[lambda_l1: 0]
[lambda_l2: 1]
[linear_lambda: 0]
[min_gain_to_split: 0.1]
[drop_rate: 0.1]
[max_drop: 50]
[skip_drop: 0.5]
[xgboost_dart_mode: 0]
[uniform_drop: 0]
[drop_seed: 17869]
[top_rate: 0.2]
[other_rate: 0.1]
[min_data_per_group: 100]
[max_cat_threshold: 32]
[cat_l2: 10]
[cat_smooth: 10]
[max_cat_to_onehot: 4]
[top_k: 20]
[monotone_constraints: ]
[monotone_constraints_method: basic]
[monotone_penalty: 0]
[feature_contri: ]
[forcedsplits_filename: ]
[refit_decay_rate: 0.9]
[cegb_tradeoff: 1]
[cegb_penalty_split: 0]
[cegb_penalty_feature_lazy: ]
[cegb_penalty_feature_coupled: ]
[path_smooth: 0]
[interaction_constraints: ]
[verbosity: -1]
[saved_feature_importance_type: 0]
[use_quantized_grad: 0]
[num_grad_quant_bins: 4]
[quant_train_renew_leaf: 0]
[stochastic_rounding: 1]
[linear_tree: 0]
[max_bin: 63]
[max_bin_by_feature: ]
[min_data_in_bin: 3]
[bin_construct_sample_cnt: 200000]
[data_random_seed: 175]
[is_enable_sparse: 1]
[enable_bundle: 1]
[use_missing: 1]
[zero_as_missing: 0]
[feature_pre_filter: 0]
[pre_partition: 0]
[two_round: 0]
[header: 0]
[label_column: ]
[weight_column: ]
[group_column: ]
[ignore_column: ]
[categorical_feature: ]
[forcedbins_filename: ]
[precise_float_parser: 0]
[parser_config_file: ]
[objective_seed: 16083]
[num_class: 1]
[is_unbalance: 0]
[scale_pos_weight: 1]
[sigmoid: 1]
[boost_from_average: 1]
[reg_sqrt: 0]
[alpha: 0.9]
[fair_c: 1]
[poisson_max_delta_step: 0.7]
[tweedie_variance_power: 1.5]
[lambdarank_truncation_level: 30]
[lambdarank_norm: 1]
[label_gain: ]
[lambdarank_position_bias_regularization: 0]
[eval_at: ]
[multi_error_top_k: 1]
[auc_mu_weights: ]
[num_machines: 1]
[local_listen_port: 12400]
[time_out: 120]
[machine_list_filename: ]
[machines: ]
[gpu_platform_id: -1]
[gpu_device_id: -1]
[gpu_use_dp: 0]
[num_gpu: 1]

end of parameters

pandas_categorical:[]
