tree
version=v4
num_class=1
num_tree_per_iteration=1
label_index=0
max_feature_idx=42
objective=quantile
feature_names=price_lag_1d return_1d return_3d return_7d return_14d return_30d return_60d price_std_7d price_std_14d price_max_14d price_std_20d price_std_30d price_std_60d price_max_60d price_zscore_30d vol_regime_60_30 trend_divergence_30_60 price_accel_7d price_log price_tier log_return_1d log_return_7d autocorr_1d autocorr_7d bb_lower bb_pct_b bb_width rsi_14 macd_line macd_signal macd_histogram volume_missing volume_lag_1d volume_lag_7d volume_std_30d volume_std_60d volume_log_change_1d volume_log_change_7d volume_zscore_30d volume_price_conf_7d volume_price_conf_1d rsi_missing macd_missing
feature_infos=[0.029999999329447746:1241.4320068359375] [-99.892494201660156:500] [-99.979118347167969:500] [-99.964942932128906:500] [-99.956832885742188:500] [-99.987953186035156:500] [-99.858306884765625:500] [0:352.34942626953125] [0:248.51036071777344] [0.029999999329447746:1241.4320068359375] [0:236.20703125] [0:236.20703125] [0:236.20703125] [0.029999999329447746:1241.4320068359375] [-4.96368408203125:5.2946515083312988] [0.70131629705429077:12714.2802734375] [-671.09869384765625:1784251284455424] [-599.9649658203125:599.04315185546875] [-3.5065579414367676:7.0257081985473633] [0:4] [-6.835383415222168:7.7478847503662109] [-7.9560341835021973:6.5592374801635742] [-49946.24609375:250000] [-49982.47265625:146666.671875] [-100.32864379882812:503.13418579101562] [-0.54432862997055054:1.5621323585510254] [0.002469163853675127:17.794893264770508] [0:99.960159301757812] [-46.309467315673828:40.569301605224609] [-44.387897491455078:30.516359329223633] [-14.323845863342285:31.298982620239258] none [1:418610] [1:436437] [0:98456.9453125] [0:95535.78125] [-6.9324479103088379:7.9694271087646484] [-7.8009819984436035:6.4260258674621582] [-4.9311947822570801:5.2937369346618652] [-99.964942932128906:500] [-99.892494201660156:500] [0:1] [0:1]
tree_sizes=3511 3698 3721 3742 3753 3713 3679 3717 3747 3718 3743 3755 3780 3698 3767 3705 3766 3763 3744 3752 3749 3734 3760 3770 3762 3806 3759 3791 3756 3762 3821 3786 3789 3778 3731 3775 3752 3830 3858 3759 3790 3838 3785 3784 3789 3831 3812 3787 3796 3800 3833 3825 3798 3800 3820 3825 3774 3754 3809 3748 3845 3804 3832 3814 3780 3800 3853 3782 3800 3838 3772 3757 3807 3776 3800 3808 3726 3841 3795 3782 3807 3796 3821 3837 3820 3806 3866 3819 3765 3816 3848 3829 3805 3845 3813 3816 3819 3819 3884 3823 3834 3839 3843 3860 3814 3803 3814 3825

Tree=0
num_leaves=39
num_cat=0
split_feature=9 26 1 4 9 4 1 37 0 26 17 27 25 1 3 27 13 9 13 6 22 15 29 13 0 15 27 28 11 1 25 28 35 33 28 15 13 35
split_gain=1142.45 263.523 142.008 58.5478 48.5941 35.8597 30.6747 22.5248 22.4301 21.3277 17.8878 16.7307 14.9937 13.4341 13.3652 13.2769 12.6947 11.7282 11.6554 11.3747 9.27772 8.09006 7.92197 6.84138 5.09076 4.58872 4.31223 4.29935 3.97018 3.95845 2.00149 1.9087 1.84228 1.83434 3.09331 1.87812 3.16397 6.5103
threshold=0.03024999983608723 0.24753973633050921 -5.2323241233825675 -9.089263439178465 0.35349999368190771 -20.9501838684082 -10.936376094818113 0.2364318445324898 0.03024999983608723 0.1266262233257294 -13.764955520629881 25.660418510437015 0.41831165552139288 -7.5573103427886954 -19.11045932769775 44.678539276123054 0.03024999983608723 0.79649999737739574 4.0895001888275155 -15.687456607818602 34.674163818359382 0.81255245208740245 -0.041373385116457932 1.7910000085830691 0.03024999983608723 1.000000596046448 54.286600112915046 -0.00020071520702913401 0.024201883003115657 -14.610501766204832 0.37759190797805792 -5.7945619413857222e-09 1046.8648071289065 107.50000000000001 -0.00020071520702913401 2.2428077459335332 0.045250000432133682 478.92536926269537
decision_type=2 2 2 2 2 2 2 2 2 2 2 2 2 2 2 2 2 2 2 2 2 2 2 2 2 2 2 2 2 2 2 2 2 2 2 2 2 2
left_child=16 4 3 6 8 11 10 17 27 23 -3 24 15 29 -13 -5 31 -7 19 -10 -8 -9 -15 28 -4 -14 -20 30 -6 -11 -2 -1 -25 34 -18 -35 37 -37
right_child=1 2 5 12 9 7 20 21 18 13 -12 14 25 22 -16 -17 33 -19 26 -21 -22 -23 -24 32 -26 -27 -28 -29 -30 -31 -32 -33 -34 35 -36 36 -38 -39
leaf_value=12.536094890764799 13.418049156293351 15.768223109944845 12.83007963893184 13.433612478101933 13.011337299376393 13.418049156293351 13.727924983863367 13.379716673903035 13.157231041593636 13.919965633362109 14.798686139122534 14.5672382365572 13.628888976116018 13.011122407460544 14.031493805009996 14.30229986898677 12.83007963893184 13.249523303647173 16.039184282755667 13.337871488144417 14.275318375048412 13.696342795078895 13.15785126087639 12.948590257368085 13.524202175799017 13.908909982228458 13.772981968418019 12.68308726484832 13.148611003639079 13.391851978080421 13.124064387098882 12.536094890764799 13.23810446464533 12.536094890764799 12.536094890764799 13.807578456098742 12.536094890764799 16.622482830709
leaf_weight=10244 221 1058 442 599 7639 28839 2550 3167 8530 95 1726 989 3303 5594 2630 3076 1772 13860 51 29175 789 12983 27656 11275 3383 2616 34 3382 4324 870 698 69946 237 5843 3776 100 411 17
leaf_count=10244 221 1058 442 599 7639 28839 2550 3167 8530 95 1726 989 3303 5594 2630 3076 1772 13860 51 29175 789 12983 27656 11275 3383 2616 34 3382 4324 870 698 69946 237 5843 3776 100 411 17
internal_value=13.1144 13.1164 13.1183 13.1221 13.1149 13.1174 13.1254 13.117 13.1161 13.1141 13.1288 13.1203 13.1199 13.1148 13.1224 13.1221 13.1104 13.1165 13.1164 13.1164 13.1226 13.1184 13.1146 13.1131 13.1182 13.1185 13.1326 13.113 13.1138 13.1199 13.1157 13.1102 13.1123 13.1118 13.1123 13.1112 13.1138 13.1201
internal_weight=273900 181791 82010 15717 99781 66293 6123 58849 42091 57690 2784 7444 9594 34215 3619 3675 92109 42699 37790 37705 3339 16150 33250 23475 3825 5919 85 4301 11963 965 919 80190 11512 11919 5548 6371 528 117
internal_count=273900 181791 82010 15717 99781 66293 6123 58849 42091 57690 2784 7444 9594 34215 3619 3675 92109 42699 37790 37705 3339 16150 33250 23475 3825 5919 85 4301 11963 965 919 80190 11512 11919 5548 6371 528 117
is_linear=0
shrinkage=1


Tree=1
num_leaves=39
num_cat=0
split_feature=9 1 26 4 24 3 17 38 38 12 33 38 0 17 4 33 13 32 30 1 14 24 26 1 6 4 33 15 15 33 14 26 30 10 14 35 13 6
split_gain=1080.36 219.36 131.817 49.5253 47.4763 36.3995 28.9304 27.7677 24.7506 22.6672 21.2208 19.3188 17.1074 13.6993 11.8533 10.477 10.1464 9.71239 9.12796 9.02355 8.64568 9.93106 7.63324 7.34558 6.2565 5.95882 4.79741 4.65724 4.38525 4.12171 3.48396 3.41151 2.9618 2.29303 2.2858 4.83765 2.87416 2.07375
threshold=0.033250000327825553 -7.5573103427886954 0.24753973633050921 -11.509871482849119 0.34296686947345739 -11.427306175231932 -13.764955520629881 -0.32557272911071772 0.49418559670448309 1.0000000180025095e-35 80.500000000000014 0.21842826157808307 0.03024999983608723 -5.3140518665313712 -10.605111122131346 24.500000000000004 1.4215000271797182 1123.5000000000002 0.008858965244144203 -10.936376094818113 -0.28357613086700434 0.038967143744230277 0.13107714056968692 -10.936376094818113 1.0000000180025095e-35 -24.375434875488278 503.50000000000006 1.000000596046448 1.2873907089233401 136.50000000000003 -2.1117167472839351 0.2144795358181 -1.0000000180025095e-35 0.051900867372751243 -0.36539638042449946 42.733299255371101 0.045250000432133682 -26.191851615905758
decision_type=2 2 2 2 2 2 2 2 2 2 2 2 2 2 2 2 2 2 2 2 2 2 2 2 2 2 2 2 2 2 2 2 2 2 2 2 2 2
left_child=9 3 4 6 8 10 15 18 24 -1 14 22 -9 20 -4 30 -13 -10 -7 26 21 -5 -6 -17 -3 -12 -8 32 -11 -21 -2 -29 -15 -22 35 37 -37 -30
right_child=1 2 5 13 11 7 19 12 17 28 25 16 -14 27 -16 23 -18 -19 -20 29 33 -23 -24 -25 -26 -27 -28 31 34 -31 -32 -33 -34 -35 -36 36 -38 -39
leaf_value=-0.55281311809903477 2.5046127462302654 0.028674350668890895 0.89543661820071463 2.4161530465600278 -0.14765763094859036 0.21859387606185293 1.6960937297412972 0.062833002060344451 0.2435006341298728 -0.55281311809903477 0.58568988361417129 0.13635594206129326 0.43724615086955432 0.73979886594521016 0.7345555231833466 1.8349713671036696 -0.018014639531741466 0.66215689635598929 -0.087135096505888604 0.71291929926996012 0.90013269055627543 0.59822271130173543 -0.041230299142381285 0.97407820409311552 0.16082486570407861 0.29666374554413666 -0.023115064337550281 0.15189144504444591 -0.51735151425704573 0.22196214306716161 3.2711900840558439 0.83874667379280399 0.39853622333345212 0.67467443905255786 -0.31255892462435853 0.32884807317845977 -0.48649782882384718 1.5656121034954014
leaf_weight=80107 115 18164 3213 672 15581 21440 1611 2963 9924 12486 1694 8599 29482 407 3103 563 10695 789 4185 827 1125 1602 18761 317 11842 4498 79 635 17 346 453 1753 2382 838 2038 179 354 61
leaf_count=80107 115 18164 3213 672 15581 21440 1611 2963 9924 12486 1694 8599 29482 407 3103 563 10695 789 4185 827 1125 1602 18761 317 11842 4498 79 635 17 346 453 1753 2382 838 2038 179 354 61
internal_value=-0.000116081 0.00190604 0.00146027 0.00726234 0.000382061 0.00290169 0.0111768 0.00243684 0.00151732 -0.00390922 0.00505948 -0.000479808 0.0032938 0.00546877 0.00685794 0.0162574 0.000636725 0.00333676 0.0013517 0.00860244 0.00732846 0.00918008 -0.0011071 0.0132143 0.000867639 0.00322419 0.0106659 0.00394563 -0.00234386 0.00562302 0.0209406 0.00537516 0.00272015 0.00517991 -0.000713885 0.00165006 0.000140385 0.0118338
internal_weight=273900 178658 164933 13725 94355 70578 4311 58070 40719 95242 12508 53636 32445 9414 6316 1448 19294 10713 25625 2863 4237 2274 34342 880 30006 6192 1690 5177 15135 1173 568 2388 2789 1963 2649 611 533 78
internal_count=273900 178658 164933 13725 94355 70578 4311 58070 40719 95242 12508 53636 32445 9414 6316 1448 19294 10713 25625 2863 4237 2274 34342 880 30006 6192 1690 5177 15135 1173 568 2388 2789 1963 2649 611 533 78
is_linear=0
shrinkage=0.0440977


Tree=2
num_leaves=39
num_cat=0
split_feature=8 2 26 20 20 38 24 5 24 3 24 33 32 4 12 38 25 38 24 35 3 4 11 26 17 4 27 26 30 35 5 30 27 28 33 28 15 12
split_gain=1030.28 214.194 97.0254 57.0632 35.2548 34.9784 27.9013 26.8146 19.6781 18.056 16.8046 16.0162 14.2251 12.7711 12.1804 11.8595 10.7515 10.3197 10.1473 8.49769 8.08489 6.55709 9.75854 6.29055 5.65454 5.62848 5.42096 4.78809 4.78634 4.29493 3.46475 3.35385 3.05506 1.92264 1.74334 2.32811 1.63623 2.26454
threshold=1.0000000180025095e-35 -8.3310651779174787 0.17951904982328418 -0.11581919342279433 -0.048313811421394341 0.70147556066513073 0.29965823888778692 -8.8538403511047346 0.40022006630897528 -24.184686660766598 0.059669936075806625 51.500000000000007 6991.0000000000009 -13.683355808258055 1.0000000180025095e-35 0.77777355909347545 0.42462226748466497 0.125316396355629 0.034385392442345626 10.997303009033205 3.0534859895706181 -5.9799149036407462 0.30552992224693304 0.10158281028270723 6.5309407711029062 -4.9565441608428946 28.170653343200687 0.58647760748863231 6.5357507992303012e-05 8.4791784286499041 -1.3827335834503172 0.008858965244144203 45.238325119018562 -5.7945619413857222e-09 136.50000000000003 -0.00020071520702913401 2.2428077459335332 0.0034858470316976313
decision_type=2 2 2 2 2 2 2 2 2 2 2 2 2 2 2 2 2 2 2 2 2 2 2 2 2 2 2 2 2 2 2 2 2 2 2 2 2 2
left_child=14 3 6 7 16 8 10 19 -6 21 28 13 -7 -11 33 23 18 -12 -4 27 -17 22 -5 -8 -13 32 -21 -2 -3 -27 -23 -18 -9 -1 35 -16 -36 -38
right_child=1 2 4 9 5 12 15 25 -10 11 17 24 -14 -15 34 20 31 -19 -20 26 -22 30 -24 -25 -26 29 -28 -29 -30 -31 -32 -33 -34 -35 36 -37 37 -39
leaf_value=-0.52843532372165558 1.2998903559220198 -0.16269551665977966 1.684123093317837 1.0662730829723566 0.23084339603593176 0.36056852138309692 -0.15707792157785586 0.89217236139844358 0.030191424608207746 1.1331091412742231 0.091241029268150503 0.2596243672172564 1.7791600969864232 0.67278741380918172 -0.39440700477044804 -0.0042279972084137332 0.5087379247437086 0.29451032197591132 0.38426639516350963 0.98673464052658411 0.21398147755737104 1.8651633631589142 2.0804091549994399 -0.056623895021784762 0.71566522875656036 3.0384774762152409 1.684650423554477 6.9627422935045766 0.057553904462244822 0.97458452080117886 0.7144998526382198 0.19601745826117226 2.3614896063958271 -0.52843532372165558 -0.52843532372165558 -0.52843532372165558 2.3215778454177953 -0.5313596763339562
leaf_weight=10244 166 4864 1581 909 43719 15866 11801 494 23429 1342 10187 6837 348 4058 2079 5965 4678 6562 4909 222 2013 129 283 21842 1464 165 1014 293 3231 1086 523 1563 321 69871 5341 4032 110 359
leaf_count=10244 166 4864 1581 909 43719 15866 11801 494 23429 1342 10187 6837 348 4058 2079 5965 4678 6562 4909 222 2013 129 283 21842 1464 165 1014 293 3231 1086 523 1563 321 69871 5341 4032 110 359
internal_value=-0.000206884 0.00171711 0.00119555 0.0061084 0.00209154 0.00176141 -9.98522e-05 0.0109822 0.0013175 0.00492858 0.00106956 0.00437662 0.00359961 0.00624602 -0.00400869 -0.000797896 0.00425287 0.00186685 0.00550967 0.0150936 0.000730632 0.00902509 0.0109708 -0.00116038 0.00315993 0.00760349 0.0131687 0.020237 -0.000580091 0.00573763 0.0054565 0.00294526 0.010457 -0.00420441 -0.00269314 -0.00217242 -0.00324036 -0.000741218
internal_weight=273900 181864 162558 19306 96093 83362 66465 3761 67148 15545 24844 13701 16214 5400 92036 41621 12731 16749 6490 1695 7978 1844 1192 33643 8301 2066 1236 459 8095 1251 652 6241 815 80115 11921 6111 5810 469
internal_count=273900 181864 162558 19306 96093 83362 66465 3761 67148 15545 24844 13701 16214 5400 92036 41621 12731 16749 6490 1695 7978 1844 1192 33643 8301 2066 1236 459 8095 1251 652 6241 815 80115 11921 6111 5810 469
is_linear=0
shrinkage=0.0440977


Tree=3
num_leaves=39
num_cat=0
split_feature=9 2 26 4 24 38 20 38 20 25 0 12 26 23 2 24 24 30 20 22 35 26 5 24 38 35 30 0 6 0 27 28 3 25 14 6 29 30
split_gain=984.04 184.535 104.091 43.9193 36.0642 33.2186 32.8026 23.7273 18.0714 13.3388 13.1505 12.5426 12.0087 11.1557 8.97716 8.6695 8.58271 7.98219 7.62447 6.94382 6.72551 6.69537 5.35615 4.62662 3.91397 3.79187 3.10279 3.09141 2.98363 2.19315 2.1027 1.92253 1.74482 1.63355 1.4154 2.33863 4.46914 4.50898
threshold=0.03024999983608723 -12.205648422241209 0.23920589685440066 -3.5354833602905269 1.1638557314872744 0.49418559670448309 -0.048313811421394341 -0.32557272911071772 -0.15794706344604489 0.41831165552139288 0.03024999983608723 1.0000000180025095e-35 0.10158281028270723 -1.0000000180025095e-35 -14.63050603866577 0.72609406709671032 0.043491389602422721 0.00046679461956955498 -0.15794706344604489 83.361507415771499 151.61199188232425 0.11745466291904451 -8.8538403511047346 0.066950734704732909 0.21842826157808307 20.064126968383793 0.0056377733126282701 0.042249999940395362 48.488655090332038 1.825500011444092 50.000019073486335 -5.7945619413857222e-09 -1.6656757593154905 0.42462226748466497 -0.18257800489664075 -1.0000000180025095e-35 -0.00076087683555670072 6.5357507992303012e-05
decision_type=2 2 2 2 2 2 2 2 2 2 2 2 2 2 2 2 2 2 2 2 2 2 2 2 2 2 2 2 2 2 2 2 2 2 2 2 2 2
left_child=11 3 4 8 5 12 9 15 20 16 -9 31 -3 18 19 -8 -4 -7 25 -10 22 28 -2 -20 -23 -5 -11 -16 -6 -22 32 -1 -15 -32 35 36 -13 -38
right_child=1 2 6 13 21 17 7 10 14 26 -12 34 -14 30 27 -17 -18 -19 23 -21 29 24 -24 -25 -26 -27 -28 -29 -30 -31 33 -33 -34 -35 -36 -37 37 -39
leaf_value=-0.50513253433104188 2.5368470567897412 -0.11251293648156825 1.5413853593511169 3.1793696624608554 -0.1433986601789296 0.15028798592422662 0.18372825353124539 0.10626311651982247 1.0786913551000956 0.63118250942678911 0.37390684067828001 -0.50513253433104188 0.046954783370388269 0.61040743038998657 1.1630276709229699 -0.04311802255431544 0.44209321321516187 0.26357459769248009 1.5074628731132671 1.9357337478641512 0.52258040836356889 -0.084280218877844718 1.7472931125069293 0.41404453296966132 0.024776533108737155 1.5501969700294516 0.23865040489935038 0.44270561256384783 0.57194571837790109 4.6594783009551675 2.165577707901492 -0.50513253433104188 -0.027563475431041342 0.55016040049650905 -0.50513253433104188 -0.50513253433104188 0.10484996168704082 2.7955185517792955
leaf_weight=10244 709 9453 1896 202 10644 11001 21445 3362 2722 4174 31654 363 41090 350 158 5974 4375 6631 1009 377 140 10862 396 1210 6197 258 1964 1298 154 11.999999999999998 154 69863 915 1005 9316 2133 106 84
leaf_count=10244 709 9453 1896 202 10644 11001 21445 3362 2722 4174 31654 363 41090 350 158 5974 4375 6631 1009 377 140 10862 396 1210 6197 258 1964 1298 154 12 154 69863 915 1005 9316 2133 106 84
internal_value=-0.000291892 0.00158955 0.00123444 0.0071483 0.000273586 0.000819845 0.00246728 0.00205565 0.00976932 0.00453805 0.00281635 -0.00400518 0.000244899 0.00416181 0.008474 0.00108411 0.00596852 0.00246785 0.00612267 0.00981672 0.0144527 -0.00106327 0.0156495 0.0050474 -0.000519299 0.0112875 0.00307585 0.00561133 -0.00192251 0.00570676 0.00199303 -0.00420439 0.000748894 0.00334914 -0.00267533 -0.00178229 0.000772107 0.00623371
internal_weight=273900 181791 170876 10915 96032 68175 74844 62435 5812 12409 35016 92109 50543 5103 4555 27419 6271 17632 2679 3099 1257 27857 1105 2219 17059 460 6138 1456 10798 152 2424 80107 1265 1159 12002 2686 553 190
internal_count=273900 181791 170876 10915 96032 68175 74844 62435 5812 12409 35016 92109 50543 5103 4555 27419 6271 17632 2679 3099 1257 27857 1105 2219 17059 460 6138 1456 10798 152 2424 80107 1265 1159 12002 2686 553 190
is_linear=0
shrinkage=0.0440977


Tree=4
num_leaves=39
num_cat=0
split_feature=7 26 2 18 4 38 2 30 13 33 14 1 34 32 26 33 38 29 34 9 13 38 34 38 18 2 29 27 1 33 28 28 32 28 9 15 13 13
split_gain=961.443 161.762 74.5481 40.1373 31.349 29.8784 22.3888 20.3223 19.6377 18.4446 15.6095 15.3521 13.8848 13.3455 11.703 9.16497 8.52538 8.45621 8.1835 7.92826 7.18657 7.14222 7.10097 7.07201 6.80328 5.05443 4.31139 3.90667 3.85864 3.46008 4.9757 2.94953 1.94023 1.92253 1.65422 1.65211 1.82427 5.25901
threshold=1.0000000180025095e-35 0.27535836398601538 -8.3310651779174787 -0.06908219680190085 -4.4774165153503409 0.49418559670448309 -14.63050603866577 0.0019131659064441921 0.03024999983608723 85.500000000000014 -0.2433424964547157 -4.2550718784332267 8.5554647445678729 2341.5000000000005 0.10723555833101274 54.500000000000007 0.21842826157808307 0.0095844944007694739 8.5554647445678729 0.79649999737739574 3.3654999732971196 -0.40653078258037562 174.70744323730472 -0.29855386912822718 -0.77816069126129139 -12.205648422241209 -0.041373385116457932 48.370262145996101 -4.2550718784332267 107.50000000000001 -0.00020071520702913401 -0.018293990753591057 906.50000000000011 -5.7945619413857222e-09 4.6080000400543222 2.1303592920303349 0.045250000432133682 0.040249999612569816
decision_type=2 2 2 2 2 2 2 2 2 2 2 2 2 2 2 2 2 2 2 2 2 2 2 2 2 2 2 2 2 2 2 2 2 2 2 2 2 2
left_child=8 3 4 5 6 11 12 9 33 10 -4 25 -3 21 32 -8 28 -15 24 -11 22 -9 -7 -13 -6 -2 -18 -20 -16 30 -10 -22 -5 -1 -34 -31 37 -37
right_child=1 2 7 14 18 20 15 13 29 19 -12 23 -14 17 16 -17 26 -19 27 -21 31 -23 -24 -25 -26 -27 -28 -29 -30 35 -32 -33 34 -35 -36 36 -38 -39
leaf_value=-0.48285734466551639 0.53027500925079651 2.6974702890018585 0.65478637052620758 -0.1637805507073361 2.207652339057006 0.17979707773388928 1.0337618608845014 -0.014978806572492773 -0.071349269950891164 0.32724099455195349 0.42146678021754125 -0.017746197477786625 1.2168424546286358 0.010940995118942727 0.1098758341054183 0.37950851944644881 -0.049278062625348402 1.6642684231966269 0.010665819363340202 0.02581022192979435 2.1150396454822236 0.25753333166407472 0.45082135564158476 0.083811275568981006 0.51531223590272002 0.18421385834984041 0.10252579120700848 0.68381616201662521 -0.091551394098742744 -0.48285734466551639 -0.48285734466551639 0.42350660308121874 -0.022495749669860371 -0.48285734466551639 0.52698981960707636 -0.42148027513904496 -0.48565274001480058 2.9983384294997975
leaf_weight=10244 376 753 10359 8896 676 15789 1586 6913 2940 14160 9925 27613 2972 232 1553 2142 2822 465 704 3876 62 10451 2501 18892 400 5945 6614 5211 14763 7284 5039 42 1070 69863 12.999999999999998 97 611 46
leaf_count=10244 376 753 10359 8896 676 15789 1586 6913 2940 14160 9925 27613 2972 232 1553 2142 2822 465 704 3876 62 10451 2501 18892 400 5945 6614 5211 14763 7284 5039 42 1070 69863 13 97 611 46
internal_value=-0.000369493 0.00155166 0.00318626 0.00046917 0.0060128 0.00107425 0.00800254 0.00246205 -0.00392253 0.00303682 0.00394912 0.000541255 0.0104208 0.00124246 -0.000736896 0.00558405 -0.00024007 0.00722116 0.00389071 0.00201064 0.00260487 0.00100207 0.00253867 0.000264077 0.00742741 0.00258015 0.000814945 0.0032462 -0.000850227 -0.00251267 -0.00186172 0.0141113 -0.00201886 -0.00420439 -0.000256288 -0.00315854 -0.00119152 0.0032767
internal_weight=273900 177776 70825 106951 14444 71220 7453 56381 96124 38320 20284 52826 3725 18061 35731 3728 25752 697 6991 18036 18394 17364 18290 46505 1076 6321 9436 5915 16316 16017 7979 104 9979 80107 1083 8038 754 143
internal_count=273900 177776 70825 106951 14444 71220 7453 56381 96124 38320 20284 52826 3725 18061 35731 3728 25752 697 6991 18036 18394 17364 18290 46505 1076 6321 9436 5915 16316 16017 7979 104 9979 80107 1083 8038 754 143
is_linear=0
shrinkage=0.0440977


Tree=5
num_leaves=39
num_cat=0
split_feature=9 2 26 1 1 24 37 24 9 12 4 5 3 26 0 2 34 32 30 4 9 25 13 32 29 32 25 9 24 37 34 36 6 30 32 13 29 6
split_gain=918.486 142.493 84.9362 32.9561 30.1329 23.7033 17.1651 14.377 14.2791 12.716 11.6333 11.4535 9.23939 8.97839 8.34217 7.79005 7.43247 6.00026 5.5724 5.52984 5.17483 4.6083 4.52984 4.45696 4.33328 4.04336 5.97052 3.32748 3.01944 2.88 2.4543 2.32797 1.81717 1.6888 1.54208 1.52572 5.34212 1.2653
threshold=0.03024999983608723 -10.58608818054199 0.17951904982328418 -4.7165269851684561 -14.610501766204832 0.29965823888778692 0.3877814263105393 0.72609406709671032 0.066500000655651106 1.0000000180025095e-35 -12.498062133789061 -2.5345984697341915 -19.11045932769775 0.10158281028270723 0.03024999983608723 -14.63050603866577 143.78106689453128 27.500000000000004 -0.013637195341289042 -11.509871482849119 3.9574999809265141 0.53323879837989818 0.11324999853968622 36.500000000000007 -1.0000000180025095e-35 203.50000000000003 0.40860213339328771 0.94224998354911815 0.038967143744230277 -2.0689361095428462 196.46909332275393 -1.8913466930389402 2.0004256963729863 1.1501783081513396e-08 85.500000000000014 0.036249998956918723 -1.0000000180025095e-35 -1.0000000180025095e-35
decision_type=2 2 2 2 2 2 2 2 2 2 2 2 2 2 2 2 2 2 2 2 2 2 2 2 2 2 2 2 2 2 2 2 2 2 2 2 2 2
left_child=9 4 5 12 11 8 7 -5 23 33 15 18 19 27 -8 22 -10 29 30 -4 -15 -14 -6 -3 -20 26 -12 -7 -17 -13 -2 -19 -27 -1 35 36 -11 -37
right_child=1 2 3 6 10 13 14 -9 16 34 25 17 21 20 -16 28 -18 31 24 -21 -22 -23 -24 -25 -26 32 -28 -29 -30 -31 -32 -33 -34 -35 -36 37 -38 -39
leaf_value=-0.46156443992703927 6.3760999512043615 -0.5014883830914586 1.5112979650663381 0.18883215882455409 1.3824421709315722 -0.080045449531400262 0.036452342647087028 0.019338351788295738 0.11792832620199388 -0.46156443992703927 0.82138122117689261 1.5270892606547706 0.47430504106227006 0.0040184585495743963 0.40844906146329085 1.0009538678847101 0.40011920433269738 2.9751200741874011 2.0208731122920605 1.0140638148503514 -0.10401046291645752 0.30337691812049183 0.92071831688386097 -0.0022469172612817967 2.0023246738084031 0.095759327554968771 0.54227531886798797 -0.16784251128399602 0.3652162377946418 2.2580339758254526 1.1137809160415177 0.58307830631193336 0.542616537463672 -0.46156443992703927 -0.46156443992703927 0.28770447355761114 8.2109846069649794 -0.46156443992703927
leaf_weight=70711 242 1918 598 52733 489 5806 1861 18259 14271 2354 2821 28 9348 19937 13360 312 2767 29 531 571 7578 3800 1689 6352 418 935 2869 9104 1545 392 23 608 645 9102 6831 512 12.999999999999998 2283
leaf_count=70711 242 1918 598 52733 489 5806 1861 18259 14271 2354 2821 28 9348 19937 13360 312 2767 29 531 571 7578 3800 1689 6352 418 935 2869 9104 1545 392 23 608 645 9102 6831 512 13 2283
internal_value=-0.000414073 0.00140124 0.00105058 0.00186381 0.00574696 -0.000156447 0.00153841 0.00125026 0.000911608 -0.00400961 0.00481502 0.010382 0.00382305 -0.000793585 0.0028822 0.00671408 0.00164134 0.00701479 0.0133055 0.00757953 -0.000321327 0.00348851 0.00850384 -0.000591809 0.0117021 0.00376022 0.00430826 -0.00166501 0.00461151 0.011103 0.0189819 0.00430609 0.00178511 -0.00421081 -0.00267035 -0.00209428 -0.00291812 -0.0013958
internal_weight=273645 181839 168263 100530 13576 67733 86213 70992 25308 91806 11305 2271 14317 42425 15221 4035 17038 1057 1214 1169 27515 13148 2178 8270 949 7270 5690 14910 1857 420 265 637 1580 79813 11993 5162 2367 2795
internal_count=273645 181839 168263 100530 13576 67733 86213 70992 25308 91806 11305 2271 14317 42425 15221 4035 17038 1057 1214 1169 27515 13148 2178 8270 949 7270 5690 14910 1857 420 265 637 1580 79813 11993 5162 2367 2795
is_linear=0
shrinkage=0.0440977


Tree=6
num_leaves=39
num_cat=0
split_feature=7 2 24 28 38 4 13 5 1 38 1 35 35 4 1 14 35 30 27 4 11 1 16 15 14 30 30 17 8 35 25 14 35 28 11 12 35 28
split_gain=901.017 116.942 76.9956 28.834 23.4417 21.1093 20.3844 17.8866 17.0947 15.9671 15.2633 12.9862 12.1135 11.6408 9.39144 8.95292 6.26134 6.12905 5.91128 6.23085 5.56824 5.41303 5.3795 5.24082 3.76569 3.08818 2.60782 2.57966 2.49142 2.18183 2.17285 2.13788 2.58251 1.99345 3.01547 2.12931 1.93718 1.83454
threshold=1.0000000180025095e-35 -12.205648422241209 0.28144285082817083 -0.014894837979227303 -0.40653078258037562 -3.124750971794128 0.03024999983608723 47.838544845581062 -5.2323241233825675 0.49418559670448309 -24.223912239074703 10.997303009033205 642.84152221679699 -20.9501838684082 -4.2550718784332267 -0.19776345789432523 10.997303009033205 -0.00016831999528221783 28.170653343200687 -24.375434875488278 0.005486988229677082 -24.223912239074703 0.589116930961609 1.0317816138267519 -0.67552068829536427 0.011450740043073894 0.021767161786556247 -26.358668327331539 0.024367492645978931 75.956649780273452 0.44409711658954626 -0.18257800489664075 10.997303009033205 -0.00020071520702913401 0.0017754713771864774 0.0041515990160405645 49.086910247802741 -0.0085438303649425489
decision_type=2 2 2 2 2 2 2 2 2 2 2 2 2 2 2 2 2 2 2 2 2 2 2 2 2 2 2 2 2 2 2 2 2 2 2 2 2 2
left_child=6 5 3 11 14 10 -1 13 16 -10 22 15 -9 -6 -4 -3 -5 21 27 -20 -13 37 29 28 -23 -16 -24 -12 -19 -2 -25 33 -33 34 35 -8 -36 -7
right_child=1 2 4 8 7 17 31 12 9 -11 18 20 -14 -15 25 -17 -18 23 19 -21 -22 24 26 30 -26 -27 -28 -29 -30 -31 -32 32 -34 -35 36 -37 -38 -39
leaf_value=-0.44121050359654179 2.717146500671479 4.0421194907862477 0.12724515420307833 0.94568557385535268 0.42578973340162479 3.3504023245464181 1.2710930720293554 0.79004243831214083 0.13869414177852141 0.31077739077944316 1.0360271604126636 2.0584307440060159 1.8146913426567728 0.043632216577489495 -0.06531736229629749 1.7021887282487742 0.4077112445641527 0.67647556546507404 1.731521500359632 0.82451651458945174 0.50882558115130738 1.0724069086505044 4.7071109849960431 1.3626591459536481 1.0079342792640535 -0.17772352654138418 0.41392901404554933 0.33115235953334127 0.10184448591428834 0.52646182993929769 0.60885118019892404 0.42223309086155314 -0.44121050359654179 -0.44121050359654179 -0.037004344227619931 -0.44388262840321896 -0.44121050359654179 6.2606148380866129
leaf_weight=79813 272 731 3240 1193 1495 22 296 1016 49415 16085 198 84 198 49731 24094 278 9171 884 1035 3198 3898 218 223 507 1185 6318 23 875 1490 63 589 216 10336 1854 1095 246 1995 65
leaf_count=79813 272 731 3240 1193 1495 22 296 1016 49415 16085 198 84 198 49731 24094 278 9171 884 1035 3198 3898 218 223 507 1185 6318 23 875 1490 63 589 216 10336 1854 1095 246 1995 65
internal_value=-0.000476276 0.00138165 0.00109336 0.00207056 0.000175585 0.00581831 -0.00392252 0.000758492 0.00185691 0.00159355 0.00760401 0.00531699 0.00604665 0.000633053 -0.000732757 0.00978445 0.00352101 0.00369777 0.00685854 0.00759993 0.0041828 0.00606306 0.0143886 0.00268067 0.00539286 -0.000973216 0.019353 0.00392938 0.0015151 0.0106963 0.00520168 -0.00248766 -0.00285488 -0.00178095 -0.00117982 0.00185162 -0.00171198 0.016687
internal_weight=273645 177794 166947 80855 86092 10847 95851 52440 75864 65500 5887 4991 1214 51226 33652 1009 10364 4960 5306 4233 3982 1490 581 3470 1403 30412 246 1073 2374 335 1096 16038 10552 5486 3632 542 3090 87
internal_count=273645 177794 166947 80855 86092 10847 95851 52440 75864 65500 5887 4991 1214 51226 33652 1009 10364 4960 5306 4233 3982 1490 581 3470 1403 30412 246 1073 2374 335 1096 16038 10552 5486 3632 542 3090 87
is_linear=0
shrinkage=0.0440977


Tree=7
num_leaves=39
num_cat=0
split_feature=7 26 25 32 18 38 13 3 26 32 6 12 26 1 2 18 38 15 1 3 2 36 26 13 1 36 2 6 7 32 35 29 14 28 28 38 15 13
split_gain=856.725 130.529 46.865 35.1081 34.2135 21.9909 21.5429 15.559 14.4808 14.0065 18.3504 12.7529 12.3406 12.3243 11.0599 10.2236 9.93275 9.56366 9.35111 9.09524 7.58167 7.36311 7.19945 7.0991 5.96318 4.79075 4.76049 4.09791 4.09034 2.76386 2.70717 7.56117 2.4909 2.46691 2.35593 1.93947 1.82455 2.07475
threshold=1.0000000180025095e-35 0.32140988111495977 0.41831165552139288 30.500000000000004 -0.06908219680190085 0.49418559670448309 0.03024999983608723 -19.11045932769775 0.11745466291904451 2341.5000000000005 69.875713348388686 0.19796326011419299 0.47649610042572027 -4.7165269851684561 44.446523666381843 -1.2370130419731138 0.77777355909347545 1.1828196048736574 -24.223912239074703 3.7746645212173466 -19.043008804321286 -0.018336955457925793 0.16912842541933062 0.11324999853968622 -3.8458609580993648 -1.3223398327827451 -14.63050603866577 16.891285896301273 0.06418680772185327 145.50000000000003 2695.9099121093755 -0.0016343764145858584 0.089230805635452284 -0.00020071520702913401 -5.7945619413857222e-09 0.375458374619484 2.2428077459335332 0.045250000432133682
decision_type=2 2 2 2 2 2 2 2 2 2 2 2 2 2 2 2 2 2 2 2 2 2 2 2 2 2 2 2 2 2 2 2 2 2 2 2 2 2
left_child=6 4 3 7 5 13 34 18 30 14 27 -12 20 25 17 -9 24 -4 -3 28 -5 -21 -15 -14 -10 -2 -18 -11 -7 33 35 -32 -16 -8 -1 -6 -31 -38
right_child=1 2 9 12 8 19 29 15 16 10 11 -13 23 22 32 -17 26 -19 -20 21 -22 -23 -24 -25 -26 -27 -28 -29 -30 36 31 -33 -34 -35 -36 -37 37 -39
leaf_value=-0.42175412931439327 0.74716245300692885 3.8241166131749829 0.27032006031908129 0.72488421527589142 -0.16980738464098322 0.13890439769332391 -0.31488054154513823 1.2847303346669938 0.14070983686497551 -0.2991890327263475 2.5350450569985177 0.061141775772038956 1.181327297617442 -0.01983995497718722 2.434446430692442 0.48930110035344893 0.68428853278757829 0.55040330008332627 1.433161272221303 0.42676518388104345 0.1913944834445791 0.26360584176463869 0.083013512226388128 0.51261338999907824 -0.060020080804408432 0.20569292022918309 0.12105741927968683 0.69880073743415105 0.94138774513199752 -0.42175412931439327 0.19571895509410892 -0.19397734851836207 -0.63523285195538703 -0.42175412931439327 -0.42175412931439327 -0.078849368871841602 1.9110217880485987 -0.42442625412107043
leaf_weight=10200 304 380 22461 371 8313 14265 3504 3058 2459 202 300 105 1643 25960 289 2134 70 8307 1515 1131 7857 4947 27002 7992 18974 6157 5023 249 49 6398 55 114 2152 5497 69613 3956 112 527
leaf_count=10200 304 380 22461 371 8313 14265 3504 3058 2459 202 300 105 1643 25960 289 2134 70 8307 1515 1131 7857 4947 27002 7992 18974 6157 5023 249 49 6398 55 114 2152 5497 69613 3956 112 527
internal_value=-0.000528005 0.00128368 0.00297878 0.0044308 0.000441459 0.000964374 -0.00388848 0.007057 -0.000629694 0.00191518 0.00748169 0.0142829 0.00338854 0.000535562 0.00177148 0.00580666 -4.75449e-05 0.00199815 0.0104779 0.00221386 0.00213388 0.00364301 0.000313728 0.00445965 -0.000463527 0.00235365 0.00170279 0.0013561 0.0016068 -0.00241343 -0.00187111 0.00365752 -0.00108529 -0.00190117 -0.00418485 -0.00194756 -0.00306829 -0.000819943
internal_weight=273645 177794 59015 24950 118779 79815 95851 7087 38964 34065 856 405 17863 59423 33209 5192 26526 30768 1895 20392 8228 6078 52962 9635 21433 6461 5093 451 14314 16038 12438 169 2441 9001 79813 12269 7037 639
internal_count=273645 177794 59015 24950 118779 79815 95851 7087 38964 34065 856 405 17863 59423 33209 5192 26526 30768 1895 20392 8228 6078 52962 9635 21433 6461 5093 451 14314 16038 12438 169 2441 9001 79813 12269 7037 639
is_linear=0
shrinkage=0.0440977


Tree=8
num_leaves=39
num_cat=0
split_feature=7 26 2 9 13 4 4 20 26 37 20 21 35 33 26 20 24 16 32 30 33 36 14 20 14 15 29 20 21 26 32 12 35 29 28 15 13 14
split_gain=826.329 114.421 46.3019 27.3034 21.8787 18.4711 17.7194 12.931 11.2352 10.8868 10.7347 9.77062 9.37252 8.4599 7.24204 6.8922 5.49985 4.84597 4.68658 4.6311 4.58689 3.97734 3.73762 3.71394 3.66869 3.51672 3.45639 3.35759 3.28509 2.97655 2.88124 2.62728 2.60702 9.61567 2.35593 1.82455 2.07475 4.79912
threshold=1.0000000180025095e-35 0.2561084926128388 -12.205648422241209 0.86625000834465038 0.03024999983608723 -24.375434875488278 -3.124750971794128 -0.043482528999447816 0.10723555833101274 0.31848970055580145 -0.27738741040229792 0.023434348404407505 181.40692138671878 45.500000000000007 0.16390516608953479 -0.067942764610052095 0.038967143744230277 -0.33938565850257868 549.50000000000011 -0.00016831999528221783 57.500000000000007 -0.66318196058273304 0.089230805635452284 -0.048313811421394341 -1.3494777679443357 1.0831632614135744 -0.041373385116457932 -0.048313811421394341 -0.10947471112012862 0.095669999718666091 145.50000000000003 0.0016937684849835934 2695.9099121093755 -0.01581192389130592 -5.7945619413857222e-09 2.2428077459335332 0.045250000432133682 -0.30867972970008845
decision_type=2 2 2 2 2 2 2 2 2 2 2 2 2 2 2 2 2 2 2 2 2 2 2 2 2 2 2 2 2 2 2 2 2 2 2 2 2 2
left_child=4 3 6 11 34 13 10 22 32 -9 21 14 29 23 17 28 -14 -2 -12 20 -8 -3 -7 -4 -15 -21 -17 -16 -10 -13 31 -6 -5 -34 -1 -32 37 -37
right_child=1 2 5 8 30 7 19 9 15 -11 18 12 16 24 27 26 -18 -19 -20 25 -22 -23 -24 -25 -26 -27 -28 -29 -30 -31 35 -33 33 -35 -36 36 -38 -39
leaf_value=-0.40315573664673776 0.097852085133980568 2.9386492829025479 1.5189626765566639 -0.14891493632725511 -0.40315573664673776 0.52028099499278724 1.5840368493309263 0.15692743874563031 0.44768853053599161 0.42321140706819799 0.99407822126336498 -0.077806652429170176 1.1450284638618271 0.14117628128370011 0.20220888613727084 -0.094648533252871939 0.27661675661104873 -0.027222412670837633 0.29515179609498304 0.34602422335852145 0.4960703333935037 2.5634034833616446 0.31433583830506195 1.1816295730544297 0.62567719993632875 1.06761157167757 -0.0046220028930775104 0.066254942134607669 0.14424539188084512 0.12178562848786471 -0.40315573664673776 -0.40315573664673776 0.27938464721756451 -0.049753520266261175 -0.40315573664673776 3.3980439094588708 -0.40571002685985125 -0.37390851820359466
leaf_weight=10200 3640 123 662 10833 4560 7264 852 38815 235 11178 4057 1436 464 1186 3075 6667 2963 20578 492 2371 561 457 4040 1362 2238 869 18497 15630 734 16358 6398 4441 20 137 69613 28 527 84
leaf_count=10200 3640 123 662 10833 4560 7264 852 38815 235 11178 4057 1436 464 1186 3075 6667 2963 20578 492 2371 561 457 4040 1362 2238 869 18497 15630 734 16358 6398 4441 20 137 69613 28 527 84
internal_value=-0.000585857 0.0011934 0.00248026 0.000220906 -0.00388618 0.00206495 0.00531354 0.00184619 -0.000730885 0.00154158 0.00710119 0.000771752 0.00154577 0.0045255 0.000389054 -0.000233364 0.00365723 -0.000114347 0.00637818 0.00334191 0.00544828 0.0127511 0.00319313 0.0067856 0.00318791 0.0024219 -0.000373951 0.0010408 0.00341416 0.00113893 -0.00239968 -0.00187668 -0.0019138 0.00371202 -0.00418485 -0.00306829 -0.000819943 0.00460489
internal_weight=273645 177794 76527 101267 95851 66745 9782 61297 37123 49993 5129 64144 21221 5448 42923 26133 3427 24218 4549 4653 1413 580 11304 2024 3424 3240 25164 18705 969 17794 16038 9001 10990 157 79813 7037 639 112
internal_count=273645 177794 76527 101267 95851 66745 9782 61297 37123 49993 5129 64144 21221 5448 42923 26133 3427 24218 4549 4653 1413 580 11304 2024 3424 3240 25164 18705 969 17794 16038 9001 10990 157 79813 7037 639 112
is_linear=0
shrinkage=0.0440977


Tree=9
num_leaves=39
num_cat=0
split_feature=7 26 3 26 38 13 32 1 1 18 2 6 1 24 32 25 28 11 27 36 35 28 36 2 38 30 5 32 29 28 28 15 5 38 15 13 14 39
split_gain=798.182 100.031 34.207 28.1153 24.699 22.9016 15.6764 14.7363 14.6424 12.6461 11.824 12.2147 9.01207 6.53184 6.52989 9.4446 6.41428 6.73653 6.2824 5.90903 5.82294 5.42152 4.7751 4.26227 4.05042 3.96084 3.54536 3.24801 3.01246 2.90719 2.35593 2.25657 2.16558 1.96892 1.82455 2.07475 4.79912 1.66033
threshold=1.0000000180025095e-35 0.32140988111495977 -19.11045932769775 0.10158281028270723 0.77777355909347545 0.03024999983608723 42.500000000000007 -4.7165269851684561 -4.7165269851684561 0.18086213618516925 44.446523666381843 95.775604248046889 -24.223912239074703 0.81056106090545665 64.500000000000014 0.51706415414810192 -0.036168368533253663 0.020858352072536949 22.626085281372074 -1.0000000180025095e-35 181.40692138671878 -4.4437947508413338e-05 -1.3223398327827451 -14.63050603866577 2.3554402589797978 0.0046306506264954814 29.311721801757816 145.50000000000003 -0.019544872455298897 -0.00020071520702913401 -5.7945619413857222e-09 1.000000596046448 10.147095680236818 1.184282183647156 2.2428077459335332 0.045250000432133682 -0.30867972970008845 1.449417293071747
decision_type=2 2 2 2 2 2 2 2 2 2 2 2 2 2 2 2 2 2 2 2 2 2 2 2 2 2 2 2 2 2 2 2 2 2 2 2 2 2
left_child=5 3 6 13 8 30 12 14 22 -10 11 -9 25 20 15 -4 18 -18 -8 23 26 -14 -5 -6 -21 -3 -2 29 -22 -7 -1 -16 -15 -12 -29 36 -36 -34
right_child=1 2 7 4 19 27 16 10 9 -11 33 -13 21 32 31 -17 17 -19 -20 24 28 -23 -24 -25 -26 -27 -28 34 -30 -31 -32 -33 37 -35 35 -37 -38 -39
leaf_value=-0.38537749056634296 -0.091295289633217008 4.5419809423806701 1.0212368780201466 0.6431084989090603 0.86022137872345261 -0.28321678362735969 0.37275340871062301 0.2673956082382597 0.047469741140277404 -0.066270674262254081 -0.73207548588440252 1.1639831547774624 1.6172262193982292 -0.16206642659046369 0.2683221159198072 0.25007567855743812 0.79679169479910028 0.24241349438204227 1.1587668216065545 0.12991838318236246 0.67376255471290414 0.81333023621431511 0.18565715563416946 0.27314020685516321 0.33473916275287485 1.5100018163773405 1.0892201284774721 -0.38537749056634296 0.17458098349314358 -0.38537749056634296 -0.38537749056634296 0.46656087950321101 -0.055963026807970898 0.69373566448645529 3.2481979434388419 -0.38781914242201382 -0.3574200075762386 0.23073069300956311
leaf_weight=10200 8123 418 4712 352 35 3504 373 36351 52240 19570 1860 2130 1574 8920 2680 1559 1145 2464 390 13017 4.9999999999999991 985 8150 3041 2591 81 39 6398 1863 5497 69613 1910 683 383 28 527 84 150
leaf_count=10200 8123 418 4712 352 35 3504 373 36351 52240 19570 1860 2130 1574 8920 2680 1559 1145 2464 390 13017 5 985 8150 3041 2591 81 39 6398 1863 5497 69613 1910 683 383 28 527 84 150
internal_value=-0.000635652 0.00111304 0.00259695 0.000375747 0.000679035 -0.00387928 0.00539427 0.00219394 0.00034306 0.000138167 0.00180895 0.00199037 0.00781621 -0.0011419 0.00363719 0.00456234 0.00369884 0.00292071 0.00737078 0.00212311 -0.000351693 0.00675418 0.00207342 0.00388954 0.00177476 0.0132381 -0.000860023 -0.00235844 0.00186867 -0.0018032 -0.00418485 0.0023725 -0.00195442 -0.00130289 -0.00306829 -0.000819943 0.00460489 0.000195636
internal_weight=273645 177794 59015 118779 98996 95851 7430 51585 80312 71810 40724 38481 3058 19783 10861 6271 4372 3609 763 18684 10030 2559 8502 3076 15608 499 8162 16038 1868 9001 79813 4590 9753 2243 7037 639 112 833
internal_count=273645 177794 59015 118779 98996 95851 7430 51585 80312 71810 40724 38481 3058 19783 10861 6271 4372 3609 763 18684 10030 2559 8502 3076 15608 499 8162 16038 1868 9001 79813 4590 9753 2243 7037 639 112 833
is_linear=0
shrinkage=0.0440977


Tree=10
num_leaves=39
num_cat=0
split_feature=9 26 1 38 12 30 38 24 1 15 24 34 2 26 6 16 30 35 35 34 35 26 18 25 28 26 16 6 35 28 33 28 15 12 6 15 32 6
split_gain=762.937 76.244 34.5556 25.98 15.2772 15.0315 14.1111 12.976 11.8223 11.639 9.14567 8.81666 8.59811 8.21611 7.14822 6.29926 6.10148 6.03581 6.00193 5.50755 4.87227 4.83542 4.44163 4.25061 3.29274 5.17898 3.19744 2.96884 2.55898 2.43944 2.1524 2.70701 1.90991 1.80319 2.7718 1.75479 1.69371 1.8124
threshold=0.03024999983608723 0.2561084926128388 -8.9648871421813947 0.21842826157808307 1.0000000180025095e-35 -0.00016831999528221783 -0.40653078258037562 0.72609406709671032 -4.2550718784332267 0.72350099682807933 0.34296686947345739 157.56207275390628 -10.58608818054199 0.50902053713798534 1.0000000180025095e-35 -0.33938565850257868 0.021767161786556247 7.0413429737091073 13.453361511230471 10.500382900238039 2695.9099121093755 0.11745466291904451 -1.0988626480102537 0.65666303038597118 -0.00010031597776105626 0.50902053713798534 0.83804315328598034 21.819409370422367 1046.8648071289065 -5.7945619413857222e-09 101.50000000000001 -0.00020071520702913401 0.81255245208740245 0.0041515990160405645 -1.9474772810935972 2.2428077459335332 272.50000000000006 -34.53483581542968
decision_type=2 2 2 2 2 2 2 2 2 2 2 2 2 2 2 2 2 2 2 2 2 2 2 2 2 2 2 2 2 2 2 2 2 2 2 2 2 2
left_child=4 3 5 8 29 17 12 11 -2 18 14 15 19 -11 -10 -5 -14 22 -8 -4 -12 28 -3 -13 25 -7 -23 -19 -9 -1 31 33 -26 34 -6 -32 -37 -38
right_child=1 2 6 7 30 24 9 21 10 13 20 23 16 -15 -16 -17 -18 27 -20 -21 -22 26 -24 -25 32 -27 -28 -29 -30 -31 35 -33 -34 -35 -36 36 37 -39
leaf_value=-0.36838322448415917 0.12124436724574755 4.2753551311854263 1.6090676968079427 0.24426801762441894 1.5255679987501227 0.33807167253904241 1.1404643545924664 -0.070365847461007658 -0.044376722180991479 0.21816364686729872 -0.090780327162897745 0.25300842456638062 0.10431564666240142 0.61388646004136393 0.10650303806823273 0.093346868764939375 -0.24863502980258961 0.98817785542771297 -0.22134608889036481 0.3872715940537711 0.11606042840892039 0.0089311520826407861 1.076113057475798 0.50583548117221522 0.13845095261589652 1.7209291753076024 0.11616503874541741 0.73853884883622922 0.20807154732758196 -0.36838322448415917 -0.36838322448415917 -0.36838322448415917 0.57852003932564389 -0.40540418708620435 0.0044209947153170106 -0.37071720507637784 -0.37071720507637784 0.76151996469718453
leaf_weight=10181 6632 371 595 3051 87 655 513 5054 16626 23924 32337 2085 22808 15115 10106 15783 2077 2414 2452 2377 1014 6008 192 1252 1022 761 2673 675 172 69768 5920 3787 3201 1337 278 299 83 208
leaf_count=10181 6632 371 595 3051 87 655 513 5054 16626 23924 32337 2085 22808 15115 10106 15783 2077 2414 2452 2377 1014 6008 192 1252 1022 761 2673 675 172 69768 5920 3787 3201 1337 278 299 83 208
internal_value=-0.000692201 0.000962317 0.00199103 0.00017018 -0.0039661 0.0045175 0.00165497 0.0011235 -0.000345361 0.00216536 -0.000540397 0.00178583 0.000885341 0.00236765 6.7301e-05 0.00141553 0.000617537 0.00672149 -0.00049807 0.00312674 -0.00102748 6.75343e-05 0.0109228 0.00387473 0.00308918 0.00492948 0.000705501 0.00595248 -0.000992136 -0.00418633 -0.0024985 -0.00185468 0.0024711 -0.000393592 0.00234947 -0.00304099 -0.000746155 0.00164611
internal_weight=273893 181945 79152 102793 91948 9291 69861 36078 66715 42004 60083 22171 27857 39039 26732 18834 24885 3652 2965 2972 33351 13907 563 3337 5639 1416 8681 3089 5226 79949 11999 5489 4223 1702 365 6510 590 291
internal_count=273893 181945 79152 102793 91948 9291 69861 36078 66715 42004 60083 22171 27857 39039 26732 18834 24885 3652 2965 2972 33351 13907 563 3337 5639 1416 8681 3089 5226 79949 11999 5489 4223 1702 365 6510 590 291
is_linear=0
shrinkage=0.0440977


Tree=11
num_leaves=39
num_cat=0
split_feature=9 26 1 38 9 12 3 9 38 24 0 18 3 26 38 34 34 34 4 26 9 5 22 36 34 32 24 32 11 5 30 30 32 12 15 32 32 30
split_gain=738.933 68.796 35.7759 20.1596 17.1634 16.0999 14.0114 12.7205 9.67982 9.67397 8.31658 10.2945 7.92313 7.41563 7.55003 7.25149 6.43333 6.3263 6.62332 6.08182 5.22288 5.04412 5.07595 4.99085 4.67168 4.50848 4.01964 3.2174 3.0876 3.13008 2.67578 2.55725 2.27127 2.12222 1.7117 1.71307 1.81812 1.38317
threshold=0.03024999983608723 0.19609556347131732 -8.9648871421813947 -0.35304865241050715 0.33525000512599951 1.0000000180025095e-35 -14.255047798156737 0.066500000655651106 0.49418559670448309 0.28144285082817083 0.03024999983608723 -3.1641684770584102 -16.253238677978512 0.10158281028270723 -0.43452855944633478 59.135251998901374 8.5554647445678729 157.56207275390628 2.3208791017532353 0.54474645853042614 3.9574999809265141 -23.948759078979489 50.544929504394538 0.12212113291025163 143.78106689453128 51.500000000000007 -0.25702069699764246 54.500000000000007 0.37949052453041082 23.335691452026371 -1.0000000180025095e-35 1.1501783081513396e-08 85.500000000000014 0.0016937684849835934 2.2428077459335332 315.50000000000006 906.50000000000011 -0.00088078452972695221
decision_type=2 2 2 2 2 2 2 2 2 2 2 2 2 2 2 2 2 2 2 2 2 2 2 2 2 2 2 2 2 2 2 2 2 2 2 2 2 2
left_child=5 4 6 9 7 31 16 17 24 12 15 -12 -4 28 37 -5 19 27 -19 -3 -16 22 -8 -10 -9 -11 -18 -2 29 -6 -23 -1 33 -7 -34 -36 -37 -15
right_child=1 2 3 10 13 32 21 8 23 25 11 -13 -14 14 20 -17 26 18 -20 -21 -22 30 -24 -25 -26 -27 -28 -29 -30 -31 -32 -33 34 -35 35 36 -38 -39
leaf_value=-0.35213836667501086 -0.40458970107916453 0.46757932404004687 0.59526245318859383 0.57189279421771144 -0.092532771598519914 -0.35213836667501086 0.76901615581826355 0.044577072284911895 0.38438262741931578 0.067155271607751504 0.66276115076513231 0.22574197340971794 0.12949983066185694 -0.03798055769250272 0.050540515571006681 -0.41489546476325401 7.1310618591393409 -0.016438209276890353 0.56826580332197929 4.4808508883131184 -0.066705158377147633 0.6384117195690675 4.0881419441253906 0.19235808060252438 0.26133455542914774 -0.078559473159010643 0.74985389441990058 -0.046651451515193239 -0.2440969501679803 0.14692060998337361 0.36336812705201338 -0.35213836667501086 -0.35213836667501086 -0.27831278172862856 -0.3543694240602811 0.91237097317913396 -0.3543694240602811 -0.11134008919921615
leaf_weight=70870 2538 176 2514 2330 12951 2971 696 12279 1988 6034 2770 47073 21642 4862 15258 2003 188 1445 639 496 5603 1788 129 3368 2278 9967 2248 5083 1733 82 4479 9079 6303 2094 367 170 94 7305
leaf_count=70870 2538 176 2514 2330 12951 2971 696 12279 1988 6034 2770 47073 21642 4862 15258 2003 188 1445 639 496 5603 1788 129 3368 2278 9967 2248 5083 1733 82 4479 9079 6303 2094 367 170 94 7305
internal_value=-0.000731646 0.000896636 0.00163454 0.00136625 -9.98024e-05 -0.00395364 0.00411538 0.000734291 0.00137227 0.000617464 0.00192126 0.00208235 0.0011745 -0.000616696 -0.000249402 6.81703e-05 0.00658416 -0.000574734 0.00157779 0.0104052 0.000259783 0.00303269 0.00627298 0.00297497 0.000782417 -0.000223493 0.00552624 -0.00116348 -0.00143817 -0.00120546 0.0026052 -0.00417971 -0.00244706 -0.00173658 -0.00296571 -0.000774502 0.00193031 -0.00112238
internal_weight=273893 181945 104533 94333 77412 91948 10200 29618 19913 40157 54176 49843 24156 47794 33028 4333 3108 9705 2084 672 20861 7092 825 5356 14557 16001 2436 7621 14766 13033 6267 79949 11999 5065 6934 631 264 12167
internal_count=273893 181945 104533 94333 77412 91948 10200 29618 19913 40157 54176 49843 24156 47794 33028 4333 3108 9705 2084 672 20861 7092 825 5356 14557 16001 2436 7621 14766 13033 6267 79949 11999 5065 6934 631 264 12167
is_linear=0
shrinkage=0.0440977


Tree=12
num_leaves=39
num_cat=0
split_feature=7 26 25 18 12 33 38 32 38 26 38 29 5 26 26 2 18 12 5 15 33 29 36 29 12 29 16 33 12 4 18 30 26 7 38 15 25 38
split_gain=724.35 68.9369 31.7702 28.3599 24.9116 21.5579 16.1662 14.2283 10.9179 9.80708 9.52856 9.48435 9.33076 8.29782 7.76937 7.56824 6.60641 9.58786 6.34077 6.24546 5.63952 5.12414 5.01327 5.00614 6.31264 4.36423 4.27649 4.09387 4.34362 3.85924 3.3529 2.55329 1.95923 1.78926 1.74574 1.70242 1.34929 1.1276
threshold=1.0000000180025095e-35 0.38311117887496954 0.44103755056858068 -1.1449183821678159 1.0000000180025095e-35 24.500000000000004 0.21842826157808307 6991.0000000000009 -0.21464366465806958 0.16390516608953479 0.040732329711318023 0.0095844944007694739 47.838544845581062 0.13107714056968692 0.50902053713798534 44.446523666381843 0.93658342957496654 0.3567109107971192 -7.3680071830749503 1.0831632614135744 72.500000000000014 -0.031675890088081353 0.03229081071913243 0.00028244925488252198 0.028308191336691383 -0.024609550833702084 -0.10159619897603987 107.50000000000001 0.0016937684849835934 -41.189094543457024 -2.9907571077346797 1.1501783081513396e-08 0.053302153944969184 1.2015853524208071 1.184282183647156 2.2428077459335332 0.32560910284519201 -0.32557272911071772
decision_type=2 2 2 2 2 2 2 2 2 2 2 2 2 2 2 2 2 2 2 2 2 2 2 2 2 2 2 2 2 2 2 2 2 2 2 2 2 2
left_child=4 3 5 8 31 14 13 15 23 21 37 -12 -11 32 33 19 17 -7 -16 -4 -15 -8 26 24 -2 -24 -10 28 36 -18 -25 -1 -5 -3 -17 -29 -6 -9
right_child=1 2 7 6 27 16 9 10 22 12 11 -13 -14 20 18 34 29 -19 -20 -21 -22 -23 25 30 -26 -27 -28 35 -30 -31 -32 -33 -34 -35 -36 -37 -38 -39
leaf_value=-0.33660986994774672 -0.028141611941245315 0.39656471648239067 0.14268411581038942 -0.27510879985388853 0.5292813811816125 0.37149935851574428 -0.13866396392053576 -0.2780010303133772 0.41822175054254612 0.12250088766828723 -0.25997534109311304 2.3840104906596551 1.5469032937781888 0.035892629346749486 1.9387238324417171 -0.70841095001041676 0.72194345301027318 1.1395644515422003 1.4314373157871758 0.46488382038855908 -0.069544541313738828 0.014883941042401629 1.4936148446194977 0.40790192909090728 0.23207907761106353 0.12692357632775964 0.21084274920403742 -0.33660986994774672 -0.16388177465444465 -0.05517133944989204 0.10800451098933789 -0.33660986994774672 -0.098941811410486441 -0.13529898636231369 0.99547222393230816 -0.33862470821057428 -0.33660986994774672 1.5885771322887781
leaf_weight=70875 15036 1330 14562 1115 4.9999999999999991 13081 2296 96 1956 12995 45 199 140 13968 2332 2086 119 2051 2747 6726 17904 11458 145 1111 3019 18054 7552 7315 3798 1664 8236 9079 15342 106 390 760 4144 56
leaf_count=70875 15036 1330 14562 1115 5 13081 2296 96 1956 12995 45 199 140 13968 2332 2086 119 2051 2747 6726 17904 11458 145 1111 3019 18054 7552 7315 3798 1664 8236 9079 15342 106 390 760 4144 56
internal_value=-0.000773507 0.0008921 0.00232854 0.000367559 -0.00386113 0.00348551 -0.000189245 0.00120643 0.00112753 0.000677454 0.00948601 0.0148672 0.00153919 -0.000671458 0.0056408 0.00106807 0.00265509 0.00295422 0.00645059 0.00133646 -0.000256233 -0.000145551 0.00174478 0.000503366 7.44883e-05 0.0013159 0.00256545 -0.00227383 -0.00156295 0.000116176 0.0013317 -0.00417918 -0.00147555 0.00277413 -0.00123908 -0.00297316 -0.00254917 0.000807016
internal_weight=273893 177917 47590 130327 95976 23430 75218 24160 55109 26889 396 244 13135 48329 6515 23764 16915 15132 5079 21288 31872 13754 27707 27402 18055 18199 9508 16022 7947 1783 9347 79954 16457 1436 2476 8075 4149 152
internal_count=273893 177917 47590 130327 95976 23430 75218 24160 55109 26889 396 244 13135 48329 6515 23764 16915 15132 5079 21288 31872 13754 27707 27402 18055 18199 9508 16022 7947 1783 9347 79954 16457 1436 2476 8075 4149 152
is_linear=0
shrinkage=0.0440977


Tree=13
num_leaves=39
num_cat=0
split_feature=7 24 21 13 38 28 38 35 5 1 1 2 35 11 35 33 13 24 5 35 32 38 12 25 33 28 11 17 38 6 28 33 18 25 6 27 35 13
split_gain=704.844 54.6141 29.2802 25.4936 19.3009 13.1491 12.322 11.7977 10.2146 9.86551 9.56816 9.05808 8.62997 8.33571 7.85079 7.47914 6.60868 7.04107 6.548 6.37235 5.17952 4.81393 4.467 4.24374 4.08678 4.85393 3.47119 3.46823 2.91966 2.73766 2.65905 2.54605 2.53036 2.22193 2.01533 1.74003 1.72269 1.4984
threshold=1.0000000180025095e-35 0.28144285082817083 -0.21208566427230832 0.03024999983608723 0.77777355909347545 -0.018293990753591057 -0.21464366465806958 8.4791784286499041 47.838544845581062 -3.8458609580993648 -4.7165269851684561 -10.58608818054199 2695.9099121093755 0.16405691206455233 12.130662441253664 2334.5000000000005 0.11324999853968622 -0.25702069699764246 23.335691452026371 75.956649780273452 1123.5000000000002 -0.35304865241050715 0.0084933838807046431 0.54948133230209362 107.50000000000001 -0.00020071520702913401 0.0044349059462547311 9.2320470809936541 1.494942903518677 95.775604248046889 -5.7945619413857222e-09 45.500000000000007 -1.290075898170471 0.29876181483268743 -56.816970825195305 61.617208480834968 86.161663055419936 0.050250001251697547
decision_type=2 2 2 2 2 2 2 2 2 2 2 2 2 2 2 2 2 2 2 2 2 2 2 2 2 2 2 2 2 2 2 2 2 2 2 2 2 2
left_child=3 2 7 30 9 14 10 22 11 31 -7 28 -8 15 23 -10 19 -18 21 -9 -20 -11 -2 -4 25 36 -16 -13 -6 -15 -1 33 -24 -3 -33 -27 37 -5
right_child=1 4 5 24 8 6 12 16 13 18 -12 27 -14 29 26 -17 17 -19 20 -21 -22 -23 32 -25 -26 35 -28 -29 -30 -31 -32 34 -34 -35 -36 -37 -38 -39
leaf_value=-0.32176614441677542 0.025731792362482117 0.28652086912791541 2.9414749246499934 0.51664826799775643 0.25054941240999334 0.31079585343922334 0.20825211255940379 1.5714957183271434 1.6227462320721102 -0.084201073832602308 0.046949531205550281 0.058396090693814372 0.84198211619857799 -0.16920035176959874 2.2174092915574182 2.0552826493586229 3.5874209682128826 0.33512863242688207 0.076408065119227403 0.3995967803545708 0.59814904858493978 -0.013590610532293332 5.2305055345084295 -0.35143472235769563 -0.32176614441677542 -0.32176614441677542 0.44291740216870223 0.17631568830836736 0.62859822653478392 1.6597060645310135 -0.32176614441677542 0.42696931940157778 1.6944241975022065 0.13914211457284428 0.048943804759735685 0.58381064751041989 -0.36477148124580566 -0.10113434194602913
leaf_weight=10181 90 1557 970 588 460 7616 38220 832 114 29243 32727 12792 568 115 49 43 548 2966 4981 645 561 28590 482 97 8075 5005 2794 2894 492 114 69768 29 198 1996 5134 6.9999999999999991 579 1773
leaf_count=10181 90 1557 970 588 460 7616 38220 832 114 29243 32727 12792 568 115 49 43 548 2966 4981 645 561 28590 482 97 8075 5005 2794 2894 492 114 69768 29 198 1996 5134 7 579 1773
internal_value=-0.000812148 0.00083088 0.00160484 -0.00385791 5.96266e-05 0.0013939 0.00127051 0.00464472 0.00139507 -0.000255747 0.000730917 0.00123025 0.00183171 0.0084777 0.00388998 0.0162715 0.00385943 0.00281774 -0.00044706 0.0063342 0.00100081 -0.00058582 0.00972323 0.00711426 -0.00225248 -0.00154256 0.0026778 0.000976575 0.00540463 0.00308684 -0.00417971 0.0011352 0.0109435 0.00204358 0.000509804 -0.00237686 -0.000119954 0.000408864
internal_weight=273893 177917 88802 95976 89115 83041 79131 5761 17024 72091 40343 16638 38788 386 3910 157 4991 3514 63375 1477 5542 57833 770 1067 16027 7952 2843 15686 952 229 79949 8716 680 3553 5163 5012 2940 2361
internal_count=273893 177917 88802 95976 89115 83041 79131 5761 17024 72091 40343 16638 38788 386 3910 157 4991 3514 63375 1477 5542 57833 770 1067 16027 7952 2843 15686 952 229 79949 8716 680 3553 5163 5012 2940 2361
is_linear=0
shrinkage=0.0440977


Tree=14
num_leaves=39
num_cat=0
split_feature=7 26 13 4 38 27 18 15 12 18 38 6 9 5 11 26 6 30 33 6 12 3 0 33 28 35 35 2 26 33 28 12 16 35 11 15 35 27
split_gain=686.013 55.2571 25.7857 20.3704 18.749 16.3784 12.7503 10.957 13.7113 9.83496 9.63362 8.64325 8.5528 7.31707 5.58435 5.43142 5.27691 5.45312 5.12892 5.09621 4.74394 4.71921 4.56592 4.21659 4.80505 4.04973 3.98202 3.09775 3.0755 2.97937 2.65905 2.64071 2.44812 2.1418 2.10245 1.97354 1.74676 1.73562
threshold=1.0000000180025095e-35 0.2561084926128388 0.03024999983608723 -24.375434875488278 0.375458374619484 32.005290985107429 -1.0988626480102537 0.72350099682807933 0.15421344339847567 -1.0071734786033628 -0.0791301093995571 3.6671246290206914 0.86625000834465038 -1.9616293311119077 0.025963515974581245 0.1266262233257294 -14.492673873901365 0.00046679461956955498 68.500000000000014 1.0000000180025095e-35 0.3567109107971192 -24.184686660766598 0.069249998778104796 107.50000000000001 -0.00020071520702913401 7.0413429737091073 2695.9099121093755 -4.4320504665374747 0.10158281028270723 2334.5000000000005 -5.7945619413857222e-09 0.17467648535966876 0.83804315328598034 313.44952392578131 0.37949052453041082 2.2428077459335332 86.161663055419936 61.617208480834968
decision_type=2 2 2 2 2 2 2 2 2 2 2 2 2 2 2 2 2 2 2 2 2 2 2 2 2 2 2 2 2 2 2 2 2 2 2 2 2 2
left_child=2 4 30 5 9 20 7 22 -9 14 18 -12 16 25 19 26 31 -18 -8 -2 -3 -22 -5 24 36 -7 -11 -17 34 -16 -1 -6 -30 -15 -14 -25 -4 -26
right_child=1 3 23 6 12 13 10 8 -10 15 11 -13 28 33 29 27 17 -19 -20 -21 21 -23 -24 35 37 -27 -28 -29 32 -31 -32 -33 -34 -35 -36 -37 -38 -39
leaf_value=-0.30757699323822285 -0.026367509273759682 0.22830469815153473 0.068191970861591913 -0.356151605181103 -0.0001852735286076106 4.5488372521892124 0.12399092518949775 0.27891248065272972 1.91965004928712 -0.1139084654630608 0.053157893720746294 0.39253418429903914 -0.032123408446765041 1.0433942970695089 0.35848761324520156 0.085384302353874453 0.12997885456943167 0.26657858990734629 -0.10929770753205476 0.087837256133580857 1.6268224538641833 0.50696885312477735 0.29661807215378161 -0.30757699323822285 -0.30757699323822285 1.1934104656977078 0.15066728174737484 -0.041153613069797146 0.0019273617105441253 1.4766555061529394 -0.30757699323822285 0.9323560537138319 0.10207200813966247 -0.43158104901986943 -0.26102365164802876 -0.30950298174103785 -0.34868589305441033 0.55806593296877993
leaf_weight=10181 18749 3677 2361 2090 3839 328 7958 33928 2867 15353 5977 7112 2567 1136 1222 3665 9822 5047 8043 11481 268 808 1189 7315 5005 1321 411 19836 5957 51 69768 61 2550 94 510 760 579 6.9999999999999991
leaf_count=10181 18749 3677 2361 2090 3839 328 7958 33928 2867 15353 5977 7112 2567 1136 1222 3665 9822 5047 8043 11481 268 808 1189 7315 5005 1321 411 19836 5957 51 69768 61 2550 94 510 760 579 7
internal_value=-0.000851271 0.00076966 -0.00385608 0.00166142 9.24052e-05 0.00382338 0.00142281 0.00193293 0.0021506 -0.000300844 0.00072003 0.00160726 0.00100925 0.00644776 0.000279529 -0.000766483 0.00159076 0.00196942 -5.78815e-06 0.000158996 0.00223271 0.00480694 -0.000509545 -0.00224148 -0.00152038 0.00836787 -0.00139972 -0.000341682 6.69925e-05 0.00313945 -0.00417971 0.000146954 0.00049913 0.00386885 -0.00112752 -0.00295132 -0.00010496 -0.00235047
internal_weight=273893 177917 95976 76796 101121 7632 69164 40074 36795 70768 29090 13089 30353 2879 31503 39265 18769 14869 16001 30230 4753 1076 3279 16027 7952 1649 15764 23501 11584 1273 79949 3900 8507 1230 3077 8075 2940 5012
internal_count=273893 177917 95976 76796 101121 7632 69164 40074 36795 70768 29090 13089 30353 2879 31503 39265 18769 14869 16001 30230 4753 1076 3279 16027 7952 1649 15764 23501 11584 1273 79949 3900 8507 1230 3077 8075 2940 5012
is_linear=0
shrinkage=0.0440977


Tree=15
num_leaves=39
num_cat=0
split_feature=7 24 12 3 28 37 18 20 7 15 32 39 4 29 35 8 4 18 32 28 25 15 32 24 29 4 28 17 8 17 0 23 15 6 34 32 15 32
split_gain=667.818 41.9056 25.1553 20.6556 12.6769 12.4232 12.4695 11.5451 11.2801 10.9017 7.73432 6.79822 5.71769 4.7331 4.59026 5.23175 4.1519 3.99433 3.90977 4.26333 3.90261 3.69751 3.64539 3.43113 3.21589 3.33691 2.95933 2.64606 2.56257 2.45196 2.39493 2.33862 2.01496 1.91389 2.71586 1.76271 1.47229 1.56889
threshold=1.0000000180025095e-35 0.23141658306121829 1.0000000180025095e-35 -19.11045932769775 -0.02831826917827129 0.71301561594009411 1.2591000199317934 -0.078581307083368288 0.06418680772185327 0.72350099682807933 80.500000000000014 4.3943772315979013 -29.531539916992184 0.057696809992194183 16.748416900634769 0.0022612651810050015 -6.4613559246063224 -0.60834667086601246 101.50000000000001 -0.00020071520702913401 0.44103755056858068 1.0831632614135744 340.50000000000006 0.047989463433623321 0.014565206598490478 -18.556230545043942 -5.7945619413857222e-09 12.950357437133791 0.016767991706728939 28.664624214172367 0.069249998778104796 36.398305892944343 1.4375256299972536 -5.3591873645782462 32.68025207519532 218.50000000000003 2.5163954496383671 315.50000000000006
decision_type=2 2 2 2 2 2 2 2 2 2 2 2 2 2 2 2 2 2 2 2 2 2 2 2 2 2 2 2 2 2 2 2 2 2 2 2 2 2
left_child=2 3 26 10 14 6 8 22 11 -9 20 -3 -10 16 17 -16 -8 -5 19 33 23 -15 -6 -2 25 31 -1 -26 35 -29 -30 -7 -27 34 -4 -12 -20 -38
right_child=1 5 18 4 7 24 13 9 12 -11 28 -13 -14 21 15 -17 -18 -19 36 -21 -22 -23 -24 -25 27 32 -28 29 30 -31 -32 -33 -34 -35 -36 -37 37 -39
leaf_value=-0.29401355117997802 2.1625195466275935 -0.0082702624471097854 1.1423168619525077 4.3037103722548062 0.53945830129763817 0.82118144072358401 -0.010241816383321544 -0.22582260527256584 0.82686233341734938 0.14610579603277468 0.89693697521513882 0.13551043218402983 0.18036724600286194 0.10443193201709819 14.60874576097955 0.53987460485113037 -0.13813864040299784 1.2596416022071806 -0.29401355117997802 -0.29401355117997802 0.54387580755942333 -0.070819109642270339 0.064826964979688095 0.56432673112417042 0.3904186550623247 0.0076999397868076367 -0.29401355117997802 1.3719372585658123 -0.5426874477786402 0.55025454349545222 0.32612775818757422 0.30212554929577862 0.23808784705269226 -0.24107192686633575 -0.3032314855729622 0.22701241756485965 -0.29657642741136603 0.32866845151017887
leaf_weight=10260 1906 53933 395 706 6325 94 3837 4049 480 60687 453 5566 9790 3731 37 1185 10793 241 7456 5082 489 4689 999 862 1219 2031 69594 190 279 157 1002 277 1281 2252 256 532 382 317
leaf_count=10260 1906 53933 395 706 6325 94 3837 4049 480 60687 453 5566 9790 3731 37 1185 10793 241 7456 5082 489 4689 999 862 1219 2031 69594 190 279 157 1002 277 1281 2252 256 532 382 317
internal_value=-0.000883421 0.000716688 -0.00384745 0.00146736 0.00127374 0.000106209 -1.18308e-05 0.00117372 0.000281954 0.000985943 0.0040689 4.89882e-05 0.0016315 -0.000901048 0.0045947 0.00280523 -0.00138041 0.00689841 -0.00225939 -0.00156545 0.00544521 -6.80773e-05 0.00283309 0.00608673 0.00219313 0.0014807 -0.0041684 0.00386664 0.00208915 0.00726092 0.000787704 0.00544109 0.00103556 -0.000217149 0.001887 0.00377916 -0.00293859 -0.00100165
internal_weight=273814 177820 95994 79752 74229 98068 92819 72060 69769 64736 5523 59499 10270 23050 2169 1222 14630 947 16140 7985 3257 8420 7324 2768 5249 3683 79854 1566 2266 347 1281 371 3312 2903 651 985 8155 699
internal_count=273814 177820 95994 79752 74229 98068 92819 72060 69769 64736 5523 59499 10270 23050 2169 1222 14630 947 16140 7985 3257 8420 7324 2768 5249 3683 79854 1566 2266 347 1281 371 3312 2903 651 985 8155 699
is_linear=0
shrinkage=0.0440977


Tree=16
num_leaves=39
num_cat=0
split_feature=9 2 24 38 12 20 33 29 15 37 12 20 29 38 23 22 34 34 28 13 23 36 33 3 28 28 7 7 30 12 20 28 32 29 24 9 13 30
split_gain=638.917 36.9435 24.1506 19.1731 18.1411 12.4689 10.597 14.6416 9.87147 8.49179 6.99625 6.26572 6.22999 4.38685 4.02674 3.93062 3.87248 3.62919 3.52221 3.31917 2.96637 2.78202 2.70481 2.28159 2.25868 2.32767 2.25606 2.15027 2.04567 1.99704 1.98022 4.26176 1.68276 1.38664 1.29628 1.74685 1.14761 1.28901
threshold=0.03024999983608723 -10.58608818054199 0.72609406709671032 0.70147556066513073 1.0000000180025095e-35 -0.029849344864487645 2334.5000000000005 0.0078679998405277746 0.72350099682807933 0.71301561594009411 0.41634589433670049 -0.15794706344604489 -0.041373385116457932 -0.35304865241050715 -11.765520095825194 50.544929504394538 113.18672943115236 7.3845520019531259 -5.7945619413857222e-09 0.14050000160932544 97.038623809814467 -0.87315303087234486 76.500000000000014 -5.2612085342407218 -1.0000000180025095e-35 -0.00020071520702913401 0.050136243924498565 0.69194233417510997 -0.051290566101670258 0.0041515990160405645 0.022576282732188705 -1.5589264876325611e-05 113.50000000000001 -0.041373385116457932 1.1638557314872744 2.6972500085830693 0.061499999836087234 6.5357507992303012e-05
decision_type=2 2 2 2 2 2 2 2 2 2 2 2 2 2 2 2 2 2 2 2 2 2 2 2 2 2 2 2 2 2 2 2 2 2 2 2 2 2
left_child=4 11 3 5 18 10 14 -8 -7 12 -3 16 23 -14 -5 30 21 27 -1 -19 33 26 24 -4 25 29 -2 -17 -23 -6 32 -32 -13 -11 -18 -36 37 -24
right_child=1 2 9 6 22 8 7 -9 -10 20 -12 15 13 -15 -16 17 34 19 -20 -21 -22 28 36 -25 -26 -27 -28 -29 -30 -31 31 -33 -34 -35 35 -37 -38 -39
leaf_value=-0.28104822590065909 1.0606033331489293 0.15329779728584955 -0.029706592014184029 0.32101151136770101 0.61846996622066175 -0.30250165452095024 0.20261582848730461 1.8231740188956778 0.04505784351102278 0.006042346719706976 1.924041157373056 0.37721257901205546 -0.06399552462937412 0.018979218755100606 0.15684552717585801 1.9227990512039284 0.033466875958710354 1.2954771774170835 -0.28104822590065909 0.5209058092791885 0.96398911145226673 4.0136528208799716 -0.28104822590065909 -0.13343818103847854 4.3195526709263383 -0.28104822590065909 2.5782351179311993 0.05643824053530111 1.0466671306412514 -0.32034431723964296 0.93044543707158078 0.36921539165568307 0.11496911746502909 0.24590441193686577 1.6019072496258284 0.26761343528712467 -0.28104822590065909 -0.15545869462648226
leaf_weight=10260 199 18644 3328 7039 328 4587 499 267 70597 612 904 5016 15135 20609 14799 183 349 364 69590 1043 177 105 2943 9651 7.9999999999999991 3447 81 43 1425 1094 804 978 2926 1455 12.999999999999998 23 3648 641
leaf_count=10260 199 18644 3328 7039 328 4587 499 267 70597 612 904 5016 15135 20609 14799 183 349 364 69590 1043 177 105 2943 9651 8 3447 81 43 1425 1094 804 978 2926 1455 13 23 3648 641
internal_value=-0.000896305 0.000618462 0.000440101 0.000788246 -0.00389183 0.000512881 0.00194221 0.00703724 0.000254902 -0.000361397 0.00150504 0.00283334 -0.00048357 -0.000183078 0.00176318 0.00241609 0.00499011 0.00441787 -0.00413304 0.00357981 0.00229033 0.00584398 -0.00230102 -0.00131104 -0.00149795 -0.00153844 0.00988667 0.00959659 0.00509817 -3.71882e-05 0.00207951 0.00340811 0.00178101 0.00181892 0.000971063 0.00881954 -0.0028423 -0.00228054
internal_weight=273814 181855 168303 117336 91959 94732 22604 766 75184 50967 19548 13552 48723 35744 21838 11357 2195 1633 79850 1407 2244 1810 12109 12979 4877 4869 280 226 1530 1422 9724 1782 7942 2067 385 36 7232 3584
internal_count=273814 181855 168303 117336 91959 94732 22604 766 75184 50967 19548 13552 48723 35744 21838 11357 2195 1633 79850 1407 2244 1810 12109 12979 4877 4869 280 226 1530 1422 9724 1782 7942 2067 385 36 7232 3584
is_linear=0
shrinkage=0.0440977


Tree=17
num_leaves=39
num_cat=0
split_feature=9 26 1 12 38 38 26 25 33 6 24 32 25 6 26 9 33 38 6 9 35 28 1 26 16 35 14 1 33 9 28 12 5 35 32 35 8 26
split_gain=628.651 45.0385 21.5478 17.997 14.6253 9.18887 8.82535 14.6823 8.57532 15.3804 5.86041 6.70412 6.0268 5.39474 4.98564 4.72536 4.64279 4.17591 4.13548 7.72747 3.78662 3.52221 3.15895 3.02235 3.00729 2.82528 2.67979 2.91267 2.51353 2.43674 2.26603 2.03759 1.96454 1.90724 1.6336 1.58181 1.55362 1.5332
threshold=0.03024999983608723 0.16912842541933062 -7.5573103427886954 1.0000000180025095e-35 0.77777355909347545 0.86304855346679699 0.50902053713798534 0.40860213339328771 7114.0000000000009 56.545295715332038 0.043491389602422721 136.50000000000003 0.42462226748466497 1.1181586384773257 0.10158281028270723 3.9574999809265141 90.500000000000014 -0.43452855944633478 48.488655090332038 0.17925000190734866 2695.9099121093755 -5.7945619413857222e-09 8.6014604568481463 0.074778471142053618 2.5322916507720952 151.61199188232425 -2.1117167472839351 -24.223912239074703 76.500000000000014 3.9574999809265141 -1.0000000180025095e-35 0.0016937684849835934 -3.111843347549438 86.161663055419936 95.500000000000014 313.44952392578131 0.003264548373408616 0.10723555833101274
decision_type=2 2 2 2 2 2 2 2 2 2 2 2 2 2 2 2 2 2 2 2 2 2 2 2 2 2 2 2 2 2 2 2 2 2 2 2 2 2
left_child=3 5 10 21 6 14 16 -8 13 -10 11 12 -3 -6 18 23 -4 32 20 -20 -2 -1 33 35 -25 -19 27 -12 30 -28 31 -5 -16 -17 -24 -7 -13 -33
right_child=1 2 4 28 8 15 7 -9 9 -11 26 36 -14 -15 17 22 -18 25 19 -21 -22 -23 34 24 -26 -27 29 -29 -30 -31 -32 37 -34 -35 -36 -37 -38 -39
leaf_value=-0.26865464181804316 -0.11524740890260382 1.5459204645883351 0.089023058968832489 -0.26865464181804316 0.13013660928354345 -0.15258389009492235 0.5715660049615614 0.14008132674360141 0.19835403381308719 2.0784267504629832 2.1214082149070705 0.51775654937289062 0.70921118341861888 0.36505416440361804 -0.10885822573691822 -0.08995690310604347 0.004158570926803393 -0.0067499449736839311 1.1190725079315982 0.10659907269322949 0.26500151270582589 -0.26865464181804316 0.37244536892590874 0.11322352515621546 0.24435168971549182 0.11773277394096554 0.30775969535543612 0.29497741392059185 -0.26865464181804316 -0.039648506116820879 4.1290702757614008 0.59119685498018115 -0.03904672755487007 0.57549402451752452 1.2911665238128476 0.14757314810090896 0.069656391486252606 -0.22717692127907399
leaf_weight=10260 16507 2395 29858 2907 9747 1040 7599 15764 250 117 91 335 1554 8535 6117 1827 34850 15671 28 165 370 69590 10.000000000000002 7193 494 3010 5953 602 7232 976 7.9999999999999991 93 9559 97 7.9999999999999991 178 955 1869
leaf_count=10260 16507 2395 29858 2907 9747 1040 7599 15764 250 117 91 335 1554 8535 6117 1827 34850 15671 28 165 370 69590 10 7193 494 3010 5953 602 7232 976 8 93 9559 97 8 178 955 1869
internal_value=-0.000921428 0.000581119 0.00108192 -0.00389279 0.000876408 -0.000380541 0.000638843 0.00137348 0.00199823 0.00866376 0.00278705 0.00392251 0.00482395 0.00186396 -0.000626551 0.000785774 0.000373585 -0.000320485 -0.00124252 0.00515989 -0.00131603 -0.00413304 -0.00118472 0.00121558 0.00153894 0.000124866 0.00200618 0.00461946 -0.0023083 0.00174418 -0.00153411 -0.00157466 -0.000851182 -0.00136073 0.0167107 -0.000824798 0.00116136 -0.000476247
internal_weight=273814 181855 119581 91959 106720 62274 88071 23363 18649 367 12861 5239 3949 18282 51427 10847 64708 34357 17070 193 16877 79850 1942 8905 7687 18681 7622 693 12109 6929 4877 4869 15676 1924 18 1218 1290 1962
internal_count=273814 181855 119581 91959 106720 62274 88071 23363 18649 367 12861 5239 3949 18282 51427 10847 64708 34357 17070 193 16877 79850 1942 8905 7687 18681 7622 693 12109 6929 4877 4869 15676 1924 18 1218 1290 1962
is_linear=0
shrinkage=0.0440977


Tree=18
num_leaves=39
num_cat=0
split_feature=9 1 18 12 38 4 15 37 12 1 32 6 30 6 22 17 30 28 37 1 32 4 33 4 38 28 18 28 4 0 11 22 6 36 15 12 13 30
split_gain=615.911 29.6951 18.7314 18.2856 14.8047 10.8733 9.44608 8.11464 7.77029 7.69375 7.65072 17.5023 6.20908 5.16657 4.88331 4.234 3.54593 3.52221 3.40738 3.28034 3.22419 2.98029 2.53647 2.52148 2.48306 2.26235 2.21773 2.19348 2.17506 2.14464 3.03311 2.13075 1.77547 1.72347 1.46551 1.41784 1.14857 1.3534
threshold=0.03024999983608723 -4.7165269851684561 -0.21908932924270627 1.0000000180025095e-35 0.77777355909347545 -16.597074508666989 0.72350099682807933 0.71301561594009411 0.3567109107971192 -14.610501766204832 6991.0000000000009 37.559246063232429 -9.1204114141874002e-05 6.6087102890014657 50.544929504394538 7.7911009788513192 -0.0076270580757409326 -5.7945619413857222e-09 0.51275986433029186 18.577749252319339 315.50000000000006 10.000850677490236 76.500000000000014 -10.605111122131346 -1.0719544887542722 -1.0000000180025095e-35 1.5191849470138552 -0.00020071520702913401 -18.556230545043942 0.16125000268220904 0.37949052453041082 193.2611999511719 1.1181586384773257 -1.3223398327827451 1.0483660697937014 0.0041515990160405645 0.061499999836087234 6.5357507992303012e-05
decision_type=2 2 2 2 2 2 2 2 2 2 2 2 2 2 2 2 2 2 2 2 2 2 2 2 2 2 2 2 2 2 2 2 2 2 2 2 2 2
left_child=3 9 4 17 5 8 -7 13 -3 12 15 -12 18 16 24 -6 -4 -1 31 -15 23 -20 25 -14 33 27 -26 35 34 30 -16 -2 -30 -11 -9 -5 37 -24
right_child=1 2 7 22 10 6 -8 28 -10 14 11 -13 20 19 29 -17 -18 -19 21 -21 -22 -23 36 -25 26 -27 -28 -29 32 -31 -32 -33 -34 -35 -36 -37 -38 -39
leaf_value=-0.25680758645276974 1.3111150702447656 0.20630089931574991 -0.010245579274704715 0.56556545910693112 0.13258703013715217 -0.27889386353017581 0.041987693061369985 0.89448977733645452 3.2888391883383585 0.29124302154594145 0.22006215442191965 2.0582468572821226 0.89708348819710426 0.018395146665315717 0.74015733777314818 0.35066981185029567 -0.098605564125153838 -0.25680758645276974 0.19458388654497874 -0.9628253826504598 -0.24652274418914849 10.861831453955759 -0.25680758645276974 0.44983501259883818 0.20251743001817932 3.9469877186426556 -0.020282196278364903 -0.25680758645276974 0.033566696939059483 0.47931350275480961 3.5822901558987699 4.4419785383791739 0.37740231371808525 -0.054602917248470939 0.77126461218652953 -0.29619988265069003 -0.25680758645276974 -0.13675626631924256
leaf_weight=10260 1293 6743 8995 328 13150 4846 75222 77 579 276 337 118 624 17232 949 5605 21258 69590 412 752 327 31 2943 2540 13746 7.9999999999999991 1236 3447 938 999 47 173 1192 2085 73 1094 3648 641
leaf_count=10260 1293 6743 8995 328 13150 4846 75222 77 579 276 337 118 624 17232 949 5605 21258 69590 412 752 327 31 2943 2540 13746 8 1236 3447 938 999 47 173 1192 2085 73 1094 3648 641
internal_value=-0.000949773 0.000537471 0.000313868 -0.00389087 0.000645325 0.000401663 0.000252902 -0.000385566 0.00202814 0.00195756 0.00175372 0.00739797 0.00342919 -0.000507091 0.00154646 0.0016164 -0.000858955 -0.00413304 0.00545103 8.48353e-05 0.00232233 0.00205591 -0.00229374 0.00275315 0.00130864 -0.00151603 0.00151809 -0.00155655 0.00218459 0.00361221 0.00505996 0.00647488 0.00182102 -2.05377e-05 0.00730094 -9.91667e-05 -0.00281791 -0.00225593
internal_weight=273814 181855 157117 91959 106600 87390 80068 50517 7322 24738 19210 455 5400 48237 19338 18755 30253 79850 1909 17984 3491 443 12109 3164 17343 4877 14982 4869 2280 1995 996 1466 2130 2361 150 1422 7232 3584
internal_count=273814 181855 157117 91959 106600 87390 80068 50517 7322 24738 19210 455 5400 48237 19338 18755 30253 79850 1909 17984 3491 443 12109 3164 17343 4877 14982 4869 2280 1995 996 1466 2130 2361 150 1422 7232 3584
is_linear=0
shrinkage=0.0440977


Tree=19
num_leaves=39
num_cat=0
split_feature=9 26 12 2 38 6 33 33 9 38 4 26 30 36 27 1 30 33 38 30 5 5 12 33 26 24 6 5 13 5 37 14 29 6 6 9 32 13
split_gain=606.437 39.086 18.2856 16.6609 13.0781 8.66329 11.9995 9.15484 7.60984 8.24801 6.21739 6.21576 6.18392 4.97575 4.78976 4.52898 4.45749 3.86127 3.39315 3.3388 2.9947 2.91217 2.8704 2.47777 2.4002 2.3268 2.19692 2.03854 2.01278 1.95118 2.46366 1.83707 2.25893 1.76017 1.33032 2.58605 1.22111 1.1742
threshold=0.03024999983608723 0.16912842541933062 1.0000000180025095e-35 -10.58608818054199 -0.35304865241050715 1.0000000180025095e-35 2334.5000000000005 136.50000000000003 3.9574999809265141 1.0000000180025095e-35 -29.531539916992184 0.074778471142053618 0.011450740043073894 -1.0000000180025095e-35 28.170653343200687 -8.9648871421813947 0.059272754937410362 90.500000000000014 1.064345180988312 1.1501783081513396e-08 17.497075080871586 16.072183609008793 0.0034858470316976313 76.500000000000014 0.10158281028270723 -0.25702069699764246 -1.0000000180025095e-35 -48.901262283325188 0.14050000160932544 5.1951265335083017 1.1486563682556155 -0.18257800489664075 -0.00076087683555670072 -1.0958000421524046 48.488655090332038 6.3444998264312753 272.50000000000006 0.061499999836087234
decision_type=2 2 2 2 2 2 2 2 2 2 2 2 2 2 2 2 2 2 2 2 2 2 2 2 2 2 2 2 2 2 2 2 2 2 2 2 2 2
left_child=2 8 19 10 12 7 -7 -6 9 16 14 21 15 -13 25 -5 20 22 -16 -1 -2 -11 -12 26 34 -3 31 -14 -19 33 -31 32 -4 -26 36 -36 -10 -25
right_child=1 3 23 4 5 6 -8 -9 24 11 17 13 27 -15 18 -17 -18 28 -20 -21 -22 -23 -24 37 29 -27 -28 -29 -30 30 -32 -33 -34 -35 35 -37 -38 -39
leaf_value=-0.24548295913816412 -0.064263285119310593 1.5899998533260393 0.036580503811898785 0.45144842183772249 0.15057582009932191 0.21249191474141577 0.91403006260307862 -0.035309108214720976 -0.15571903248099406 -0.14847413768006895 -0.35553298530494742 0.13949289690136357 0.34511138177231876 0.024917268482884808 2.0335877141258041 0.033277468700200027 0.83529936107678648 0.38468410416854754 0.15063535505567371 -0.24548295913816412 0.10792092070203921 0.49224887357406016 0.58013982063254232 -0.24548295913816412 -0.038779710741502604 0.2391847449176801 -0.24548295913816412 -0.15043371284056412 0.058091966835586199 0.007602605059227577 1.4034812916740975 -0.24548295913816412 1.4252280737150205 -0.13319190004043541 -0.21683922147307197 1.8157000698614703 -0.048978194505388865 -0.24548295913816412
leaf_weight=70702 27609 37 133 2489 19364 28809 998 11946 3894 2873 250 5365 103 13696 785 37282 7.9999999999999991 1264 169 9148 1249 53 6806 3584 2567 812 4302 5468 2999 1859 39 355 87 2333 36 33 660 3648
leaf_count=70702 27609 37 133 2489 19364 28809 998 11946 3894 2873 250 5365 103 13696 785 37282 8 1264 169 9148 1249 53 6806 3584 2567 812 4302 5468 2999 1859 39 355 87 2333 36 33 660 3648
internal_value=-0.000972481 0.000503281 -0.00389087 0.000969815 0.000787056 0.00120804 0.00174613 0.000695738 -0.000392579 -0.00016155 0.00245237 0.000481929 0.000219598 0.000772438 0.0048571 0.000412348 -0.000651682 0.00206893 0.00700022 -0.00413304 -0.000661337 -0.00141016 0.00270198 -0.00229374 -0.00142115 0.00244353 -0.00152507 -0.00115626 0.00102074 -0.00089376 0.000306523 0.00103354 0.00419028 -0.00135865 -0.0021963 0.0038428 -0.00228863 -0.00281182
internal_weight=273814 181855 91959 119581 106459 61117 29807 31310 62274 50853 13122 21987 45342 19061 1803 39771 28866 11319 954 79850 28858 2926 7056 12109 11421 849 4877 5571 4263 6798 1898 575 220 4900 4623 69 4554 7232
internal_count=273814 181855 91959 119581 106459 61117 29807 31310 62274 50853 13122 21987 45342 19061 1803 39771 28866 11319 954 79850 28858 2926 7056 12109 11421 849 4877 5571 4263 6798 1898 575 220 4900 4623 69 4554 7232
is_linear=0
shrinkage=0.0440977


Tree=20
num_leaves=39
num_cat=0
split_feature=7 26 13 18 25 32 38 15 12 26 24 24 0 35 26 20 25 5 35 38 33 32 5 32 28 24 27 25 28 16 4 15 25 11 38 16 33 25
split_gain=584.649 36.7771 26.1034 17.3168 15.6542 14.1915 11.1987 10.5019 8.2286 7.70762 7.46255 6.88473 7.39273 5.84102 4.58504 4.55242 4.32992 5.66418 4.32826 4.06728 4.03248 4.03126 3.93343 3.92564 3.45392 2.97386 2.87144 4.48259 2.76097 2.75344 2.04922 2.00547 1.8448 2.31318 1.76956 1.69634 1.6557 1.4494
threshold=1.0000000180025095e-35 0.50902053713798534 0.03024999983608723 -1.1899058818817136 0.43295790255069738 42.500000000000007 0.77777355909347545 1.0831632614135744 0.0016937684849835934 0.14075978845357898 0.093112614005804076 0.038967143744230277 0.062249999493360526 8.4791784286499041 0.19609556347131732 0.29066668450832372 1.2142906188964846 2.6163870096206669 2695.9099121093755 -0.51750671863555897 113.50000000000001 72.500000000000014 64.307186126708999 6991.0000000000009 -5.7945619413857222e-09 0.024844934232532982 28.170653343200687 0.37759190797805792 -0.00020071520702913401 2.1818480491638188 -20.9501838684082 10.528032302856447 0.37759190797805792 0.0017754713771864774 1.064345180988312 -2.087180376052856 42.500000000000007 0.69419249892234813
decision_type=2 2 2 2 2 2 2 2 2 2 2 2 2 2 2 2 2 2 2 2 2 2 2 2 2 2 2 2 2 2 2 2 2 2 2 2 2 2
left_child=2 3 24 8 5 10 9 16 21 18 13 25 -13 -3 29 23 17 -6 -5 -11 28 -2 -16 -9 -1 -10 30 -28 32 -8 -7 -12 33 -4 -18 -23 -34 -17
right_child=1 4 20 6 7 26 14 15 11 19 31 12 -14 -15 22 37 34 -19 -20 -21 -22 35 -24 -25 -26 -27 27 -29 -30 -31 -32 -33 36 -35 -36 -37 -38 -39
leaf_value=-0.23465772199184035 -0.43625483066438114 3.2212590051652699 1.8773957630224989 -0.088359390726290149 -0.14760886160246534 0.1861558761705 -0.0021318035551685546 0.60872551196642888 -0.42857050571775274 -0.055035601250974397 0.40287631794017198 -0.072796847067863046 0.095211482300321754 1.2698889601129491 0.16265225772510303 2.4242343260050956 -1.6509055084752116 0.23188785450503951 0.15905266646743244 0.021078047299385061 -0.23465772199184035 6.1066627833611609 1.8383180577079103 1.7761902690136984 -0.23465772199184035 0.3628210654752686 0.56082078913146249 0.18903399699427439 -0.23465772199184035 0.18743179131252857 -0.27339908921596112 5.5690197656748994 0.040457973110452357 0.46212422513571827 0.52835026521982453 0.017688503741154667 -0.25537614281165794 -0.94678083920207734
leaf_weight=10202 1860 1367 19 23544 4052 2422 8744 3924 501 18325 2054 7767 42172 3111 6245 162 650 8448 582 24926 7979 11.999999999999998 46 130 69480 7568 3122 2201 5173 795 719 36 1658 184 200 1281 1172 427
leaf_count=10202 1860 1367 19 23544 4052 2422 8744 3924 501 18325 2054 7767 42172 3111 6245 162 650 8448 582 24926 7979 12 46 130 69480 7568 3122 2201 5173 795 719 36 1658 184 200 1281 1172 427
internal_value=-0.00102377 0.000475718 -0.00379841 0.000172029 0.00180324 0.0028536 -0.000242038 0.000925625 0.000735345 -0.000490012 0.00439165 0.000854602 0.000661465 0.00540711 0.000813373 0.00273189 0.000297265 0.000504436 -0.0011215 -0.000137743 -0.00218364 -0.00145827 0.00173742 0.00325812 -0.00412637 0.0020497 0.00165972 0.00228357 -0.00149697 0.000203847 0.000602097 0.00221437 -0.000440397 0.00360996 -0.00274639 0.000432797 -0.000732107 -0.00088943
internal_weight=273260 177393 95867 144368 33025 15032 83207 17993 61161 67377 6568 58008 49939 4478 15830 4643 13350 12500 24126 43251 16185 3153 6291 4054 79682 8069 8464 5323 8206 9539 3141 2090 3033 203 850 1293 2830 589
internal_count=273260 177393 95867 144368 33025 15032 83207 17993 61161 67377 6568 58008 49939 4478 15830 4643 13350 12500 24126 43251 16185 3153 6291 4054 79682 8069 8464 5323 8206 9539 3141 2090 3033 203 850 1293 2830 589
is_linear=0
shrinkage=0.0440977


Tree=21
num_leaves=39
num_cat=0
split_feature=10 1 38 28 18 7 34 25 3 37 36 0 3 35 0 32 18 12 7 29 12 9 32 38 34 25 29 32 28 29 38 38 12 3 34 6 14 15
split_gain=574.94 24.583 16.6107 13.0791 9.26024 10.0507 9.14909 13.0816 7.71814 7.24214 7.06135 5.53208 4.96639 4.48214 3.84531 3.54464 4.28767 4.73342 3.43489 3.79517 2.93609 3.14889 2.78948 2.57635 2.49461 2.19928 2.03227 3.62402 2.03066 2.08799 1.80248 1.6028 1.5118 1.47373 1.38692 2.8573 1.28876 1.28131
threshold=1.0000000180025095e-35 -4.7165269851684561 -0.0791301093995571 -5.7945619413857222e-09 -1.0988626480102537 1.0000000180025095e-35 157.56207275390628 0.51706415414810192 -16.253238677978512 0.64032062888145458 -0.11640350148081778 0.03024999983608723 -34.958820343017571 139.63459777832034 0.03024999983608723 252.50000000000003 -0.84106749296188343 0.12303051725029947 0.0084243835881352442 -0.031675890088081353 0.3567109107971192 3.9574999809265141 606.50000000000011 1.494942903518677 85.89166641235353 0.42462226748466497 -3.1987397960619994e-05 76.500000000000014 -0.036168368533253663 1.0000000180025095e-35 -0.54632523655891407 1.064345180988312 0.057302460074424751 17.014827728271488 21.317213058471683 -22.615113258361813 -0.28357613086700434 0.70710772275924694
decision_type=2 2 2 2 2 2 2 2 2 2 2 2 2 2 2 2 2 2 2 2 2 2 2 2 2 2 2 2 2 2 2 2 2 2 2 2 2 2
left_child=3 12 4 26 5 24 9 14 -7 10 -4 -11 20 -9 -8 16 17 -14 32 -20 22 30 25 -18 -3 -2 27 -1 33 -30 -22 -23 -6 -17 35 -29 -36 -28
right_child=1 2 6 -5 18 8 7 13 -10 11 -12 -13 15 -15 -16 28 23 -19 19 -21 21 31 -24 -25 -26 -27 37 34 29 -31 -32 -33 -34 -35 36 -37 -38 -39
leaf_value=-0.22430985304934453 1.2767241091802084 -0.22430985304934453 0.14966331134507829 -0.22430985304934453 -0.1508198612718232 0.56735255032717891 -0.22430985304934453 1.297976265974762 0.033434537825350649 -0.20232990057260392 0.0051782457889732528 0.28145778497330531 0.27166138787434851 0.36812643128722983 0.092787936299372792 0.24963887612872296 0.089880570776734212 1.7841561824216028 -0.1070014610746423 -0.032545469251868971 7.2389685164372173 1.2714426824181311 -0.61054917713505408 0.35301672885065583 -0.22430985304934453 -0.48388395446814703 -0.077317478965824013 0.61231592103641863 -0.091243122155122869 0.17314958014504739 5.775475323231869 1.2199210298987786 -0.00981849326563701 0.97797785797598413 -0.22430985304934453 -0.22430985304934453 -0.22430985304934453 -0.22430985304934453
leaf_weight=2587 513 2488 8221 69502 3972 2348 737 107 37186 1552 45232 7141 11038 4923 4027 245 5821 1674 8653 30366 64 129 119 579 1622 71 223 20 2125 2097 169 25 777 9.9999999999999982 312 40 6241 10304
leaf_count=2587 513 2488 8221 69502 3972 2348 737 107 37186 1552 45232 7141 11038 4923 4027 245 5821 1674 8653 30366 64 129 119 579 1622 71 223 20 2125 2097 169 25 777 10 312 40 6241 10304
internal_value=-0.00104523 0.000363239 0.000162661 -0.00395011 -0.000245781 0.000208742 0.000658942 0.00191158 0.000424524 0.000461504 0.000269515 0.00164187 0.00165831 0.00347978 0.000255423 0.0015237 0.00178532 0.00225397 -0.000699012 -0.000562693 0.00456741 0.00764891 0.00286259 0.000854259 -0.00186646 0.00411579 -0.00294767 -0.00246825 0.000406706 0.000175429 0.0108737 0.00273121 -0.00181868 0.00422029 -0.00301563 0.00361457 -0.00307688 -0.00336639
internal_weight=273260 184031 159352 89229 87412 43644 71940 9794 39534 62146 53453 8693 24679 5030 4764 23589 19112 12712 43768 39019 1090 387 703 6400 4110 584 19727 9200 4477 4222 233 154 4749 255 6613 60 6553 10527
internal_count=273260 184031 159352 89229 87412 43644 71940 9794 39534 62146 53453 8693 24679 5030 4764 23589 19112 12712 43768 39019 1090 387 703 6400 4110 584 19727 9200 4477 4222 233 154 4749 255 6613 60 6553 10527
is_linear=0
shrinkage=0.0440977


Tree=22
num_leaves=39
num_cat=0
split_feature=7 26 12 2 9 38 38 26 34 4 27 29 32 4 30 27 37 28 6 34 35 33 12 29 4 30 6 9 6 28 7 36 39 16 35 26 22 27
split_gain=564.328 30.0414 26.9348 10.5732 9.11331 8.77861 8.3752 7.19238 5.82287 5.31595 5.62028 4.72037 4.39133 4.36314 3.53891 4.4717 3.51203 3.46835 3.24319 3.1359 3.00345 2.65863 4.90375 6.58106 2.71562 2.37939 2.43084 2.29245 2.2654 2.18292 2.12155 2.11807 1.80171 1.68259 1.43839 2.2086 1.37406 1.28882
threshold=1.0000000180025095e-35 0.22444981336593631 1.0000000180025095e-35 -10.58608818054199 3.9574999809265141 -0.43452855944633478 -0.6069776415824889 0.074778471142053618 157.56207275390628 -3.124750971794128 32.005290985107429 -0.40100055932998652 90.500000000000014 -20.9501838684082 0.0019131659064441921 35.002435684204109 -2.0689361095428462 -5.7945619413857222e-09 69.875713348388686 8.5554647445678729 2695.9099121093755 314.50000000000006 0.30521972477436071 0.085736285895109191 -5.9799149036407462 -0.00016831999528221783 -19.548323631286618 0.06024999916553498 25.881576538085941 -0.00020071520702913401 0.0026914766058325772 -0.38561105728149409 6.4752917289733896 1.3787627220153811 8.4791784286499041 0.053302153944969184 -35.177917480468743 61.617208480834968
decision_type=2 2 2 2 2 2 2 2 2 2 2 2 2 2 2 2 2 2 2 2 2 2 2 2 2 2 2 2 2 2 2 2 2 2 2 2 2 2
left_child=2 4 17 9 5 16 14 20 -9 10 31 -8 29 -13 15 -5 30 -1 -18 -12 -7 24 23 -23 36 26 -11 -16 -27 -4 -2 -3 -26 -24 35 -31 -6 -36
right_child=1 3 12 6 21 7 11 8 -10 25 19 13 -14 -15 27 -17 18 -19 -20 -21 -22 22 33 -25 32 28 -28 -29 -30 34 -32 -33 -34 -35 37 -37 -38 -39
leaf_value=-0.21441830146449692 -0.22842905470389427 0.50374712488717033 -0.092483033312009869 -0.069298208633431418 0.25763046227147157 -0.1401739582584835 -0.15591776406381105 0.03114778481896617 0.15812470501827022 1.7314363123180954 1.5002113657731315 0.39901944008306117 -0.21441830146449692 0.14130189848654473 1.7406794480807766 0.13313216634792613 -0.057564818175094269 -0.21441830146449692 0.75773784477783512 0.56514447952886515 0.33839275392901691 0.13273401695433298 -0.17976876121022364 0.48389541926723173 -0.11885556460097667 0.003351065421089732 0.52184667924421058 -0.12328904785266782 0.6313913679471298 1.3194518438568645 0.66666297602876534 0.038845894989621411 0.058889051018466018 3.5208027170402816 -0.21441830146449692 0.054991100961431165 -0.0069543171483903423 0.54547865618277791
leaf_weight=10202 175 308 2710 4055 59 3758 1123 36004 6443 198 1033 4892 8568 47827 137 11078 26938 69488 177 3679 142 572 573 70 11034 3001 1545 6964 850 11.999999999999998 437 1533 641 39 4743 139 2108 4.9999999999999991
leaf_count=10202 175 308 2710 4055 59 3758 1123 36004 6443 198 1033 4892 8568 47827 137 11078 26938 69488 177 3679 142 572 573 70 11034 3001 1545 6964 850 12 437 1533 641 39 4743 139 2108 5
internal_value=-0.0010646 0.0004086 -0.00379059 0.00098553 -0.000162207 3.90514e-05 0.000792607 0.000410358 0.00057688 0.00219363 0.00304593 0.00108993 -0.00214983 0.0011502 7.25861e-05 0.00045368 -0.000581598 -0.00412363 -0.000656198 0.00385305 -0.00140172 -0.00114969 0.000794109 0.00348392 -0.00132583 0.00119485 0.00254624 -0.000739516 0.000582702 -0.00137856 0.00271924 0.00097915 -0.00159191 -0.00202864 -0.001934 0.00229192 0.000107802 -0.00206885
internal_weight=273260 177393 95867 88223 89170 74074 76076 46347 42447 12147 6553 53842 16177 52719 22234 15133 27727 79690 27115 4712 3900 15096 1254 642 13842 5594 1743 7101 3851 7609 612 1841 11675 612 4899 151 2167 4748
internal_count=273260 177393 95867 88223 89170 74074 76076 46347 42447 12147 6553 53842 16177 52719 22234 15133 27727 79690 27115 4712 3900 15096 1254 642 13842 5594 1743 7101 3851 7609 612 1841 11675 612 4899 151 2167 4748
is_linear=0
shrinkage=0.0440977


Tree=23
num_leaves=39
num_cat=0
split_feature=10 1 38 28 18 0 18 7 34 12 22 25 5 29 35 4 5 32 5 34 7 18 11 1 0 29 32 35 29 34 16 11 11 14 5 23 35 13
split_gain=556.101 19.894 13.8834 13.1769 7.84342 7.92863 7.72351 9.4472 7.67689 7.42897 5.11598 3.74491 3.66248 3.24891 5.04453 3.68949 3.20126 3.05642 3.43031 2.43398 2.23743 2.88541 4.20985 2.12139 2.03244 2.01606 3.68779 1.74321 1.60231 1.38692 1.40831 1.35911 1.39226 1.28876 1.16057 0.968835 0.868804 0.821206
threshold=1.0000000180025095e-35 -4.7165269851684561 -0.0791301093995571 -5.7945619413857222e-09 1.2591000199317934 0.03024999983608723 -1.0988626480102537 1.0000000180025095e-35 157.56207275390628 0.044297577813267715 50.544929504394538 0.37759190797805792 -48.901262283325188 -0.0025198331568390127 2695.9099121093755 -3.9980970621109004 5.9341270923614511 549.50000000000011 -30.40874099731445 85.89166641235353 0.0019533238373696808 -1.1449183821678159 0.077789135277271285 -0.54190054535865773 2.9450000524520878 -3.1987397960619994e-05 76.500000000000014 165.900260925293 -0.40100055932998652 21.317213058471683 0.49106752872467047 0.00070913290255703043 0.0026397708570584659 -0.28357613086700434 0.77039489150047313 -52.06341361999511 1046.8648071289065 1.7910000085830691
decision_type=2 2 2 2 2 2 2 2 2 2 2 2 2 2 2 2 2 2 2 2 2 2 2 2 2 2 2 2 2 2 2 2 2 2 2 2 2 2
left_child=3 10 6 25 5 11 7 19 -7 -9 20 -4 23 14 -8 -15 -14 18 27 -3 34 22 -22 -6 -20 26 -1 -12 -23 30 -28 36 -33 -31 -2 -36 -5 -19
right_child=1 2 4 31 12 8 13 9 -10 -11 17 -13 16 15 -16 -17 -18 37 24 -21 21 28 -24 -25 -26 -27 29 -29 -30 33 -32 32 -34 -35 35 -37 -38 -39
leaf_value=-0.20496294468529694 -0.10193449608871528 -0.20496294468529694 0.2610316284559423 -0.20496294468529694 2.0654801719485478 0.073713107130945185 -0.10031585151218504 0.012682728708026534 0.250956589223086 0.40740141466960911 2.3881846188270734 -0.20496294468529694 -0.077365468034335319 0.084854923230618898 0.14246536255730657 -0.057591287338962606 0.053043057091531932 -0.23272605163818852 0.60542803838721804 -0.20496294468529694 0.23109620583858334 -0.21897257445961954 1.723084948018283 0.40327654061142387 -0.12010406522952297 -0.20496294468529694 0.55788980327012405 -0.10448514988556215 0.10936740122987143 -0.20496294468529694 -0.20496294468529694 6.7680020270249468 -0.20496294468529694 -0.20496294468529694 -0.23536352485052492 0.2973035038324886 -0.20496294468529694 1.0722486029769769
leaf_weight=2587 1155 2488 760 68507 13.000000000000002 47498 18594 33708 8658 5826 364 4437 7253 4246 607 20321 3305 314 1977 1622 10538 321 1500 15.999999999999998 212 10527 29 41 7857 312 31 4.9999999999999982 6 6241 74 264 984 62
leaf_count=2587 1155 2488 760 68507 13 47498 18594 33708 8658 5826 364 4437 7253 4246 607 20321 3305 314 1977 1622 10538 321 1500 16 212 10527 29 41 7857 312 31 5 6 6241 74 264 984 62
internal_value=-0.00109026 0.000294947 0.00011451 -0.00394715 0.000568223 0.000759494 -0.000258898 0.000156203 0.000911997 0.000365407 0.00145998 -0.000888233 -0.000540186 -0.000672816 -0.00110256 -0.000336908 -0.00058385 0.00317634 0.00371474 -0.00185573 0.00122503 0.00134668 0.0017809 0.0148462 0.0030224 -0.00294097 -0.00246345 0.00744013 0.000707374 -0.00301563 0.00361457 -0.00423269 0.0106569 -0.00307688 -0.000422088 0.00184716 -0.0042352 -0.000538063
internal_weight=273260 184031 159352 89229 71940 61353 87412 43644 56156 39534 24679 5197 10587 43768 19201 24567 10558 2970 2594 4110 21709 20216 12038 29 2189 19727 9200 405 8178 6613 60 69502 11 6553 1493 338 69491 376
internal_count=273260 184031 159352 89229 71940 61353 87412 43644 56156 39534 24679 5197 10587 43768 19201 24567 10558 2970 2594 4110 21709 20216 12038 29 2189 19727 9200 405 8178 6613 60 69502 11 6553 1493 338 69491 376
is_linear=0
shrinkage=0.0440977


Tree=24
num_leaves=39
num_cat=0
split_feature=10 26 28 2 18 18 37 35 25 26 5 35 28 36 3 24 13 16 10 29 27 28 6 15 20 14 11 29 35 6 12 35 35 25 18 24 20 11
split_gain=549.641 24.242 13.2684 11.4684 8.20963 9.38669 7.36452 7.04171 7.07261 5.41423 4.7503 4.26201 4.12023 3.81279 3.48015 3.36285 6.19646 3.28884 3.2353 4.98928 3.19811 3.56124 2.76747 2.50614 2.36141 2.37609 2.18286 2.05961 2.64997 2.75957 2.53424 1.94686 1.874 1.75211 1.67396 1.60819 1.52861 1.35911
threshold=1.0000000180025095e-35 0.16390516608953479 -5.7945619413857222e-09 -10.58608818054199 -3.498293280601501 -3.1641684770584102 0.42382957041263586 86.161663055419936 0.37759190797805792 0.095669999718666091 14.64925527572632 2695.9099121093755 -0.0025327089242637153 -0.42243844270706171 6.0792472362518319 0.29965823888778692 0.20150000602006915 1.1610854864120486 0.0044067830312997111 0.0052921460010111341 28.170653343200687 -4.4437947508413338e-05 13.009804248809816 1.9576345682144167 -0.27738741040229792 -1.5859948396682737 0.37949052453041082 -3.1987397960619994e-05 32.688577651977546 -24.339400291442868 0.0069505262654274711 63.935504913330085 31.260930061340336 0.41831165552139288 -2.0537757873535152 0.72609406709671032 0.02933511603623629 0.00070913290255703043
decision_type=2 2 2 2 2 2 2 2 2 2 2 2 2 2 2 2 2 2 2 2 2 2 2 2 2 2 2 2 2 2 2 2 2 2 2 2 2 2
left_child=2 9 27 13 7 12 -7 8 -5 10 11 26 -6 24 15 16 -11 -13 19 -12 -15 -22 -17 -9 25 -3 -2 28 29 30 -1 36 -31 -26 -33 -20 -16 -4
right_child=1 3 37 4 5 6 -8 23 -10 14 18 17 -14 20 31 22 -18 -19 35 -21 21 -23 -24 -25 33 -27 -28 -29 -30 32 -32 34 -34 -35 -36 -37 -38 -39
leaf_value=0.65175177949886343 -0.089976618686336399 1.7413625514395659 -0.1959245475182724 0.69509621504498476 0.97057932577545769 0.038526646684043965 0.19560457096363906 -0.1959245475182724 -0.1959245475182724 -0.052153060382128143 0.33888340031348713 0.12058129857455065 0.2916405877755785 -0.048093187710465987 0.077882978079345799 -0.033825920951041415 0.13096041818870549 0.41076611857721584 -0.062104351028596683 1.0671664208030065 0.53907630835984854 0.24906095159188629 -0.11934895280485092 0.21545516162765274 0.69687378315274529 1.7017748397552677 -0.19496285176734598 -0.1959245475182724 -0.1959245475182724 -0.1959245475182724 -0.34261122170520442 0.048387619215857811 1.263404511752199 0.19790109520003638 0.20950370590706202 0.21261200202365982 -0.088587282022851793 4.2646629797998923
leaf_weight=33 15904 64 69491 1017 954 81810 14221 2964 4157 9434 71 352 5181 1650 1864 17902 5242 33 192 15.999999999999998 3849 5056 4137 389 1581 207 1453 10527 7803 1293 23 726 48 685 1288 281 1351 10.999999999999998
leaf_count=33 15904 64 69491 1017 954 81810 14221 2964 4157 9434 71 352 5181 1650 1864 17902 5242 33 192 16 3849 5056 4137 389 1581 207 1453 10527 7803 1293 23 726 48 685 1288 281 1351 11
internal_value=-0.00110591 0.000271225 -0.00394616 0.000624312 0.000478328 0.000588043 0.000481193 -0.000836141 0.000184059 -0.000454248 -0.00108708 -0.00121335 0.00226022 0.00185848 -0.000178095 -0.000329689 0.000187483 0.00337016 0.0029084 0.0106737 0.00148928 0.00181966 -0.000674072 -0.00240999 0.00339333 0.00727936 -0.00131521 -0.0029365 -0.00245387 -0.000684493 0.00881954 0.000886169 -0.00108766 0.00292558 0.00196087 0.00146062 0.000212535 -0.00423269
internal_weight=273260 184031 89229 123785 110693 102166 96031 8527 5174 60246 18302 17742 6135 13092 41944 36715 14676 385 560 87 10555 8905 22039 3353 2537 271 17357 19727 9200 1397 56 5229 1341 2266 2014 473 3215 69502
internal_count=273260 184031 89229 123785 110693 102166 96031 8527 5174 60246 18302 17742 6135 13092 41944 36715 14676 385 560 87 10555 8905 22039 3353 2537 271 17357 19727 9200 1397 56 5229 1341 2266 2014 473 3215 69502
is_linear=0
shrinkage=0.0440977


Tree=25
num_leaves=39
num_cat=0
split_feature=8 26 28 15 27 30 26 26 34 25 12 34 24 35 5 29 12 29 17 24 2 26 26 9 33 15 24 5 7 2 14 12 35 9 32 30 30 34
split_gain=554.731 29.1836 18.1144 10.9813 10.5114 11.1293 8.19358 8.1253 5.23048 7.36083 4.82085 4.70744 4.10568 3.91716 3.67108 3.14004 3.09389 6.94854 2.97039 3.88815 2.89053 3.76903 2.79467 2.52506 2.44484 2.39859 2.36528 2.16992 2.13282 2.13181 2.00284 3.47342 3.66462 1.95369 1.65871 2.79256 1.545 1.25842
threshold=1.0000000180025095e-35 0.22444981336593631 -2.8803491147755262e-07 0.71326386928558361 28.170653343200687 0.0046306506264954814 0.095669999718666091 0.50902053713798534 27.087425231933597 0.44485734403133398 0.0023633186938241128 8.5554647445678729 0.36671489477157598 1046.8648071289065 -48.901262283325188 -0.0052445726469159118 0.010444763116538526 0.0015992578119039538 -12.568025112152098 1.0000000180025095e-35 -2.8775335550308223 0.47649610042572027 0.14537212997674945 3.9574999809265141 234.50000000000003 1.8133887648582461 -0.25702069699764246 26.031450271606449 0.02481790911406279 2.6458710432052617 -0.26253995299339289 0.0041515990160405645 642.84152221679699 35.794500350952156 76.500000000000014 8.7662292571621964e-06 -1.0000000180025095e-35 55.886075973510749
decision_type=2 2 2 2 2 2 2 2 2 2 2 2 2 2 2 2 2 2 2 2 2 2 2 2 2 2 2 2 2 2 2 2 2 2 2 2 2 2
left_child=2 6 25 11 18 7 13 -6 10 15 -8 20 -11 27 -7 -10 17 -15 19 -5 21 -3 24 -12 -4 34 -20 33 -29 -18 31 32 -27 -2 35 36 -1 -37
right_child=1 3 22 4 5 14 8 -9 9 12 23 -13 -14 16 -16 -17 29 -19 26 -21 -22 -23 -24 -25 -26 30 -28 28 -30 -31 -32 -33 -34 -35 -36 37 -38 -39
leaf_value=-0.18728472299799784 -0.08590621314592703 1.6309499052877641 6.3383624226185127 2.1386005867466977 0.13286990913036215 0.66986509010705897 -0.29405826676625346 0.51435752576326943 -0.091443645506219667 0.13376168111200823 -0.011792252758983195 -0.31793035055375612 0.010277885812453213 0.43399201846342089 0.0088300065092857608 0.0027586158439384324 -0.020700015102618059 0.44813513345200373 0.65438166025262179 0.19587106870177354 0.28610265610619801 3.3146525722104068 -0.18728472299799784 -0.078393777314904781 -0.19195678438585992 1.2888984016580929 -0.071192242056098046 0.66891977717764706 -0.13837395846170411 0.31311510523501668 -0.19680090534939609 -0.18913059742439106 2.8356002485654574 -0.20826707614927861 -0.18728472299799784 -0.18728472299799784 -0.18728472299799784 0.33487386391000423
leaf_weight=1081 15639 8.9999999999999982 5.9999999999999982 14.999999999999998 38380 444 1122 21015 6015 13605 21858 3240 9189 164 16785 13423 568 12.999999999999998 344 1092 226 85 73360 8134 6 103 9254 59 28 85 807 373 7.9999999999999991 940 11476 1541 2925 384
leaf_count=1081 15639 9 6 15 38380 444 1122 21015 6015 13605 21858 3240 9189 164 16785 13423 568 13 344 1092 226 85 73360 8134 6 103 9254 59 28 85 807 373 8 940 11476 1541 2925 384
internal_value=-0.00109424 0.000318577 -0.00388288 0.000877247 0.000975117 0.00115595 -0.000240385 0.00144218 -3.58338e-05 0.0002838 -0.000469677 -0.00152317 0.000821402 -0.00109784 0.000169172 -0.000346631 0.0018573 0.00701104 -0.000319221 0.00184271 0.00357178 0.0100264 -0.00419515 -0.000363451 0.0162822 -0.00265733 -0.000568737 -0.00124512 0.00566255 0.000451765 -0.000822567 0.0014184 0.00822895 -0.00128171 -0.00279335 -0.00219374 -0.00285694 -0.000812809
internal_weight=273801 181731 92070 90889 87329 76624 90842 59395 73346 42232 31114 3560 22794 17496 17229 19438 830 177 10705 1107 320 94 73372 29992 12 18698 9598 16666 87 653 1291 484 111 16579 17407 5931 4006 1925
internal_count=273801 181731 92070 90889 87329 76624 90842 59395 73346 42232 31114 3560 22794 17496 17229 19438 830 177 10705 1107 320 94 73372 29992 12 18698 9598 16666 87 653 1291 484 111 16579 17407 5931 4006 1925
is_linear=0
shrinkage=0.0440977


Tree=26
num_leaves=39
num_cat=0
split_feature=10 24 0 28 24 9 34 38 15 14 5 35 10 9 35 29 33 4 36 29 29 28 33 37 5 35 28 33 28 38 15 11 15 34 33 14 15 13
