tree
version=v4
num_class=1
num_tree_per_iteration=1
label_index=0
max_feature_idx=54
objective=quantile
feature_names=price_lag_1d return_1d return_3d return_7d return_14d return_30d return_60d price_std_7d price_std_14d price_std_20d price_std_30d price_std_60d price_zscore_30d vol_regime_60_30 trend_divergence_30_60 price_accel_7d price_log price_tier log_return_1d log_return_7d autocorr_1d autocorr_7d bb_pct_b bb_width rsi_14 macd_line macd_signal macd_histogram distance_to_support distance_to_resistance volume_missing volume_lag_1d volume_lag_7d volume_mean_30d volume_std_30d volume_std_60d volume_log_change_1d volume_log_change_7d volume_zscore_30d volume_price_conf_7d volume_price_conf_1d rsi_missing macd_missing dow_sin dow_cos events_next_30d_major events_next_30d_operation events_next_30d_case_drop events_next_30d_update events_next_30d_game_update item_type_graffiti item_type_skin item_type_sticker item_type_unknown item_volume_vs_market_30d
feature_infos=[0.029999999329447746:960.7130126953125] [-99.464340209960938:500] [-99.499412536621094:500] [-99.901214599609375:500] [-99.545616149902344:500] [-99.464340209960938:500] [-99.876518249511719:500] [0:168.62384033203125] [0:156.91107177734375] [0:135.56643676757812] [0:112.45006561279297] [0:100.54641723632812] [-4.8795590400695801:5.2946515083312988] [0.7020072340965271:791.464599609375] [-933.93896484375:979983291908096] [-599.9012451171875:592.04339599609375] [-3.5065579414367676:6.833979606628418] [0:4] [-5.2294297218322754:5.2971501350402832] [-6.9199800491333008:5.2971501350402832] [-49732.171875:70000] [-49950.609375:50974.09765625] [-0.51409953832626343:1.5621322393417358] [0.0086328238248825073:17.435346603393555] [0:99.873260498046875] [-54.1455078125:46.680622100830078] [-42.52099609375:42.708404541015625] [-22.157054901123047:29.474584579467773] [1.9274705665090278e-14:19876.666015625] [1.6521176042353682e-14:109337.8359375] none [1:353904] [1:238372] [1:125869.734375] [0:78931.25] [0:69402.671875] [-6.9768147468566895:9.0481739044189453] [-6.4248690605163574:7.3008103370666504] [-4.7356610298156738:5.2931628227233887] [-99.901214599609375:500] [-99.341239929199219:500] [0:1] [0:1] [-0.97492790222167969:0.97492790222167969] [-0.90096884965896606:1] [0:2] [0:1] [0:1] none [0:2] [0:1] [0:1] [0:1] none [0.0010344010079279542:422.99484252929688]
tree_sizes=1701 1773 1774 1783 1785 1796 1784 1778 1790 1779 1788 1771 1776 1808 1797 1794 1797 1796 1780 1794 1793 1786 1801 1797 1802 1780 1795 1800 1788 1803 1796 1789 1798 1786 1790 1801 1772 1790 1777 1784 1791 1791 1778 1800 1804

Tree=0
num_leaves=15
num_cat=0
split_feature=7 23 33 22 4 18 22 16 6 8 49 45 37 45
split_gain=980.511 273.318 128.774 172.81 54.566 49.2623 44.1707 43.7181 34.2061 32.8587 32.1907 16.7884 15.0372 13.1969
threshold=1.0000000180025095e-35 0.26513874530792242 28.816666603088382 0.37876777350902563 -0.63839155435562123 -0.047526538372039788 0.52908518910408031 -0.32089444994926447 -12.045632839202879 0.033557109534740455 1.5000000000000002 1.0000000180025095e-35 0.13356352597475055 1.0000000180025095e-35
decision_type=2 2 2 2 2 2 2 2 2 2 2 2 2 2
left_child=-1 7 3 8 5 -4 -5 10 -3 -6 12 -9 -2 -12
right_child=1 2 4 6 9 -7 -8 11 -10 -11 13 -13 -14 -15
leaf_value=14.068543607173595 14.647589121883712 16.32310023867786 15.283243543605824 15.459838044567253 15.0572173029169 14.909633456068747 14.862850473393754 14.603022038335348 15.6741397049091 14.690792493316314 15.121987811086161 14.458801870694193 14.789820300033794 14.265066712351539
leaf_weight=84250.60263967514 37954.181172192097 2692.3779900670052 8808.0421615242958 6999.0341165065765 21196.191492915154 25764.446955323219 6894.5522145628929 22398.474861204624 3654.8341717123985 24617.495729744434 1051.6659687757492 14739.536107420921 15677.953761160374 194.20383203029633
leaf_count=96972 42155 2062 6184 3286 17817 21725 5209 26817 2566 13470 1333 18839 18693 239
internal_value=14.6341 14.6357 14.637 14.6398 14.6363 14.6375 14.6374 14.6341 14.6451 14.6355 14.6348 14.6331 14.6347 14.641
internal_weight=276894 192643 100627 20240.8 80386.2 34572.5 13893.6 92016 6347.21 45813.7 54878 37138 53632.1 1245.87
internal_count=277367 180395 72319 13123 59196 27909 8495 108076 4628 31287 62420 45656 60848 1572
is_linear=0
shrinkage=1


Tree=1
num_leaves=15
num_cat=0
split_feature=7 3 54 29 54 0 6 12 1 26 5 52 1 6
split_gain=943.495 214.35 104.12 80.9146 65.3171 49.4532 39.3564 33.6749 33.5202 25.4232 18.9779 18.7289 16.8175 14.9221
threshold=1.0000000180025095e-35 -12.555227279663084 0.031237409450113777 19.586300849914554 0.10970383509993555 0.35324999690055853 -1.0000000180025095e-35 -0.14438217878341672 -8.433921813964842 -0.0035528300795704122 12.001106262207033 1.0000000180025095e-35 -12.836630344390867 -1.1783434748649595
decision_type=2 2 2 2 2 2 2 2 2 2 2 2 2 2
left_child=-1 2 7 5 6 11 -5 12 13 -6 -7 -3 -2 -4
right_child=1 3 8 4 9 10 -8 -9 -10 -11 -12 -13 -14 -15
leaf_value=-0.5437427824553982 2.3575066735003452 0.08624476156440572 1.0347271938135039 0.687445828795064 0.0051461238101153193 -0.083003338320575173 0.39285713000992939 0.3069993719479141 0.33913342013996145 0.23850187324945257 0.099209941039326288 0.54609440656191377 1.2250881311462756 0.70636348501521307
leaf_weight=84250.60263967514 1014.7145851254463 35776.540928244591 1703.2970274686813 10502.493080854416 19985.936887264252 39707.694097161293 12780.446842551231 555.65216916799545 14095.325197935104 30594.694275975227 12861.371706485748 9226.4264647364616 1624.8560130596161 2213.5412591099739
leaf_count=96972 603 40281 1310 7056 17300 48939 7065 334 11847 17838 15744 9552 1098 1428
internal_value=-8.32302e-05 0.00140855 0.00507453 0.000954661 0.00191981 0.000223411 0.00361489 0.0115121 0.00392818 0.00113828 -0.000580916 0.00116424 0.0133374 0.00710179
internal_weight=276894 192643 21207.4 171436 73863.6 97572 23282.9 3195.22 18012.2 50580.6 52569.1 45003 2639.57 3916.84
internal_count=277367 180395 16620 163775 49259 114516 14121 2035 14585 35138 64683 49833 1701 2738
is_linear=0
shrinkage=0.0386495


Tree=2
num_leaves=15
num_cat=0
split_feature=0 23 4 33 12 16 9 2 2 10 2 54 22 26
split_gain=875.515 244.171 92.5683 86.8402 66.1923 52.1684 47.3952 38.6546 28.1499 24.76 16.954 13.2079 17.3157 15.0156
threshold=0.03024999983608723 0.32922871410846716 -1.0000000180025095e-35 46.650001525878913 -0.47238695621490473 -1.0951194763183592 1.0000000180025095e-35 33.673789978027351 -11.626520633697508 0.013654964044690134 -11.626520633697508 0.37312978506088262 0.34016884863376623 -0.019088354893028733
decision_type=2 2 2 2 2 2 2 2 2 2 2 2 2 2
left_child=6 5 3 4 -3 -2 -1 9 -5 -4 -7 12 13 -8
right_child=1 2 7 8 -6 10 11 -9 -10 -11 -12 -13 -14 -15
leaf_value=-0.52272737235128608 0.11835174109128184 1.20811183822812 0.75957849361336283 0.72864500745146588 0.69180173737865425 0.3339996132531558 0.51470444607415 -0.46961830792261489 0.28217432355220518 0.29572119088779542 -0.058335489199925317 -0.52272737235128608 -0.20121411101858136 0.79190803279616995
leaf_weight=75858.244528651237 46527.958218038082 5935.6569667458534 7563.8267146348953 3972.9698058962822 6987.1580751538277 863.96715116500854 48.291717410087585 5192.9861198663712 18628.303424417973 31593.719554722309 57567.674619317055 8762.243759572506 6796.8779172897339 593.71460193395615
leaf_count=92553 51491 4698 7504 2903 2954 1047 16 2279 14355 18152 70654 4256 4004 501
internal_value=-0.000139243 0.00139431 0.00300463 0.00447587 0.00700635 0.000168273 -0.00321887 0.00182473 0.00302595 0.00224079 -0.00059997 -0.00131542 -0.000109457 0.00593838
internal_weight=276894 184834 79874.6 35524.1 12922.8 104960 92059.4 44350.5 22601.3 39157.5 58431.6 16201.1 7438.88 642.006
internal_count=277367 176037 52845 24910 7652 123192 101330 27935 17258 25656 71701 8777 4521 517
is_linear=0
shrinkage=0.0386495


Tree=3
num_leaves=15
num_cat=0
split_feature=7 3 33 16 32 18 12 45 18 12 16 22 25 6
split_gain=866.392 171.973 87.4888 81.8685 46.9892 38.1854 34.4815 33.4373 28.0045 25.1473 22.9327 17.3027 14.4081 13.536
threshold=1.0000000180025095e-35 -12.555227279663084 20.649999618530277 -1.1639514565467832 26.500000000000004 -0.047526538372039788 -0.36142565310001368 1.0000000180025095e-35 -0.10643181204795836 -0.050290657207369797 -3.498293280601501 0.37876777350902563 -1.6188745632916832e-07 -28.331571578979489
decision_type=2 2 2 2 2 2 2 2 2 2 2 2 2 2
left_child=12 2 6 5 9 11 13 -6 -4 -5 -7 -3 -1 -2
right_child=1 3 8 4 7 10 -8 -9 -10 -11 -12 -13 -14 -15
leaf_value=-0.50252419824569083 2.1329640034924848 0.58979851636977754 0.89276260448314071 0.56537252252261583 0.02388166255415957 -0.19341942520943492 0.72890743750462283 -0.15181992420571014 0.30956719993921622 0.051008996214176955 0.18604049887097723 0.32677497553250956 -0.50252419824569083 1.4858667390192686
leaf_weight=20660.038372516632 573.76818513870239 6088.35645788908 3004.4258553385735 6326.5283018946648 43040.008814036846 6269.9256325364113 1098.6310727000237 25623.295226573944 14509.04223960638 6049.1413608789444 68016.401653647423 10021.946835815907 63590.564267158508 2021.5188990831375
leaf_count=18380 378 5422 2067 5200 47241 3082 520 29405 12265 5904 61460 6061 78592 1390
internal_value=-0.000182917 0.0012466 0.00453031 0.000839999 -5.1345e-05 0.0016397 0.00994248 -0.000447169 0.00338447 0.00213982 0.00126845 0.00334759 -0.00345221 0.0123825
internal_weight=276894 192643 21207.4 171436 81039 90396.6 3693.92 68663.3 17513.5 12375.7 74286.3 16110.3 84250.6 2595.29
internal_count=277367 180395 16620 163775 87750 76025 2288 76646 14332 11104 64542 11483 96972 1768
is_linear=0
shrinkage=0.0386495


Tree=4
num_leaves=15
num_cat=0
split_feature=7 23 33 12 49 1 6 16 52 16 25 22 52 10
split_gain=841.844 189.351 78.7926 120.532 35.9832 33.6785 32.5351 31.2183 28.699 26.2651 14.4081 12.1668 11.963 10.4475
threshold=1.0000000180025095e-35 0.2484577298164368 28.816666603088382 -0.20438157021999356 1.5000000000000002 -1.923061668872833 -1.0000000180025095e-35 -0.32089444994926447 1.0000000180025095e-35 -2.4389817714691158 -1.6188745632916832e-07 0.87132608890533458 1.0000000180025095e-35 0.18593917787075046
decision_type=2 2 2 2 2 2 2 2 2 2 2 2 2 2
left_child=10 4 3 6 7 9 -3 12 -7 -4 -1 -5 -2 -6
right_child=1 2 5 11 13 8 -8 -9 -10 -11 -12 -13 -14 -15
leaf_value=-0.48310186758838297 0.010204490153089588 1.2306209358905642 0.48978097951246796 0.35426858576397607 0.35941158619033697 0.10579172700290822 0.80030998959694744 -0.10559421967119798 0.604233423571366 0.25066790362234681 -0.48310186758838297 -0.23878181677767399 0.27283020316149081 -0.08751080757991693
leaf_weight=20660.038372516632 43759.335650205612 6134.308808028698 12676.70839124918 8436.2090718150139 1707.3754350543022 46085.064929485321 4358.5103321075439 34743.067359566689 8344.8819825649261 17693.701404511929 63590.564267158508 1952.7901822924614 6447.7696143388748 303.267373919487
leaf_count=18380 49621 4088 7505 5755 2188 33750 2538 42649 8573 14564 78592 1483 7299 382
internal_value=-0.000229571 0.00117954 0.00227872 0.00440717 -0.000155638 0.00175383 0.00732996 -0.00027729 0.00117656 0.00278634 -0.00345221 0.00144874 0.00033815 0.00495055
internal_weight=276894 192643 105682 20881.8 86960.8 84800.4 10492.8 84950.2 54429.9 30370.4 84250.6 10389 50207.1 2010.64
internal_count=277367 180395 78256 13864 102139 64392 6626 99569 42323 22069 96972 7238 56920 2570
is_linear=0
shrinkage=0.0386495


Tree=5
num_leaves=15
num_cat=0
split_feature=7 23 2 33 18 22 38 42 33 16 45 11 6 13
split_gain=824.139 182.843 81.1505 65.4821 41.9836 37.3433 32.4479 29.2803 27.8174 23.8898 18.9039 14.928 11.2969 9.46196
threshold=1.0000000180025095e-35 0.25674429535865789 -7.3275263309478751 20.649999618530277 0.20360330492258075 0.44409963488578802 0.52813154458999645 1.0000000180025095e-35 49.083332061767585 -0.88612550497055043 1.0000000180025095e-35 1.0000000180025095e-35 1.0000000180025095e-35 0.71784701943397533
decision_type=2 2 2 2 2 2 2 2 2 2 2 2 2 2
left_child=11 6 3 5 8 -3 9 -5 -4 -2 12 -1 -8 -12
right_child=1 2 4 7 -6 -7 10 -9 -10 -11 13 -13 -14 -15
leaf_value=-0.46443020113685607 0.022284143349404414 1.5063328745015332 0.52887749750306279 0.48747503949047144 -0.47574354707356187 0.33472822658394519 0.08925486660637437 -0.073131390037378285 0.17605059944515325 -0.11359214855173258 0.21255597250778674 -0.46443020113685607 0.30480040675699588 -0.057014608772622821
leaf_weight=67988.442770957947 32253.030011594296 3417.1309376955032 22621.284085631371 16765.43330925703 6046.0377543568611 950.16701155900955 8756.2566673159599 2990.8155363202095 50331.368521988392 35012.911561012268 281.69349920749664 16424.690068304539 5922.5572874546051 7449.2692679166794
leaf_count=84995 35700 2087 15359 12360 2473 616 9627 1257 40918 42773 75 11950 7373 9443
internal_value=-0.000255429 0.00113876 0.0022487 0.00421221 0.00164829 0.00850262 -0.000136982 0.00326008 0.00190513 -0.000561906 0.00113583 -0.00344038 0.00195108 -0.000404691
internal_weight=277211 192798 103122 24123.5 78998.7 4367.3 89675.7 19756.2 72952.7 67265.9 22409.8 84413.1 14678.8 7730.96
internal_count=277006 180061 75070 16320 58750 2703 104991 13617 56277 78473 26518 96945 17000 9518
is_linear=0
shrinkage=0.0386495


Tree=6
num_leaves=15
num_cat=0
split_feature=8 23 2 33 0 12 2 38 4 49 16 45 45 6
split_gain=783.979 152.103 78.4258 50.4394 44.2833 39.7263 35.7009 30.007 25.7492 24.886 22.0962 16.3141 11.5354 11.5108
threshold=1.0000000180025095e-35 0.26513874530792242 -5.6450548171997061 24.85000038146973 0.03024999983608723 -0.43431197106838221 33.673789978027351 0.52813154458999645 -0.63839155435562123 1.5000000000000002 -1.1639514565467832 1.0000000180025095e-35 1.0000000180025095e-35 1.0000000180025095e-35
decision_type=2 2 2 2 2 2 2 2 2 2 2 2 2 2
left_child=-1 7 3 5 -4 -3 -6 9 -5 10 -2 13 -11 -9
right_child=1 2 4 8 6 -7 -8 11 -10 12 -12 -13 -14 -15
leaf_value=-0.44648018606253748 0.017899839039907647 1.3827143743269303 -0.4370967223717071 0.48667937850623438 0.28036628367963867 0.71882700025027613 -0.4441453645025637 0.077974019639746428 0.23873374335300412 0.34621079999300253 -0.11255270850785645 -0.032772224320181967 -0.40352907960837214 0.29552507370162467
leaf_weight=79262.955509841442 29981.116453588009 3278.3352051973343 8204.3137484192848 12236.375498652458 62247.130329310894 2584.1928209066391 5731.5424458384514 9138.0278387665749 10179.000046610832 1252.9547320604324 38746.765264451504 8015.8622835874557 274.69753462076187 6077.8185787200928
leaf_count=94269 32677 2252 2816 9612 48420 1417 2521 10028 6352 1616 47257 9844 355 7570
internal_value=-0.000303143 0.000997252 0.0020108 0.00375014 0.00136435 0.00694878 0.00168844 -0.00013467 0.00291043 -0.000533401 -0.000642638 0.00106859 0.00433757 0.0018125
internal_weight=277211 197948 104461 28277.9 76183 5862.53 67978.7 93487.2 22415.4 70255.5 68727.9 23231.7 1527.65 15215.8
internal_count=277006 182737 73390 19633 53757 3669 50941 109347 15964 81905 79934 27442 1971 17598
is_linear=0
shrinkage=0.0386495


Tree=7
num_leaves=15
num_cat=0
split_feature=7 19 16 29 54 12 16 31 26 29 26 11 4 24
split_gain=777.033 117.274 78.0576 51.482 51.078 23.6201 22.8215 21.5482 18.6632 18.1594 15.7002 15.5416 12.0095 10.3421
threshold=1.0000000180025095e-35 -0.12042476609349249 -1.1639514565467832 96.668579101562514 0.031237409450113777 -0.32702082395553583 -3.498293280601501 41.500000000000007 -0.15710135549306867 52.383722305297859 0.00012891562073491516 1.0000000180025095e-35 -23.284634590148922 36.550550460815437
decision_type=2 2 2 2 2 2 2 2 2 2 2 2 2 2
left_child=11 4 6 10 5 9 -3 -5 -8 -2 -4 -1 -6 -14
right_child=1 2 3 7 12 -7 8 -9 -10 -11 -12 -13 13 -15
leaf_value=-0.4292239308694229 0.52350427072588923 -0.1627264316664106 -0.10262977121041462 1.0125360903857907 0.56255983570763213 0.2917051281177705 -0.068408394204704695 0.016736581720134223 0.20468739785313045 1.8171945087958612 0.004943591233506889 -0.4292239308694229 0.037139413514222827 0.36402411636609067
leaf_weight=67988.442770957947 710.24008423089981 7311.0716825127602 37520.898844182491 4401.0432927012444 5321.2088498473167 915.68911159038544 156.35854113101959 3090.8387081027031 81450.940175175667 1850.5156805515289 34879.090165019035 16424.690068304539 3984.959293782711 11205.101022481918
leaf_count=84995 776 3670 42451 1049 4503 519 29 1130 70635 965 41721 11950 4410 8203
internal_value=-0.000342274 0.00101148 0.000651708 -0.000224457 0.00354062 0.00788093 0.00143957 0.00282383 0.00162509 0.00979281 -0.000540761 -0.00343485 0.00280146 0.0022396
internal_weight=277211 192798 168810 79891.9 23987.7 3476.44 88918.4 7491.88 81607.3 2560.76 72400 84413.1 20511.3 15190.1
internal_count=277006 180061 160685 86351 19376 2260 74334 2179 70664 1741 84172 96945 17116 12613
is_linear=0
shrinkage=0.0386495


Tree=8
num_leaves=15
num_cat=0
split_feature=7 23 1 5 1 2 45 49 38 35 16 11 11 52
split_gain=756.821 141.439 59.4127 48.2186 39.9442 34.1852 31.2901 29.2305 26.7958 20.6448 16.7637 16.1606 15.5416 8.47276
threshold=1.0000000180025095e-35 0.28413726389408117 -4.6414835453033438 -5.5493571758270255 22.58117771148682 -16.946798324584957 1.0000000180025095e-35 1.5000000000000002 0.18027917295694354 15.564291477203371 -0.81136795878410328 0.011574562173336746 1.0000000180025095e-35 1.0000000180025095e-35
decision_type=2 2 2 2 2 2 2 2 2 2 2 2 2 2
left_child=12 6 3 5 9 -3 7 8 -2 -4 -8 -5 -1 -6
right_child=1 2 4 11 13 -7 10 -9 -10 -11 -12 -13 -14 -15
leaf_value=-0.41263462205508489 -0.033291126871345653 1.4503270012338758 0.51796171710955141 0.9412613051454416 -0.6631802065866792 0.67807387678014353 -0.011992870280203245 0.33063838699256259 0.12434178270355702 0.19081007237359837 -0.15146484158218729 0.27047228555827785 -0.41263462205508489 0.42507270011437265
leaf_weight=67988.442770957947 36196.10660225153 1963.8782584667206 14538.944172263145 2369.5035009980202 5273.0610409975052 6774.7467791438103 18650.357056438923 1746.4527853727341 21546.842494726181 50502.433103621006 19069.30826073885 12988.842316508293 16424.690068304539 1177.4790797829628
leaf_count=84995 40913 1366 9084 2222 1849 4685 21392 2247 24888 39834 24328 6524 11950 729
internal_value=-0.000382766 0.000953256 0.00200893 0.00367015 0.00144811 0.00596635 -8.42503e-05 0.000467243 0.000317087 0.00173622 -0.000955551 0.00235927 -0.00343485 -0.0014476
internal_weight=277211 192798 95588.9 24097 71491.9 8738.63 97209.1 59489.4 57742.9 65041.4 37719.7 15358.3 84413.1 6450.54
internal_count=277006 180061 66293 14797 51496 6051 113768 68048 65801 48918 45720 8746 96945 2578
is_linear=0
shrinkage=0.0386495


Tree=9
num_leaves=15
num_cat=0
split_feature=9 1 23 2 6 2 33 1 38 54 26 35 3 26
split_gain=701.732 121.893 56.8978 37.532 29.8918 27.2449 25.7066 22.9443 19.0909 14.4576 11.1442 10.9043 8.70511 7.92922
threshold=1.0000000180025095e-35 -4.6414835453033438 0.21952063590288165 -11.626520633697508 -2.0407043695449825 33.673789978027351 44.283332824707038 -18.493697166442868 0.84659108519554149 0.15958099067211154 -0.0086866412311792356 7.6104788780212411 -8.6944422721862775 -0.0086866412311792356
decision_type=2 2 2 2 2 2 2 2 2 2 2 2 2 2
left_child=-1 3 8 4 7 6 -4 -2 10 12 -3 -6 -5 -10
right_child=1 2 5 9 11 -7 -8 -9 13 -11 -12 -13 -14 -15
leaf_value=-0.39668648244671362 1.7740214095112623 -0.14763152944937913 0.35784813224263146 0.74390772031914609 1.8727765458301713 -0.58682320167573188 0.092952463766292029 0.57460036352966259 -0.059648660034129754 0.1511496003607008 -0.045432687809091959 0.39276296165668362 0.3440198837588655 0.1414706947465029
leaf_weight=76085.384875714779 894.46356070041656 13829.516735196114 22513.561219513416 3392.5180248022079 501.72518450021744 5648.3086838722229 66746.070486009121 2604.2177515625954 2829.6897884607315 12377.827452003956 47029.326634645462 4518.3733717799187 8199.9386209249496 10040.165900886059
leaf_count=92535 544 16769 16213 2339 212 2399 55309 2187 3429 10249 53998 2910 5849 12064
internal_value=-0.000430774 0.000765021 0.000346985 0.00293293 0.00514123 0.000972896 0.00113801 0.0078946 -0.000457944 0.00214534 -0.000744461 0.00320838 0.00312932 0.00089234
internal_weight=277211 201126 168637 32489.1 8518.78 94907.9 89259.6 3498.68 73728.7 23970.3 60858.8 5020.1 11592.5 12869.9
internal_count=277006 184471 160181 24290 5853 73921 71522 2731 86260 18437 70767 3122 8188 15493
is_linear=0
shrinkage=0.0386495


Tree=10
num_leaves=15
num_cat=0
split_feature=7 23 3 54 16 10 1 2 2 49 16 10 6 26
split_gain=696.226 107.474 47.966 37.632 28.0396 27.8234 26.6507 18.1253 17.9936 16.2993 14.3333 12.3964 10.5607 8.23189
threshold=1.0000000180025095e-35 0.2484577298164368 -14.036492824554442 0.016623547300696376 -0.32089444994926447 0.011631062254309656 22.58117771148682 -24.155606269836422 -13.738360881805418 1.5000000000000002 -2.9141628742218013 1.0000000180025095e-35 -11.077383995056151 0.00012891562073491516
decision_type=2 2 2 2 2 2 2 2 2 2 2 2 2 2
left_child=11 4 3 7 9 10 -7 -3 -5 12 -4 -1 -2 -6
right_child=1 2 5 8 13 6 -8 -9 -10 -11 -12 -13 -14 -15
leaf_value=-0.38135473114745067 -0.0591451199720361 2.1766304209190812 0.68579675051806588 0.69482586470824137 -0.12940583275452255 0.17566372497362601 -0.64114116486552197 1.0849807823262669 0.25337093087960794 0.36562664977698311 0.25109156403879418 -0.38135473114745067 0.060824423253369182 -0.03892505979045012
leaf_weight=71831.929724514484 13303.245279312134 410.76742315292358 8294.8686950206757 4449.4201462268829 19475.669991135597 65416.647321522236 4954.7751232385635 1338.5413224697113 11207.748201370239 1191.8633237481117 9260.7660464644432 12603.012148857117 36662.169862091541 16053.846313655376
leaf_count=89866 16452 214 8498 3311 22922 44535 1682 800 8442 1525 10589 6795 40297 20770
internal_value=-0.000464324 0.000821595 0.00165114 0.00350665 -0.000185731 0.00128308 0.000938356 0.00889652 0.0028997 0.000392735 0.00266132 -0.00338937 0.000284854 -0.00102024
internal_weight=276455 192020 105334 17406.5 86686.8 87927.1 70371.4 1749.31 15657.2 51157.3 17555.6 84434.9 49965.4 35529.5
internal_count=276698 180037 78071 12767 101966 65304 46217 1014 11753 58274 19087 96661 56749 43692
is_linear=0
shrinkage=0.0386495


Tree=11
num_leaves=15
num_cat=0
split_feature=8 1 23 33 16 1 16 16 49 35 27 25 4 9
split_gain=667.351 92.4759 53.4657 27.2873 26.8215 28.0688 24.4693 22.1426 14.7555 14.0843 13.4702 10.2904 10.2607 13.4488
threshold=1.0000000180025095e-35 -5.6879725456237784 0.2484577298164368 28.816666603088382 -3.498293280601501 22.58117771148682 -2.9141628742218013 -0.32089444994926447 1.5000000000000002 7.6104788780212411 -0.0028919968754053112 -1.6188745632916832e-07 -6.5270316600799552 0.01124060992151499
decision_type=2 2 2 2 2 2 2 2 2 2 2 2 2 2
left_child=11 3 7 6 -4 -6 9 8 -3 -2 -8 -1 -5 -14
right_child=1 2 4 12 5 -7 10 -9 -10 -11 -12 -13 13 -15
leaf_value=-0.36661554503077887 2.7484682111210779 0.0080346072670897887 -0.32652063656477903 0.392997768992213 0.21027455895403979 -0.38615410243240916 1.2262692988193382 -0.095623777190701878 0.35089958131142668 1.2515885011264938 0.36169100221282313 -0.36661554503077887 0.3846312782380395 0.08899766683636362
leaf_weight=16254.606252610683 336.00150889158249 47924.847107291222 8647.33453977108 7508.0408924221992 71915.429868519306 6241.8405374884605 1801.7431826591492 34187.432387769222 1146.0593301653862 1090.3125428557396 3647.4021567106247 62866.279562592506 3808.3596729040146 9079.5813801288605
leaf_count=15807 186 54507 3092 6213 59949 2602 995 42105 1466 774 2382 78143 3631 4846
internal_value=-0.000498031 0.000704141 0.000368685 0.00279371 0.00103999 0.00126629 0.00490545 -0.00033052 0.000194577 0.00943648 0.00370579 -0.00349703 0.0020786 0.00140856
internal_weight=276455 197334 170063 27271.4 86804.6 78157.3 6875.46 83258.3 49070.9 1426.31 5449.15 79120.9 20396 12887.9
internal_count=276698 182748 163721 19027 65643 62551 4337 98078 55973 960 3377 93950 14690 8477
is_linear=0
shrinkage=0.0386495


Tree=12
num_leaves=15
num_cat=0
split_feature=9 2 52 33 23 0 6 49 0 3 0 29 24 25
split_gain=632.89 85.5038 48.1237 35.8276 30.0821 30.7944 23.0909 19.2757 17.6496 17.6345 15.7399 11.1686 11.1419 11.0356
threshold=1.0000000180025095e-35 -10.101210117340086 1.0000000180025095e-35 28.816666603088382 0.22643774002790454 0.03024999983608723 -11.077383995056151 1.5000000000000002 0.03024999983608723 -1.0000000180025095e-35 0.30124999582767492 52.383722305297859 48.449834823608406 -0.10328128188848494
decision_type=2 2 2 2 2 2 2 2 2 2 2 2 2 2
left_child=-1 3 4 6 7 -6 11 -3 -4 -5 -10 -2 -8 -11
right_child=1 2 8 9 5 -7 12 -9 10 13 -12 -13 -14 -15
leaf_value=-0.35244602172313588 0.37066772886979849 -0.055551032398517421 -0.18457447240032321 0.40685459416561648 -0.37137034327669266 0.11769497728595653 0.81854481200325135 0.23475460306368032 0.55970524269081512 5.7340430431506357 0.094284015412078884 1.7839302316924703 0.40005115190008839 0.0041332671181933314
leaf_weight=75915.595591127872 532.41100871562958 70196.7243501544 3370.6903299093246 9860.8518374562263 9416.4304314255714 73423.517197787762 1389.4262053370476 1650.3923841118813 15073.708235323429 83.700688421726227 7211.3509147763252 1370.3426228761673 1698.1322224736214 5261.9969028830528
leaf_count=92248 555 82367 3455 8322 2565 56776 921 2122 14857 27 8389 660 958 2476
internal_value=-0.000525974 0.000611572 0.000344121 0.00299657 8.65956e-05 0.000588852 0.00584402 -0.000491701 0.00189444 0.00205767 0.00228927 0.00921302 0.00374444 0.000258049
internal_weight=276455 200540 180343 20196.9 154687 82839.9 4990.31 71847.1 25655.7 15206.5 22285.1 1902.75 3087.56 5345.7
internal_count=276698 184450 170531 13919 143830 59341 3094 84489 26701 10825 23246 1215 1879 2503
is_linear=0
shrinkage=0.0386495


Tree=13
num_leaves=15
num_cat=0
split_feature=7 23 2 32 12 45 52 26 25 0 14 32 10 29
split_gain=648.975 88.3765 39.4725 37.5176 33.655 31.3739 23.9114 22.2446 17.7289 15.7732 15.0072 9.03729 8.68342 5.80496
threshold=1.0000000180025095e-35 0.35741123557090765 33.673789978027351 17.500000000000004 -0.20438157021999356 1.0000000180025095e-35 1.0000000180025095e-35 -0.015563136432319878 -1.6188745632916832e-07 0.35324999690055853 0.64477145671844494 133.50000000000003 0.021479126065969471 10.001113891601564
decision_type=2 2 2 2 2 2 2 2 2 2 2 2 2 2
left_child=8 5 3 4 -3 7 -5 -2 -1 11 -9 -7 -4 -11
right_child=1 2 12 6 -6 9 -8 10 -10 13 -12 -13 -14 -15
leaf_value=-0.33882414401723349 -0.089609193630856315 1.0074069195340485 0.35721697971849087 0.17946530638026939 0.31526459751396529 0.11628171810142282 0.63758560406810472 0.039956536744346398 -0.33882414401723349 -0.19152304131646683 0.17913796840656915 -0.07391232690305434 -0.73602321500111034 -0.085403176323102861
leaf_weight=20703.920117080212 11403.408487379551 6879.8331649303436 1297.0353237986565 51065.048789560795 5808.0735362172127 9304.7312680482864 10368.431898713112 40169.036245346069 63731.021756291389 10373.126093268394 17255.195952951908 11318.016620993614 4622.4094418883324 12155.98222631216
leaf_count=18163 13927 4098 962 28680 3941 9504 9498 44190 78498 13417 20976 13870 1572 15402
internal_value=-0.000550988 0.000690512 0.00167124 0.00191411 0.00383038 -9.99071e-06 0.00151729 0.000501725 -0.00337502 -0.000827512 0.000811928 -5.22474e-05 -0.00135984 -0.00153453
internal_weight=276455 192020 80040.8 74121.4 12687.9 111979 61433.5 68827.6 84434.9 43151.9 57424.2 20622.7 5919.44 22529.1
internal_count=276698 180037 48751 46217 8039 131286 38178 79093 96661 52193 65166 23374 2534 28819
is_linear=0
shrinkage=0.0386495


Tree=14
num_leaves=15
num_cat=0
split_feature=7 23 2 33 6 16 52 25 38 38 24 23 49 1
split_gain=631.094 79.8154 36.5983 42.8842 30.5821 30.3663 20.6488 18.1173 15.2376 13.7896 11.3962 10.6319 10.4965 8.69491
threshold=1.0000000180025095e-35 0.35741123557090765 33.673789978027351 28.816666603088382 -9.0897183418273908 -1.0951194763183592 1.0000000180025095e-35 -1.6188745632916832e-07 -0.18322660773992536 0.67697030305862438 1.0000000180025095e-35 0.10489539429545404 1.5000000000000002 -7.2077975273132315
decision_type=2 2 2 2 2 2 2 2 2 2 2 2 2 2
left_child=7 5 3 4 -3 9 -5 -1 12 13 -11 -10 -7 -2
right_child=1 2 -4 6 -6 8 -8 -9 11 10 -12 -13 -14 -15
leaf_value=-0.32572874566078541 0.27754544047976476 1.0567722144243208 -0.40831594667954141 0.14980502707347204 0.53398353676497423 -0.12234794019063279 0.60574767383408856 -0.32572874566078541 -0.093278375198490526 0.22048320077376368 0.20742786572816016 0.032496677412181242 0.21825966989043905 0.020765713507985954
leaf_weight=20703.920117080212 2706.1307522654533 4871.9524509310722 5919.4447656869888 48957.201505959034 10697.348775982857 30069.862559616566 9594.8846565485001 63731.021756291389 6903.386057972908 86.450186967849731 10594.323972225189 22730.858397901058 666.97703367471695 38221.507933676243
leaf_count=18163 2877 2901 2534 28138 6332 36441 8846 78498 8359 13 11831 28357 862 42546
internal_value=-0.000582043 0.000642229 0.00157425 0.00180814 0.00361305 -2.34595e-05 0.0013271 -0.00336689 -0.00061241 0.000664363 0.00190212 1.10083e-05 -0.00121531 0.000339855
internal_weight=276455 192020 80040.8 74121.4 15569.3 111979 58552.1 84434.9 60371.1 51608.4 10680.8 29634.2 30736.8 40927.6
internal_count=276698 180037 48751 46217 9233 131286 36984 96661 74019 57267 11844 36716 37303 45423
is_linear=0
shrinkage=0.0386495


Tree=15
num_leaves=15
num_cat=0
split_feature=8 23 33 22 45 0 38 11 11 0 5 12 25 32
split_gain=631.558 74.5142 40.9751 50.6465 30.5711 28.3606 24.9708 19.2972 15.7839 15.3477 15.1676 13.9311 10.2121 9.43159
threshold=1.0000000180025095e-35 0.38933753967285162 24.85000038146973 0.4679421335458756 1.0000000180025095e-35 0.03024999983608723 -0.21393730491399762 0.0097101279534399527 0.032339369878172881 0.456499993801117 20.771939277648929 -0.18257532268762586 -1.6188745632916832e-07 158.50000000000003
decision_type=2 2 2 2 2 2 2 2 2 2 2 2 2 2
left_child=12 4 3 10 6 11 -2 -7 -8 13 -3 -4 -1 -6
right_child=1 2 5 -5 9 7 8 -9 -10 -11 -12 -13 -14 -15
leaf_value=-0.3131394784674853 -0.030643169994265949 1.0287072977890546 0.13148942079496109 0.1581034301290439 0.077364226694253538 0.77223252289324307 0.19356868593528045 0.18186861082715866 0.037894857947890874 -0.13249706938240158 -0.071111784833455108 -0.33324470011661672 -0.3131394784674853 -0.094556997053072425
leaf_weight=16378.796531021595 35747.346778392792 7760.4990043640137 4799.3108266592026 6076.0358884334564 12486.023448169231 4237.4931308031082 17898.501380801201 51233.988168776035 19637.404080092907 21315.649276018143 626.40268021821976 3648.2677762508392 62881.81145554781 11978.145838856697
leaf_count=16003 40157 3851 1698 3722 13087 4314 20950 29235 22771 27182 305 714 78141 14885
internal_value=-0.000589532 0.000580118 0.0015055 0.00336502 -2.86093e-05 0.00108374 0.000460375 0.00140188 0.00115688 -0.000812616 0.00531237 -0.000998269 -0.0035039 -0.000149404
internal_weight=276706 197445 78382 14462.9 119063 63919.1 73283.3 55471.5 37535.9 45779.8 8386.9 8447.58 79260.6 24464.2
internal_count=277015 182871 43839 7878 139032 35961 83878 33549 43721 55154 4156 2412 94144 27972
is_linear=0
shrinkage=0.0386495


Tree=16
num_leaves=15
num_cat=0
split_feature=7 23 2 35 45 12 49 38 25 52 16 52 5 54
split_gain=613.627 74.4311 29.7889 33.3691 29.0941 27.2 24.3937 23.9424 19.9772 19.1407 15.1529 9.74303 7.48628 6.13836
threshold=1.0000000180025095e-35 0.38933753967285162 33.673789978027351 15.564291477203371 1.0000000180025095e-35 -0.10141003876924513 1.5000000000000002 0.52813154458999645 -1.6188745632916832e-07 1.0000000180025095e-35 -1.1639514565467832 1.0000000180025095e-35 14.309907436370851 0.11650251224637033
decision_type=2 2 2 2 2 2 2 2 2 2 2 2 2 2
left_child=8 4 3 5 6 -3 7 -2 -1 -5 13 -4 -8 -6
right_child=1 2 11 9 10 -7 12 -9 -10 -11 -12 -13 -14 -15
leaf_value=-0.30103678069913042 -0.009805022722793549 0.75067531487992767 -0.62506606717991275 0.13850021715823552 0.21939354158700672 0.16353375074933166 0.37417557676493252 0.15563978840078363 -0.30103678069913042 0.55280325507402039 -0.12373498877551653 0.56725992336036946 -0.006631795881442526 -0.035040992905427067
leaf_weight=20691.566772580147 51773.928498029709 12928.917633116245 4759.1790854930878 40977.079050242901 2881.2732779979706 5227.7915542721748 1705.6888746619225 18205.213835418224 63647.352142214775 9828.8948853611946 24582.268175005913 1214.3869664669037 421.97437405586243 17860.16113948822
leaf_count=18346 58947 5112 1681 23008 3001 3544 2159 21018 78477 8745 31171 799 531 20476
internal_value=-0.000620376 0.000584509 0.0015362 0.00176332 -2.23214e-05 0.0031875 0.000459482 0.000334567 -0.00336921 0.00125311 -0.000790102 -0.00107577 0.00453657 -1.7907e-05
internal_weight=276706 192367 74936.2 68962.7 117431 18156.7 72106.8 69979.1 84338.9 50806 45323.7 5973.57 2127.66 20741.4
internal_count=277015 180192 42889 40409 137303 8656 82655 79965 96823 31753 54648 2480 2690 23477
is_linear=0
shrinkage=0.0386495


Tree=17
num_leaves=15
num_cat=0
split_feature=8 18 52 38 23 33 5 13 45 38 25 45 33 12
split_gain=607.878 66.9274 34.2794 23.6356 24.4987 23.4915 22.9657 13.9924 13.0882 12.9817 10.247 9.61609 9.50488 8.7683
threshold=1.0000000180025095e-35 -0.052582949399948113 1.0000000180025095e-35 1.057573735713959 0.38933753967285162 60.416667938232429 -12.080432891845701 0.71784701943397533 1.0000000180025095e-35 -0.24390773475170133 -1.6188745632916832e-07 1.0000000180025095e-35 264.35000610351568 -0.67242878675460804
decision_type=2 2 2 2 2 2 2 2 2 2 2 2 2 2
left_child=10 5 3 4 -3 6 7 -2 -5 -4 -1 12 -7 -8
right_child=1 2 9 8 -6 11 13 -9 -10 -11 -12 -13 -14 -15
leaf_value=-0.28940184666976176 1.1567470959830495 -0.058102361780296138 0.13600201304614315 0.21707843846307884 0.10769193166761745 0.33885896337202354 0.71903953843410351 0.8713859060082394 -0.011623877949207906 0.46360153765296647 -0.28940184666976176 -0.010090673981578266 0.05827931543566519 0.30300869221543708
leaf_weight=16378.796531021595 399.18488144874573 82598.284916520119 13243.298360943794 12432.721006453037 42355.601537466049 6630.8422027230263 2138.3864880204201 3885.4849216938019 6985.0428552031517 10161.780067801476 62881.81145554781 6064.5743764638901 3382.4031254649162 7167.463537633419
leaf_count=16003 55 96440 13382 12193 21614 5059 1816 2822 6609 11057 78141 4770 2758 4296
internal_value=-0.000644325 0.000503178 0.000203557 -1.84922e-05 -0.000213838 0.00219548 0.00338063 0.00573078 0.00123547 0.0015756 -0.00350353 0.00118977 0.00192532 0.00229132
internal_weight=276706 197445 167777 144372 124954 29668.3 13590.5 4284.67 19417.8 23405.1 79260.6 16077.8 10013.2 9305.85
internal_count=277015 182871 161295 136856 118054 21576 8989 2877 18802 24439 94144 12587 7817 6112
is_linear=0
shrinkage=0.0386495


Tree=18
num_leaves=15
num_cat=0
split_feature=8 1 37 16 29 33 12 13 13 0 35 25 16 16
split_gain=598.078 61.8555 28.4039 27.0103 28.8699 21.2791 16.8918 14.3907 14.2141 12.0249 12.1912 10.247 9.24862 8.68544
threshold=1.0000000180025095e-35 -5.1224381923675528 0.57060521841049205 -1.0951194763183592 184.33988189697268 44.283332824707038 -0.18257532268762586 0.71784701943397533 0.70711243152618419 0.055250000208616264 20.219585418701175 -1.6188745632916832e-07 -3.498293280601501 -3.0737084150314327
decision_type=2 2 2 2 2 2 2 2 2 2 2 2 2 2
left_child=11 5 3 8 -5 6 7 -2 -3 10 -7 -1 -4 -14
right_child=1 2 12 4 -6 9 -8 -9 -10 -11 -12 -13 13 -15
leaf_value=-0.27821659752459027 0.90193581932258671 -0.18855178964638891 -0.21649594569300379 -0.068612914880794226 0.48615536463592468 1.1479598536880899 0.14239596076272562 0.80512057054531105 0.095020263466458463 0.12750847077334457 0.34299261629214939 -0.27821659752459027 0.74561477685997812 0.23518727499428907
leaf_weight=16378.796531021595 700.00013470649719 5332.0220755338669 1429.346431016922 66372.346790730953 3732.9084837436676 147.49102139472961 2765.2738883495331 7139.9486958384514 76355.04045188427 15145.454485297203 3770.171307861805 62881.81145554781 1459.3660924434662 13095.698419034481
leaf_count=16003 110 1429 1062 77081 951 57 2072 4659 67399 11658 3020 78141 1150 12223
internal_value=-0.000667471 0.00047074 0.000182684 1.90991e-05 -0.000537022 0.00209765 0.00348864 0.00440639 0.000497083 0.00132048 0.00323364 -0.00350353 0.0017323 0.00202513
internal_weight=276706 197445 167777 151792 70105.3 29668.3 10605.2 7839.95 81687.1 19063.1 3917.66 79260.6 15984.4 14555.1
internal_count=277015 182871 161295 146860 78032 21576 6841 4769 68828 14735 3077 94144 14435 13373
is_linear=0
shrinkage=0.0386495


Tree=19
num_leaves=15
num_cat=0
split_feature=8 23 0 2 35 38 16 54 47 25 25 1 23 6
split_gain=589.454 55.0386 29.3916 23.5665 23.8007 22.8248 20.1531 16.0645 19.8453 10.247 9.84635 7.1741 7.12104 6.36091
threshold=1.0000000180025095e-35 0.38933753967285162 0.03024999983608723 33.673789978027351 10.577258110046388 0.84659108519554149 -1.0321227908134458 0.37312978506088262 1.0000000180025095e-35 -1.6188745632916832e-07 -0.0033232414862141009 -12.836630344390867 1.2212909460067751 1.0000000180025095e-35
decision_type=2 2 2 2 2 2 2 2 2 2 2 2 2 2
left_child=9 5 7 4 -4 6 10 8 -3 -1 -2 -7 -5 -13
right_child=1 2 3 12 -6 11 -8 -9 -10 -11 -12 13 -14 -15
leaf_value=-0.26746365314830406 -0.065849028267159881 -0.16116688304242258 0.70162183359296681 0.2597313824719763 0.222495584812401 0.59940184661616014 -0.07584191890974569 -0.30560481412253754 1.6983733457990575 -0.26746365314830406 0.061158714316401776 0.039647349473762077 -0.83609527531688421 0.19050880702856249
leaf_weight=16378.796531021595 11084.707995891571 3272.1302045583725 10965.902758717537 2048.3979152441025 53210.321402430534 207.15481442213058 50234.550968825817 4812.6893647313118 678.62870132923126 62881.81145554781 37499.177431046963 11105.72889226675 3393.9271284937859 8931.750699877739
leaf_count=16003 10735 1031 5006 1507 33883 243 61384 1346 211 78141 42838 12941 855 10891
internal_value=-0.000687995 0.000441978 0.00123732 0.00150316 0.00171055 -8.11379e-05 -0.000323807 -0.000867801 0.000947892 -0.00350353 0.000236497 0.00110043 -0.00093156 0.00102269
internal_weight=276706 197445 78382 69618.5 64176.2 119063 98818.4 8763.45 3950.76 79260.6 48583.9 20244.6 5442.33 20037.5
internal_count=277015 182871 43839 41251 38889 139032 114957 2588 1242 94144 53573 24075 2362 23832
is_linear=0
shrinkage=0.0386495


Tree=20
num_leaves=15
num_cat=0
split_feature=8 2 16 16 6 45 6 18 45 26 33 22 33 34
split_gain=559.627 55.1546 34.4839 27.1828 22.3318 19.2523 20.3516 18.6505 17.1813 14.4087 13.9327 12.5686 11.0965 9.42042
threshold=1.0000000180025095e-35 -10.101210117340086 -1.0951194763183592 -3.498293280601501 -1.1783434748649595 1.0000000180025095e-35 1.0000000180025095e-35 -0.20448984205722806 1.0000000180025095e-35 -8.3456794186531614e-07 24.85000038146973 0.41462235152721411 90.083332061767592 6.5690410137176523
decision_type=2 2 2 2 2 2 2 2 2 2 2 2 2 2
left_child=9 4 3 11 7 6 -4 -2 -5 -1 -7 -3 -9 -6
right_child=1 2 5 8 13 10 -8 12 -10 -11 -12 -13 -14 -15
leaf_value=-0.25712630515910723 1.4381682455241116 0.17460340890171236 -0.063581116229660228 0.19746666176106584 1.034086931785714 0.17849540555687837 0.10017268450609876 0.53763010322093308 0.036295528715643594 -0.25712630515910723 -0.13016048099891533 -0.29379332768850308 0.16815703680448044 0.16342711899014142
leaf_weight=15130.778659343719 977.41873955726624 3725.5675667524338 25544.06306385994 52203.662659168243 1012.4606165885925 3773.6274897456169 23992.527616143227 4594.9571352601051 33408.180223226547 64107.073332965374 26090.527649819851 8544.5295941829681 2369.4714490175247 11253.484988212585
leaf_count=14480 576 3199 26842 45835 476 3284 26497 3117 29946 79714 30209 3236 2591 7065
internal_value=-0.000679438 0.000421237 0.000202801 0.000688501 0.0023345 -0.000395223 7.09706e-05 0.00393464 0.00093269 -0.00342341 -0.00117041 -0.00101042 0.00321815 0.00129326
internal_weight=276728 197490 177283 97881.9 20207.8 79400.7 49536.6 7941.85 85611.8 79237.9 29864.2 12270.1 6964.43 12265.9
internal_count=277067 182873 169048 82216 13825 86832 53339 6284 75781 94194 33493 6435 5708 7541
is_linear=0
shrinkage=0.0386495


Tree=21
num_leaves=15
num_cat=0
split_feature=7 4 16 29 52 25 2 5 42 1 33 27 29 24
split_gain=554.541 52.924 36.4399 36.4235 24.5182 23.4386 20.2961 18.4099 16.4097 14.4539 12.0606 11.0482 14.1063 10.115
threshold=1.0000000180025095e-35 -23.284634590148922 -1.1639514565467832 184.33988189697268 1.0000000180025095e-35 -1.6188745632916832e-07 -16.946798324584957 -2.5958710908889766 1.0000000180025095e-35 -2.1160290241241451 20.649999618530277 -0.00011605758845689705 293.40206909179693 27.274252891540531
decision_type=2 2 2 2 2 2 2 2 2 2 2 2 2 2
left_child=5 6 4 8 9 -1 10 -5 -4 -3 -2 13 -13 -8
right_child=1 2 3 7 -6 -7 11 -9 -10 -11 -12 12 -14 -15
leaf_value=-0.24718849094652598 2.077382620900897 0.17126861336638147 -0.035436809192011143 0.89411792699976744 0.42249293557159578 -0.24718849094652598 0.014396872889200824 0.12198374442086161 -0.22606552569110686 0.023988013031916399 0.64972838974592861 0.43432650084246999 1.2921436838975584 0.38791730576686284
leaf_weight=20821.157242000103 657.78613382577896 24626.66517585516 72858.422190606594 1972.4874500632286 18214.30140709877 63590.081309139729 3840.5345347523689 3691.8539889454842 5999.3535686731339 53507.538344979286 1540.1029858589172 1400.6406833529472 857.51298254728317 3149.8927861452103
leaf_count=18360 355 18468 87759 397 17883 78534 3161 826 2139 44483 1147 1076 425 2054
internal_value=-0.000697251 0.000448729 0.000287065 -0.000298147 0.000801042 -0.00330881 0.00299768 0.00269329 -0.000513819 0.000502354 0.00634887 0.00219381 0.00455487 0.00142174
internal_weight=276728 192317 180871 84522.1 96348.5 84411.2 11446.5 5664.34 78857.8 78134.2 2197.89 9248.58 2258.15 6990.43
internal_count=277067 180173 171955 91121 80834 96894 8218 1223 89898 62951 1502 6716 1501 5215
is_linear=0
shrinkage=0.0386495


Tree=22
num_leaves=15
num_cat=0
split_feature=8 1 45 6 49 46 54 16 22 25 27 35 45 10
split_gain=544.121 47.6701 26.2098 34.2123 41.9562 23.5843 17.5756 16.8159 19.2662 15.3451 14.7605 16.1601 7.22373 6.75553
threshold=1.0000000180025095e-35 -4.6414835453033438 1.0000000180025095e-35 1.0000000180025095e-35 1.5000000000000002 1.0000000180025095e-35 0.12999445945024493 -2.8430203199386592 0.37876777350902563 -1.6188745632916832e-07 0.0015883952146396043 11.856105327606203 1.0000000180025095e-35 0.39455677568912512
decision_type=2 2 2 2 2 2 2 2 2 2 2 2 2 2
left_child=9 6 3 4 -3 -5 7 8 -2 13 11 -4 -8 -1
right_child=1 2 10 5 -6 -7 12 -9 -10 -11 -12 -13 -14 -15
leaf_value=-0.23763476871264241 1.305206850779032 -0.035897098794201908 0.2483937580351317 0.23466308144147 0.57584698685016589 -0.072976858954626855 0.19225095048810831 0.29929888530094167 0.5020167840628903 -0.23763476871264241 -0.16603167827485546 -0.048597395419151146 -0.0065416237455007114 0.020028845789858481
leaf_weight=15773.136788249016 1976.7795475721359 56365.273019850254 6079.7286937832832 36377.823499500751 1424.985699236393 7668.5817724466324 11377.988311707973 10496.584539234638 1894.842676460743 62803.585717976093 15609.247988343239 41276.791481435299 6941.8515619635582 661.12948608398438
leaf_count=15932 1391 51159 4805 36648 1454 7762 8989 7372 888 78190 16475 40273 5657 72
internal_value=-0.000713247 0.000372067 0.000104256 0.000487806 -0.000129746 0.00129934 0.00172042 0.00273437 0.00492074 -0.00341893 -0.000515147 -0.000174005 0.0009218 -0.00235717
internal_weight=276728 197490 164802 101837 57790.3 44046.4 32688 14368.2 3871.62 79237.9 62965.8 47356.5 18319.8 16434.3
internal_count=277067 182873 158576 97023 52613 44410 24297 9651 2279 94194 61553 45078 14646 16004
is_linear=0
shrinkage=0.0386495


Tree=23
num_leaves=15
num_cat=0
split_feature=8 2 52 38 32 5 45 11 26 4 6 29 45 11
split_gain=535.525 43.9208 31.8055 21.1995 19.7594 18.0268 15.4301 16.6628 15.3881 15.2124 14.7105 14.3171 14.1997 9.21673
threshold=1.0000000180025095e-35 -8.9994244575500471 1.0000000180025095e-35 -0.07943482324481009 88.500000000000014 -3.1545999050140376 1.0000000180025095e-35 0.023649020120501522 -8.3456794186531614e-07 -23.284634590148922 47.991506576538093 59.098718643188484 1.0000000180025095e-35 0.017338093370199207
decision_type=2 2 2 2 2 2 2 2 2 2 2 2 2 2
left_child=8 4 3 11 5 9 10 -8 -1 -2 -4 -3 -5 -6
right_child=1 2 6 12 13 -7 7 -9 -10 -11 -12 -13 -14 -15
leaf_value=-0.22845029347797266 1.4811282616401635 -0.08356192634490249 0.25618721979364611 0.096103063703676106 0.4461720640460124 0.25526875072756827 0.32743763442679102 -0.21236748473687439 -0.22845029347797266 0.39431318092584583 1.47860707317008 0.076881785558099172 -0.032587877902495177 -0.0072569030838531539
leaf_weight=15130.778659343719 1656.5348912477493 60853.160728394985 12562.491863071918 43620.732257544994 2345.3127514719963 6518.2496963143349 5620.666999578476 3913.1731947660446 64107.073332965374 5015.1463871002197 2197.31176841259 21593.521954238415 23893.681457936764 7700.4948414564133
leaf_count=14480 1168 70980 13434 40641 2524 4021 5620 4169 79714 3605 2130 6547 22756 5278
internal_value=-0.00072954 0.000347163 0.000136324 -7.34798e-05 0.00192569 0.00291041 0.0014337 0.000214909 -0.00341376 0.00432693 0.00221689 -0.000489648 0.000433873 0.000626675
internal_weight=276728 197490 174255 149961 23235.7 13189.9 24293.6 9533.84 79237.9 6671.68 14759.8 82446.7 67514.4 10045.8
internal_count=277067 182873 166277 140924 16596 8794 25353 9789 94194 4773 15564 77527 63397 7802
is_linear=0
shrinkage=0.0386495


Tree=24
num_leaves=15
num_cat=0
split_feature=7 23 25 1 33 22 16 11 38 54 26 49 25 54
split_gain=524.352 43.3215 24.5587 21.3424 24.8262 28.9467 18.1685 15.1011 10.4149 8.08043 7.31738 6.16906 5.60187 9.59234
threshold=1.0000000180025095e-35 0.22643774002790454 -1.6188745632916832e-07 22.58117771148682 24.85000038146973 0.44409963488578802 -0.26071582734584803 0.017338093370199207 0.39794926345348364 0.48496600985527044 0.00012891562073491516 1.5000000000000002 -0.017055655829608437 0.45283553004264837
decision_type=2 2 2 2 2 2 2 2 2 2 2 2 2 2
left_child=2 6 12 4 5 -3 8 -6 9 -2 11 -8 13 -1
right_child=1 3 -4 -5 7 -7 10 -9 -10 -11 -12 -13 -14 -15
leaf_value=-1.1031798165238218 0.034563112792921208 0.67117356556554408 -0.21962079401470724 -0.40131666600862181 0.27304078882355948 0.11886479959286872 -0.13100665119558899 0.062640268815613298 0.10992071080257979 -0.082830399250577239 -0.031973399631765001 0.13680580800915207 -0.21962079401470724 -0.21962079401470724
leaf_weight=425.53655385971069 18818.496898174286 9411.5071669220924 63590.081309139729 6254.1694903969765 20483.604290366173 7550.2693365812302 16892.864777028561 69323.678902506828 13544.481852769852 15189.251517474651 14478.088813245296 370.6791872382164 19527.064107596874 868.55658054351807
leaf_count=58 20344 6091 78534 2643 22582 5998 19877 49699 15633 18085 18741 480 18181 121
internal_value=-0.00075043 0.000363907 -0.0032899 0.000849917 0.000978778 0.00233635 -0.000328111 0.000721683 0.000148809 -0.000210754 -0.00104438 -0.00158288 -0.00213079 0.00029196
internal_weight=276728 192317 84411.2 113023 106769 16961.8 79293.9 89807.3 47552.2 34007.7 31741.6 17263.5 20821.2 1294.09
internal_count=277067 180173 96894 87013 84370 12089 93160 72281 54062 38429 39098 20357 18360 179
is_linear=0
shrinkage=0.0386495


Tree=25
num_leaves=15
num_cat=0
split_feature=8 1 52 49 38 25 33 29 0 12 38 4 28 10
split_gain=512.005 38.5899 25.3476 19.4056 16.5734 15.5015 15.4723 15.0141 13.1709 15.545 12.2901 9.00098 5.40477 5.26073
threshold=1.0000000180025095e-35 -3.8458526134490962 1.0000000180025095e-35 1.5000000000000002 0.18027917295694354 -1.6188745632916832e-07 145.2416687011719 78.839756011962905 0.047249998897314079 -0.71194353699684132 0.33788670599460607 -7.7138922214508048 12.500927925109865 0.39455677568912512
decision_type=2 2 2 2 2 2 2 2 2 2 2 2 2 2
left_child=5 6 3 4 -3 13 8 -5 9 -2 -4 -10 -12 -1
right_child=1 2 10 7 -6 -7 -8 -9 11 -11 12 -13 -14 -15
leaf_value=-0.21113255067147094 1.3183547071082093 -0.07223500186368495 0.1408479049575124 0.10709642239636677 0.036824728731407762 -0.21113255067147094 0.034028460300959171 1.0271613867454923 0.40880822770202613 0.48220631167977934 0.19374888234316504 0.15239529268628305 0.99135924259148112 0.018379547323044681
leaf_weight=15633.965360701084 918.11812329292297 86166.698157668114 17201.94024682045 2261.3302549123764 48004.047085046768 62918.751697123051 12192.924714267254 464.37273728847504 8354.993241071701 1807.6273139119148 2116.3941221237183 15238.261961996555 2806.7506880760193 642.76477813720703
leaf_count=15901 791 81359 17623 2821 45501 78392 10728 100 6409 971 2408 10869 2986 70
internal_value=-0.000797581 0.000254802 -1.06874e-05 -0.000207223 -0.000273227 -0.00342316 0.0013525 0.00301832 0.00188003 0.00443487 0.00120264 0.00158206 0.00290883 -0.00234968
internal_weight=276729 197533 159022 136896 134171 79195.5 38511.9 2725.7 26319 2725.75 22125.1 23593.3 4923.14 16276.7
internal_count=276929 182566 152798 129781 126860 94363 29768 2921 19040 1762 23017 17278 5394 15971
is_linear=0
shrinkage=0.0386495


Tree=26
num_leaves=15
num_cat=0
split_feature=8 1 45 6 49 25 38 33 5 26 16 29 26 32
split_gain=505.92 33.7838 21.4885 27.3986 30.529 15.5015 15.4923 13.1801 13.0479 13.4753 10.9927 16.5963 13.4648 6.49815
threshold=1.0000000180025095e-35 -3.8458526134490962 1.0000000180025095e-35 1.0000000180025095e-35 1.5000000000000002 -1.6188745632916832e-07 0.042002616450190551 145.2416687011719 -16.662740707397457 0.012444599065929653 -1.1639514565467832 184.33988189697268 -0.15710135549306867 126.50000000000001
decision_type=2 2 2 2 2 2 2 2 2 2 2 2 2 2
left_child=5 7 3 4 -3 -1 -5 8 9 -2 12 -12 -4 -10
right_child=1 2 10 6 -6 -7 -8 -9 13 -11 11 -13 -14 -15
leaf_value=-0.20297237405514562 0.48980132163977741 -0.045678354877167614 0.57577608537571756 0.051977937489868314 0.43713029586852198 -0.20297237405514562 0.25527873626495023 0.032713275858037724 0.1774653132046326 2.1256390687407349 -0.12410605324684862 0.54038511751539642 -0.022527861966531469 0.33669845584941122
leaf_weight=16276.730138838291 4823.6352615952492 54223.755546927452 91.823539733886719 24528.959105551243 1402.174088537693 62918.751697123051 18024.364695966244 12192.924714267254 19447.038025736809 549.07399618625641 26251.029365777969 1927.422345995903 32572.00460344553 1499.2533567547798
leaf_count=15971 3867 49291 10 24629 1453 78392 18137 10728 13734 146 31328 528 27422 1293
internal_value=-0.000813233 0.000232876 -1.55102e-05 0.000337795 -0.000226055 -0.00342316 0.0010762 0.00125995 0.00174688 0.00345241 -0.000586573 -0.00114608 -0.000102084 0.00130635
internal_weight=276729 197533 159022 98179.3 55625.9 79195.5 42553.3 38511.9 26319 5372.71 60842.3 28178.5 32663.8 20946.3
internal_count=276929 182566 152798 93510 50744 94363 42766 29768 19040 4013 59288 31856 27432 15027
is_linear=0
shrinkage=0.0386495


Tree=27
num_leaves=15
num_cat=0
split_feature=8 2 45 6 33 46 16 16 8 29 11 16 33 31
split_gain=500.355 31.5425 19.6674 26.3401 17.6769 15.0826 14.1376 13.9889 15.4647 13.0793 12.6777 12.229 9.37628 8.51425
threshold=1.0000000180025095e-35 -5.1740825176239005 1.0000000180025095e-35 5.7168955802917489 145.2416687011719 1.0000000180025095e-35 -1.1639514565467832 -3.1641684770584102 0.033557109534740455 184.33988189697268 1.0000000180025095e-35 0.47592352330684667 28.816666603088382 247.50000000000003
decision_type=2 2 2 2 2 2 2 2 2 2 2 2 2 2
left_child=10 4 3 11 7 -5 12 8 -2 -8 -1 -3 -4 -9
right_child=1 2 6 5 -6 -7 9 13 -10 -11 -12 -13 -14 -15
leaf_value=-0.19512758453663087 0.86262763520637809 0.011266233082218736 0.43304895026979073 0.21573076320330309 0.0083680873321638326 -0.069191932851681029 -0.12910445488343159 0.19047465929191568 -0.08013019652923338 0.51445712665341325 -0.19512758453663087 -0.11748318843141321 -0.033496324466032547 0.64901011316845025
leaf_weight=68018.545963406563 2611.3885931968689 50014.546185612679 3479.4601409435272 29497.464772582054 14221.594029068947 6013.5140143632889 25523.305989801884 22735.249213576317 790.92583322525024 1867.6164871454239 11176.935872554779 11998.083189189434 28618.268416404724 162.04178136587143
leaf_count=85088 1922 44260 2692 29066 13643 5841 30158 17626 113 473 9275 12690 23932 150
internal_value=-0.000827631 0.000212706 -3.50514e-05 0.000302396 0.0011741 0.00114196 -0.000589216 0.00176778 0.00408875 -0.00123423 -0.00342316 -0.000177461 -3.69369e-05 0.00142005
internal_weight=276729 197533 157012 97523.6 40521.2 35511 59488.7 26299.6 3402.31 27390.9 79195.5 62012.6 32097.7 22897.3
internal_count=276929 182566 149112 91857 33454 34907 57255 19811 2035 30631 94363 56950 26624 17776
is_linear=0
shrinkage=0.0386495


Tree=28
num_leaves=15
num_cat=0
split_feature=8 2 45 6 49 33 25 33 29 35 3 4 29 11
split_gain=494.664 29.2974 18.5112 23.4666 24.5676 16.1285 15.6513 13.0276 13.2103 12.1777 11.0882 11.6259 7.27968 5.66436
threshold=1.0000000180025095e-35 -5.6450548171997061 1.0000000180025095e-35 5.7168955802917489 1.5000000000000002 145.2416687011719 -1.6188745632916832e-07 24.85000038146973 703.45236206054699 44.724857330322273 -22.681573867797848 -8.3500657081603986 184.33988189697268 0.017338093370199207
decision_type=2 2 2 2 2 2 2 2 2 2 2 2 2 2
left_child=6 5 3 4 -3 10 -1 8 -4 -5 11 -2 -9 -12
right_child=1 2 7 9 -6 -7 -8 12 -10 -11 13 -13 -14 -15
leaf_value=-0.18758599254869773 1.1030526458033116 -0.035335447101577336 0.14500659464020399 0.045867757129703063 0.32509454928834591 0.0067666939541768901 -0.18758599254869773 -0.10019745432265084 0.34391948681468543 0.28419533110541367 0.3342903850767438 0.16510013015632938 0.014278511936301775 0.14372791396835691
leaf_weight=16276.730138838291 2168.4485154747963 61394.711941480637 6201.3603956699371 18742.778687357903 1719.7680827379227 13139.428813397884 62918.751697123051 43145.621613740921 257.10591125488281 17287.988717675209 5397.5253024697304 1220.7065768837929 10989.584149360657 15868.429938971996
leaf_count=15971 1466 56276 5244 17095 1779 12374 78392 51088 28 18306 5383 621 2025 10881
internal_value=-0.000840175 0.000194225 -3.43802e-05 0.000290494 -0.000157976 0.00116191 -0.0034209 -0.000566898 0.00106987 0.00107765 0.00174482 0.00380765 -0.000763272 0.00141302
internal_weight=276729 197533 159739 99145.2 63114.5 37794.5 79195.5 60593.7 6458.47 36030.8 24655.1 3389.16 54135.2 21266
internal_count=276929 182566 151841 93456 58055 30725 94363 58385 5272 35401 18351 2087 53113 16264
is_linear=0
shrinkage=0.0386495


Tree=29
num_leaves=15
num_cat=0
split_feature=8 23 0 1 33 26 25 45 14 54 47 29 36 10
split_gain=491.581 27.963 27.4843 20.3185 18.6916 17.2625 15.6513 11.9531 13.8228 9.10619 8.66378 6.70732 6.52605 5.23807
threshold=1.0000000180025095e-35 0.37243850529193884 0.03024999983608723 11.145467281341555 24.85000038146973 -0.012894888408482073 -1.6188745632916832e-07 1.0000000180025095e-35 0.64477145671844494 0.37312978506088262 1.0000000180025095e-35 9.6518635749816912 0.80120873451232921 0.39455677568912512
decision_type=2 2 2 2 2 2 2 2 2 2 2 2 2 2
left_child=6 5 9 4 -4 -2 13 8 -7 10 -3 -9 -5 -1
right_child=1 2 3 12 -6 7 -8 11 -10 -11 -12 -13 -14 -15
leaf_value=-0.18033587964532105 -0.095388829941966707 -0.21914211902915573 0.55654596470711848 -0.27909512300243083 0.15065410079369462 -0.0023590827554221395 -0.18033587964532105 -0.10976573847971653 0.13967237580698844 -0.26049286216111245 0.69211164252988633 -0.010187671528957937 0.49293271270307693 0.040305680626506572
leaf_weight=15633.965360701084 21501.381698787212 3365.1420788168907 11205.319525778294 8596.3225084543228 51040.47420912981 41133.128699541092 62918.751697123051 14444.854724526405 17362.679072797298 5047.9930934906006 492.42471373081207 21946.895117521286 1396.8432039022446 642.76477813720703
leaf_count=15901 25995 1077 6450 4120 32541 45055 78392 18572 21097 1441 188 25184 846 70
internal_value=-0.000848235 0.000182935 0.000733814 0.000984021 0.00124405 -0.000200637 -0.0034209 2.2834e-05 0.000365568 -0.00128904 0.0001105 -0.00052647 -0.000629766 -0.00234235
internal_weight=276729 197533 81144.5 72239 62245.8 116389 79195.5 94887.6 58495.8 8905.56 3857.57 36391.7 9993.17 16276.7
internal_count=276929 182566 46663 43957 38991 135903 94363 109908 66152 2706 1265 43756 4966 15971
is_linear=0
shrinkage=0.0386495


Tree=30
num_leaves=15
num_cat=0
split_feature=7 1 25 52 38 45 49 5 29 27 38 10 42 45
split_gain=484.785 30.7385 26.5564 22.104 16.8243 17.535 14.4973 10.9181 14.1803 12.134 9.34481 7.9474 8.24991 6.44411
threshold=1.0000000180025095e-35 -5.6879725456237784 -1.6188745632916832e-07 1.0000000180025095e-35 0.18027917295694354 1.0000000180025095e-35 1.5000000000000002 -8.8370337486267072 47.27319526672364 -0.050799066200852387 0.33788670599460607 0.010765339247882368 1.0000000180025095e-35 1.0000000180025095e-35
decision_type=2 2 2 2 2 2 2 2 2 2 2 2 2 2
left_child=2 7 -1 4 6 -6 -3 8 -2 -10 13 12 -9 -5
right_child=1 3 -4 10 5 -7 -8 11 9 -11 -12 -13 -14 -15
leaf_value=-0.1733659802930605 0.087691643624117036 -0.06406763839716248 -0.1733659802930605 0.23096978427333964 0.10225043493055182 -0.054155934875816374 0.24917021447640697 0.30037077992988398 1.2569040354026058 0.4965624776426209 0.53311911338271123 0.097390979742255218 2.8431110913734461 -0.031557292732931008
leaf_weight=20567.762543857098 3050.2717584967613 90561.282477557659 63578.785530507565 10623.402691721916 33006.205092966557 17855.196676075459 1718.600536942482 3528.4994092583656 589.53372305631638 4857.0190129876137 5036.7973974943161 14321.514052808285 373.14077806472778 7141.5380407571793
leaf_count=18241 3739 86630 78624 11004 31680 17413 1906 3994 275 2833 5540 7863 137 7306
internal_value=-0.000842553 0.000226098 -0.00328998 2.98386e-05 -0.000147841 0.000415954 -0.000459215 0.00144269 0.0025904 0.00377316 0.00114771 0.000904149 0.00245369 0.000726402
internal_weight=276810 192663 84146.5 165943 143141 50861.4 92279.9 26720 8496.82 5446.55 22801.7 18223.2 3901.64 17764.9
internal_count=277185 180320 96865 161479 137629 49093 88536 18841 6847 3108 23850 11994 4131 18310
is_linear=0
shrinkage=0.0386495


Tree=31
num_leaves=15
num_cat=0
split_feature=8 1 38 45 25 15 49 0 5 29 9 11 27 23
split_gain=479.59 29.7528 18.6809 19.9897 17.7268 13.1742 12.788 10.8378 9.70027 12.6575 12.4884 7.91528 6.75799 5.78511
threshold=1.0000000180025095e-35 -5.6879725456237784 -0.21393730491399762 1.0000000180025095e-35 -1.6188745632916832e-07 -24.969259262084957 1.5000000000000002 0.03024999983608723 -8.8370337486267072 59.098718643188484 3.2934976816177373 0.011574562173336746 0.0027375351637601857 0.64988771080970775
decision_type=2 2 2 2 2 2 2 2 2 2 2 2 2 2
left_child=4 8 5 7 -1 13 -7 -4 9 -2 -11 -10 -5 -3
right_child=1 2 3 12 -6 6 -8 -9 11 10 -12 -13 -14 -15
leaf_value=-0.16666546436619584 0.11004028683046031 -0.0042774878501224325 -0.24331848858755076 -0.012806315510693984 -0.16666546436619584 -0.077588837898612817 0.22876144502792606 0.10786313432677884 0.4509751750719983 0.55095119375482449 2.2591861694407638 0.093626862873462322 -0.15097944803184762 0.40003113526932982
leaf_weight=16213.936991989613 3701.946784555912 2539.675951063633 4149.2520884275436 24760.890510261059 62762.184324860573 78569.069199740887 1487.25620418787 50201.24088537693 3674.2111597061157 4405.250726044178 389.62698394060135 14548.943080425262 6125.1455836296082 3280.919248342514
leaf_count=15922 4456 2786 2232 23852 78276 75991 1652 49830 3762 2282 109 8232 6258 1545
internal_value=-0.000853658 0.000162522 -2.44493e-05 0.000380534 -0.00339984 -0.000427087 -0.000556687 0.000827056 0.00136196 0.00244399 0.00375729 0.000854056 -0.000403343 0.00134505
internal_weight=276810 197833 171113 85236.5 78976.1 85876.9 80056.3 54350.5 26720 8496.82 4794.88 18223.2 30886 5820.6
internal_count=277185 182987 164146 82172 94198 81974 77643 52062 18841 6847 2391 11994 30110 4331
is_linear=0
shrinkage=0.0386495


Tree=32
num_leaves=15
num_cat=0
split_feature=7 23 25 1 26 33 13 16 38 45 26 12 49 3
split_gain=476.163 33.5614 26.5564 23.221 19.7314 14.7813 15.5871 14.7247 11.881 7.66461 5.19645 5.2607 4.75063 4.62781
threshold=1.0000000180025095e-35 0.38933753967285162 -1.6188745632916832e-07 22.58117771148682 -0.012894888408482073 16.516666412353519 0.70711243152618419 -3.263633012771606 1.1813057065010073 1.0000000180025095e-35 0.012444599065929653 -0.36142565310001368 1.0000000180025095e-35 46.697820663452156
decision_type=2 2 2 2 2 2 2 2 2 2 2 2 2 2
left_child=2 4 10 5 -2 7 -7 -3 9 -6 11 -1 -10 -5
right_child=1 3 -4 13 8 6 -8 -9 12 -11 -12 -13 -14 -15
leaf_value=-0.023885963917083461 -0.099837401020990701 1.4783122619702607 -0.16022392031841767 -0.072331162530994447 0.015912731238013962 -0.089889511335626338 0.17801909400135835 0.43843686536854937 0.16817628050756567 -0.061103755757868292 0.7816804448393333 -0.16022392031841767 -0.0053206262227042493 -1.1432143291751158
leaf_weight=1648.6080294847488 21982.67892742157 459.71341103315353 63578.785530507565 2748.695387005806 51657.51296454668 4162.9721230268478 56670.393515348434 8123.1544341444969 7876.0230537056923 32597.065950334072 156.10001754760742 18763.054496824741 3051.5201541185379 3333.271727502346
leaf_count=1786 26670 288 78624 1232 58188 570 35408 4465 9466 39170 17 16438 3800 1063
internal_value=-0.000864419 0.00019468 -0.00328998 0.000830297 -0.000214408 0.00103143 0.000818123 0.002536 2.60427e-05 -0.000128854 -0.00207599 -0.00213185 0.00122545 -0.00145536
internal_weight=276810 192663 84146.5 75498.2 117165 69416.2 60833.4 8582.87 95182.1 84254.6 20567.8 20411.7 10927.5 6081.97
internal_count=277185 180320 96865 43026 137294 40731 35978 4753 110624 97358 18241 18224 13266 2295
is_linear=0
shrinkage=0.0386495


Tree=33
num_leaves=15
num_cat=0
split_feature=8 52 1 25 37 49 45 10 42 6 33 3 25 33
split_gain=473.177 26.7897 20.3612 17.7268 13.288 11.8552 10.8443 21.5773 14.1631 12.2854 18.5133 7.91274 7.27318 7.19637
threshold=1.0000000180025095e-35 1.0000000180025095e-35 -3.8458526134490962 -1.6188745632916832e-07 1.9462274909019472 1.5000000000000002 1.0000000180025095e-35 0.019917719066143039 1.0000000180025095e-35 47.991506576538093 37.31666564941407 -8.6944422721862775 0.38323046267032629 226.41666412353518
decision_type=2 2 2 2 2 2 2 2 2 2 2 2 2 2
left_child=3 2 13 -1 5 -4 9 8 -8 11 -11 -3 -6 -2
right_child=1 6 4 -5 12 -7 7 -9 -10 10 -12 -13 -14 -15
leaf_value=-0.15403133900492441 0.14651436648024388 0.52581030291732045 -0.03799477676165762 -0.15403133900492441 0.51484285890513226 0.20519806406592597 0.2025282164488395 -0.22476848500812366 6.4813921289323986 -0.535564682279141 1.6554944659226816 0.15302083016495208 1.526922869427765 -0.042442655479899713
leaf_weight=16213.936991989613 24402.566007375717 3437.1740878820419 133234.44250684977 62762.184324860573 1429.8532654643059 2778.5999922156334 6191.3743856549263 4902.1120096445084 657.24247694015503 594.61560356616974 2109.1166644096375 11940.121266782284 75.113854944705963 6081.0962839722633
leaf_count=15922 17134 3405 125821 78276 1355 2953 6836 4613 134 432 2075 12514 51 5664
internal_value=-0.000870745 0.000138614 -5.05823e-05 -0.00339984 -0.000251239 -0.000291617 0.00120598 0.000285943 0.00169115 0.00180059 0.00421285 0.00137219 0.00335506 0.000852675
internal_weight=276810 197833 168002 78976.1 137518 136013 29831.8 11750.7 6848.62 18081 2703.73 15377.3 1504.97 30483.7
internal_count=277185 182987 152978 94198 130180 128774 30009 11583 6970 18426 2507 15919 1406 22798
is_linear=0
shrinkage=0.0386495


Tree=34
num_leaves=15
num_cat=0
split_feature=8 18 23 25 45 6 6 5 2 36 25 36 49 42
split_gain=470.813 25.5932 18.3022 17.7268 12.5815 21.5932 12.0693 9.64884 9.52086 10.8541 7.6438 6.57378 15.6949 7.07425
threshold=1.0000000180025095e-35 -0.088109306991100297 0.14183169603347781 -1.6188745632916832e-07 1.0000000180025095e-35 2.0551723241806035 25.927017211914066 -14.165785789489744 -24.155606269836422 -1.2803424596786497 -0.011568073183298109 1.386858403682709 1.0000000180025095e-35 1.0000000180025095e-35
decision_type=2 2 2 2 2 2 2 2 2 2 2 2 2 2
left_child=3 7 10 -1 5 -4 -6 8 9 -2 -3 13 -13 -9
right_child=1 2 4 -5 6 -7 -8 11 -10 -11 -12 12 -14 -15
leaf_value=-0.14807809812978776 1.2499898031305992 -0.1269633180149084 -0.0091847824673550495 -0.14807809812978776 0.00094041070846318095 0.17800027371261967 -0.21179533773069173 0.18542206233635047 0.38787513564919757 1.0052566541203254 -0.043335842666432874 -0.11381312067010431 1.1830406142318353 -0.28290934911957744
leaf_weight=16213.936991989613 83.25909411907196 7634.5017753839493 49139.345510363579 62762.184324860573 44496.446172952652 37723.245002448559 9749.2413104772568 9995.7812022566795 3370.6145552396774 684.35756587982178 31640.603600800037 578.25634759664536 304.02505648136139 2433.7512117028236
leaf_count=15922 51 9433 41848 78276 39876 35097 8235 6403 2534 435 37866 329 75 805
internal_value=-0.00087707 0.000129764 -6.65053e-06 -0.00339984 0.000198417 0.000487051 -0.000262699 0.00154306 0.00317947 0.00709541 -0.00074487 0.0010296 0.00426475 0.000794647
internal_weight=276810 197833 180383 78976.1 141108 86862.6 54245.7 17450 4138.23 767.617 39275.1 13311.8 882.281 12429.5
internal_count=277185 182987 172355 94198 125056 76945 48111 10632 3020 486 47299 7612 404 7208
is_linear=0
shrinkage=0.0386495


Tree=35
num_leaves=15
num_cat=0
split_feature=7 23 18 11 38 54 13 10 22 54 10 10 31 10
split_gain=473.926 25.7531 23.0351 19.425 15.5507 15.4663 15.5571 13.3923 12.6498 7.8284 6.44397 5.45409 13.6777 5.8287
threshold=1.0000000180025095e-35 0.37243850529193884 0.20360330492258075 1.0000000180025095e-35 0.84659108519554149 0.096623886376619353 0.70711243152618419 0.040447952225804336 0.45438598096370703 0.45283553004264837 0.047597480937838561 0.39455677568912512 133.50000000000003 0.031837590038776405
decision_type=2 2 2 2 2 2 2 2 2 2 2 2 2 2
left_child=3 4 5 -1 7 8 -7 9 -3 -2 -4 13 -13 -5
right_child=1 2 10 11 -6 6 -8 -9 -10 -11 -12 12 -14 -15
leaf_value=-0.14235494729442064 0.038403350444833562 0.46331632839713266 0.032426811095565999 -0.14235494729442064 0.077049092204705988 -0.1225775873893193 0.12269401742558521 -0.087049970015347894 0.091740822706014552 -0.056536102508862617 -0.79529374035646694 0.50859604082992349 -0.15375551413601191 -0.14235494729442064
leaf_weight=67837.154936552048 31959.791596710682 14703.387682974339 2194.3412833809853 10324.60251969099 19814.150247216225 3638.7864024043083 44931.876630663872 37284.586303830147 8716.6640927195549 25677.64013248682 3838.7806741595268 367.29415893554688 661.12948608398438 5084.5208105444908
leaf_count=84700 37099 7269 1309 11221 23450 510 29539 42672 6246 30953 1008 40 72 662
internal_value=-0.000898992 0.000157723 0.000699621 -0.00331663 -0.000210284 0.000892393 0.000497298 -0.000416259 0.00170919 -4.59628e-05 -0.00159057 -0.00211559 0.000563684 -0.00229822
internal_weight=277035 192760 78023.8 84274.7 114736 71990.7 48570.7 94922 23420.1 57637.4 6033.12 16437.5 1028.42 15409.1
internal_count=276750 180055 45881 96695 134174 43564 30049 110724 13515 68052 2317 11995 112 11883
is_linear=0
shrinkage=0.0386495


Tree=36
num_leaves=15
num_cat=0
split_feature=8 4 1 25 38 10 54 1 0 6 33 6 6 13
split_gain=470.678 20.9449 16.798 14.4811 13.7212 10.7103 10.2659 10.2547 6.88507 6.7484 6.59229 6.34227 6.14262 5.89613
threshold=1.0000000180025095e-35 -23.284634590148922 -1.923061668872833 -1.6188745632916832e-07 1.3244665861129763 0.040447952225804336 0.12320294231176378 -18.493697166442868 0.051249999552965171 30.865311622619632 37.31666564941407 8.7309045791625994 -20.832743644714352 0.91149935126304638
decision_type=2 2 2 2 2 2 2 2 2 2 2 2 2 2
left_child=3 7 6 -1 5 -4 -3 12 -8 10 -9 -6 13 -2
right_child=1 2 4 -5 11 -7 8 9 -10 -11 -12 -13 -14 -15
leaf_value=-0.13685299362391481 1.275262735044832 0.22002946336043569 -0.0023419664475504589 -0.13685299362391481 0.032788298363100772 -0.086237473919674748 0.20344941693686897 0.76659943253900631 -0.0028901798942686276 -0.10858429236176863 0.16856229735936129 0.30367890230315403 0.41281981641950433 1.0665704691430329
leaf_weight=16342.75207054615 119.34616786241531 17956.440399229527 62309.52462375164 62853.636652588844 8407.0314447879791 56035.188099622726 5134.1197028160095 2502.9290588498116 30829.584639370441 1560.7103389501572 7064.73903465271 5064.2072387337685 671.80673998594284 182.69074660539627
leaf_count=15912 65 13774 67389 78123 8173 46319 4340 1252 29424 948 5727 4830 334 140
internal_value=-0.000904514 0.000103155 1.32362e-06 -0.00342241 -0.000233444 -0.00036684 0.000576311 0.00166094 0.000197561 0.00132066 0.0017073 0.000934021 0.00547929 0.0101375
internal_weight=277035 197838 185736 79196.4 131816 118345 53920.1 12102.2 35963.7 11128.4 9567.67 13471.2 973.844 302.037
internal_count=276750 182715 174249 94035 126711 113708 47538 8466 33764 7927 6979 13003 539 205
is_linear=0
shrinkage=0.0386495


Tree=37
num_leaves=15
num_cat=0
split_feature=8 18 28 2 25 16 33 37 16 23 54 5 23 36
split_gain=464.68 18.6295 14.4075 16.8337 14.2676 13.8514 14.7738 12.3947 11.0487 8.35083 7.7892 8.10166 6.48649 6.19845
threshold=1.0000000180025095e-35 -0.058561461046338074 13.084577560424806 33.673789978027351 -1.6188745632916832e-07 0.47592352330684667 183.13809204101565 1.9462274909019472 -3.1641684770584102 0.96889963746070873 0.10970383509993555 -26.434249877929684 1.2212909460067751 1.386858403682709
decision_type=2 2 2 2 2 2 2 2 2 2 2 2 2 2
left_child=4 10 5 7 -1 6 -3 -4 -6 -7 11 -2 -5 -12
right_child=1 2 3 12 8 9 -8 -9 -10 -11 13 -13 -14 -15
leaf_value=-0.1315636879489141 0.92716693472686895 0.035560181070702586 0.066089117906100239 0.0015475349318453499 -0.1315636879489141 -0.098971934151233426 -0.078510125305777764 0.70174656742882191 0.0046986322865169945 0.48513684980475685 0.050803185095103995 0.27856216602966805 -1.2350263521462956 0.43807654869259866
leaf_weight=16342.75207054615 1620.8245877027512 44443.24866771698 65855.052390575409 2037.6038282513618 62776.448985695839 19804.631661713123 33402.072527825832 1056.8184437155724 77.187666893005371 836.60976803302765 14822.286838889122 9562.968604683876 3438.0513772368431 958.14953887462616
leaf_count=15912 993 38015 62940 1584 78113 23694 35541 969 10 308 11036 6252 819 564
internal_value=-0.000913078 8.81467e-05 -6.05229e-05 0.000353023 -0.00341488 -0.000365068 -0.000128203 0.000522305 -0.00368118 -0.00125546 0.00103236 0.00181443 -0.00170444 0.000474267
internal_weight=277035 197838 170874 72387.5 79196.4 98486.6 77845.3 66911.9 62853.6 20641.2 26964.2 11183.8 5475.66 15780.4
internal_count=276750 182715 163870 66312 94035 97558 73556 63909 78123 24002 18845 7245 2403 11600
is_linear=0
shrinkage=0.0386495


Tree=38
num_leaves=15
num_cat=0
split_feature=7 52 25 49 29 32 28 36 16 16 16 13 4 6
split_gain=448.671 25.2766 23.2685 16.919 33.711 15.293 13.979 13.6116 10.9547 10.9527 9.57996 7.25971 8.19933 6.71929
threshold=1.0000000180025095e-35 1.0000000180025095e-35 -1.6188745632916832e-07 1.5000000000000002 184.33988189697268 41.500000000000007 84.853267669677749 1.386858403682709 -3.1641684770584102 -1.2335736155509947 -2.7143269777297969 1.1411442160606386 -28.122946739196774 -2.9113003015518184
decision_type=2 2 2 2 2 2 2 2 2 2 2 2 2 2
left_child=2 3 -1 5 13 6 -2 -7 -4 11 -6 12 -3 -5
right_child=1 9 8 4 10 7 -8 -9 -10 -11 -12 -13 -14 -15
leaf_value=-0.12647881152155174 0.11667574709848953 1.2528559527359462 -0.12647881152155174 0.27484770645005052 1.7458761266391385 -0.036733870636057861 -0.49874158242816846 0.39211248396434539 0.0045170322954630028 0.00091341988897436282 0.92958183922346438 0.14693528499118672 0.49096816640125496 -0.059853927656059618
leaf_weight=20603.89573341608 32510.573228418827 1220.4408503174782 63593.618511497974 1158.7743044495583 191.94394731521606 124055.38632750511 2526.1878454685211 1776.5275966525078 77.187666893005371 8522.5621820688248 178.99747681617737 8626.0667009949684 10455.187680661678 1537.3569058775902
leaf_count=18231 25530 813 78454 1395 28 120061 908 1362 10 9529 33 9425 9160 1811
internal_value=-0.000902773 0.000125391 -0.00325511 -5.98598e-05 0.00278206 -0.000114437 0.00059912 -0.000313588 -0.00362176 0.00118093 0.0136894 0.00166906 0.00229994 0.00125086
internal_weight=277035 192760 84274.7 163936 3067.07 160869 35036.8 125832 63670.8 28824.3 370.941 20301.7 11675.6 2696.13
internal_count=276750 180055 96695 151128 3267 147861 26438 121423 78464 28927 61 19398 9973 3206
is_linear=0
shrinkage=0.0386495


Tree=39
num_leaves=15
num_cat=0
split_feature=7 16 11 0 13 11 33 12 1 0 26 16 10 31
split_gain=445.121 20.8662 19.82 14.5253 14.2598 12.725 12.3251 11.8676 10.8397 10.837 10.3335 9.51436 5.16048 13.6777
threshold=1.0000000180025095e-35 -1.1639514565467832 1.0000000180025095e-35 0.25625000894069677 0.70711243152618419 1.239879906177521 34.849998474121101 -0.050290657207369797 -8.433921813964842 0.042249999940395362 -0.010520125739276407 -2.9907571077346797 0.39455677568912512 133.50000000000003
decision_type=2 2 2 2 2 2 2 2 2 2 2 2 2 2
left_child=2 4 9 -3 -2 8 7 -5 -6 -1 -8 -7 -4 -14
right_child=1 3 12 6 5 11 10 -9 -10 -11 -12 -13 13 -15
leaf_value=-0.1215904632448109 -0.10962007575744641 -0.41667429976163378 -0.1215904632448109 0.25005545515327476 0.28530764729986696 0.52139282925863017 -0.087198368997563253 -0.069491395660592203 0.057477262466175662 0.0043424510610896305 -0.014732010821206412 0.25657074764595911 0.50420157463575577 -0.13255040338692956
leaf_weight=67759.967269659042 5365.275248169899 2115.259429693222 15409.123330235481 10215.303250670433 11421.028012216091 212.2233145236969 21440.014412760735 7008.4424103498459 86895.537163078785 77.187666893005371 47474.838897526264 612.08290755748749 367.29415893554688 661.12948608398438
leaf_count=84690 1300 311 11883 7153 7232 24 26359 6651 77457 10 53422 146 40 72
internal_value=-0.000911393 0.000112693 -0.0032544 -0.000324495 0.000482445 0.000587897 -0.000246029 0.000677295 0.000547086 -0.00354736 -0.000477647 0.00537217 -0.00204154 0.000563684
internal_weight=277035 192760 84274.7 88253.9 104506 99140.9 86138.6 17223.7 98316.6 67837.2 68914.9 824.306 16437.5 1028.42
internal_count=276750 180055 96695 93896 86159 84859 93585 13804 84689 84700 79781 170 11995 112
is_linear=0
shrinkage=0.0386495


Tree=40
num_leaves=15
num_cat=0
split_feature=41 11 45 3 5 49 33 26 35 0 33 35 29 16
split_gain=431.189 24.5961 18.18 16.8787 17.3833 16.7844 14.9861 14.6655 13.7596 10.8507 10.0255 11.0535 8.37346 7.50622
threshold=1.0000000180025095e-35 1.0000000180025095e-35 1.0000000180025095e-35 -10.323077678680418 5.2636826038360605 1.5000000000000002 28.816666603088382 0.0016312071820721032 42.880321502685554 0.042249999940395362 264.35000610351568 111.4836883544922 52.383722305297859 -1.1639514565467832
decision_type=2 2 2 2 2 2 2 2 2 2 2 2 2 2
left_child=2 9 3 10 5 -5 7 12 -6 -2 11 -1 -4 -8
right_child=1 -3 6 4 8 -7 13 -9 -10 -11 -12 -13 -14 -15
leaf_value=0.27661287962662678 -0.11689104739546438 -0.11689104739546438 0.13565676751933192 -0.02615308907222099 0.018745319525905808 0.42437116812742459 -0.037535593252570831 -0.14488984702373972 0.27980970237169028 0.004174617311658092 -0.036311619774634561 0.86620638101435876 1.0061603683867231 -0.088360078086322458
leaf_weight=11071.911837041378 68046.333525538445 15103.03149831295 3646.7585211992264 65211.800269603729 18877.336353480816 1562.3034871220589 36962.246556937695 4294.0617988109589 17328.45178937912 77.187666893005371 3671.9634883403778 1002.5582628250122 2623.7748514413834 27369.875685453415
leaf_count=8719 85169 9988 3825 61654 16516 1617 30562 3289 18446 10 3527 791 1206 31599
internal_value=-0.00091589 -0.00324238 8.38456e-05 0.000381544 0.000200683 -0.000168349 -0.000387289 0.00095956 0.000882861 -0.00355614 0.00156049 0.00209863 0.00215339 -0.000609393
internal_weight=276850 83226.6 193623 118726 102980 66774.1 74896.7 10564.6 36205.8 68123.5 15746.4 12074.5 6270.53 64332.1
internal_count=276918 95167 181751 111270 98233 63271 70481 8320 34962 85179 13037 9510 5031 62161
is_linear=0
shrinkage=0.0386495


Tree=41
num_leaves=15
num_cat=0
split_feature=8 26 4 21 12 29 13 45 26 0 36 2 24 11
split_gain=432.169 19.868 19.1341 14.8777 14.0381 18.6213 12.916 11.2068 12.3231 10.9628 10.4183 9.38492 7.53111 6.67813
threshold=1.0000000180025095e-35 -8.3456794186531614e-07 -23.284634590148922 -8.789400100708006 -0.36142565310001368 293.40206909179693 0.70711243152618419 1.0000000180025095e-35 -0.0016616663779132066 0.042249999940395362 1.386858403682709 2.1305325031280522 27.274252891540531 2.2427234649658208
decision_type=2 2 2 2 2 2 2 2 2 2 2 2 2 2
left_child=1 -1 4 7 5 12 -5 8 -4 -3 -8 -7 -2 -9
right_child=2 9 3 6 -6 11 10 13 -10 -11 -12 -13 -14 -15
leaf_value=-0.1123732618215172 0.014892258612972492 -0.1123732618215172 -0.0058364035876715343 -0.21046581504658912 -0.091735950352769505 1.1022815378304009 -0.032281358529207098 -0.04634436393234876 0.21060713028824599 0.0040132702599583129 0.40338865746770231 1.4818131855136001 0.40362177363597229 0.45038527472888135
leaf_weight=15068.027879118919 3336.0604960918427 64296.396371364594 15290.74690836668 5258.6895557641983 3452.7391402125359 1561.9223775267601 111344.02859073877 24282.398029088974 25303.785496354103 77.187666893005371 2421.8276859521866 282.88761931657791 3410.9281398057938 1461.969635784626
leaf_count=14444 3831 80053 14738 1687 993 690 108207 23238 23370 10 1927 129 2795 806
internal_value=-0.000922868 -0.00333001 4.55533e-05 -5.11461e-05 0.00153831 0.00237586 -0.000309926 0.000412275 0.000812608 -0.00362695 -0.000222777 0.00582507 0.00142271 -0.000216744
internal_weight=276850 79441.6 197408 185363 12044.5 8591.8 119025 66338.9 40594.5 64373.6 113766 1844.81 6746.99 25744.4
internal_count=276918 94507 182411 173973 8438 7445 111821 62152 38108 80063 110134 819 6626 24044
is_linear=0
shrinkage=0.0386495


Tree=42
num_leaves=15
num_cat=0
split_feature=8 25 15 16 26 16 29 0 5 0 1 25 54 23
split_gain=429.169 21.449 18.4488 13.3618 21.6966 16.0059 15.0754 11.5325 11.3552 10.9968 7.59806 6.85262 10.8791 5.68974
threshold=1.0000000180025095e-35 -1.6188745632916832e-07 -21.30638217926025 -1.0951194763183592 -0.15710135549306867 -3.498293280601501 184.33988189697268 0.30124999582767492 23.030354499816898 0.042249999940395362 -12.836630344390867 -0.10328128188848494 0.046686513349413879 2.9638946056365971
decision_type=2 2 2 2 2 2 2 2 2 2 2 2 2 2
left_child=1 -1 10 4 -4 -6 7 -5 -8 -3 11 12 -2 -12
right_child=2 9 3 6 5 -7 8 -9 -10 -11 13 -13 -14 -15
leaf_value=-0.10803008659581265 0.0095547123211075849 -0.10803008659581265 0.62050471805010332 -0.3550880254904426 -0.20027030435965071 0.055161128117961783 0.38867356756466337 -0.045938434899902868 -0.6165136745334916 0.0038581591980867513 0.19981481382652003 0.64210733145397325 18.362192385103956 -0.11699288025445678
leaf_weight=16338.911026239395 104.44651329517365 63025.513224244118 165.90887331962585 2113.3996412754059 12579.626299619675 86077.835256636143 4346.1273385286331 72275.696312129498 839.34312379360199 77.187666893005371 14181.298285663128 2288.3862146735191 70.425763368606567 2365.4900527000427
leaf_count=15974 37 78523 34 351 6449 75310 1205 84489 114 10 12727 1362 49 284
internal_value=-0.00092517 -0.00332394 3.98837e-05 -8.17845e-05 0.000217968 0.000193743 -0.00045477 -0.000595799 0.00155665 -0.00364834 0.0011846 0.00319549 0.0106372 0.000881399
internal_weight=276850 79441.6 197408 178398 98823.4 98657.5 79574.6 74389.1 5185.47 63102.7 19010 2463.26 174.872 16546.8
internal_count=276918 94507 182411 167952 81793 81759 86159 84840 1319 78533 14459 1448 86 13011
is_linear=0
shrinkage=0.0386495


Tree=43
num_leaves=15
num_cat=0
split_feature=8 26 4 21 13 16 16 6 26 54 13 16 13 49
split_gain=425.984 20.5896 16.6011 12.9592 12.9956 10.9615 10.7864 9.42142 9.31399 7.6018 8.89399 7.42971 6.84418 5.33253
threshold=1.0000000180025095e-35 -8.3456794186531614e-07 -23.284634590148922 -8.789400100708006 0.70711243152618419 -3.1641684770584102 -0.67678192257881153 15.55018472671509 -0.012894888408482073 0.046686513349413879 0.71784701943397533 -3.1641684770584102 0.70711243152618419 1.0000000180025095e-35
decision_type=2 2 2 2 2 2 2 2 2 2 2 2 2 2
left_child=1 -1 7 8 -5 -3 -6 9 11 10 -2 -4 -11 -10
right_child=2 5 3 4 6 -7 -8 -9 13 12 -12 -13 -14 -15
leaf_value=-0.10385477310817112 1.2448296460332753 -0.10385477310817112 0.34486520488537081 -0.19291951485083078 0.011824126143728644 0.0037090431078857775 -0.059513685218738663 -0.076946058971881601 0.11875859035263794 -0.27263593552501048 0.96326553484254962 -0.071240020141824928 0.25405182242736324 -0.0033424938046251553
leaf_weight=15068.027879118919 72.664117693901062 64296.396371364594 217.23335582017899 5258.6895557641983 68350.477885723114 77.187666893005371 45415.378390967846 2319.8697164654732 39516.155127108097 363.7015597820282 1666.0471670627594 11152.26432621479 7622.2552119493484 15453.247260451317
leaf_count=14444 14 80053 37 1687 60466 10 49668 1436 36664 42 1029 10740 5917 14711
internal_value=-0.000934089 -0.00332394 2.73744e-05 -6.26793e-05 -0.000304206 -0.00362616 -0.000216793 0.00141788 0.000369788 0.00194748 0.0042791 -0.000634678 0.00143164 0.000578615
internal_weight=276850 79441.6 197408 185363 119025 64373.6 113766 12044.5 66338.9 9724.67 1738.71 11369.5 7985.96 54969.4
internal_count=276918 94507 182411 173973 111821 80063 110134 8438 62152 7002 1043 10777 5959 51375
is_linear=0
shrinkage=0.0386495


Tree=44
num_leaves=15
num_cat=0
split_feature=8 25 23 23 26 38 47 29 0 10 0 33 33 26
split_gain=422.289 22.8815 15.9551 21.8923 13.5689 13.2366 13.0651 15.7788 12.2007 12.1354 10.996 9.10411 7.22056 5.29585
threshold=1.0000000180025095e-35 -1.6188745632916832e-07 0.38933753967285162 2.9638946056365971 -0.15710135549306867 1.1813057065010073 1.0000000180025095e-35 293.40206909179693 0.051249999552965171 0.11002115532755853 0.042249999940395362 2596.233276367188 433.25000000000006 0.0012280478840693834
decision_type=2 2 2 2 2 2 2 2 2 2 2 2 2 2
left_child=1 -1 5 6 -5 9 7 -4 -6 12 -3 -8 -2 -11
right_child=2 10 3 4 8 -7 11 -9 -10 13 -12 -13 -14 -15
leaf_value=-0.099840833579113081 0.0023954451558871417 -0.099840833579113081 0.1925605678209997 0.43910468909974093 -0.18691063664827789 0.082365553730636198 -0.083861417010977546 0.50285736665708158 0.005207431408286659 -0.11402214566962218 0.0035656902864394597 2.7146617005871998 -0.087680060565369436 -0.043709775245468797
leaf_weight=16338.911026239395 62389.026739537716 63025.513224244118 39845.688907444477 402.91433358192444 9278.2998654842377 13497.331401109695 11207.003033041954 5705.1935901641846 12263.204761862755 13680.882912278175 77.187666893005371 144.0614378452301 18534.261793076992 10460.11489957571
leaf_count=15974 72510 78523 32890 46 1092 16401 6686 1551 1616 14043 10 61 22231 13284
internal_value=-0.00093346 -0.00331293 2.38232e-05 0.000450167 -0.000585283 -0.00025922 0.000850518 0.00114314 -0.000719398 -0.000405972 -0.00364787 -0.000318635 -0.00017824 -0.00116688
internal_weight=276850 79441.6 197408 78846.4 21944.4 118562 56901.9 45550.9 21541.5 105064 63102.7 11351.1 80923.3 24141
internal_count=276918 94507 182411 43942 2754 138469 41188 34441 2708 122068 78533 6747 94741 27327
is_linear=0
shrinkage=0.0386495


end of trees

feature_importances:
price_log=45
volume_mean_30d=36
macd_line=33
events_next_30d_major=30
bb_width=29
return_1d=27
return_60d=27
price_std_14d=25
macd_signal=25
return_3d=24
price_lag_1d=23
volume_zscore_30d=23
distance_to_resistance=22
events_next_30d_game_update=22
price_std_7d=18
item_volume_vs_market_30d=18
price_std_30d=17
price_std_60d=17
price_zscore_30d=16
item_type_sticker=16
return_30d=14
return_14d=13
vol_regime_60_30=13
bb_pct_b=11
volume_std_60d=10
return_7d=9
log_return_1d=9
volume_lag_7d=7
volume_log_change_1d=6
price_std_20d=5
rsi_14=5
macd_histogram=5
macd_missing=5
volume_lag_1d=4
volume_log_change_7d=4
distance_to_support=3
events_next_30d_case_drop=3
trend_divergence_30_60=2
price_accel_7d=2
autocorr_7d=2
events_next_30d_operation=2
log_return_7d=1
volume_std_30d=1
rsi_missing=1

parameters:
[boosting: gbdt]
[objective: quantile]
[metric: quantile]
[tree_learner: serial]
[device_type: cpu]
[data_sample_strategy: bagging]
[data: ]
[valid: ]
[num_iterations: 1000]
[learning_rate: 0.0386495]
[num_leaves: 15]
[num_threads: -1]
[seed: 91]
[deterministic: 0]
[force_col_wise: 0]
[force_row_wise: 0]
[histogram_pool_size: -1]
[max_depth: 5]
[min_data_in_leaf: 30]
[min_sum_hessian_in_leaf: 0.001]
[bagging_fraction: 0.7]
[pos_bagging_fraction: 1]
[neg_bagging_fraction: 1]
[bagging_freq: 5]
[bagging_seed: 2784]
[bagging_by_query: 0]
[feature_fraction: 0.7]
[feature_fraction_bynode: 1]
[feature_fraction_seed: 29510]
[extra_trees: 0]
[extra_seed: 8681]
[early_stopping_round: 0]
[early_stopping_min_delta: 0]
[first_metric_only: 0]
[max_delta_step: 0]
[lambda_l1: 1.5]
[lambda_l2: 2]
[linear_lambda: 0]
[min_gain_to_split: 0.1]
[drop_rate: 0.1]
[max_drop: 50]
[skip_drop: 0.5]
[xgboost_dart_mode: 0]
[uniform_drop: 0]
[drop_seed: 8477]
[top_rate: 0.2]
[other_rate: 0.1]
[min_data_per_group: 100]
[max_cat_threshold: 32]
[cat_l2: 10]
[cat_smooth: 10]
[max_cat_to_onehot: 4]
[top_k: 20]
[monotone_constraints: ]
[monotone_constraints_method: basic]
[monotone_penalty: 0]
[feature_contri: ]
[forcedsplits_filename: ]
[refit_decay_rate: 0.9]
[cegb_tradeoff: 1]
[cegb_penalty_split: 0]
[cegb_penalty_feature_lazy: ]
[cegb_penalty_feature_coupled: ]
[path_smooth: 0]
[interaction_constraints: ]
[verbosity: -1]
[saved_feature_importance_type: 0]
[use_quantized_grad: 0]
[num_grad_quant_bins: 4]
[quant_train_renew_leaf: 0]
[stochastic_rounding: 1]
[linear_tree: 0]
[max_bin: 63]
[max_bin_by_feature: ]
[min_data_in_bin: 3]
[bin_construct_sample_cnt: 200000]
[data_random_seed: 335]
[is_enable_sparse: 1]
[enable_bundle: 1]
[use_missing: 1]
[zero_as_missing: 0]
[feature_pre_filter: 0]
[pre_partition: 0]
[two_round: 0]
[header: 0]
[label_column: ]
[weight_column: ]
[group_column: ]
[ignore_column: ]
[categorical_feature: ]
[forcedbins_filename: ]
[precise_float_parser: 0]
[parser_config_file: ]
[objective_seed: 29977]
[num_class: 1]
[is_unbalance: 0]
[scale_pos_weight: 1]
[sigmoid: 1]
[boost_from_average: 1]
[reg_sqrt: 0]
[alpha: 0.9]
[fair_c: 1]
[poisson_max_delta_step: 0.7]
[tweedie_variance_power: 1.5]
[lambdarank_truncation_level: 30]
[lambdarank_norm: 1]
[label_gain: ]
[lambdarank_position_bias_regularization: 0]
[eval_at: ]
[multi_error_top_k: 1]
[auc_mu_weights: ]
[num_machines: 1]
[local_listen_port: 12400]
[time_out: 120]
[machine_list_filename: ]
[machines: ]
[gpu_platform_id: -1]
[gpu_device_id: -1]
[gpu_use_dp: 0]
[num_gpu: 1]

end of parameters

pandas_categorical:[]
