tree
version=v4
num_class=1
num_tree_per_iteration=1
label_index=0
max_feature_idx=116
objective=quantile
feature_names=price_lag_1d price_lag_7d price_lag_14d price_lag_30d price_lag_60d return_1d return_3d return_7d return_14d return_30d return_60d price_std_7d price_std_14d price_std_20d price_min_20d price_max_20d price_std_30d price_mean_60d price_std_60d price_min_60d price_max_60d price_zscore_30d vol_regime_60_30 trend_divergence_30_60 price_accel_7d price_tier autocorr_1d autocorr_7d bb_pct_b macd_line macd_signal macd_histogram distance_to_support distance_to_resistance high_low_range_30d volume_missing volume_lag_1d volume_lag_7d volume_mean_7d volume_mean_30d volume_std_30d volume_mean_60d volume_std_60d volume_log_change_1d volume_log_change_7d volume_zscore_30d volume_price_conf_7d volume_price_conf_1d rsi_missing macd_missing is_weekend dow_sin dow_cos month_sin month_cos doy_cos item_age_days is_stattrak is_souvenir is_knife is_glove is_sticker is_case is_capsule is_agent is_music_kit is_graffiti is_charm is_patch quality_rank event_decay_major events_next_30d_major event_density_30d_major event_density_90d_major event_decay_operation events_next_30d_operation event_density_30d_operation event_density_90d_operation event_decay_case_drop events_next_30d_case_drop event_density_30d_case_drop event_density_90d_case_drop event_decay_update events_next_30d_update event_density_30d_update event_density_90d_update event_decay_game_update events_next_30d_game_update event_density_30d_game_update event_density_90d_game_update event_decay_major_weighted event_decay_operation_weighted event_decay_case_drop_weighted event_decay_update_weighted event_decay_game_update_weighted market_return_1d item_return_vs_market_1d market_return_7d item_return_vs_market_7d market_return_14d item_return_vs_market_14d market_return_30d item_return_vs_market_30d market_volatility_30d market_volume_mean_30d market_regime_crash market_regime_bear market_regime_range market_regime_bull market_regime_mania market_regime_duration_days market_return_30d_percentile supply_listings_log supply_listings_zscore supply_change_7d supply_skinport_qty_log supply_to_volume_ratio
feature_infos=[38.020000457763672:66.569999694824219] [39.790000915527344:66.569999694824219] [39.790000915527344:66.569999694824219] [39.790000915527344:66.569999694824219] [39.849998474121094:66.569999694824219] [-6.0415120124816895:6.2258315086364746] [-10.281366348266602:12.103617668151855] [-17.372880935668945:15.222199440002441] [-24.630624771118164:24.511468887329102] [-24.868003845214844:39.543319702148438] [-35.815872192382812:34.754096984863281] [0.042426407337188721:3.2751080989837646] [0.042426407337188721:4.7465720176696777] [0.042426407337188721:5.344205379486084] [38.020000457763672:61.619998931884766] [43.290000915527344:66.569999694824219] [0.042426407337188721:5.4625492095947266] [42.844001770019531:62.902332305908203] [0.042426407337188721:6.2239170074462891] [38.020000457763672:58.759998321533203] [46.650001525878906:66.569999694824219] [-3.4853887557983398:3.0036964416503906] [0.75498813390731812:4.9742584228515625] [-106.84011840820312:164.20773315429688] [-22.191015243530273:26.589687347412109] [3:3] [-17.983921051025391:24.913341522216797] [-165.46697998046875:159.38456726074219] [-0.22173035144805908:1.266255259513855] [-3.1355800628662109:3.1830518245697021] [-2.6216168403625488:2.7723205089569092] [-1.2678171396255493:0.94621419906616211] [0.018351990729570389:39.335178375244141] [0.054525628685951233:35.731788635253906] [0.12307692319154739:39.335178375244141] none [161:245] [161:245] [176:219] [176:219] [4.0414519309997559:20.361700057983398] [176:219] [4.0414519309997559:19.928762435913086] [-0.31321537494659424:0.36533302068710327] [-0.29612094163894653:0.40341803431510925] [-2.8260855674743652:2.671764612197876] [-17.372880935668945:15.222199440002441] [-6.0415120124816895:6.2258315086364746] [0:1] [0:1] [0:1] [-0.97492790222167969:0.97492790222167969] [-0.90096884965896606:1] [-0.86602538824081421:1] [-1:0.86602538824081421] [-1:0.99985265731811523] [0:237] none none none none none none none none none none none none none [0:0.98347145318984985] [0:1] [0:1] [0:1] none none none none none none none none none none none none none none none none none none none none none [-2.4910855293273926:2.5970833301544189] [-5.0148625373840332:6.6300463676452637] [-5.9873161315917969:6.6842527389526367] [-15.224418640136719:14.81980037689209] [-7.8436169624328613:8.0323085784912109] [-21.144741058349609:25.597810745239258] [-8.3750972747802734:10.840641021728516] [-26.866291046142578:40.982707977294922] [0.43699198961257935:3.9606008529663086] [195.10000610351562:203.39999389648438] none [0:1] [0:1] [0:1] [0:1] [1:30] [0.0086206896230578423:1] none none none none none
tree_sizes=1237 1834 2222 2032

Tree=0
num_leaves=11
num_cat=0
split_feature=15 12 95 103 9 32 97 44 9 36
split_gain=1.4131 1.85744 1.25895 0.664262 0.804401 0.789891 0.44945 0.408455 0.200899 0.167543
threshold=47.659999847412116 1.1391645073890688 -0.4661321341991424 3.8862112760543828 0.89408200979232799 4.9466011524200448 1.0000000180025095e-35 0.028044733218848709 -21.10475921630859 219.50000000000003
decision_type=2 2 2 2 2 2 2 2 2 2
left_child=1 2 -1 4 8 7 -7 -6 -2 -10
right_child=3 -3 -4 -5 5 6 -8 -9 9 -11
leaf_value=4.8021617922788202 4.8470122482272506 4.7917284205124897 4.8983465498178802 4.8846728503043311 4.8270794399035664 4.7949642223996749 4.8497317065441035 4.9124832876075786 4.7902831798323886 4.8265572023407257
leaf_weight=9.2484077811241168 12.611465156078337 21.019108593463898 21.859872937202454 15.133758187294005 10.089172124862673 108.45860034227371 108.45860034227371 8.4076434373855573 457.37580072879791 30.267516374588013
leaf_count=11 15 25 26 18 12 129 129 10 373 36
internal_value=4.81952 4.8233 4.82769 4.81873 4.81858 4.8198 4.81946 4.82522 4.81796 4.81785
internal_weight=0 52.1274 31.1083 750.803 735.669 235.414 216.917 18.4968 500.255 487.643
internal_count=784 62 37 722 704 280 258 22 424 409
is_linear=0
shrinkage=1


Tree=1
num_leaves=16
num_cat=0
split_feature=15 2 22 23 26 45 23 110 103 44 55 38 53 42 55
split_gain=1.4131 1.0524 1.20546 0.6996 0.821871 1.08031 0.585577 0.546338 1.39269 0.626635 0.255771 0.251964 0.191065 0.150449 0.121558
threshold=47.659999847412116 42.719999313354499 1.065102279186249 0.73725995421409618 -0.5516752004623412 0.70779657363891613 1.1413379907608034 5.5000000000000009 1.5842481255531313 -1.0000000180025095e-35 -0.6471368372440337 207.50000000000003 0.93301269412040722 17.003571510314945 -0.92628982663154591
decision_type=2 2 2 2 2 2 2 2 2 2 2 2 2 2 2
left_child=1 -1 -3 7 5 10 -7 11 9 -9 -5 14 -10 -6 -2
right_child=3 2 -4 4 13 6 -8 8 12 -11 -12 -13 -14 -15 -16
leaf_value=-0.0097127529267299322 -0.037684851753824605 -0.033996721790347219 0.082350989591084917 -0.070052205799216782 -0.024682825632468656 0.08226415163970488 0.030460056926152727 -0.0098847647793141764 -0.045962362614051629 0.071298467366010504 0.051050769960124295 -0.0071663791681988616 0.023562631743095155 0.055347850506910511 -0.041584295151733994
leaf_weight=26.063694655895233 31.949045062065125 9.2484077811241168 16.815286874771118 26.904458999633789 102.57324993610382 9.2484077811241168 10.929936468601225 19.337579905986786 152.17834621667862 34.471338093280792 19.337579905986786 42.038216829299927 24.382165968418121 9.2484077811241132 268.2038237452507
leaf_count=31 38 11 20 32 122 11 13 23 181 41 23 23 29 11 175
internal_value=0 0.003777 0.00764174 -0.000795191 0.000591462 0.00306751 0.00839746 -0.00127436 -0.00012016 0.00357399 0.000153586 -0.00197192 -0.00140003 -0.000636062 -0.0022481
internal_weight=0 52.1274 26.0637 750.803 178.242 66.4204 20.1783 572.561 230.369 53.8089 46.242 342.191 176.561 111.822 300.153
internal_count=784 62 31 722 212 79 24 510 274 64 55 236 210 133 213
is_linear=0
shrinkage=0.027196


Tree=2
num_leaves=20
num_cat=0
split_feature=3 13 22 28 0 40 111 0 111 33 110 110 103 29 9 8 95 95 8
split_gain=1.00111 1.28328 0.655767 1.69125 0.564807 0.65964 0.477095 0.861409 0.558927 0.617525 0.461833 0.39193 1.15093 0.326735 0.550034 0.248005 0.220341 0.13591 0.106587
threshold=48.659999847412116 1.2432792782783511 1.5166906714439394 0.63110393285751354 50.405000686645515 13.982624530792238 0.60750001668930065 50.125000000000007 0.01427216734737158 20.140397071838382 6.5000000000000009 13.500000000000002 1.5842481255531313 0.71399223804473888 9.6867513656616229 9.5862746238708514 1.0262333750724795 -1.0981194376945493 5.048016071319581
decision_type=2 2 2 2 2 2 2 2 2 2 2 2 2 2 2 2 2 2 2
left_child=1 2 3 -1 16 -6 8 -8 9 -2 18 17 -13 -9 -15 -7 -3 -10 -4
right_child=6 4 10 -5 5 15 7 13 11 -11 -12 12 -14 14 -16 -17 -18 -19 -20
leaf_value=0.12323840146869082 -0.075421984753170801 -0.049793842614238998 -0.01548985071351063 -0.0064397530110585849 -0.087731601746083757 0.035211959136264431 0.084779683543449474 -0.061530347291559692 -0.024067841065526233 0.035523542754898219 0.074256423528334101 0.040731947996664623 -0.045085714142703702 0.11509862604525503 -0.038132911372633936 0.05384260839449953 0.06198840095546003 -0.037099411269319718 0.035067481312418429
leaf_weight=12.61146515607834 10.089172124862673 79.872612655162811 20.178344249725345 9.2484077811241132 10.929936468601229 8.4076434373855609 10.089172124862669 38.675159811973572 66.420382678508759 10.929936468601225 9.2484077811241132 26.904458999633789 63.898090124130249 8.4076434373855609 21.859872937202454 8.4076434373855573 12.611465156078337 365.73248773813248 8.4076434373855573
leaf_count=15 12 95 24 11 13 10 12 46 43 13 11 32 76 10 26 10 15 300 10
internal_value=0 0.00119594 0.00448566 0.0085883 -0.000211218 0.00289317 -0.00106107 0.000697435 -0.00136655 0.00251357 0.00139643 -0.00157451 0 -3.51834e-06 0.00166999 0.00654147 -0.0014366 -0.00191592 0
internal_weight=0 179.924 59.6943 21.8599 120.229 27.7452 623.006 79.0318 543.975 21.0191 37.8344 522.955 90.8025 68.9427 30.2675 16.8153 92.4841 432.153 28.586
internal_count=784 214 71 26 143 33 570 94 476 25 45 451 108 82 36 20 110 343 34
is_linear=0
shrinkage=0.027196


Tree=3
num_leaves=18
num_cat=0
split_feature=3 23 110 95 110 102 20 12 24 103 4 103 12 95 29 45 0
split_gain=1.00111 0.784906 0.805875 0.526483 0.562404 0.465151 0.564592 0.860828 0.562171 0.592902 0.759011 0.546151 0.222446 0.22216 0.210567 0.499297 0.11746
threshold=48.659999847412116 0.45195329189300543 12.500000000000002 -0.4661321341991424 2.5000000000000004 -9.0893740653991681 57.614999771118171 1.6194290518760683 -2.6802663803100581 1.5842481255531313 50.895000457763679 3.2885285615921025 1.2749778032302859 1.4245457053184511 0.36062996089458471 0.096680935472249999 43.355001449584968
decision_type=2 2 2 2 2 2 2 2 2 2 2 2 2 2 2 2 2
left_child=1 12 3 -3 -5 6 7 -2 9 -7 -11 16 14 -10 15 -1 -8
right_child=5 2 -4 4 -6 8 11 -9 13 10 -12 -13 -14 -15 -16 -17 -18
leaf_value=-0.014513351241364816 0.071489989012593277 -0.024058249669275496 0.10693953758195354 0.00073759133989004233 0.078562587349295443 0.042006478627292787 0.0042481609949695945 -0.079039255140717066 -0.03565101627481173 0.029034581799589041 -0.04591039363671557 0.034557443221727935 -0.048439647498163825 0.009418112817299637 -0.041108794725859731 0.075989060511614651 -0.032796102793818609
leaf_weight=14.292993843555452 16.815286874771122 27.745223343372345 15.133758187294005 24.382165968418121 29.426752030849457 9.2484077811241132 13.452229499816893 10.089172124862669 355.64331513643265 38.675159811973572 92.48407781124115 12.611465156078337 41.19745284318924 16.815286874771118 15.97452253103256 11.770700812339781 57.171975374221802
leaf_count=17 20 33 18 29 35 11 16 12 252 46 110 15 49 20 19 14 68
internal_value=0 0.00119594 0.0029113 0.00143287 0.00314905 -0.00106107 0.000355127 0.00391844 -0.00141823 0 -0.00042025 -0.000469917 -0.000469917 -0.00197129 0.000440905 0.00237799 -0.001687
internal_weight=0 179.924 96.6879 81.5541 53.8089 623.006 110.14 26.9045 512.866 140.408 131.159 83.2357 83.2357 372.459 42.0382 26.0637 70.6242
internal_count=784 214 115 97 64 570 131 32 439 167 156 99 99 272 50 31 84
is_linear=0
shrinkage=0.027196


end of trees

feature_importances:
market_return_1d=5
market_volatility_30d=5
market_regime_duration_days=5
price_lag_1d=3
return_30d=3
price_std_14d=3
trend_divergence_30_60=3
price_lag_30d=2
return_14d=2
price_max_20d=2
vol_regime_60_30=2
macd_line=2
volume_log_change_7d=2
volume_zscore_30d=2
doy_cos=2
market_return_30d_percentile=2
price_lag_14d=1
price_lag_60d=1
price_std_20d=1
price_max_60d=1
price_accel_7d=1
autocorr_1d=1
bb_pct_b=1
distance_to_support=1
distance_to_resistance=1
volume_lag_1d=1
volume_mean_7d=1
volume_std_30d=1
volume_std_60d=1
month_sin=1
market_return_7d=1
item_return_vs_market_30d=1

parameters:
[boosting: gbdt]
[objective: quantile]
[metric: quantile]
[tree_learner: serial]
[device_type: cpu]
[data_sample_strategy: bagging]
[data: ]
[valid: ]
[num_iterations: 1000]
[learning_rate: 0.027196]
[num_leaves: 55]
[num_threads: -1]
[seed: 73]
[deterministic: 0]
[force_col_wise: 0]
[force_row_wise: 0]
[histogram_pool_size: -1]
[max_depth: 5]
[min_data_in_leaf: 10]
[min_sum_hessian_in_leaf: 0.001]
[bagging_fraction: 0.7]
[pos_bagging_fraction: 1]
[neg_bagging_fraction: 1]
[bagging_freq: 5]
[bagging_seed: 5921]
[feature_fraction: 0.7]
[feature_fraction_bynode: 1]
[feature_fraction_seed: 22355]
[extra_trees: 0]
[extra_seed: 3536]
[early_stopping_round: 0]
[early_stopping_min_delta: 0]
[first_metric_only: 0]
[max_delta_step: 0]
[lambda_l1: 1]
[lambda_l2: 0]
[linear_lambda: 0]
[min_gain_to_split: 0.1]
[drop_rate: 0.1]
[max_drop: 50]
[skip_drop: 0.5]
[xgboost_dart_mode: 0]
[uniform_drop: 0]
[drop_seed: 14602]
[top_rate: 0.2]
[other_rate: 0.1]
[min_data_per_group: 100]
[max_cat_threshold: 32]
[cat_l2: 10]
[cat_smooth: 10]
[max_cat_to_onehot: 4]
[top_k: 20]
[monotone_constraints: ]
[monotone_constraints_method: basic]
[monotone_penalty: 0]
[feature_contri: ]
[forcedsplits_filename: ]
[refit_decay_rate: 0.9]
[cegb_tradeoff: 1]
[cegb_penalty_split: 0]
[cegb_penalty_feature_lazy: ]
[cegb_penalty_feature_coupled: ]
[path_smooth: 0]
[interaction_constraints: ]
[verbosity: -1]
[saved_feature_importance_type: 0]
[use_quantized_grad: 0]
[num_grad_quant_bins: 4]
[quant_train_renew_leaf: 0]
[stochastic_rounding: 1]
[linear_tree: 0]
[max_bin: 63]
[max_bin_by_feature: ]
[min_data_in_bin: 3]
[bin_construct_sample_cnt: 200000]
[data_random_seed: 277]
[is_enable_sparse: 1]
[enable_bundle: 1]
[use_missing: 1]
[zero_as_missing: 0]
[feature_pre_filter: 0]
[pre_partition: 0]
[two_round: 0]
[header: 0]
[label_column: ]
[weight_column: ]
[group_column: ]
[ignore_column: ]
[categorical_feature: ]
[forcedbins_filename: ]
[precise_float_parser: 0]
[parser_config_file: ]
[objective_seed: 8155]
[num_class: 1]
[is_unbalance: 0]
[scale_pos_weight: 1]
[sigmoid: 1]
[boost_from_average: 1]
[reg_sqrt: 0]
[alpha: 0.9]
[fair_c: 1]
[poisson_max_delta_step: 0.7]
[tweedie_variance_power: 1.5]
[lambdarank_truncation_level: 30]
[lambdarank_norm: 1]
[label_gain: ]
[lambdarank_position_bias_regularization: 0]
[eval_at: ]
[multi_error_top_k: 1]
[auc_mu_weights: ]
[num_machines: 1]
[local_listen_port: 12400]
[time_out: 120]
[machine_list_filename: ]
[machines: ]
[gpu_platform_id: -1]
[gpu_device_id: -1]
[gpu_use_dp: 0]
[num_gpu: 1]

end of parameters

pandas_categorical:[]
