tree
version=v4
num_class=1
num_tree_per_iteration=1
label_index=0
max_feature_idx=116
objective=quantile
feature_names=price_lag_1d price_lag_7d price_lag_14d price_lag_30d price_lag_60d return_1d return_3d return_7d return_14d return_30d return_60d price_std_7d price_std_14d price_std_20d price_min_20d price_max_20d price_std_30d price_mean_60d price_std_60d price_min_60d price_max_60d price_zscore_30d vol_regime_60_30 trend_divergence_30_60 price_accel_7d price_tier autocorr_1d autocorr_7d bb_pct_b macd_line macd_signal macd_histogram distance_to_support distance_to_resistance high_low_range_30d volume_missing volume_lag_1d volume_lag_7d volume_mean_7d volume_mean_30d volume_std_30d volume_mean_60d volume_std_60d volume_log_change_1d volume_log_change_7d volume_zscore_30d volume_price_conf_7d volume_price_conf_1d rsi_missing macd_missing is_weekend dow_sin dow_cos month_sin month_cos doy_cos item_age_days is_stattrak is_souvenir is_knife is_glove is_sticker is_case is_capsule is_agent is_music_kit is_graffiti is_charm is_patch quality_rank event_decay_major events_next_30d_major event_density_30d_major event_density_90d_major event_decay_operation events_next_30d_operation event_density_30d_operation event_density_90d_operation event_decay_case_drop events_next_30d_case_drop event_density_30d_case_drop event_density_90d_case_drop event_decay_update events_next_30d_update event_density_30d_update event_density_90d_update event_decay_game_update events_next_30d_game_update event_density_30d_game_update event_density_90d_game_update event_decay_major_weighted event_decay_operation_weighted event_decay_case_drop_weighted event_decay_update_weighted event_decay_game_update_weighted market_return_1d item_return_vs_market_1d market_return_7d item_return_vs_market_7d market_return_14d item_return_vs_market_14d market_return_30d item_return_vs_market_30d market_volatility_30d market_volume_mean_30d market_regime_crash market_regime_bear market_regime_range market_regime_bull market_regime_mania market_regime_duration_days market_return_30d_percentile supply_listings_log supply_listings_zscore supply_change_7d supply_skinport_qty_log supply_to_volume_ratio
feature_infos=[39.790000915527344:66.569999694824219] [39.790000915527344:66.569999694824219] [39.790000915527344:66.569999694824219] [39.790000915527344:66.569999694824219] [39.849998474121094:66.569999694824219] [-6.0415120124816895:6.2258315086364746] [-10.281366348266602:11.818019866943359] [-17.372880935668945:15.222199440002441] [-24.630624771118164:24.511468887329102] [-24.868003845214844:39.543319702148438] [-35.815872192382812:34.754096984863281] [0.042426407337188721:3.2751080989837646] [0.042426407337188721:4.7465720176696777] [0.042426407337188721:5.344205379486084] [38.569999694824219:61.619998931884766] [43.290000915527344:66.569999694824219] [0.042426407337188721:5.4625492095947266] [42.844001770019531:62.902332305908203] [0.042426407337188721:6.2239170074462891] [38.569999694824219:58.759998321533203] [46.650001525878906:66.569999694824219] [-3.4853887557983398:3.0036964416503906] [0.75597286224365234:4.9742584228515625] [-106.84011840820312:164.20773315429688] [-22.191015243530273:26.589687347412109] [3:3] [-17.983921051025391:24.913341522216797] [-165.46697998046875:159.38456726074219] [-0.22173035144805908:1.266255259513855] [-3.1355800628662109:3.1830518245697021] [-2.6216168403625488:2.7723205089569092] [-1.2678171396255493:0.94621419906616211] [0.018351990729570389:39.335178375244141] [0.054525628685951233:35.731788635253906] [0.12307692319154739:39.335178375244141] none [161:245] [161:245] [176:219] [176:219] [4.0414519309997559:20.361700057983398] [176:219] [4.0414519309997559:19.928762435913086] [-0.31321537494659424:0.36533302068710327] [-0.29612094163894653:0.40341803431510925] [-2.8260855674743652:2.671764612197876] [-17.372880935668945:15.222199440002441] [-6.0415120124816895:6.2258315086364746] [0:1] [0:1] [0:1] [-0.97492790222167969:0.97492790222167969] [-0.90096884965896606:1] [-0.86602538824081421:1] [-1:0.86602538824081421] [-1:0.99985265731811523] [0:234] none none none none none none none none none none none none none [0:0.98347145318984985] [0:1] [0:1] [0:1] none none none none none none none none none none none none none none none none none none none none none [-2.4910855293273926:2.5970833301544189] [-5.0148625373840332:6.6300463676452637] [-5.9873161315917969:6.6842527389526367] [-15.224418640136719:14.81980037689209] [-7.8436169624328613:8.0323085784912109] [-21.144741058349609:25.597810745239258] [-8.3750972747802734:10.840641021728516] [-26.866291046142578:40.982707977294922] [0.43699198961257935:3.9606008529663086] [195.10000610351562:203.39999389648438] none [0:1] [0:1] [0:1] [0:1] [1:30] [0.0086206896230578423:1] none none none none none
tree_sizes=1725 1928 1708 1612 1722 1798 1802 1798 1701 1816 1824 1827 1825 1828 1918 1709

Tree=0
num_leaves=16
num_cat=0
split_feature=3 2 15 30 95 9 24 16 1 53 96 103 11 23 95
split_gain=2.96121 2.19608 3.53366 1.48842 1.05145 1.66479 0.595768 1.74954 0.747441 1.79748 0.386781 0.380443 0.23923 0.232596 0.177309
threshold=48.480001449584968 48.444999694824226 53.690000534057624 -2.034132599830627 0.33856597542762762 4.5289881229400644 -6.0120618343353263 1.6920904517173769 50.190000534057624 0.68301269412040722 -1.9483208060264585 2.1552939414978032 0.70786568522453319 0.87798792123794567 -0.68587177991867054
decision_type=2 2 2 2 2 2 2 2 2 2 2 2 2 2 2
left_child=1 4 -3 -2 11 -6 7 -5 9 12 -9 -1 -8 14 -10
right_child=3 2 -4 6 5 -7 8 10 13 -11 -12 -13 -14 -15 -16
leaf_value=7.2058904104002757 7.1867899463490739 7.217943428119816 7.05425353875561 7.1483420270181579 7.169519244435512 7.0512453133844151 7.1155404681829513 7.1111920124417392 7.0350659667809543 7.1431602788360626 7.0013984018361288 7.0018391963515256 7.0570436362800386 7.0789670602479369 7.0532251102140675
leaf_weight=20.973514020442963 25.168216824531555 36.913384675979614 20.973514020442963 22.6513951420784 25.168216824531555 26.007157385349274 20.973514020442963 21.812454581260681 43.62490975856781 23.490335702896118 66.276304304599762 59.564779818058014 81.377234399318695 46.141730844974518 290.27344357967377
leaf_count=25 30 44 25 27 30 31 25 26 43 28 79 71 97 55 202
internal_value=7.08411 7.08672 7.09042 7.08345 7.08494 7.0875 7.08321 7.08466 7.08286 7.08433 7.08327 7.08341 7.08307 7.08235 7.08214
internal_weight=0 189.601 57.8869 641.79 131.714 51.1754 616.621 110.74 505.881 125.841 88.0888 80.5383 102.351 380.04 333.898
internal_count=838 226 69 612 157 61 582 132 450 150 105 96 122 300 245
is_linear=0
shrinkage=1


Tree=1
num_leaves=17
num_cat=0
split_feature=19 40 42 42 21 56 32 110 16 103 111 16 36 16 103 98
split_gain=2.4385 1.62397 2.90536 1.62621 1.14766 1.07396 2.10298 0.996919 2.47701 0.536354 0.408552 0.196336 0.156052 0.151656 0.133633 0.133487
threshold=46.854999542236335 13.924632072448732 14.096479415893556 16.872324943542484 -1.0086637735366819 188.50000000000003 7.9404089450836191 10.500000000000002 1.4344320297241213 2.1416666507720952 0.21272727847099307 1.9215502142906191 186.50000000000003 2.069893598556519 2.4653469324111943 -1.2429446578025816
decision_type=2 2 2 2 2 2 2 2 2 2 2 2 2 2 2 2
left_child=1 4 9 5 -1 12 -7 10 -9 -3 15 -10 -4 -8 -12 -2
right_child=7 2 3 -5 -6 6 13 8 11 -11 14 -13 -14 -15 -16 -17
leaf_value=0.065248752995270692 0.04410344804138059 0.10159346741976308 0.0074606027418120209 0.12392172924982636 -0.049838523258039058 0.14679360173851982 0.027473250525256308 0.10950780497384503 0.021768413713768645 0.064760962450897033 -0.023980680837189121 -0.064561853162826213 -0.048011714677257553 -0.092889022779929734 -0.0092845008425493196 -0.027145800219320341
leaf_weight=33.55762243270874 20.973514020442963 27.685038506984711 20.973514020442963 30.201860189437866 104.86757010221481 21.812454581260681 20.973514020442963 24.329276263713837 27.685038506984711 20.973514020442963 276.011454641819 49.497493088245392 74.665709912776947 23.490335702896118 32.718681871891022 20.973514020442963
leaf_count=40 25 33 25 36 125 26 25 29 33 25 176 59 89 28 39 25
internal_value=0 0.0013832 0.00253114 0.00114866 -0.000538857 0.000130544 0.00241413 -0.00112252 0.000805917 0.00750065 -0.00171491 -0.00112697 -0.00135067 -0.000293678 -0.00200879 0.000178184
internal_weight=0 379.201 240.776 192.117 138.425 161.916 66.2763 452.189 101.512 48.6586 350.677 77.1825 95.6392 44.4638 308.73 41.947
internal_count=838 452 287 229 165 193 79 386 121 58 265 92 114 53 215 50
is_linear=0
shrinkage=0.0231034


Tree=2
num_leaves=15
num_cat=0
split_feature=14 55 103 30 3 55 8 24 13 111 3 13 18 46
split_gain=2.32855 1.04073 2.96284 1.35755 0.791601 2.6353 2.34864 0.771827 2.74545 0.454412 0.546612 0.355211 0.280971 0.167632
threshold=48.409999847412116 0.63395512104034435 2.0018488764762883 -1.793547451496124 47.159999847412116 -0.84831994771957386 4.770090103149415 -6.0120618343353263 1.5754765272140505 0.73178392648696911 54.135000228881843 2.2853543758392338 1.2685230970382693 -1.0000000180025095e-35
decision_type=2 2 2 2 2 2 2 2 2 2 2 2 2 2
left_child=1 2 -1 -4 5 6 -5 8 -2 13 -11 -6 -3 -9
right_child=7 12 3 4 11 -7 -8 9 -10 10 -12 -13 -14 -15
leaf_value=0.11610173916938155 0.079961986630892934 0.038509086696224736 0.1068621166064541 0.12105871640773345 -0.040532937508129051 -0.057625632759522337 0.0090609624684917043 -0.026518640034361 -0.073043129698081841 0.077643389324524276 -0.071806447942385027 0.029194732520612974 -0.070040711823893473 -0.022125655070937684
leaf_weight=39.43020635843277 23.490335702896118 28.523979663848877 29.362919628620148 22.6513951420784 67.954185426235199 57.047958135604858 21.812454581260681 41.108087480068207 67.11524486541748 28.523979067802429 28.523979067802429 36.913384675979614 47.819611966609955 291.11238414049149
leaf_count=47 28 25 35 27 81 68 26 49 80 34 34 44 57 203
internal_value=0 0.00139832 0.00207018 0.00100311 0.000260814 0.00174216 0.00588348 -0.00107009 0.00075432 -0.00152595 0.000198265 -0.0010708 -0.0008669 -0.001856
internal_weight=0 351.516 275.173 235.742 206.379 101.512 44.4638 479.874 90.6056 389.268 57.048 104.868 76.3436 332.22
internal_count=838 410 328 281 246 121 53 428 108 320 68 125 82 252
is_linear=0
shrinkage=0.0231034


Tree=3
num_leaves=14
num_cat=0
split_feature=1 42 42 53 15 98 16 22 24 23 16 23 111
split_gain=2.27385 1.56646 1.52865 1.50814 1.97647 0.917379 2.22394 0.521664 0.488958 0.355822 0.348992 0.30592 0.280377
threshold=50.055000305175788 16.872324943542484 14.810917854309084 0.68301269412040722 48.729999542236335 -0.39167128503322596 1.6252455115318301 1.867083013057709 4.0989136695861825 1.010558068752289 1.6252455115318301 0.27711638808250433 0.083728771656751647
decision_type=2 2 2 2 2 2 2 2 2 2 2 2 2
left_child=1 2 3 4 -1 6 -2 12 -6 -7 11 -4 -8
right_child=5 -3 10 -5 8 9 7 -9 -10 -11 -12 -13 -14
leaf_value=0.13147837179002519 0.10844319839071759 0.14212572284843228 0.020560590336064551 0.078619480212762022 -0.031805794889766821 -0.02300908877985032 0.021853113140593957 0.017417017145179892 0.058767728001082591 0.020233864920949293 -0.07037136531911907 -0.042907167512710509 -0.074034547622232411
leaf_weight=22.6513951420784 26.846097946166992 24.329276263713837 20.973514020442963 40.269146919250488 60.403720378875732 294.46814697980881 20.973514020442963 28.523979067802429 36.913384675979614 33.55762243270874 67.11524486541748 26.007157385349274 128.35790580511093
leaf_count=27 32 29 25 48 72 198 25 34 44 40 80 31 153
internal_value=0 0.00153454 0.000961216 0.0024257 0.000970006 -0.000975196 0.000187915 -0.000711691 -0.000391096 -0.00173277 -0.00100238 0.000318158 -0.00130692
internal_weight=0 298.663 274.334 160.238 119.969 532.727 204.701 177.855 97.3171 328.026 114.096 46.9807 149.331
internal_count=838 356 327 191 143 482 244 212 116 238 136 56 178
is_linear=0
shrinkage=0.0231034


Tree=4
num_leaves=15
num_cat=0
split_feature=14 32 103 103 102 24 13 54 4 18 111 17 14 46
split_gain=2.03166 1.08441 1.01415 1.57537 1.83383 0.771827 2.74545 0.696046 0.847713 0.67517 0.454412 0.75923 0.26624 0.167632
threshold=48.409999847412116 6.8711707592010507 2.0451092720031743 2.4821296930313115 -5.0639173984527579 -6.0120618343353263 1.5754765272140505 -0.93301269412040699 53.515001296997077 4.3558552265167245 0.73178392648696911 53.438896179199226 46.784999847412116 -1.0000000180025095e-35
decision_type=2 2 2 2 2 2 2 2 2 2 2 2 2 2
left_child=1 2 -1 -4 -5 6 -2 -3 12 -10 13 -12 -9 -7
right_child=5 7 3 4 -6 10 -8 8 9 -11 11 -13 -14 -15
leaf_value=0.094747591730727804 0.077712200898811548 0.05911016261867514 -0.025958887684918747 0.12844077483934485 0.015749029233519677 -0.024195519873619634 -0.070823997212773826 -0.058412991928692211 0.039838795106471772 -0.0070488494744722352 0.10884468309490969 -0.075966453207116494 0.022117037247838041 -0.023751486371610852
leaf_weight=36.074444115161896 23.490335702896118 36.913384675979614 50.33643364906311 20.973514020442963 28.523979067802429 41.108087480068207 67.11524486541748 88.927699446678162 20.973514020442963 29.362919628620148 24.329276263713837 32.718681871891022 39.430206954479218 291.11238414049149
leaf_count=43 28 44 60 25 34 49 80 106 25 35 29 39 38 203
internal_value=0 0.00123384 0.00283958 0.00142826 0.00432982 -0.00107009 0.00075432 0.000151776 -0.000397315 0.00200133 -0.00152595 0.000198265 -0.00144285 -0.001856
internal_weight=0 351.516 135.908 99.8339 49.4975 479.874 90.6056 215.608 178.694 50.3364 389.268 57.048 128.358 332.22
internal_count=838 410 162 119 59 428 108 248 204 60 320 68 144 252
is_linear=0
shrinkage=0.0231034


Tree=5
num_leaves=16
num_cat=0
split_feature=14 39 22 20 55 27 29 104 4 16 110 103 17 22 37
split_gain=2.59664 1.72873 1.84236 2.52569 1.06536 1.28704 1.05693 0.632222 0.541871 1.33253 0.442416 1.48805 0.437628 0.390428 0.161004
threshold=48.409999847412116 200.841667175293 1.5857099890708926 53.129999160766609 -0.78938880562782276 3.7403186559677128 0.29646033048629766 198.8466720581055 49.975000381469734 2.025864958763123 9.5000000000000018 1.7518948912620547 48.719249725341804 0.9636991322040559 209.50000000000003
decision_type=2 2 2 2 2 2 2 2 2 2 2 2 2 2 2
left_child=1 4 3 6 5 7 -3 -1 9 -2 13 -12 -4 -10 -6
right_child=8 2 12 -5 14 -7 -8 -9 10 -11 11 -13 -14 -15 -16
leaf_value=0.023979125050799261 0.10633000122772861 0.071829394889695447 0.041939438900212504 0.10444636764625682 -0.056926006234813385 -0.049820498991749125 -0.040731051235169728 0.13665314474857335 0.00063435275922843644 -0.082994599815758616 0.047839679283771405 -0.066298661619975371 -0.031586118037675699 -0.054609611439284951 0.0058531476817447635
leaf_weight=23.490335702896118 23.490335702896118 28.523979067802429 21.812454581260681 44.463849723339081 84.732997834682465 36.913384675979614 24.329276263713837 20.973514020442963 33.55762243270874 42.785968601703644 25.168216824531555 67.954185426235199 31.040800750255585 281.88403797149658 21.812454581260681
leaf_count=28 28 34 26 53 83 44 29 25 40 51 30 81 37 192 26
internal_value=0 0.00154469 0.00337589 0.00523098 4.08757e-07 0.00202339 0.00145015 0.00463203 -0.00109765 0.000710842 -0.00142118 0 0 -0.00183199 -0.00144709
internal_weight=0 338.093 150.17 97.3171 187.923 81.3772 52.8533 44.4638 474.84 66.2763 408.564 93.1224 52.8533 315.442 106.545
internal_count=807 385 179 116 206 97 63 53 422 79 343 111 63 232 109
is_linear=0
shrinkage=0.0231034


Tree=6
num_leaves=16
num_cat=0
split_feature=14 39 42 14 42 53 4 7 34 111 3 36 41 6 6
split_gain=2.48645 1.5983 2.42368 1.28015 1.10905 1.10542 0.673628 0.568776 2.61243 0.600147 0.241129 0.196689 0.209987 0.135754 0.327446
threshold=48.409999847412116 200.841667175293 14.096479415893556 46.085000991821296 16.872324943542484 1.0000000180025095e-35 56.350000381469734 -0.41627885401248926 11.571935176849367 0.79705882072448742 46.940000534057624 195.50000000000003 199.76705169677737 -2.1783384084701534 -0.45770035684108729
decision_type=2 2 2 2 2 2 2 2 2 2 2 2 2 2 2
left_child=1 4 3 -3 6 -4 11 8 -2 -9 -7 12 -1 -10 -15
right_child=7 2 5 -5 -6 10 -8 9 13 -11 -12 -13 -14 14 -16
leaf_value=-0.038572161989178462 0.10303711731843593 0.054983349240761967 0.095975157822619117 0.10248928876080655 0.13349599296659001 0.03497021914622394 0.017504413432544538 -0.054512657266417248 -0.072745205470419905 0.023986488749771644 -0.065783973140455448 -0.064131993333486667 0.03538785479411307 0.016115028823739361 -0.098108073123903572
leaf_weight=35.235504150390625 26.007157385349274 20.973514020442963 32.718681871891022 34.396562993526459 21.812454581260681 20.973514020442963 30.201860189437866 264.26628619432449 66.276304304599762 41.108087480068207 41.108087480068207 78.021472752094269 22.6513951420784 37.752325236797333 39.43020635843277
leaf_count=33 31 25 39 41 26 25 36 171 79 49 49 84 27 45 47
internal_value=0 0.0014877 0.00324852 0.0070286 4.08757e-07 0.000821748 -0.0006 -0.00109765 0 -0.0016902 -0.000848113 -0.0013498 -9.83933e-05 -0.00126641 -0.000392632
internal_weight=0 338.093 150.17 55.3701 187.923 94.8003 166.11 474.84 169.466 305.374 62.0816 135.908 57.8869 143.459 77.1825
internal_count=807 385 179 66 206 113 180 422 202 220 74 144 60 171 92
is_linear=0
shrinkage=0.0231034


Tree=7
num_leaves=16
num_cat=0
split_feature=14 39 70 56 3 29 42 70 21 56 16 16 26 23 96
split_gain=2.45716 1.70427 2.54768 2.93944 1.34497 1.71562 0.79551 0.529973 0.513195 0.429217 2.2689 0.315686 0.167472 0.154429 0.106264
threshold=48.409999847412116 200.841667175293 0.5177314579486848 52.500000000000007 52.560001373291023 0.29646033048629766 16.872324943542484 0.34704576432704931 -0.73655870556831349 12.500000000000002 1.4344320297241213 1.6920904517173769 -0.67061743140220631 2.0637313127517705 -1.7940453290939329
decision_type=2 2 2 2 2 2 2 2 2 2 2 2 2 2 2
left_child=1 6 3 -3 5 -5 7 12 -9 -2 -11 -12 -1 14 -13
right_child=9 2 -4 4 -6 -7 -8 8 -10 10 11 13 -14 -15 -16
leaf_value=-0.046116557576211449 -0.0520305255078711 -0.02828895431589724 -0.03319842023117802 0.13004185957398917 0.017827716409347917 0.055918977510859828 0.13041178211394144 -0.029634327783975126 0.019125238539288662 0.10861938483765372 0.02343231939026514 -0.0061255180505068764 -0.05124095992711869 -0.014414801278761932 -0.061362431663544194
leaf_weight=36.913384675979614 146.8146076798439 38.591265797615051 35.235503554344177 31.879741311073303 20.973514020442963 23.490335702896118 21.812454581260681 23.490335702896118 27.685038506984711 22.6513951420784 35.235503554344177 44.463849723339081 78.021473348140717 33.55762243270874 192.11738842725754
leaf_count=44 31 46 42 38 25 28 26 28 33 27 42 53 75 40 229
internal_value=0 0.00143071 0.00324852 0.00492355 0.00749728 0.00939353 0 -0.0006 0.00120431 -0.00113829 -0.0006169 -0.00118574 -0.00150902 -0.00146747 -0.00167387
internal_weight=0 338.093 150.17 114.935 76.3436 55.3701 187.923 166.11 51.1754 474.84 328.026 305.374 114.935 270.139 236.581
internal_count=807 385 179 137 91 66 206 180 61 422 391 364 119 322 282
is_linear=0
shrinkage=0.0231034


Tree=8
num_leaves=15
num_cat=0
split_feature=39 42 110 14 19 3 55 13 39 16 97 56 17 0
split_gain=2.82365 2.74604 1.88705 1.91719 1.80807 0.953151 1.74626 3.49162 0.854264 1.71207 0.418703 0.499006 0.254627 0.203359
threshold=200.841667175293 14.096479415893556 4.5000000000000009 48.640001296997077 40.690000534057624 48.975000381469734 -0.78938880562782276 1.464102625846863 202.01667022705081 1.6920904517173769 -1.134564936161041 92.500000000000014 54.355499267578132 46.789999008178718
decision_type=2 2 2 2 2 2 2 2 2 2 2 2 2 2
left_child=5 2 -2 -4 -3 6 7 -1 9 -6 11 -7 -10 -12
right_child=1 4 3 -5 8 10 -8 -9 12 -11 13 -13 -14 -15
leaf_value=0.1329840911772793 0.071559450869335225 0.11783853009190505 0.064797632589789392 -0.050764736565418203 0.098147133233693978 0.031424468881468985 -0.05599062141984442 -0.033893813170449268 -0.050801140604450727 -0.021930080879117547 0.0076696992176721046 -0.021193922156509046 0.024274572489604164 -0.068888667621151159
leaf_weight=20.973514020442963 41.108088076114655 26.007157385349274 32.718681871891022 30.201861381530762 20.973514020442963 23.490335702896118 65.437363743782043 31.040800750255585 97.317107439041138 25.168216824531555 21.812454581260681 59.564779818058014 29.362919628620148 287.75661891698837
leaf_count=25 40 31 39 18 25 28 78 37 80 30 26 71 35 244
internal_value=0 0.00192668 0.00493642 0.00206123 0.000260969 -0.000878286 0.000876861 0.00402042 -0.000554792 0.00197441 -0.00143439 0 -0.00158216 -0.00182297
internal_weight=0 302.858 104.029 62.9205 198.829 510.076 117.452 52.0143 172.822 46.1417 392.624 83.0551 126.68 309.569
internal_count=807 298 97 57 201 509 140 62 170 55 369 99 115 270
is_linear=0
shrinkage=0.0231034


Tree=9
num_leaves=16
num_cat=0
split_feature=14 39 70 55 32 55 55 12 97 4 16 110 103 37 103
split_gain=2.42805 1.80851 2.54768 3.06535 3.30027 1.68033 0.802837 1.05875 0.651357 0.440145 1.03677 0.473651 1.29375 0.161004 0.106325
threshold=48.409999847412116 200.841667175293 0.5177314579486848 0.63395512104034435 7.9404089450836191 -0.49252992868423456 -0.78938880562782276 1.706055819988251 0.70049217343330394 49.975000381469734 2.025864958763123 8.5000000000000018 1.7518948912620547 209.50000000000003 2.5441169738769536
decision_type=2 2 2 2 2 2 2 2 2 2 2 2 2 2 2
left_child=1 6 3 4 -3 -6 7 8 -1 10 -2 14 -13 -8 -11
right_child=9 2 -4 -5 5 -7 13 -9 -10 11 -12 12 -14 -15 -16
leaf_value=0.11664879987152224 0.10051034939665079 0.12210730385433269 -0.031924764613236158 -0.031500082151701116 -0.09997633817386363 0.095463763084627548 -0.051944271779158648 -0.052390465770322997 0.0074925031158414321 -0.0502290223989467 -0.078461007941098448 0.039576903990063167 -0.060498267034279789 0.0072593630894971029 -0.046121211794399222
leaf_weight=31.879741311073303 23.490335702896118 35.235503554344177 35.235503554344177 36.074444115161896 20.973514020442963 22.6513951420784 84.732997834682465 27.685038506984711 21.812454581260681 266.78310787677765 42.785968601703644 27.685038506984711 79.699353277683258 21.812454581260681 34.396562993526459
leaf_count=38 28 42 42 43 25 27 83 33 26 174 51 33 95 26 41
internal_value=0 0.00137372 0.00324852 0.00492355 0.00743171 0.00263559 -8.2053e-05 0.00155845 0.00348166 -0.00117894 0.00042696 -0.00146839 -3.61501e-05 -0.00144709 -0.00193735
internal_weight=0 338.093 150.17 114.935 78.8604 43.6249 187.923 81.3772 53.6922 474.84 66.2763 408.564 107.384 106.545 301.18
internal_count=807 385 179 137 94 52 206 97 64 422 79 343 128 109 215
is_linear=0
shrinkage=0.0231034


Tree=10
num_leaves=16
num_cat=0
split_feature=1 110 22 2 20 34 110 51 39 97 34 13 23 14 98
split_gain=1.39428 1.06822 3.01602 0.998831 1.20363 1.31107 1.41709 0.87226 3.03055 0.889632 1.25412 0.603761 0.576856 0.400266 0.355391
threshold=50.055000305175788 12.500000000000002 1.2153711318969729 46.715000152587898 62.010000228881843 11.380271911621096 4.5000000000000009 -0.87837970256805409 201.716667175293 -0.55896559357643116 12.8623423576355 3.6624447107315068 0.97523805499076854 45.954999923706062 -1.7243646979331968
decision_type=2 2 2 2 2 2 2 2 2 2 2 2 2 2 2
left_child=1 3 13 14 5 -5 -7 8 -2 10 -9 -12 -11 -3 -1
right_child=7 2 -4 4 -6 6 -8 9 -10 12 11 -13 -14 -15 -16
leaf_value=0.0075717329949655972 -0.072165559468403181 -0.044671267551757904 0.12163145935359337 -0.0026060497245542916 -0.089421035054308609 0.093258225917575904 0.03061532594707754 0.077310908925185037 0.01211362999506699 -0.048431437711080126 -0.078689043071200296 0.060500478349743259 0.044529162171766667 0.05417528847182173 -0.077075906388200055
leaf_weight=26.007157385349274 48.658553123474121 24.329276263713837 21.812454581260681 37.752325236797333 31.040800750255585 34.396562993526459 24.329276263713837 27.685038506984711 23.490336298942566 292.79026526212692 83.055115520954132 20.973514020442963 32.718681871891022 20.973514020442963 83.894056081771851
leaf_count=31 49 29 26 45 37 41 29 33 19 205 99 25 39 25 100
internal_value=0 0.00120795 0.00375896 0.000413197 0.00182632 0.00313021 0.00523581 -0.000747907 0.00151716 -0.00113554 0.000391958 -0.000695386 -0.00178751 1.64272e-06 -0.00112656
internal_weight=0 304.535 67.1152 237.42 127.519 96.4782 58.7258 529.372 72.1489 457.223 131.714 104.029 325.509 45.3028 109.901
internal_count=832 363 80 283 152 115 70 469 68 401 157 124 244 54 131
is_linear=0
shrinkage=0.0231034


Tree=11
num_leaves=16
num_cat=0
split_feature=1 110 22 2 20 18 110 41 6 97 98 20 10 0 96
split_gain=1.34184 1.06822 3.01602 0.998831 1.20363 1.90683 1.41539 0.971973 2.85276 0.758954 0.54731 0.910801 0.408185 0.400266 0.162653
threshold=50.055000305175788 12.500000000000002 1.2153711318969729 46.715000152587898 62.010000228881843 2.1415318250656132 4.5000000000000009 201.72499847412112 -0.13273509591817853 -1.134564936161041 -0.97718873620033253 61.954999923706062 -8.9391222000122053 48.429998397827156 -2.3250243663787837
decision_type=2 2 2 2 2 2 2 2 2 2 2 2 2 2 2
left_child=1 3 13 12 5 -5 -7 9 -9 10 11 -2 -1 -3 -11
right_child=7 2 -4 4 -6 6 -8 8 -10 14 -12 -13 -14 -15 -16
leaf_value=0.0073968002456187704 0.044645953427596335 -0.043301452199289103 0.11882135952493617 -0.0055053045272100143 -0.087355105428701119 0.093641501635445448 0.029908007933667345 -0.016184846924625237 0.037130822323072576 -0.00080705108868427675 -0.055602193938100786 -0.08021182128243963 -0.072734871221290728 0.052923655303386656 -0.060177904905616753
leaf_weight=34.396562993526459 26.007157385349274 24.329276263713837 21.812454581260681 39.43020635843277 31.040800750255585 31.879741311073303 25.168216824531555 81.377237975597382 42.785969197750092 26.007157385349274 46.141730844974518 21.812454581260681 75.504650473594666 20.973514020442963 285.23979723453522
leaf_count=41 31 29 26 47 37 38 30 43 42 31 55 26 90 25 241
internal_value=0 0.00120795 0.00375896 0.000413197 0.00182632 0.00313021 0.00577848 -0.000711431 0.00101457 -0.00127106 0.000445168 0.00221915 -0.00112656 1.64272e-06 -0.00182558
internal_weight=0 304.535 67.1152 237.42 127.519 96.4782 57.048 529.372 124.163 405.208 93.9613 47.8196 109.901 45.3028 311.247
internal_count=832 363 80 283 152 115 68 469 85 384 112 57 131 54 272
is_linear=0
shrinkage=0.0231034


Tree=12
num_leaves=16
num_cat=0
split_feature=1 110 22 15 39 11 97 16 23 18 1 3 43 43 42
split_gain=1.77683 0.922918 2.83022 0.858729 1.86055 0.689254 0.682204 2.02106 0.456048 0.431721 0.391701 0.574393 0.330183 0.142784 0.131598
threshold=50.710000991821296 12.500000000000002 1.2153711318969729 52.015001296997077 199.44999694824222 0.57223722338676464 -0.30720889568328852 1.5831946134567263 0.87798792123794567 1.388233006000519 47.594999313354499 48.975000381469734 0.066014233976602568 -0.084932252764701829 16.133664131164554
decision_type=2 2 2 2 2 2 2 2 2 2 2 2 2 2 2
left_child=1 3 9 5 -5 -1 7 -2 -8 -3 14 -12 13 -9 -7
right_child=6 2 -4 4 -6 10 8 12 -10 -11 11 -13 -14 -15 -16
leaf_value=0.091478064897126038 0.10151579544497795 0.0517009391122768 0.11607618254674039 -0.065293532708970842 0.088652193987850889 -0.046780618620614112 -0.042195793784055705 -0.030036107151057582 0.023224839868764738 -0.092583410107544256 0.034663465147262783 -0.10753546250478076 0.058071238648997298 -0.087034659324534594 -0.0044567613997264889
leaf_weight=20.973514020442963 21.812454581260681 20.973514020442963 23.490335702896118 35.235503554344177 32.718681871891022 101.51180785894394 302.01861262321472 26.846097946166992 37.752325236797333 27.685038506984711 25.168216824531555 21.812454581260681 32.718681871891022 76.343591034412384 26.846097946166992
leaf_count=25 26 25 28 42 39 121 198 32 45 33 30 26 39 91 32
internal_value=0 0.00104834 0.00334694 0.000356978 0.00257788 -0.000371792 -0.00111384 7.32971e-05 -0.0016959 0 -0.000907595 0.000713873 -0.000928163 -0.00160381 -0.00159154
internal_weight=0 336.415 72.1489 264.266 67.9542 196.312 497.492 157.721 339.771 48.6586 175.339 46.9807 135.908 103.19 128.358
internal_count=832 401 86 315 81 234 431 188 243 58 209 56 162 123 153
is_linear=0
shrinkage=0.0231034


Tree=13
num_leaves=16
num_cat=0
split_feature=32 110 100 26 99 51 4 4 3 2 33 31 17 7 22
split_gain=1.45684 2.09026 2.67684 1.31032 1.29461 1.65139 1.31419 1.08564 0.696754 0.786935 1.09669 0.532777 0.57042 0.258636 0.161009
threshold=6.6333084106445321 12.500000000000002 -3.9046800136566158 -0.15459058433771131 -3.8974230289459224 -0.87837970256805409 50.694999694824226 47.495000839233406 48.274999618530281 46.715000152587898 7.1865906715393075 0.39204223453998571 51.975250244140632 -0.38799823820590967 0.9636991322040559
decision_type=2 2 2 2 2 2 2 2 2 2 2 2 2 2 2
left_child=1 4 -3 -4 -1 -6 7 -7 9 13 -11 14 -13 -2 -10
right_child=8 2 3 -5 5 6 -8 -9 11 10 -12 12 -14 -15 -16
leaf_value=0.050624801167247983 0.015624791566771727 -0.10518181503089606 0.056848042681124138 0.1132568563286703 0.00032161218704732986 -0.022788614631712986 -0.035063779785873606 0.089364610895509539 -0.011504780766474749 0.10149907877474638 -0.012965471154391506 -0.034981408976111669 0.031907298403934893 -0.083371997052552618 -0.047314153165591205
leaf_weight=26.846097946166992 20.973514020442963 20.973514020442963 20.973514020442963 24.329276263713837 36.074444711208344 23.490335702896118 190.43951326608658 24.329276263713837 26.846097946166992 25.168216824531555 25.168216824531555 34.396562993526459 26.007157385349274 46.141730844974518 261.74945914745331
leaf_count=32 25 25 25 29 34 28 137 29 32 30 30 41 31 55 249
internal_value=0 0.00102846 0.00468518 0.00778692 0.000160082 -0.000287861 -0.00103294 0.00221915 -0.000910427 0.000552338 0.00274202 -0.00143596 0.000373961 -0.000954606 -0.00185449
internal_weight=0 367.456 66.2763 45.3028 301.18 274.334 238.259 47.8196 466.451 117.452 50.3364 348.999 60.4037 67.1152 288.596
internal_count=832 339 79 54 260 228 194 57 493 140 60 353 72 80 281
is_linear=0
shrinkage=0.0231034


Tree=14
num_leaves=17
num_cat=0
split_feature=0 110 39 11 27 2 103 46 29 101 103 15 111 110 42 27
split_gain=1.32321 2.50108 1.33426 1.37376 0.925909 0.76345 1.19311 0.675231 0.553086 0.447616 0.355142 0.451242 0.348795 0.281779 0.24002 0.160422
threshold=43.750000000000007 12.500000000000002 199.68333435058597 0.5451473891735078 45.235704421997077 50.88750076293946 1.9489245414733889 -0.57496309280395497 -0.41663055121898646 1.7818999886512759 2.4653469324111943 61.600000381469734 0.45293065905570989 9.5000000000000018 14.708600521087648 -17.420650482177731
decision_type=2 2 2 2 2 2 2 2 2 2 2 2 2 2 2 2
left_child=1 9 7 -4 5 6 -5 8 -2 -1 13 -12 -8 -7 -10 -9
right_child=2 -3 3 4 -6 10 12 15 14 -11 11 -13 -14 -15 -16 -17
leaf_value=-0.050229827652703417 -0.080829789739092564 0.11064023827397584 0.00031418185318042834 0.07492326469723587 0.068816140812849966 -0.024828689816793072 -0.0048014442513376618 -7.2185241434850073e-05 0.016706017464455797 0.024163781333493745 0.044619928107311371 -0.08284215638929554 0.0251303092951045 0.0093341639876787109 0.096591022365169893 -0.062061026978398839
leaf_weight=29.362919628620148 36.913384675979614 20.973514020442963 31.04080194234848 24.329276263713837 31.879741311073303 121.64638489484787 72.98782879114151 41.108087480068207 20.973514020442963 20.973514020442963 23.490335702896118 20.973514020442963 20.973514020442963 28.523979067802429 21.812454581260681 265.94416373968124
leaf_count=35 44 25 19 29 38 91 87 49 25 25 28 25 25 34 26 227
internal_value=0 0.0028829 -0.000362604 0.000595252 0.000128767 -0.000227968 0.00117689 -0.00132144 0.000451707 0 -0.00114382 0.000460537 0 -0.00169457 0.00229546 -0.001819
internal_weight=0 71.3099 762.597 375.845 344.805 312.925 118.291 386.752 79.6994 50.3364 194.634 44.4638 93.9613 150.17 42.786 307.052
internal_count=832 85 747 376 357 319 141 371 95 60 178 53 112 125 51 276
is_linear=0
shrinkage=0.0231034


Tree=15
num_leaves=15
num_cat=0
split_feature=3 13 15 101 39 32 17 34 27 12 103 9 39 27
split_gain=1.35977 1.65269 3.19456 1.15572 0.865434 2.48732 0.456397 0.467822 0.441904 0.928405 0.474144 0.369175 0.261647 0.130514
threshold=48.975000381469734 1.464102625846863 49.965000152587898 -2.682970285415649 201.716667175293 2.0407447814941411 51.975250244140632 15.525935649871828 -5.2493548393249503 1.4604326486587527 2.1552939414978032 -17.848183631896969 200.44913482666018 1.0000000180025095e-35
decision_type=2 2 2 2 2 2 2 2 2 2 2 2 2 2
left_child=1 2 3 -1 8 -6 -7 13 9 10 -2 -10 -3 -8
right_child=4 12 -4 -5 5 6 7 -9 11 -11 -12 -13 -14 -15
leaf_value=0.10822164513559082 0.039569771981147583 -0.054452683374208284 0.10899914163254373 -0.031319769085281113 0.019030733257759065 -0.044296971211688616 0.0026816273302298012 0.029439149549507083 0.023919837292384651 -0.054521655365809607 0.0013403336503672852 -0.053290643876548228 0.02360551591313435 -0.037600418534843499
leaf_weight=20.973514020442963 20.973514020442963 60.403720378875732 31.879741311073303 47.819611966609955 33.557623624801636 62.08160388469696 26.007157385349274 26.007157385349274 30.201860189437866 71.309947669506073 22.6513951420784 276.01144927740097 38.591265797615051 26.84609854221344
leaf_count=25 25 72 38 57 22 38 31 31 36 85 27 257 46 23
internal_value=0 0.00159582 0.00366305 0.000603433 -0.000596863 0.000725221 -0.000570048 0.000480364 -0.0011728 0 0.00263559 -0.00162901 -0.000422981 -0.000602112
internal_weight=0 199.668 100.673 68.7931 595.648 174.5 140.942 78.8604 421.148 114.935 43.6249 306.213 98.995 52.8533
internal_count=813 238 120 82 575 145 123 85 430 137 52 293 118 54
is_linear=0
shrinkage=0.0231034


end of trees

feature_importances:
price_std_30d=12
market_volatility_30d=12
market_regime_duration_days=12
volume_mean_30d=11
price_min_20d=10
volume_std_60d=10
price_lag_30d=9
vol_regime_60_30=7
doy_cos=7
price_lag_7d=6
price_lag_60d=6
price_std_20d=6
trend_divergence_30_60=6
market_return_30d_percentile=6
price_lag_14d=5
price_max_20d=5
price_mean_60d=5
autocorr_7d=5
distance_to_support=5
market_return_7d=5
price_std_60d=4
price_max_60d=4
price_accel_7d=4
high_low_range_30d=4
item_age_days=4
item_return_vs_market_7d=4
price_lag_1d=3
return_3d=3
price_std_7d=3
macd_line=3
volume_price_conf_7d=3
month_sin=3
event_decay_major=3
item_return_vs_market_1d=3
return_7d=2
return_30d=2
price_std_14d=2
price_min_60d=2
price_zscore_30d=2
autocorr_1d=2
macd_signal=2
volume_lag_1d=2
volume_lag_7d=2
volume_mean_60d=2
volume_log_change_1d=2
dow_sin=2
market_return_1d=2
market_return_30d=2
return_14d=1
return_60d=1
macd_histogram=1
distance_to_resistance=1
volume_std_30d=1
month_cos=1
market_return_14d=1
item_return_vs_market_14d=1
item_return_vs_market_30d=1
market_volume_mean_30d=1

parameters:
[boosting: gbdt]
[objective: quantile]
[metric: quantile]
[tree_learner: serial]
[device_type: cpu]
[data_sample_strategy: bagging]
[data: ]
[valid: ]
[num_iterations: 1000]
[learning_rate: 0.0231034]
[num_leaves: 63]
[num_threads: -1]
[seed: 57]
[deterministic: 0]
[force_col_wise: 0]
[force_row_wise: 0]
[histogram_pool_size: -1]
[max_depth: 7]
[min_data_in_leaf: 25]
[min_sum_hessian_in_leaf: 0.001]
[bagging_fraction: 0.7]
[pos_bagging_fraction: 1]
[neg_bagging_fraction: 1]
[bagging_freq: 5]
[bagging_seed: 30554]
[feature_fraction: 0.8]
[feature_fraction_bynode: 1]
[feature_fraction_seed: 30558]
[extra_trees: 0]
[extra_seed: 6244]
[early_stopping_round: 0]
[early_stopping_min_delta: 0]
[first_metric_only: 0]
[max_delta_step: 0]
[lambda_l1: 0.5]
[lambda_l2: 2]
[linear_lambda: 0]
[min_gain_to_split: 0.1]
[drop_rate: 0.1]
[max_drop: 50]
[skip_drop: 0.5]
[xgboost_dart_mode: 0]
[uniform_drop: 0]
[drop_seed: 23688]
[top_rate: 0.2]
[other_rate: 0.1]
[min_data_per_group: 100]
[max_cat_threshold: 32]
[cat_l2: 10]
[cat_smooth: 10]
[max_cat_to_onehot: 4]
[top_k: 20]
[monotone_constraints: ]
[monotone_constraints_method: basic]
[monotone_penalty: 0]
[feature_contri: ]
[forcedsplits_filename: ]
[refit_decay_rate: 0.9]
[cegb_tradeoff: 1]
[cegb_penalty_split: 0]
[cegb_penalty_feature_lazy: ]
[cegb_penalty_feature_coupled: ]
[path_smooth: 0]
[interaction_constraints: ]
[verbosity: -1]
[saved_feature_importance_type: 0]
[use_quantized_grad: 0]
[num_grad_quant_bins: 4]
[quant_train_renew_leaf: 0]
[stochastic_rounding: 1]
[linear_tree: 0]
[max_bin: 63]
[max_bin_by_feature: ]
[min_data_in_bin: 3]
[bin_construct_sample_cnt: 200000]
[data_random_seed: 224]
[is_enable_sparse: 1]
[enable_bundle: 1]
[use_missing: 1]
[zero_as_missing: 0]
[feature_pre_filter: 0]
[pre_partition: 0]
[two_round: 0]
[header: 0]
[label_column: ]
[weight_column: ]
[group_column: ]
[ignore_column: ]
[categorical_feature: ]
[forcedbins_filename: ]
[precise_float_parser: 0]
[parser_config_file: ]
[objective_seed: 6962]
[num_class: 1]
[is_unbalance: 0]
[scale_pos_weight: 1]
[sigmoid: 1]
[boost_from_average: 1]
[reg_sqrt: 0]
[alpha: 0.9]
[fair_c: 1]
[poisson_max_delta_step: 0.7]
[tweedie_variance_power: 1.5]
[lambdarank_truncation_level: 30]
[lambdarank_norm: 1]
[label_gain: ]
[lambdarank_position_bias_regularization: 0]
[eval_at: ]
[multi_error_top_k: 1]
[auc_mu_weights: ]
[num_machines: 1]
[local_listen_port: 12400]
[time_out: 120]
[machine_list_filename: ]
[machines: ]
[gpu_platform_id: -1]
[gpu_device_id: -1]
[gpu_use_dp: 0]
[num_gpu: 1]

end of parameters

pandas_categorical:[]
