tree
version=v4
num_class=1
num_tree_per_iteration=1
label_index=0
max_feature_idx=116
objective=quantile
feature_names=price_lag_1d price_lag_7d price_lag_14d price_lag_30d price_lag_60d return_1d return_3d return_7d return_14d return_30d return_60d price_std_7d price_std_14d price_std_20d price_min_20d price_max_20d price_std_30d price_mean_60d price_std_60d price_min_60d price_max_60d price_zscore_30d vol_regime_60_30 trend_divergence_30_60 price_accel_7d price_tier autocorr_1d autocorr_7d bb_pct_b macd_line macd_signal macd_histogram distance_to_support distance_to_resistance high_low_range_30d volume_missing volume_lag_1d volume_lag_7d volume_mean_7d volume_mean_30d volume_std_30d volume_mean_60d volume_std_60d volume_log_change_1d volume_log_change_7d volume_zscore_30d volume_price_conf_7d volume_price_conf_1d rsi_missing macd_missing is_weekend dow_sin dow_cos month_sin month_cos doy_cos item_age_days is_stattrak is_souvenir is_knife is_glove is_sticker is_case is_capsule is_agent is_music_kit is_graffiti is_charm is_patch quality_rank event_decay_major events_next_30d_major event_density_30d_major event_density_90d_major event_decay_operation events_next_30d_operation event_density_30d_operation event_density_90d_operation event_decay_case_drop events_next_30d_case_drop event_density_30d_case_drop event_density_90d_case_drop event_decay_update events_next_30d_update event_density_30d_update event_density_90d_update event_decay_game_update events_next_30d_game_update event_density_30d_game_update event_density_90d_game_update event_decay_major_weighted event_decay_operation_weighted event_decay_case_drop_weighted event_decay_update_weighted event_decay_game_update_weighted market_return_1d item_return_vs_market_1d market_return_7d item_return_vs_market_7d market_return_14d item_return_vs_market_14d market_return_30d item_return_vs_market_30d market_volatility_30d market_volume_mean_30d market_regime_crash market_regime_bear market_regime_range market_regime_bull market_regime_mania market_regime_duration_days market_return_30d_percentile supply_listings_log supply_listings_zscore supply_change_7d supply_skinport_qty_log supply_to_volume_ratio
feature_infos=[39.849998474121094:66.220001220703125] [39.849998474121094:66.220001220703125] [39.790000915527344:66.220001220703125] [40.729999542236328:66.569999694824219] [39.849998474121094:66.569999694824219] [-6.0415120124816895:5.3940391540527344] [-10.281366348266602:9.4368009567260742] [-17.372880935668945:14.35562801361084] [-21.531669616699219:24.511468887329102] [-24.868003845214844:39.543319702148438] [-29.951061248779297:26.83879280090332] [0.042426407337188721:3.2751080989837646] [0.042426407337188721:4.732576847076416] [0.042426407337188721:5.307133674621582] [39.790000915527344:61.619998931884766] [43.779998779296875:66.220001220703125] [0.042426407337188721:5.4625492095947266] [43.426834106445312:62.902332305908203] [0.042426407337188721:6.0651006698608398] [39.790000915527344:58.759998321533203] [47.880001068115234:66.569999694824219] [-3.4853887557983398:3.0036964416503906] [0.75903922319412231:3.9533336162567139] [-39.368843078613281:101.21376037597656] [-22.131687164306641:18.705087661743164] [3:3] [-17.983921051025391:24.183246612548828] [-115.25129699707031:134.03640747070312] [-0.21316516399383545:1.1863726377487183] [-3.1017971038818359:3.1833817958831787] [-2.2667920589447021:2.7414813041687012] [-1.2685985565185547:0.94650393724441528] [0.018351990729570389:39.335178375244141] [0.054525628685951233:31.854576110839844] [0.12307692319154739:39.335178375244141] none [163:245] [161:245] [176:219] [176:219] [4.0414519309997559:20.036775588989258] [176:219] [4.0414519309997559:19.928762435913086] [-0.28488487005233765:0.30276116728782654] [-0.26826399564743042:0.40341803431510925] [-2.4042847156524658:2.6703879833221436] [-17.372880935668945:14.35562801361084] [-6.0415120124816895:5.3940391540527344] [0:1] [0:1] [0:1] [-0.97492790222167969:0.97492790222167969] [-0.90096884965896606:1] [-0.86602538824081421:1] [-1:0.86602538824081421] [-1:0.99985265731811523] [0:234] none none none none none none none none none none none none none [0:0.96721607446670532] [0:1] [0:1] [0:1] none none none none none none none none none none none none none none none none none none none none none [-2.0933716297149658:1.6730349063873291] [-4.7729063034057617:4.9617133140563965] [-5.9873161315917969:5.599886417388916] [-15.224418640136719:14.81980037689209] [-7.3588790893554688:5.6792440414428711] [-21.058666229248047:25.597810745239258] [-2.9261324405670166:2.6404297351837158] [-23.844234466552734:40.982707977294922] [0.43699198961257935:3.9010679721832275] [195.10000610351562:203.39999389648438] none none [0:1] none none [1:30] [0.040816325694322586:0.75268816947937012] none none none none none
tree_sizes=1270 1692 1606 1495 1180 1697 1492 1399 1498 1602 1271 1278 1489 1702 978 1703 1400 1370 1703 1702 1701 1686 1174 1706 1707

Tree=0
num_leaves=11
num_cat=0
split_feature=12 39 102 96 26 34 12 38 99 38
split_gain=7.59569 3.44032 2.57664 2.73124 2.56289 2.42346 1.75112 1.4637 0.992458 0.78788
threshold=0.63918238878250133 201.58571624755862 5.4482431411743173 0.40053978562355047 -0.15459058433771131 10.166018962860109 1.4282903075218203 207.3571472167969 -0.31025573611259455 203.30952453613284
decision_type=2 2 2 2 2 2 2 2 2 2
left_child=-1 2 3 5 -3 -2 -4 -6 -5 -7
right_child=1 4 6 8 7 9 -8 -9 -10 -11
leaf_value=0.1166716686482039 0.048152039336594343 -0.019301510771881539 0.094829831130840606 0.0035912901997390452 0.12653704474098743 -0.048708646579599391 -0.01109658516824244 0.029026344433678977 -0.052629018707552933 0.025220618896648665
leaf_weight=35.906174719333649 32.975058615207672 32.975058734416962 27.845605254173279 23.448930740356445 48.363419413566589 68.881234049797058 24.914488911628723 29.311163187026978 65.217338144779205 14.655581712722777
leaf_count=13 27 36 38 32 48 94 34 22 53 20
internal_value=0.020008 0.0184336 0.0169337 0.0157344 0.021818 0.0182876 0.0213684 0.0241911 0.0126213 0.0161116
internal_weight=0 368.588 257.938 205.178 110.65 116.512 52.7601 77.6746 88.6663 83.5368
internal_count=417 404 298 226 106 141 72 70 85 114
is_linear=0
shrinkage=1


Tree=1
num_leaves=15
num_cat=0
split_feature=12 21 20 32 56 12 6 104 56 16 16 27 56 56
split_gain=6.95391 4.30331 6.33548 3.83467 2.9023 2.37365 1.79402 1.86351 1.06806 0.965059 1.20753 0.813826 0.444293 0.394228
threshold=0.63918238878250133 0.75194457173347484 61.289999008178718 11.101469039916994 102.50000000000001 1.4607322812080386 2.0484764575958256 199.15332794189456 45.500000000000007 2.1606652736663823 2.5289856195449834 18.066191673278812 12.500000000000002 104.50000000000001
decision_type=2 2 2 2 2 2 2 2 2 2 2 2 2 2
left_child=-1 2 5 12 -4 6 7 -2 -7 -5 -11 -6 -3 -14
right_child=1 3 4 9 11 8 -8 -9 -10 10 -12 -13 13 -15
leaf_value=0.094387746332249736 0.060688237726706645 -0.15913150812625093 0.13303246028177354 0.073060168773213585 -0.12525139333559299 -0.061338884295922325 -0.015332817726637669 0.073047554392852987 0.027025321932993198 -0.07624235283406304 0.024526966869972636 -0.024256063734122063 -0.030948096779528138 -0.12718621873384792
leaf_weight=35.906174719333649 42.501186609268188 34.440616548061371 14.655581712722777 19.785035312175751 43.233966052532196 16.121139883995056 21.983372449874878 67.415675520896912 25.647267997264862 19.785035312175751 16.853918969631195 14.655581712722777 16.12113988399506 15.388360798358915
leaf_count=13 31 11 20 27 59 22 21 65 35 27 23 20 22 21
internal_value=0 -0.00110885 0.000647661 -0.00469116 -0.00504958 0.00312493 0.00467954 0.00590704 -0.00150489 0 -0.00237445 -0.0074376 -0.00845962 -0.00505483
internal_weight=0 368.588 246.214 122.374 72.5451 173.669 131.9 109.917 41.7684 56.424 36.639 57.8895 65.9501 31.5095
internal_count=417 404 273 131 99 174 117 96 57 77 50 79 54 43
is_linear=0
shrinkage=0.0235447


Tree=2
num_leaves=14
num_cat=0
split_feature=21 20 103 32 55 7 6 110 104 14 29 7 31
split_gain=6.62059 8.06994 3.47353 3.15638 2.88043 1.96841 2.04529 1.22938 1.13459 0.960718 0.59576 0.546096 0.535767
threshold=0.75194457173347484 61.289999008178718 0.69135943055152904 11.101469039916994 -0.20454452931880948 -5.1209824085235587 2.4280164241790776 6.5000000000000009 201.10461425781253 52.215000152587898 -2.0074356794357295 6.6838574409484872 -0.28467404842376703
decision_type=2 2 2 2 2 2 2 2 2 2 2 2 2
left_child=1 2 -1 7 10 12 8 -2 -7 11 -3 -5 -4
right_child=3 4 5 9 -6 6 -8 -9 -10 -11 -12 -13 -14
leaf_value=-0.026573823809864165 -0.15538480125360402 -0.02368496149443302 0.015058789856584889 -0.011658017205920213 0.11769107917740904 0.084373215293702716 -0.017251509170677574 -0.038737945980137162 0.045621294202427054 -0.066719366345867767 -0.11907111442471932 0.077477832075704939 -0.024487456832274011
leaf_weight=36.638953685760498 44.699523746967316 14.655581712722777 14.65558171272278 19.785035312175751 15.388360798358915 81.338478267192841 22.716151535511017 21.983372569084167 33.707837581634521 17.586698055267334 46.165082395076752 19.052256226539612 16.121139883995056
leaf_count=5 25 20 20 27 21 93 22 30 19 24 63 26 22
internal_value=0 0.00190667 0.00435683 -0.00459473 -0.00448212 0.00276367 0.00398948 -0.00799257 0.00527966 -0.000241463 -0.00681593 0.0016129 -0.00227274
internal_weight=0 281.387 205.178 123.107 76.209 168.539 137.762 66.6829 115.046 56.424 60.8207 38.8373 30.7767
internal_count=417 285 181 132 104 176 134 55 112 77 83 53 42
is_linear=0
shrinkage=0.0235447


Tree=3
num_leaves=13
num_cat=0
split_feature=34 19 34 55 34 0 39 40 15 0 6 55
split_gain=10.7814 3.49369 4.57512 3.90885 3.09511 2.25382 1.96475 1.9131 1.49324 0.995773 0.963159 0.935854
threshold=2.3911715745925908 48.70000076293946 7.7034833431243905 -0.20454452931880948 8.1123495101928729 50.055000305175788 199.81666564941409 13.673552989959719 48.815000534057624 55.440000534057624 2.0484764575958256 0.6205866038799287
decision_type=2 2 2 2 2 2 2 2 2 2 2 2
left_child=-1 4 -3 -4 -2 6 8 -7 -6 -5 -9 -8
right_child=1 2 3 9 5 7 11 10 -10 -11 -12 -13
leaf_value=0.0031838667803104209 0.024084128567794016 -0.15172630954685876 -0.070285777138033981 0.060428803415565099 0.005113091280245197 -0.06960698792586649 0.064052132488577052 0.059290869529437226 -0.12810978155442021 -0.02122104450815664 0.0053945494012447911 -0.029285861188344912
leaf_weight=44.699523508548737 24.914488792419434 39.570070028305054 38.104512453079224 33.707837581634521 19.052256226539612 17.586698055267334 44.699524223804474 42.501186966896057 42.501186966896057 21.983372569084167 19.052256226539612 16.121139883995056
leaf_count=7 25 9 52 19 26 24 61 58 58 30 26 22
internal_value=0 -0.00137424 -0.00437397 -0.00131793 0.000363875 -0.000577973 -0.00261037 0.00240651 -0.00551571 0.00248747 0.00442981 0.000224564
internal_weight=0 359.795 133.366 93.7957 226.429 201.514 122.374 79.1401 61.5534 55.6912 61.5534 60.8207
internal_count=417 410 110 101 300 275 167 108 84 49 84 83
is_linear=0
shrinkage=0.0235447


Tree=4
num_leaves=10
num_cat=0
split_feature=34 17 103 33 21 18 31 42 41
split_gain=11.1328 3.31104 4.65885 2.54261 1.74123 2.07383 1.71434 1.64469 1.37245
threshold=2.3911715745925908 55.021652221679695 0.91825532913208019 15.65298366546631 0.80273482203483593 2.6035170555114751 -0.1751010790467262 15.548402309417726 198.85604095458987
decision_type=2 2 2 2 2 2 2 2 2
left_child=-1 2 -2 4 8 -6 7 -3 -4
right_child=1 6 3 -5 5 -7 -8 -9 -10
leaf_value=0.003108903527037429 -0.22430599670788354 -0.057833806569827256 -0.005903350397130378 -0.063999911359246278 -0.035424704365932667 0.04301088946736973 -0.088735366358125109 0.0949866820537765 0.062544042935298597
leaf_weight=44.699523508548737 43.966744422912598 26.380047082901001 33.70783793926239 19.052256226539612 44.699524223804474 32.242279767990112 33.70783793926239 14.655581712722777 111.38242065906525
leaf_count=7 6 36 46 26 61 44 46 20 125
internal_value=0 -0.00156499 -0.000349668 0.000909743 0.00168021 -0.00105292 -0.0059166 -0.00213186 0.00320425
internal_weight=0 359.795 285.051 241.084 222.032 76.9418 74.7435 41.0356 145.09
internal_count=417 410 308 302 276 105 102 56 171
is_linear=0
shrinkage=0.0235447


Tree=5
num_leaves=15
num_cat=0
split_feature=34 33 21 41 17 17 5 42 104 2 27 34 42 27
split_gain=6.28999 4.10647 5.99681 4.89389 2.33836 2.12684 1.98565 2.161 1.4867 0.986839 0.908835 0.866897 1.04799 0.763497
threshold=2.3911715745925908 7.1936323642730722 -1.2085425257682798 198.78166961669925 52.832832336425788 51.969940185546882 -0.77309316396713246 14.565883636474611 200.63249969482425 55.760000228881843 10.482959747314455 13.006332397460939 13.977322101593019 12.33274555206299
decision_type=2 2 2 2 2 2 2 2 2 2 2 2 2 2
left_child=-1 2 -2 10 5 13 7 -4 9 -8 -3 -6 -13 -5
right_child=1 3 6 4 11 -7 8 -9 -10 -11 -12 12 -14 -15
leaf_value=-0.0056364570336859586 0.052445794602169381 -0.099789912351927898 -0.065734197660761495 0.045366651903834369 0.041651792294622202 0.10194103682244675 0.09018254463734128 0.055181548377552347 -0.048644618442121583 -0.053699251696736075 -0.058739017318426817 -0.013260121983157395 -0.076467633659962078 -0.025841497923525452
leaf_weight=51.294535160064697 32.242279291152954 54.95843094587326 38.837291300296783 46.165082156658173 14.655581712722777 21.983372449874878 51.294535994529724 21.250593483448029 15.388360798358915 15.388360798358915 19.785035312175751 15.388360798358915 27.11282616853714 14.655581712722777
leaf_count=7 8 39 35 45 20 21 70 29 21 21 27 21 37 20
internal_value=0 -0.000741888 0.00188938 -0.00293127 -0.000220908 0.00220082 -0.000157699 -0.00342285 0.00211739 0.00372218 -0.00771512 -0.0038841 -0.00555095 0
internal_weight=0 389.106 174.401 214.704 139.961 82.804 142.159 60.0879 82.0713 66.6829 74.7435 57.1568 42.5012 60.8207
internal_count=421 414 184 230 164 86 176 64 112 91 66 78 58 65
is_linear=0
shrinkage=0.0235447


Tree=6
num_leaves=13
num_cat=0
split_feature=34 19 39 34 15 0 3 2 40 98 45 110
split_gain=6.28999 4.85812 6.14945 5.97414 4.48299 1.89682 2.70868 2.1454 2.06807 1.43511 1.16361 1.02004
threshold=2.3911715745925908 48.70000076293946 199.81666564941409 7.7869880199432382 58.994998931884773 49.659999847412116 48.989999771118171 47.085000991821296 13.108212471008303 -1.8138213753700254 -1.0147979259490965 7.5000000000000009
decision_type=2 2 2 2 2 2 2 2 2 2 2 2
left_child=-1 3 -3 -2 -4 6 7 -5 -7 -8 -10 -6
right_child=1 2 4 5 11 8 9 -9 10 -11 -12 -13
leaf_value=-0.0055037482285338344 0.074814290552087354 -0.065173000007405862 0.09566902862408018 -0.016400976476289342 -0.061537039293147723 -0.10125742687015657 -0.053519892964480634 0.16276058192041346 -0.016540849660140772 -0.022497924591218407 0.064946703108916468 -0.066629095875402375
leaf_weight=51.294535160064697 32.975058495998383 74.010686933994293 38.104511976242065 41.035628795623779 18.319477140903473 15.388360798358915 30.776721596717834 20.51781439781189 16.853918969631195 29.311163425445557 57.156768679618835 14.655581712722777
leaf_count=7 18 47 16 56 25 21 42 28 23 40 78 20
internal_value=0 -0.000741888 -0.00414262 0.00124955 0.000665212 -0.000187696 -0.00213745 0.00117213 0.00232516 -0.0056459 0.00404429 -0.00533632
internal_weight=0 389.106 145.09 244.015 71.0796 211.04 121.641 61.5534 89.399 60.0879 74.0107 32.9751
internal_count=421 414 108 306 61 288 166 84 122 82 101 45
is_linear=0
shrinkage=0.0235447


Tree=7
num_leaves=12
num_cat=0
split_feature=34 39 19 34 39 17 21 14 39 101 21
split_gain=6.54345 4.5495 4.71281 4.8477 3.29763 3.4598 2.47892 1.94385 1.71313 1.63934 0.576255
threshold=2.3911715745925908 202.72499847412112 48.70000076293946 7.7869880199432382 199.81666564941409 55.551549911499031 -0.49976110458374018 48.924999237060554 204.716667175293 -1.2568506002426145 -0.022394781932234761
decision_type=2 2 2 2 2 2 2 2 2 2 2
left_child=-1 2 3 -2 10 -6 7 -5 -3 -8 -4
right_child=1 8 4 6 5 -7 9 -9 -10 -11 -12
leaf_value=-0.0053741640150994589 0.055380688340786473 0.095010813077117229 -0.025234455067455201 -0.072576029076361709 0.10121327470449618 -0.067318254667695324 0.071637797975250245 0.0098249423723082846 -0.0041852636785077125 -0.011723927876721494 -0.076321955217896295
leaf_weight=51.294535160064697 25.647267758846283 43.233965814113617 27.11282604932785 48.363419651985168 24.181709706783295 21.250593483448029 38.837291538715363 17.586698055267334 27.112825930118561 68.881234049797058 46.897860884666443
leaf_count=7 17 41 28 66 24 29 53 24 19 94 19
internal_value=0 -0.000918342 -0.00214172 2.72245e-05 -0.00579886 -0.000479289 -0.00135709 -0.00490491 0.00436835 0.000757571 -0.00881092
internal_weight=0 389.106 318.759 199.316 119.443 45.4323 173.669 65.9501 70.3468 107.719 74.0107
internal_count=421 414 354 254 100 53 237 90 60 147 47
is_linear=0
shrinkage=0.0235447


Tree=8
num_leaves=13
num_cat=0
split_feature=34 19 38 34 33 17 34 2 100 55 56 40
split_gain=6.47961 4.49353 8.61329 5.59742 2.96422 2.41196 1.82397 1.71162 1.58917 0.843445 0.54341 0.312243
threshold=2.3911715745925908 48.70000076293946 199.78571319580081 7.7869880199432382 15.65298366546631 54.090084075927741 12.684787750244142 47.465000152587898 6.5595443248748788 0.81921669840812694 164.00000000000003 15.18966054916382
decision_type=2 2 2 2 2 2 2 2 2 2 2 2
left_child=-1 3 9 -2 6 -4 7 -5 -8 11 -6 -3
right_child=1 2 5 4 10 -7 8 -9 -10 -11 -12 -13
leaf_value=-0.0052476308257443371 0.071748886170856702 -0.063475342952665617 0.088852680245567833 -0.059695824865513163 -0.011972568797594287 -0.055233516092852167 0.064657995233008358 0.024280384990952187 -0.0024356766613762167 -0.063483720075478894 -0.12546528804271173 -0.015671656647720855
leaf_weight=51.294535160064697 32.975058495998383 16.853918969631195 35.906174719333649 24.914488911628723 19.785035312175751 24.914488911628723 63.751780450344086 46.165082395076752 38.104512453079224 51.294535279273987 18.319477140903473 16.121139883995056
leaf_count=7 18 23 13 34 27 34 87 63 52 16 25 22
internal_value=0 -0.000874229 -0.00414262 0.00103916 -0.000349666 0.00242169 0.000918956 -0.00184564 0.00295995 -0.0089631 -0.0061595 -0.00484302
internal_weight=0 389.106 145.09 244.015 211.04 60.8207 172.936 71.0796 101.856 84.2696 38.1045 32.9751
internal_count=421 414 108 306 288 47 236 97 139 61 52 45
is_linear=0
shrinkage=0.0235447


Tree=9
num_leaves=14
num_cat=0
split_feature=16 41 39 33 14 2 20 55 33 97 55 33 5
split_gain=5.96456 5.38421 2.98513 4.08582 2.99673 2.95459 1.35113 1.32927 1.18375 1.70421 0.978751 0.430674 0.244186
threshold=1.098619878292084 199.40370178222659 202.72499847412112 7.1936323642730722 52.215000152587898 48.375000000000007 51.940000534057624 0.97322851419448864 15.65298366546631 -3.2146880626678462 -0.23802450299262998 23.717038154602054 0.62986302375793468
decision_type=2 2 2 2 2 2 2 2 2 2 2 2 2
left_child=1 -1 3 4 5 -2 -4 8 9 -5 -6 -10 -7
right_child=2 -3 6 7 10 12 -8 -9 11 -11 -12 -13 -14
leaf_value=0.0012712227302099249 -0.05829030335738733 0.088069373204333792 -0.033625756214848923 -0.10056196457908394 -0.15434539799970023 0.075443641261561362 0.095294892420832125 -0.13569704282185852 -0.071044097141751153 -0.0023783293352924099 -0.0010678474802854972 -0.015814407048565588 0.06458855465569853
leaf_weight=65.950116753578186 21.250593483448029 54.225651741027832 26.380046844482422 14.655581712722777 14.655581712722777 31.509500563144684 28.578384220600128 26.380046725273132 27.845605254173279 71.812350392341614 20.51781439781189 21.250593483448029 15.388360798358915
leaf_count=18 29 29 18 20 20 34 30 9 38 98 28 29 21
internal_value=0 0.00456375 -0.001543 -0.00260266 0.000953009 0.00389037 0.00327674 -0.00492698 -0.00373969 -0.00181714 -0.00432456 -0.00669161 0.00716887
internal_weight=0 120.176 320.224 265.266 103.322 68.1485 54.9584 161.944 135.564 86.4679 35.1734 49.0962 46.8979
internal_count=421 47 374 326 132 84 48 194 185 118 48 67 55
is_linear=0
shrinkage=0.0235447


Tree=10
num_leaves=11
num_cat=0
split_feature=16 19 38 55 40 38 4 3 55 33
split_gain=9.25435 3.91164 3.83686 2.76658 2.03669 2.1582 1.69361 1.828 2.42295 1.63695
threshold=1.0596696734428408 49.049999237060554 197.92857360839847 0.99168613553047191 14.548350334167482 199.07142639160159 44.95000076293946 48.989999771118171 -0.96688520908355702 4.2671632766723642
decision_type=2 2 2 2 2 2 2 2 2 2
left_child=2 3 -1 6 -3 -6 -2 9 -9 -8
right_child=1 4 -4 -5 5 -7 7 8 -10 -11
leaf_value=-0.0052229654412835943 -0.082270501682238345 -0.098080610347978367 0.097246662429506109 0.068283279261031046 -0.13378218742352233 0.051401570333375543 -0.02468784765504797 -0.12230141642400291 -0.0010427053098854648 0.084781710819825398
leaf_weight=55.691209673881531 15.388360798358915 39.570070385932922 60.820663392543793 16.121139645576477 25.647267878055573 24.181709825992584 19.052256226539612 20.51781439781189 116.51187461614609 41.768407881259918
leaf_count=13 21 36 29 4 26 33 26 28 159 57
internal_value=0 -0.00160384 0.00608786 0 -0.00572296 -0.00210305 -0.000706805 -2.74241e-05 -0.00159063 0.00324561
internal_weight=0 318.759 116.512 229.36 89.399 49.829 213.239 197.85 137.03 60.8207
internal_count=432 390 42 295 95 59 291 270 187 83
is_linear=0
shrinkage=0.0235447


Tree=11
num_leaves=11
num_cat=0
split_feature=16 19 39 55 4 98 34 17 55 31
split_gain=9.25435 3.91164 3.86427 2.76658 1.69361 1.6715 2.71742 1.30319 1.43833 1.26761
threshold=1.0596696734428408 49.049999237060554 198.48332977294925 0.99168613553047191 44.95000076293946 -0.10058576241135596 13.140907287597658 55.021652221679695 0.69791844487190258 -0.054774075746536248
decision_type=2 2 2 2 2 2 2 2 2 2
left_child=2 3 -1 4 -2 6 -3 8 -6 -9
right_child=1 5 -4 -5 7 -7 -8 9 -10 -11
leaf_value=-0.0055309426929371517 -0.080333465719351585 0.12205273577224642 0.094957016948502213 0.066675568539838109 0.028013838923937828 -0.095771329796369264 -0.06557245051892889 0.0055926160484951965 -0.022364188337748357 -0.11869572035337073
leaf_weight=52.760093331336975 15.388360798358915 17.586698055267334 63.751779735088348 16.121139645576477 112.84797918796539 53.492872893810272 18.319477140903473 15.388360798358919 54.22565233707428 15.388360798358915
leaf_count=9 21 24 33 4 154 46 25 21 74 21
internal_value=0 -0.00160384 0.00608786 0 -0.000706805 -0.00572296 -0.00128247 -2.74241e-05 0.00074673 -0.00437827
internal_weight=0 318.759 116.512 229.36 213.239 89.399 35.9062 197.85 167.074 30.7767
internal_count=432 390 42 295 291 95 49 270 228 42
is_linear=0
shrinkage=0.0235447


Tree=12
num_leaves=13
num_cat=0
split_feature=103 21 41 19 10 5 33 2 5 4 40 42
split_gain=6.96501 10.8155 2.62462 2.32779 1.98424 1.77903 1.75227 1.59575 2.26119 1.75717 1.39451 0.497946
threshold=1.637311637401581 0.75194457173347484 200.42582702636722 49.049999237060554 14.739511966705324 -1.2326409816741941 15.65298366546631 48.159999847412116 0.88653412461280834 51.939998626708991 15.38478994369507 14.2878794670105
decision_type=2 2 2 2 2 2 2 2 2 2 2 2
left_child=1 2 5 4 6 -1 7 9 -9 -2 -5 -8
right_child=3 -3 -4 10 -6 -7 11 8 -10 -11 -12 -13
leaf_value=0.023013862847507845 -0.024766157189672795 -0.053029533175915584 0.11813556811539437 -0.093516420609774317 -0.12254324191860877 0.0014944899071047003 -0.00043233222695065256 0.048623114803395158 -0.0218376297753816 0.064002861933244046 -0.015719454333449692 -0.098394103505762165
leaf_weight=29.311163067817688 43.966745138168335 41.035628437995911 57.889547049999237 37.371733248233795 22.716151654720306 46.897861003875732 14.65558171272278 60.087884902954102 21.983372569084167 15.388360798358915 27.11282616853714 16.853918969631195
leaf_count=13 60 29 25 42 31 28 20 73 30 21 37 23
internal_value=0 0.00407309 0.00732949 -0.00196251 -0.000595115 0.00404092 0.00022858 0.00142157 0.00355393 -0.00135473 -0.00579155 -0.00453996
internal_weight=0 175.134 134.099 260.137 195.652 76.209 172.936 141.426 82.0713 59.3551 64.4846 31.5095
internal_count=432 95 66 337 258 41 227 184 103 81 79 43
is_linear=0
shrinkage=0.0235447


Tree=13
num_leaves=15
num_cat=0
split_feature=18 14 99 56 33 2 5 18 9 14 20 97 45 13
split_gain=8.80297 3.0505 4.30983 3.01472 2.2233 2.56721 4.90171 3.59858 1.56228 1.46218 0.882409 0.78628 0.665353 0.527498
threshold=0.88354766368865978 50.264999389648445 -0.15899023413658139 116.50000000000001 15.65298366546631 48.159999847412116 0.2868983149528504 2.2690558433532719 -16.912184715270993 48.70000076293946 52.685001373291023 0.20380283147096637 0.096608880907297148 1.2267415523529055
decision_type=2 2 2 2 2 2 2 2 2 2 2 2 2 2
left_child=-1 4 3 -3 5 7 10 13 -6 -8 -7 -4 -9 -2
right_child=1 2 11 -5 8 6 9 12 -10 -11 -12 -13 -14 -15
leaf_value=0.062142373170804184 -0.0086970397305936881 0.059868028595460407 -0.11229566562339212 -0.12688662022380454 0.0060676072268337046 0.064563855951051741 0.061080818042355267 0.03651108306931225 -0.062605376016985917 -0.046020505653573622 0.039462036171155991 -0.055800821598238258 0.055657666318380317 -0.10662044530509575
leaf_weight=89.399047136306763 16.853918969631195 33.70783793926239 45.432302951812744 17.586698055267334 15.388360798358915 33.707837581634521 32.242279767990112 19.052256226539612 24.914488911628723 18.319477021694183 31.509500682353973 21.983372569084167 16.853918969631195 18.319477140903473
leaf_count=23 23 46 35 24 21 19 44 26 34 16 43 30 23 25
internal_value=0 -0.00115647 -0.00419037 0.0007503 0.000400356 0.00153637 0.0037087 -0.00184564 -0.00441195 -0.00158137 0.00791016 -0.00803247 0.00310308 -0.0071093
internal_weight=0 345.872 118.71 51.2945 227.162 186.859 115.779 71.0796 40.3028 50.5618 65.2173 67.4157 35.9062 35.1734
internal_count=432 409 135 70 274 219 122 97 55 60 62 65 49 48
is_linear=0
shrinkage=0.0235447


Tree=14
num_leaves=8
num_cat=0
split_feature=40 39 15 15 20 104 99
split_gain=7.03866 5.20229 3.19995 2.78324 3.18238 2.45861 2.34561
threshold=11.703143596649172 202.72499847412112 48.815000534057624 50.614999771118171 52.685001373291023 200.7366638183594 -0.21530213207006452
decision_type=2 2 2 2 2 2 2
left_child=-1 2 -2 -4 -5 -3 -6
right_child=1 5 3 4 6 -7 -8
leaf_value=0.02095186994128229 0.053921261701889836 0.093520138103579592 -0.065072070696172102 0.12965490935374047 -0.00077789119321664804 -0.010516641336152861 -0.059182777468306656
leaf_weight=72.545128643512726 32.975058734416962 43.966744899749756 51.294535636901855 21.250593364238739 81.33847850561142 29.311163187026978 102.58907175064087
leaf_count=36 36 42 43 20 111 22 122
internal_value=0 -0.00126859 -0.00271231 -0.00362571 -0.00227492 0.00419826 -0.00332369
internal_weight=0 362.726 289.448 256.473 205.178 73.2779 183.928
internal_count=432 396 332 296 253 64 233
is_linear=0
shrinkage=0.0235447


Tree=15
num_leaves=15
num_cat=0
split_feature=11 39 13 103 43 55 20 104 17 11 104 38 7 13
split_gain=5.03633 5.37875 3.78111 2.94958 2.8401 2.64551 2.18704 1.72466 1.5948 1.56682 1.54459 1.25466 0.727417 0.681012
threshold=0.87973457574844371 199.98332977294925 1.2830377817153933 1.0283846557140353 -0.013748624827712773 0.99168613553047191 59.074998855590827 199.87000274658206 51.889181137084968 1.1850376725196841 200.18332672119143 205.07142639160159 -5.1209824085235587 1.6097686886787417
decision_type=2 2 2 2 2 2 2 2 2 2 2 2 2 2
left_child=1 4 -3 -2 -1 13 8 -8 9 11 -9 -5 -11 -6
right_child=3 2 -4 6 5 -7 7 10 -10 12 -12 -13 -14 -15
leaf_value=0.0014756915612333253 -0.19962180508910771 0.088147656186650214 -0.008847513466977425 -0.021698060797885756 0.052651700669137096 -0.060089775661444703 -0.072856088789337276 0.052779854795319527 0.10270878997185896 -0.0003018402127909068 -0.04617699871342508 -0.088423021195172605 0.055525469397485004 -0.015663553375823095
leaf_weight=54.225651860237122 21.983372211456299 63.751779735088348 26.380047082901001 36.638954162597656 14.65558171272278 22.716151297092438 33.70783793926239 19.052256226539612 29.311163306236267 14.655581712722777 29.311163425445557 18.319477021694183 28.578384339809418 16.121139883995056
leaf_count=38 3 33 36 41 20 4 46 26 31 20 40 16 39 22
internal_value=0 0.00270365 0.00689467 -0.00238732 -0.000757571 -0.0046069 -0.00141219 -0.00437481 0.000441995 -0.000915699 -0.00113654 -0.00357965 0.00221897 0
internal_weight=0 197.85 90.1318 231.558 107.719 53.4929 209.575 82.0713 127.504 98.1924 48.3634 54.9584 43.234 30.7767
internal_count=415 153 69 262 84 46 259 112 147 116 66 57 59 42
is_linear=0
shrinkage=0.0235447


Tree=16
num_leaves=12
num_cat=0
split_feature=34 3 2 22 55 104 111 55 96 8 8
split_gain=7.22113 2.6322 2.26255 2.68062 2.25024 3.28965 1.25662 2.09557 0.808462 0.465126 0.140041
threshold=2.3911715745925908 48.989999771118171 47.085000991821296 1.6258642077445986 -0.40043914318084711 198.41575622558597 0.23775265365839007 0.94445443153381359 1.2719140052795412 1.8454635739326479 -4.0401475429534903
decision_type=2 2 2 2 2 2 2 2 2 2 2
left_child=-1 2 3 -2 8 -6 -7 -8 10 -4 -3
right_child=1 4 9 -5 5 6 7 -9 -10 -11 -12
leaf_value=0.0032036523287888616 -0.10206711823787737 -0.048085769372613912 0.18962721314578088 0.060426801990299511 -0.058674978691960013 0.081470211401390616 -0.016758089208651409 0.084349534430263412 -0.0095530772394353102 0.059728797553168678 -0.031484669429463215
leaf_weight=74.743465542793274 21.983372569084167 32.975058853626251 19.052256226539612 19.785035312175751 61.553442478179932 23.448930740356445 78.407362163066864 37.371733009815216 16.121139883995056 16.121139883995056 27.845605254173279
leaf_count=12 30 45 26 27 30 32 107 24 22 22 38
internal_value=0 -0.00136982 0.00236425 -0.0011107 -0.00245592 -0.00104801 0.00089396 -4.65339e-05 -0.00586112 0.00664518 -0.00709057
internal_weight=0 354.665 76.9418 41.7684 277.723 200.781 139.228 115.779 76.9418 35.1734 60.8207
internal_count=415 403 105 57 298 193 163 131 105 48 83
is_linear=0
shrinkage=0.0235447


Tree=17
num_leaves=12
num_cat=0
split_feature=12 48 19 1 33 42 2 15 3 38 12
split_gain=5.80242 4.90186 6.06286 1.94925 1.5724 1.28816 1.13355 2.54652 1.57761 1.06886 1.00079
threshold=0.70544672012329113 1.0000000180025095e-35 48.70000076293946 52.219999313354499 15.65298366546631 15.7213191986084 46.704999923706062 48.815000534057624 48.549999237060554 204.64285278320315 1.3971672058105471
decision_type=2 2 2 2 2 2 2 2 2 2 2
left_child=-1 2 4 -4 6 10 7 -2 -8 -6 -5
right_child=1 -3 3 5 9 -7 8 -9 -10 -11 -12
leaf_value=0.01694999102302109 0.03180948714322155 0.05632650183807579 -0.11657040104102664 -0.0007298383988698844 -0.063195598313440765 0.039055150374129648 0.14489847922340762 -0.098382500237161413 0.0055603575871074583 0.00036538600420703992 -0.082416053230614253
leaf_weight=76.209023833274841 21.983372569084167 37.371732771396637 41.76840728521347 14.655581712722777 21.983372569084167 19.785035312175751 30.776721596717834 16.853918969631195 109.1840837597847 15.388360798358915 23.448930740356445
leaf_count=23 30 6 12 20 30 27 42 23 149 21 32
internal_value=0 -0.00127833 -0.00227005 -0.00701231 0 -0.00369253 0.00088916 -0.00245787 0.00192239 -0.0043022 -0.0061595
internal_weight=0 353.2 315.828 99.658 216.17 57.8895 178.798 38.8373 139.961 37.3717 38.1045
internal_count=415 392 386 91 295 79 244 53 191 51 52
is_linear=0
shrinkage=0.0235447


Tree=18
num_leaves=15
num_cat=0
split_feature=12 51 20 104 17 13 42 42 33 9 17 26 26 18
split_gain=5.57063 3.76097 3.67488 3.19356 2.03695 1.71421 1.27294 1.4681 1.15063 1.11585 0.92794 0.918118 0.741245 0.651224
threshold=0.70544672012329113 -1.0000000180025095e-35 59.074998855590827 198.41575622558597 51.969940185546882 1.4681391119956972 13.977322101593019 14.637798786163332 4.9492392539978036 1.4590824842453005 52.435167312622077 -0.27966612577438349 0.18305671215057376 2.7459228038787846
decision_type=2 2 2 2 2 2 2 2 2 2 2 2 2 2
left_child=-1 3 4 -2 5 8 10 -8 -3 11 -5 -4 -9 -7
right_child=1 2 9 6 -6 13 7 12 -10 -11 -12 -13 -14 -15
leaf_value=0.016550908222857635 -0.075578970294202741 0.0095314121677241102 -0.0088740606324841272 0.14397678142640399 0.096978362277749142 -0.019075506214529501 -0.063957130128095188 -0.015258641544812872 0.035586605098093041 0.015348373400970118 -0.015308291057008443 -0.060439862700449147 0.054910905526270024 0.053489870457338433
leaf_weight=76.209023833274841 57.156768083572388 19.052256226539612 16.121139883995056 18.319477140903473 32.242279529571533 24.914488911628723 27.11282616853714 16.121139883995056 29.311163306236267 23.448930740356445 14.655581712722777 27.11282616853714 16.853918969631195 30.776721358299255
leaf_count=23 33 26 22 25 26 34 37 22 31 32 20 37 23 24
internal_value=0 -0.00113261 0.000910519 -0.00394635 0.00315848 0.00135313 -0.00105585 -0.00314497 0.00456225 -0.00347098 0.00237654 -0.00565173 0 -0.00129124
internal_weight=0 353.2 202.98 150.22 136.297 104.055 93.0629 60.0879 48.3634 66.6829 32.9751 43.234 32.9751 55.6912
internal_count=415 392 232 160 141 115 127 82 57 91 45 59 45 58
is_linear=0
shrinkage=0.0235447


Tree=19
num_leaves=15
num_cat=0
split_feature=38 16 9 41 21 70 110 104 38 15 39 34 27 20
split_gain=4.60704 6.55785 3.40484 2.79466 2.45581 2.21231 1.9766 1.80671 1.40302 1.37365 1.30745 0.994896 0.862029 0.639675
threshold=199.78571319580081 0.75574958324432384 0.76959487795829784 196.04167175292972 0.71081233024597179 0.37720544636249548 5.5000000000000009 199.42444610595706 195.3571472167969 52.100000381469734 200.841667175293 11.06336545944214 2.0122928023338322 58.914999008178718
decision_type=2 2 2 2 2 2 2 2 2 2 2 2 2 2
left_child=2 -2 3 -1 5 7 -5 -3 13 -6 -9 -8 -11 -4
right_child=1 4 8 6 9 -7 11 10 -10 12 -12 -13 -14 -15
leaf_value=0.003611014679244769 0.099175443183971604 0.12310859750150145 0.0090851517646728698 -0.052769389490049841 -0.09945600484160215 -0.011168817948390315 0.094393953873078876 -0.015775559995785005 0.081685361938935691 -0.055460115619542637 0.07947708271392491 -0.033297417591023053 0.062971594779912252 -0.056315911111948946
leaf_weight=30.776721239089966 39.570070028305054 19.052256107330322 14.65558171272278 75.476245105266571 26.380046963691711 27.11282616853714 16.121139883995056 24.914488911628723 30.043942511081696 14.655581712722777 49.828977465629578 24.914488911628723 20.51781439781189 15.388360798358915
leaf_count=15 9 17 20 49 27 37 22 34 41 20 41 34 28 21
internal_value=0 0.00206527 -0.00278665 -0.00471724 7.64778e-05 0.00208 -0.00637902 0.00383937 0.00175556 -0.00361539 0.00186994 -0.00173096 -0.000147437 -0.00151709
internal_weight=0 222.032 207.376 147.289 182.462 120.909 116.512 93.7957 60.0879 61.5534 74.7435 41.0356 35.1734 30.0439
internal_count=415 213 202 120 204 129 105 92 82 75 75 56 48 41
is_linear=0
shrinkage=0.0235447


Tree=20
num_leaves=15
num_cat=0
split_feature=28 56 38 19 19 18 19 9 20 11 101 33 1 5
split_gain=3.86605 6.77771 5.15973 7.8569 3.26778 2.37487 2.02404 1.92596 1.88647 1.77148 1.21692 0.835205 0.644717 0.579621
threshold=0.69225957989692699 108.50000000000001 199.78571319580081 48.70000076293946 50.164999008178718 1.3777797222137453 48.409999847412116 2.1491266489028935 51.014999389648445 0.62622258067131054 -1.0217155218124387 23.717038154602054 51.909999847412116 -1.168050944805145
decision_type=2 2 2 2 2 2 2 2 2 2 2 2 2 2
left_child=1 2 3 5 8 -1 13 9 -2 -3 -10 -11 -12 -4
right_child=4 7 6 -5 -6 -7 -8 -9 10 11 12 -13 -14 -15
leaf_value=0.027291304244577295 -0.084383176888870884 0.013972133075251025 0.061958946631558549 -0.06278084336047951 -0.15650842258951431 0.024047646726817296 0.08347512122479625 0.049862916371918822 -0.021292274094126255 -0.10386188179411368 0.11224803330383859 -0.0043513115400058049 0.00049544607825357926 0.0010874746923565436
leaf_weight=31.509500324726105 18.319477140903473 14.655581712722777 16.853918969631195 35.906174838542938 28.578384101390839 28.578384339809418 64.484558701515198 19.052256226539612 23.448930740356445 52.027315080165863 17.586698055267334 16.121139883995056 21.250593483448029 19.785035312175751
leaf_count=16 25 20 23 22 21 39 25 26 32 71 24 22 29 27
internal_value=0 0.00219653 0.00474982 0.000672148 -0.00292005 0.00592379 0.0084184 -0.0026277 -0.000275209 -0.00423528 0.00156134 -0.00585798 0.0041478 0.00326749
internal_weight=0 298.974 197.118 95.9941 109.184 60.0879 101.124 101.856 80.6057 82.804 62.2862 68.1485 38.8373 36.639
internal_count=422 291 152 77 131 55 75 139 110 113 85 93 53 50
is_linear=0
shrinkage=0.0235447


Tree=21
num_leaves=15
num_cat=0
split_feature=56 28 95 20 56 23 17 38 19 4 39 22 3 56
split_gain=3.85321 6.85567 3.61375 3.44331 2.51367 2.22909 2.11931 1.85391 1.84878 3.03272 1.75387 1.0527 2.23641 0.12861
threshold=108.50000000000001 0.6725212335586549 0.07270058244466783 53.049999237060554 49.500000000000007 2.8308826684951787 52.832832336425788 199.78571319580081 47.195001602172859 46.05999946594239 199.06781768798831 1.217897951602936 48.989999771118171 160.50000000000003
decision_type=2 2 2 2 2 2 2 2 2 2 2 2 2 2
left_child=1 2 7 -3 -4 8 -5 10 9 -2 -1 -11 -13 -10
right_child=5 3 4 6 -6 -7 -8 -9 13 11 -12 12 -14 -15
leaf_value=0.027461071788346988 -0.1045374273901987 -0.09368565785125435 -0.050681908067295112 0.047853025764110851 0.081608951439781641 0.079714027242753782 -0.048939527897225464 0.083931993624938916 -0.10199462044447012 0.068185909928660846 -0.020158224509031913 0.060659972518629979 -0.077315848078585825 -0.048321831527047249
leaf_weight=35.173395752906799 20.51781439781189 32.975058495998383 30.776721477508545 21.983372449874878 24.914488911628723 19.785035312175751 21.983372569084167 69.61401242017746 24.181709825992584 21.983372569084167 21.250593364238739 26.380047082901001 16.853918969631195 19.785035312175751
leaf_count=21 28 18 33 21 34 27 30 41 33 30 20 36 23 27
internal_value=0 0.00250304 0.00500679 -0.00323847 0 -0.00220012 0.000869909 0.00718454 -0.00338214 -0.00114404 0.00348985 0.00123658 -0.000693292 -0.00725066
internal_weight=0 258.671 181.729 76.9418 55.6912 149.487 43.9667 126.038 129.702 85.7352 56.424 65.2173 43.234 43.9667
internal_count=422 218 149 69 67 204 51 82 177 117 41 89 59 60
is_linear=0
shrinkage=0.0235447


Tree=22
num_leaves=10
num_cat=0
split_feature=42 33 14 39 55 103 23 15 16
split_gain=4.01964 4.01801 6.6468 3.15576 4.15072 3.8201 1.54026 1.28591 0.641129
threshold=13.236616134643556 2.7644209861755376 48.70000076293946 203.83333587646487 0.9805392622947694 1.7076801657676699 2.8308826684951787 48.729999542236335 1.6129223108291628
decision_type=2 2 2 2 2 2 2 2 2
left_child=1 -1 -3 4 5 8 7 -7 -2
right_child=3 2 -4 -5 -6 6 -8 -9 -10
leaf_value=0.054869374617696823 0.18032406300877005 0.044901038979225712 -0.03310844411614549 0.059231750423544893 -0.17713011018279237 0.035064267499125036 0.080909366081310691 -0.035630734321371212 0.030627141743076017
leaf_weight=43.233965456485748 20.51781439781189 46.897861123085022 31.509500443935394 39.570070385932922 25.647267639636993 21.250593483448029 14.655581712722777 148.7541543841362 16.121139883995056
leaf_count=14 28 37 25 36 8 29 20 203 22
internal_value=0 0.00423057 0.00081916 -0.000826286 -0.00185858 -0.000719924 -0.00215526 -0.00284043 0.00594661
internal_weight=0 121.641 78.4074 286.517 246.947 221.299 184.66 170.005 36.639
internal_count=422 76 62 346 310 302 252 232 50
is_linear=0
shrinkage=0.0235447


Tree=23
num_leaves=15
num_cat=0
split_feature=56 28 20 13 21 0 110 14 4 20 20 40 56 30
split_gain=3.42457 6.50303 3.10634 2.15143 2.33415 5.08671 3.88388 2.15105 1.94751 1.97039 1.22515 1.15232 1.13024 1.04826
threshold=108.50000000000001 0.6725212335586549 53.049999237060554 1.7496098279953005 -1.149352967739105 50.585000991821296 5.5000000000000009 52.829999923706062 45.764999389648445 61.289999008178718 58.420000076293952 14.738717555999758 34.500000000000007 -1.4949531555175779
decision_type=2 2 2 2 2 2 2 2 2 2 2 2 2 2
left_child=1 3 -3 4 -1 6 -6 8 -2 11 -4 -10 -5 -11
right_child=7 2 10 12 5 -7 -8 -9 9 13 -12 -13 -14 -15
leaf_value=0.046535035575131736 -0.10330619602766751 -0.092874450232669326 0.045331744644976149 -0.05087589225460027 -0.018904075687274872 0.085698867079582394 0.065302424805931084 -0.15067344205804195 -0.0039135208983449559 0.0012491811542216505 -0.046948344715422266 0.073760613477323655 0.029906034252739949 -0.065329870800547155
leaf_weight=49.828977227210999 19.785035312175751 32.975058495998383 25.647267878055573 15.388360798358915 21.250593245029449 51.294535517692566 27.11282616853714 22.716151654720306 28.578384339809418 20.51781439781189 18.319477140903473 36.638954281806946 16.853918969631195 21.250593483448029
leaf_count=23 27 18 26 21 11 34 37 31 39 28 25 50 23 29
internal_value=0 0.00256923 -0.00301991 0.00500679 0.00618632 0.00378769 -0.00147911 -0.00185844 -0.000511502 0.000683512 0.000869909 0.00328999 -0.000160057 -0.00308165
internal_weight=0 258.671 76.9418 181.729 149.487 99.658 48.3634 149.487 126.771 106.986 43.9667 65.2173 32.2423 41.7684
internal_count=422 218 69 149 105 82 48 204 173 146 51 89 44 57
is_linear=0
shrinkage=0.0235447


Tree=24
num_leaves=15
num_cat=0
split_feature=39 16 16 43 20 20 23 104 2 0 55 3 21 24
split_gain=3.89659 6.32014 5.25931 3.10703 3.78312 2.71601 2.10906 2.29412 1.7239 2.05202 1.61505 1.509 1.22105 1.04524
threshold=199.81666564941409 0.86616423726081859 0.75574958324432384 0.12928441166877749 62.400001525878913 48.815000534057624 1.7859528660774233 199.87000274658206 48.375000000000007 47.245000839233406 -0.40043914318084711 48.989999771118171 0.75194457173347484 -6.6861515045166007
decision_type=2 2 2 2 2 2 2 2 2 2 2 2 2 2
left_child=2 -2 -1 4 8 -4 7 11 9 -3 -6 -7 -10 -9
right_child=1 3 5 -5 10 6 -8 13 12 -11 -12 -13 -14 -15
leaf_value=-0.10904629565173193 0.076542611942002348 0.062053584340842814 0.037325899932214454 -0.041398063940309614 -0.075385728513022041 0.0010185628857396888 0.041055251186017265 -0.074862755251492705 0.08368111121183569 -0.032141583442731977 0.0067471274683225174 -0.095206705868942407 0.011452121273896394 0.022969674811695845
leaf_weight=29.311162948608398 40.302849113941193 19.052256226539612 30.776721358299255 21.250593364238739 15.388360798358915 19.785035312175751 17.586698055267334 15.388360798358915 38.837291300296783 24.181709825992584 16.853918969631195 57.156768560409546 21.250593483448029 41.035628795623779
leaf_count=4 10 26 24 20 21 27 24 21 35 33 23 69 29 56
internal_value=0 0.00284358 -0.00172641 0.000577693 0.00198383 -0.000123735 -0.00150224 -0.00258959 0.00422927 0.000311873 -0.00469473 -0.00520546 0.00675743 0.00083208
internal_weight=0 197.118 211.04 156.815 135.564 181.729 150.952 133.366 103.322 43.234 32.2423 76.9418 60.0879 56.424
internal_count=422 197 225 187 167 221 197 173 123 59 44 96 64 77
is_linear=0
shrinkage=0.0235447


end of trees

feature_importances:
high_low_range_30d=17
price_max_60d=15
doy_cos=15
volume_mean_30d=14
distance_to_resistance=13
price_min_60d=12
item_age_days=12
volume_mean_7d=11
price_mean_60d=10
price_zscore_30d=10
market_volume_mean_30d=10
price_lag_14d=9
price_std_30d=9
volume_std_60d=8
price_std_14d=7
price_min_20d=7
price_max_20d=7
volume_std_30d=7
price_lag_30d=6
return_1d=6
price_lag_1d=5
price_lag_60d=5
price_std_20d=5
price_std_60d=5
volume_mean_60d=5
market_volatility_30d=5
return_30d=4
autocorr_7d=4
market_regime_duration_days=4
return_3d=3
return_7d=3
price_std_7d=3
trend_divergence_30_60=3
autocorr_1d=3
bb_pct_b=3
macd_histogram=3
market_return_14d=3
price_lag_7d=2
return_14d=2
vol_regime_60_30=2
distance_to_support=2
volume_log_change_1d=2
volume_zscore_30d=2
item_return_vs_market_1d=2
market_return_7d=2
item_return_vs_market_7d=2
market_return_30d=2
return_60d=1
price_accel_7d=1
macd_line=1
macd_signal=1
rsi_missing=1
dow_sin=1
event_decay_major=1
market_return_1d=1
item_return_vs_market_14d=1
item_return_vs_market_30d=1
market_return_30d_percentile=1

parameters:
[boosting: gbdt]
[objective: quantile]
[metric: quantile]
[tree_learner: serial]
[device_type: cpu]
[data_sample_strategy: bagging]
[data: ]
[valid: ]
[num_iterations: 1000]
[learning_rate: 0.0235447]
[num_leaves: 15]
[num_threads: -1]
[seed: 42]
[deterministic: 0]
[force_col_wise: 0]
[force_row_wise: 0]
[histogram_pool_size: -1]
[max_depth: 6]
[min_data_in_leaf: 20]
[min_sum_hessian_in_leaf: 0.001]
[bagging_fraction: 0.7]
[pos_bagging_fraction: 1]
[neg_bagging_fraction: 1]
[bagging_freq: 5]
[bagging_seed: 400]
[feature_fraction: 0.6]
[feature_fraction_bynode: 1]
[feature_fraction_seed: 30056]
[extra_trees: 0]
[extra_seed: 12879]
[early_stopping_round: 0]
[early_stopping_min_delta: 0]
[first_metric_only: 0]
[max_delta_step: 0]
[lambda_l1: 0.5]
[lambda_l2: 2]
[linear_lambda: 0]
[min_gain_to_split: 0.1]
[drop_rate: 0.1]
[max_drop: 50]
[skip_drop: 0.5]
[xgboost_dart_mode: 0]
[uniform_drop: 0]
[drop_seed: 17869]
[top_rate: 0.2]
[other_rate: 0.1]
[min_data_per_group: 100]
[max_cat_threshold: 32]
[cat_l2: 10]
[cat_smooth: 10]
[max_cat_to_onehot: 4]
[top_k: 20]
[monotone_constraints: ]
[monotone_constraints_method: basic]
[monotone_penalty: 0]
[feature_contri: ]
[forcedsplits_filename: ]
[refit_decay_rate: 0.9]
[cegb_tradeoff: 1]
[cegb_penalty_split: 0]
[cegb_penalty_feature_lazy: ]
[cegb_penalty_feature_coupled: ]
[path_smooth: 0]
[interaction_constraints: ]
[verbosity: -1]
[saved_feature_importance_type: 0]
[use_quantized_grad: 0]
[num_grad_quant_bins: 4]
[quant_train_renew_leaf: 0]
[stochastic_rounding: 1]
[linear_tree: 0]
[max_bin: 63]
[max_bin_by_feature: ]
[min_data_in_bin: 3]
[bin_construct_sample_cnt: 200000]
[data_random_seed: 175]
[is_enable_sparse: 1]
[enable_bundle: 1]
[use_missing: 1]
[zero_as_missing: 0]
[feature_pre_filter: 0]
[pre_partition: 0]
[two_round: 0]
[header: 0]
[label_column: ]
[weight_column: ]
[group_column: ]
[ignore_column: ]
[categorical_feature: ]
[forcedbins_filename: ]
[precise_float_parser: 0]
[parser_config_file: ]
[objective_seed: 16083]
[num_class: 1]
[is_unbalance: 0]
[scale_pos_weight: 1]
[sigmoid: 1]
[boost_from_average: 1]
[reg_sqrt: 0]
[alpha: 0.5]
[fair_c: 1]
[poisson_max_delta_step: 0.7]
[tweedie_variance_power: 1.5]
[lambdarank_truncation_level: 30]
[lambdarank_norm: 1]
[label_gain: ]
[lambdarank_position_bias_regularization: 0]
[eval_at: ]
[multi_error_top_k: 1]
[auc_mu_weights: ]
[num_machines: 1]
[local_listen_port: 12400]
[time_out: 120]
[machine_list_filename: ]
[machines: ]
[gpu_platform_id: -1]
[gpu_device_id: -1]
[gpu_use_dp: 0]
[num_gpu: 1]

end of parameters

pandas_categorical:[]
