tree
version=v4
num_class=1
num_tree_per_iteration=1
label_index=0
max_feature_idx=116
objective=quantile
feature_names=price_lag_1d price_lag_7d price_lag_14d price_lag_30d price_lag_60d return_1d return_3d return_7d return_14d return_30d return_60d price_std_7d price_std_14d price_std_20d price_min_20d price_max_20d price_std_30d price_mean_60d price_std_60d price_min_60d price_max_60d price_zscore_30d vol_regime_60_30 trend_divergence_30_60 price_accel_7d price_tier autocorr_1d autocorr_7d bb_pct_b macd_line macd_signal macd_histogram distance_to_support distance_to_resistance high_low_range_30d volume_missing volume_lag_1d volume_lag_7d volume_mean_7d volume_mean_30d volume_std_30d volume_mean_60d volume_std_60d volume_log_change_1d volume_log_change_7d volume_zscore_30d volume_price_conf_7d volume_price_conf_1d rsi_missing macd_missing is_weekend dow_sin dow_cos month_sin month_cos doy_cos item_age_days is_stattrak is_souvenir is_knife is_glove is_sticker is_case is_capsule is_agent is_music_kit is_graffiti is_charm is_patch quality_rank event_decay_major events_next_30d_major event_density_30d_major event_density_90d_major event_decay_operation events_next_30d_operation event_density_30d_operation event_density_90d_operation event_decay_case_drop events_next_30d_case_drop event_density_30d_case_drop event_density_90d_case_drop event_decay_update events_next_30d_update event_density_30d_update event_density_90d_update event_decay_game_update events_next_30d_game_update event_density_30d_game_update event_density_90d_game_update event_decay_major_weighted event_decay_operation_weighted event_decay_case_drop_weighted event_decay_update_weighted event_decay_game_update_weighted market_return_1d item_return_vs_market_1d market_return_7d item_return_vs_market_7d market_return_14d item_return_vs_market_14d market_return_30d item_return_vs_market_30d market_volatility_30d market_volume_mean_30d market_regime_crash market_regime_bear market_regime_range market_regime_bull market_regime_mania market_regime_duration_days market_return_30d_percentile supply_listings_log supply_listings_zscore supply_change_7d supply_skinport_qty_log supply_to_volume_ratio
feature_infos=[38.549999237060547:66.220001220703125] [39.849998474121094:66.220001220703125] [39.790000915527344:66.220001220703125] [40.729999542236328:66.569999694824219] [39.849998474121094:66.569999694824219] [-6.0415120124816895:5.3940391540527344] [-10.281366348266602:12.103617668151855] [-17.372880935668945:14.35562801361084] [-21.531669616699219:24.511468887329102] [-24.868003845214844:39.543319702148438] [-29.951061248779297:26.83879280090332] [0.042426407337188721:3.2751080989837646] [0.042426407337188721:4.732576847076416] [0.042426407337188721:5.307133674621582] [38.020000457763672:61.619998931884766] [43.779998779296875:66.220001220703125] [0.042426407337188721:5.4625492095947266] [43.426834106445312:62.902332305908203] [0.042426407337188721:6.0651006698608398] [38.020000457763672:58.759998321533203] [47.880001068115234:66.569999694824219] [-3.4853887557983398:3.0036964416503906] [0.75498813390731812:3.9533336162567139] [-39.368843078613281:101.21376037597656] [-22.131687164306641:18.705087661743164] [3:3] [-17.983921051025391:24.183246612548828] [-115.25129699707031:134.03640747070312] [-0.21316516399383545:1.1863726377487183] [-3.1017971038818359:3.1833817958831787] [-2.2667920589447021:2.7414813041687012] [-1.2685985565185547:0.94650393724441528] [0.018351990729570389:39.335178375244141] [0.054525628685951233:31.854576110839844] [0.12307692319154739:39.335178375244141] none [163:245] [161:245] [176:219] [176:219] [4.0414519309997559:20.036775588989258] [176:219] [4.0414519309997559:19.928762435913086] [-0.28488487005233765:0.30276116728782654] [-0.26826399564743042:0.40341803431510925] [-2.4042847156524658:2.6703879833221436] [-17.372880935668945:14.35562801361084] [-6.0415120124816895:5.3940391540527344] [0:1] [0:1] [0:1] [-0.97492790222167969:0.97492790222167969] [-0.90096884965896606:1] [-0.86602538824081421:1] [-1:0.86602538824081421] [-1:0.99985265731811523] [0:235] none none none none none none none none none none none none none [0:0.96721607446670532] [0:1] [0:1] [0:1] none none none none none none none none none none none none none none none none none none none none none [-2.0933716297149658:1.6730349063873291] [-4.7729063034057617:4.9617133140563965] [-5.9873161315917969:5.599886417388916] [-15.224418640136719:14.81980037689209] [-7.3588790893554688:5.6792440414428711] [-21.058666229248047:25.597810745239258] [-2.9261324405670166:2.6404297351837158] [-23.844234466552734:40.982707977294922] [0.43699198961257935:3.9010679721832275] [195.10000610351562:203.39999389648438] none none [0:1] none none [1:30] [0.040816325694322586:0.75268816947937012] none none none none none
tree_sizes=830 773 658 667 773 861 1057 954 964 881 758 761 669 975 771 987 763 870 773 773 962 872 867 984 993 669 883 881

Tree=0
num_leaves=7
num_cat=0
split_feature=110 12 1 14 3 45
split_gain=0.819532 1.26418 0.533403 0.24484 0.190819 0.111924
threshold=13.500000000000002 1.4689882397651675 48.465000152587898 44.659999847412116 59.679998397827156 -0.82629591226577748
decision_type=2 2 2 2 2 2
left_child=2 -2 3 -1 5 -4
right_child=1 -3 4 -5 -6 -7
leaf_value=4.7524033125194665 4.8491270660931898 4.7234665329583816 4.7788922900271791 4.8592353088104305 4.7821352672310393 4.738774354156706
leaf_weight=48.529410839080811 27.205881834030151 27.941175937652588 33.82352876663208 25.735293626785278 31.617646455764771 216.17646646499634
leaf_count=66 37 38 46 35 43 159
internal_value=4.77934 4.78135 4.7785 4.77982 4.77798 4.77777
internal_weight=0 55.1471 355.882 74.2647 281.618 250
internal_count=424 75 349 101 248 205
is_linear=0
shrinkage=1


Tree=1
num_leaves=6
num_cat=0
split_feature=56 13 95 12 98
split_gain=0.668676 0.897144 0.733262 0.366396 0.239232
threshold=4.5000000000000009 1.7062907814979555 -0.17276803404092786 0.94742006063461315 2.3216164112091069
decision_type=2 2 2 2 2
left_child=-1 2 -2 -4 -5
right_child=1 -3 3 4 -6
leaf_value=-0.095077978792783444 -0.0070655477962674124 -0.030144514051387374 0.0023019811221366183 0.068177747572372188 0.028352851906410789
leaf_weight=110.29411554336548 57.352940082550049 155.14705586433411 20.588234901428223 44.852940320968628 22.794117212295532
leaf_count=15 78 211 28 61 31
internal_value=0 0.000133552 0.00155158 0.00287663 0.0036782
internal_weight=0 300.735 145.588 88.2353 67.6471
internal_count=424 409 198 120 92
is_linear=0
shrinkage=0.0231034


Tree=2
num_leaves=5
num_cat=0
split_feature=110 103 55 42
split_gain=0.756332 1.26418 0.398783 0.275302
threshold=13.500000000000002 1.8840810060501101 0.53667643666267406 16.965359687805179
decision_type=2 2 2 2
left_child=2 -2 3 -1
right_child=1 -3 -4 -5
leaf_value=-0.019139522287976312 0.066602610039783683 -0.05388315978528415 -0.029574456448594272 0.034409619886371409
leaf_weight=161.0294086933136 27.205881834030151 27.941175937652588 172.79411435127258 22.058823108673096
leaf_count=219 37 38 100 30
internal_value=0 0.00201545 -0.000744291 0
internal_weight=0 55.1471 355.882 183.088
internal_count=424 75 349 249
is_linear=0
shrinkage=0.0231034


Tree=3
num_leaves=5
num_cat=0
split_feature=110 12 19 104
split_gain=0.756332 1.26418 0.491962 0.146063
threshold=13.500000000000002 1.4689882397651675 46.854999542236335 200.12667083740237
decision_type=2 2 2 2
left_child=2 -2 3 -1
right_child=1 -3 -4 -5
leaf_value=0.033614640795758405 0.06506386353410519 -0.052638275781714372 -0.029799297343148998 -0.025464850229754532
leaf_weight=92.647057056427002 27.205881834030151 27.941175937652588 226.47058391571045 36.764705181121826
leaf_count=126 37 38 173 50
internal_value=0 0.00201545 -0.000744291 8.7904e-05
internal_weight=0 55.1471 355.882 129.412
internal_count=424 75 349 176
is_linear=0
shrinkage=0.0231034


Tree=4
num_leaves=6
num_cat=0
split_feature=97 13 9 44 33
split_gain=0.49735 0.45745 0.261869 0.260171 0.196954
threshold=0.053545430302619941 1.5288293957710268 1.036285996437073 0.025192807428538803 3.9240207672119145
decision_type=2 2 2 2 2
left_child=2 3 4 -2 -1
right_child=1 -3 -4 -5 -6
leaf_value=0.0036205329133618975 0.02122094363238524 -0.0098898836347443564 0.0096288441254134115 0.083743205187294056 -0.026353461943170089
leaf_weight=41.176469802856445 32.352940559387207 63.970587015151978 60.294116497039795 22.794117212295532 190.44117283821106
leaf_count=20 44 87 82 31 160
internal_value=0 0.000712513 -0.000923628 0.00231272 -0.00129289
internal_weight=0 119.118 291.912 55.1471 231.618
internal_count=424 162 262 75 180
is_linear=0
shrinkage=0.0231034


Tree=5
num_leaves=7
num_cat=0
split_feature=42 104 103 45 31 17
split_gain=1.27099 0.802539 2.19069 1.74666 0.512525 0.107071
threshold=17.243993759155277 197.7638854980469 1.6152058839797976 0.1581048592925072 0.2436584755778313 46.18550109863282
decision_type=2 2 2 2 2 2
left_child=1 -1 3 -3 5 -4
right_child=-2 2 4 -5 -6 -7
leaf_value=-0.051822942313557378 0.01511684187038548 0.0035368863060322134 0.0019059132518683393 0.075153612561504157 0.036015194338104489 -0.037245197466109492
leaf_weight=97.794115781784058 27.205881834030151 30.882352352142334 30.147058248519897 31.617646455764771 36.764705181121826 177.2058789730072
leaf_count=25 19 33 41 34 50 223
internal_value=0 0 0.000582373 0.00441946 -0.000240201 -0.000850393
internal_weight=0 404.412 306.618 62.5 244.118 207.353
internal_count=425 406 381 67 314 264
is_linear=0
shrinkage=0.0231034


Tree=6
num_leaves=9
num_cat=0
split_feature=42 110 39 19 40 103 97 12
split_gain=1.29114 0.824741 2.06636 0.536494 0.362622 0.218221 0.135657 0.112976
threshold=17.243993759155277 4.5000000000000009 201.8619079589844 46.854999542236335 15.132081508636476 2.088153719902039 -1.3118785619735716 1.4385117888450625
decision_type=2 2 2 2 2 2 2 2
left_child=1 3 5 6 -4 7 -1 -3
right_child=-2 2 4 -5 -6 -7 -8 -9
leaf_value=-0.039373626690360694 0.014767591479281347 0.0076670351132824346 0.07341730885435134 -0.054340053953211953 0.0041914511758619159 -0.050405990809878405 0.035285793897513185 -0.04065467357633322
leaf_weight=26.470587730407715 27.205881834030151 53.676469564437866 24.999999523162842 147.0588207244873 18.382352590560913 70.588233947753906 37.499999284744263 25.735293626785278
leaf_count=36 19 64 25 74 25 96 51 35
internal_value=0 0 0.00104162 -0.00103508 0.00538281 0 0.000149353 0.000517489
internal_weight=0 404.412 193.382 211.029 43.3824 150 63.9706 79.4118
internal_count=425 406 245 161 50 195 87 99
is_linear=0
shrinkage=0.0231034


Tree=7
num_leaves=8
num_cat=0
split_feature=42 110 39 19 45 103 97
split_gain=1.29114 0.824741 2.06636 0.536494 0.330587 0.218221 0.135657
threshold=17.243993759155277 4.5000000000000009 201.8619079589844 46.854999542236335 0.6493813991546632 2.088153719902039 -1.3118785619735716
decision_type=2 2 2 2 2 2 2
left_child=1 3 5 6 -4 -3 -1
right_child=-2 2 4 -5 -6 -7 -8
leaf_value=-0.038463962182475914 0.014426409958430159 0.0072106351534442477 0.0094843427179113465 -0.053084614142535777 0.071721119660137014 -0.049241441219740237 0.034470572211344162
leaf_weight=26.470587730407715 27.205881834030151 79.411763191223145 23.529411315917969 147.0588207244873 19.852940797805786 70.588233947753906 37.499999284744263
leaf_count=36 19 99 32 74 18 96 51
internal_value=0 0 0.00104162 -0.00103508 0.00538281 0 0.000149353
internal_weight=0 404.412 193.382 211.029 43.3824 150 63.9706
internal_count=425 406 245 161 50 195 87
is_linear=0
shrinkage=0.0231034


Tree=8
num_leaves=8
num_cat=0
split_feature=33 104 103 38 19 104 14
split_gain=1.16603 0.852157 1.73536 0.94714 0.382958 0.431799 0.156418
threshold=0.85345599055290233 197.7638854980469 1.6152058839797976 201.92857360839847 42.424999237060554 199.67000579833987 54.299999237060554
decision_type=2 2 2 2 2 2 2
left_child=-1 -2 3 -3 5 -4 -6
right_child=1 2 4 -5 6 -7 -8
leaf_value=0.0140931108895234 -0.086072647575601152 0.011129151890202768 0.078361016362472447 0.07006411819736455 -0.037575314014371371 -0.0023241504122734663 0.0065319123014356256
leaf_weight=28.676470041275024 102.94117450714111 38.970587491989136 18.382352590560913 22.058823108673096 145.58823251724243 33.82352876663208 41.176469802856445
leaf_count=30 23 44 25 21 180 46 56
internal_value=0 0 0.00058951 0.00403743 -0.000125486 0.00130999 -0.000781153
internal_weight=0 402.941 300 61.0294 238.971 52.2059 186.765
internal_count=425 395 372 65 307 71 236
is_linear=0
shrinkage=0.0231034


Tree=9
num_leaves=7
num_cat=0
split_feature=42 104 18 12 19 97
split_gain=1.32406 0.706993 2.05147 0.314954 0.271716 0.183539
threshold=17.243993759155277 197.7638854980469 1.3319346904754641 1.0945331454277041 46.854999542236335 -0.38863098621368403
decision_type=2 2 2 2 2 2
left_child=1 -1 -3 5 -5 -4
right_child=-2 2 3 4 -6 -7
leaf_value=-0.046155211131236766 0.01376751216114864 0.06844539909633772 -0.0035368365647769772 0.0015996186624352949 -0.040993072461603254 0.018692264153279476
leaf_weight=97.794115781784058 27.205881834030151 43.382352113723755 27.205881834030151 97.058821678161621 108.82352733612061 30.147058248519897
leaf_count=25 19 41 37 132 130 41
internal_value=0 -1.17044e-05 0.000417239 -0.000197268 -0.000758346 0.000996033
internal_weight=0 404.412 306.618 263.235 205.882 57.3529
internal_count=425 406 381 340 262 78
is_linear=0
shrinkage=0.0231034


Tree=10
num_leaves=6
num_cat=0
split_feature=42 38 2 2 19
split_gain=1.16347 0.932017 0.257662 0.18726 0.14753
threshold=17.243993759155277 208.21428680419925 50.320001602172859 48.375000000000007 46.854999542236335
decision_type=2 2 2 2 2
left_child=1 2 3 -1 -4
right_child=-2 -3 4 -5 -6
leaf_value=-0.016811115458387215 0.013449435869285611 0.0023314276267986608 -0.0222916693929326 0.011228121339401582 -0.03488869207984021
leaf_weight=73.529410362243652 27.205881834030151 36.02941107749939 53.676469564437866 36.764705181121826 215.4411723613739
leaf_count=100 19 31 64 50 176
internal_value=0 -0.000357303 -0.000796362 0 -0.00118299
internal_weight=0 415.441 379.412 110.294 269.118
internal_count=440 421 390 150 240
is_linear=0
shrinkage=0.0231034


Tree=11
num_leaves=6
num_cat=0
split_feature=42 38 2 2 19
split_gain=1.16347 0.932017 0.257662 0.18726 0.14753
threshold=17.243993759155277 208.21428680419925 50.320001602172859 48.375000000000007 46.854999542236335
decision_type=2 2 2 2 2
left_child=1 2 3 -1 -4
right_child=-2 -3 4 -5 -6
leaf_value=-0.016422721592851016 0.013138708220101155 0.0022775637299958787 -0.021776656116972007 0.010968713600485369 -0.034082644794403802
leaf_weight=73.529410362243652 27.205881834030151 36.02941107749939 53.676469564437866 36.764705181121826 215.4411723613739
leaf_count=100 19 31 64 50 176
internal_value=0 -0.000357303 -0.000796362 0 -0.00118299
internal_weight=0 415.441 379.412 110.294 269.118
internal_count=440 421 390 150 240
is_linear=0
shrinkage=0.0231034


Tree=12
num_leaves=5
num_cat=0
split_feature=42 41 2 41
split_gain=1.12317 0.516407 0.386309 0.187075
threshold=17.243993759155277 204.09210205078128 50.320001602172859 199.79286193847659
decision_type=2 2 2 2
left_child=1 2 -1 -4
right_child=-2 -3 3 -5
leaf_value=0.003331182419812347 0.012835159434989982 0.002224944272156356 -0.033736742161897003 -0.014025810399570854
leaf_weight=123.52940940856934 27.205881834030151 24.264705419540405 155.14705586433411 112.49999785423279
leaf_count=168 19 6 130 117
internal_value=0 -0.000275913 -0.000582425 -0.00111384
internal_weight=0 415.441 391.176 267.647
internal_count=440 421 415 247
is_linear=0
shrinkage=0.0231034


Tree=13
num_leaves=8
num_cat=0
split_feature=42 2 14 56 11 20 20
split_gain=1.12317 0.436744 0.596913 0.532692 0.320276 0.454189 0.37387
threshold=17.243993759155277 52.725000381469734 50.489999771118171 4.5000000000000009 0.860315501689911 50.614999771118171 58.420000076293952
decision_type=2 2 2 2 2 2 2
left_child=1 2 3 -1 5 -5 -7
right_child=-2 -3 -4 4 -6 6 -8
leaf_value=-0.044104839946385754 0.012538623657809188 -0.028418257641928974 0.0021735405025133173 -0.028583972680082698 -0.010747502164525601 0.056975204495446026 0.030337043845862402
leaf_weight=88.235292434692383 27.205881834030151 108.82352733612061 36.02941107749939 26.470587730407715 107.35293912887573 29.411764144897461 19.11764669418335
leaf_count=12 19 148 13 36 146 40 26
internal_value=0 -0.000275913 3.19254e-05 -0.000191947 0.000320675 0.00156199 0.00291818
internal_weight=0 415.441 306.618 270.588 182.353 75 48.5294
internal_count=440 421 273 260 248 102 66
is_linear=0
shrinkage=0.0231034


Tree=14
num_leaves=6
num_cat=0
split_feature=42 38 110 110 14
split_gain=1.14202 0.904192 0.392832 0.395319 0.275405
threshold=17.243993759155277 208.21428680419925 13.500000000000002 19.500000000000004 46.854999542236335
decision_type=2 2 2 2 2
left_child=1 2 4 -4 -1
right_child=-2 -3 3 -5 -6
leaf_value=-0.0021935720382196115 0.0122489388642561 0.0021233243345403999 0.041619827993300801 -0.034364047619466299 -0.032566002777180539
leaf_weight=88.970586538314819 27.205881834030151 36.02941107749939 30.882352352142334 23.529411315917969 236.02940726280212
leaf_count=112 19 31 42 32 204
internal_value=0 -0.000316608 -0.000751823 0.000566141 -0.0011159
internal_weight=0 415.441 379.412 54.4118 325
internal_count=440 421 390 74 316
is_linear=0
shrinkage=0.0231034


Tree=15
num_leaves=8
num_cat=0
split_feature=104 13 52 11 101 97 11
split_gain=0.8215 1.60134 0.765007 0.599057 0.504052 0.478343 0.441406
threshold=197.59666442871097 0.81804955005645763 -0.56174489110708226 1.0232722163200381 -0.62265211343765248 0.47955194115638738 1.2219939231872561
decision_type=2 2 2 2 2 2 2
left_child=-1 -2 3 4 -3 -4 -7
right_child=1 2 5 -5 -6 6 -8
leaf_value=-0.10134214342849045 0.070552950780934959 0.061760051095143514 -0.028269020786413569 -0.025381442407164948 0.0037920640355703899 0.029686834058651301 -0.036416840818380314
leaf_weight=83.823527812957764 24.999999523162842 33.088234663009644 157.35293817520142 34.558822870254517 18.382352590560913 27.941175937652588 24.264705419540405
leaf_count=15 16 45 196 47 25 38 33
internal_value=0 0.000773062 0.000118736 0.00204171 0.00358369 -0.000464124 0.000996592
internal_weight=0 320.588 295.588 86.0294 51.4706 209.559 52.2059
internal_count=415 400 384 117 70 267 71
is_linear=0
shrinkage=0.0231034


Tree=16
num_leaves=6
num_cat=0
split_feature=104 11 104 26 42
split_gain=0.631675 1.01245 3.07069 0.146248 0.152945
threshold=197.59666442871097 0.87304291129112255 198.41575622558597 1.1169582009315493 13.721724987030031
decision_type=2 2 2 2 2
left_child=-1 2 -2 -3 -5
right_child=1 3 -4 4 -6
leaf_value=-0.099000795709753731 0.068922937986922478 -0.024878413209428761 -0.00015124104730264142 -0.027615910391369541 0.032436227429926398
leaf_weight=83.823527812957764 33.82352876663208 119.11764478683472 91.176468849182129 27.205881834030151 49.264704942703247
leaf_count=15 28 153 124 28 67
internal_value=0 0.000509757 0.00217765 -0.000333586 0
internal_weight=0 320.588 125 195.588 76.4706
internal_count=415 400 152 248 95
is_linear=0
shrinkage=0.0231034


Tree=17
num_leaves=7
num_cat=0
split_feature=104 12 11 97 3 3
split_gain=0.631675 1.10473 0.179004 0.621807 0.107182 0.123379
threshold=197.59666442871097 0.83861804008483898 1.2219939231872561 0.74186578392982494 57.055000305175788 49.394998550415046
decision_type=2 2 2 2 2 2
left_child=-1 -2 3 -3 5 -4
right_child=1 2 4 -5 -6 -7
leaf_value=-0.096713541075636844 0.067330584024741069 -0.011178998717704719 0.020368104763164741 0.058740830186510426 0.010259087748567547 -0.026977889064720824
leaf_weight=83.823527812957764 47.794116735458374 126.47058582305908 26.470587730407715 29.411764144897461 19.852940797805786 70.588233947753906
leaf_count=15 47 172 36 40 27 78
internal_value=0 0.000509757 0 0.000438998 -0.000740018 -0.00111127
internal_weight=0 320.588 272.794 155.882 116.912 97.0588
internal_count=415 400 353 212 141 114
is_linear=0
shrinkage=0.0231034


Tree=18
num_leaves=6
num_cat=0
split_feature=104 20 20 110 110
split_gain=0.528598 0.901286 2.6871 0.224793 0.183129
threshold=197.59666442871097 52.565000534057624 50.614999771118171 11.500000000000002 20.500000000000004
decision_type=2 2 2 2 2
left_child=-1 2 -2 -3 -5
right_child=1 3 -4 4 -6
leaf_value=-0.094479129792159555 -0.017586535031622424 -0.012981381494888131 0.06577501884746835 0.033757826208014541 -0.018954170597263478
leaf_weight=83.823527812957764 49.264704942703247 190.44117283821106 23.529411315917969 37.499999284744263 19.852940797805786
leaf_count=15 58 241 23 51 27
internal_value=0 0.000299113 0.00258471 -0.000202662 0.000709816
internal_weight=0 320.588 72.7941 247.794 57.3529
internal_count=415 400 81 319 78
is_linear=0
shrinkage=0.0231034


Tree=19
num_leaves=6
num_cat=0
split_feature=5 47 110 110 97
split_gain=0.605751 0.922421 0.505261 0.414874 0.270428
threshold=-1.6290460228919981 -1.6882368922233579 12.500000000000002 21.500000000000004 0.74186578392982494
decision_type=2 2 2 2 2
left_child=1 -1 4 -4 -2
right_child=2 -3 3 -5 -6
leaf_value=-0.025948299506370752 -0.021299860360647897 0.06425539250922091 0.031165192804291503 -0.054188725017360065 0.026351414713911017
leaf_weight=37.499999284744263 240.44117188453674 38.235293388366699 36.764705181121826 18.382352590560913 33.088234663009644
leaf_count=42 210 43 50 25 45
internal_value=0 0.0017439 -0.000512702 0.00112366 -0.00101608
internal_weight=0 75.7353 328.676 55.1471 273.529
internal_count=415 85 330 75 255
is_linear=0
shrinkage=0.0231034


Tree=20
num_leaves=8
num_cat=0
split_feature=38 33 110 34 56 56 12
split_gain=0.825371 0.637459 0.910267 1.67864 0.46234 0.556795 0.101215
threshold=208.64285278320315 4.512852907180787 4.5000000000000009 10.166018962860109 53.500000000000007 108.50000000000001 1.0945331454277041
decision_type=2 2 2 2 2 2 2
left_child=1 2 -1 -4 -3 -6 -7
right_child=-2 4 3 -5 5 6 -8
leaf_value=-0.019158625455389544 0.0044588352191124846 -0.029686171612637889 0.062770874700752072 -0.010644054261866818 0.030445170998873446 0.030847305667185368 -0.027530695575052992
leaf_weight=62.499998807907104 26.470587730407715 136.02940917015076 36.02941107749939 33.088234663009644 24.264705419540405 23.529411315917969 85.294116020202637
leaf_count=49 27 95 31 45 33 32 116
internal_value=0 0 0.00119255 0.00307663 -0.000744382 0 -0.000472124
internal_weight=0 400.735 131.618 69.1176 269.118 133.088 108.824
internal_count=428 401 125 76 276 181 148
is_linear=0
shrinkage=0.0231034


Tree=21
num_leaves=7
num_cat=0
split_feature=38 110 103 38 56 20
split_gain=0.878405 0.498104 1.15022 1.02017 0.417358 0.106796
threshold=208.21428680419925 4.5000000000000009 1.6152058839797976 198.73213958740237 168.50000000000003 59.629999160766609
decision_type=2 2 2 2 2 2
left_child=1 4 3 -3 -1 -4
right_child=-2 2 5 -5 -6 -7
leaf_value=-0.031419465244432239 0.0043558209812514341 -0.0026576844158752973 -0.020216328196250494 0.061320654295778897 0.032920762655360238 0.0060255611879313185
leaf_weight=155.14705586433411 29.411764144897461 36.764705181121826 66.176469326019287 44.852940320968628 38.235293388366699 56.617645978927612
leaf_count=103 31 32 90 43 52 77
internal_value=0 0 0.000697908 0.00288081 -0.000919893 -0.000405658
internal_weight=0 397.794 204.412 81.6176 193.382 122.794
internal_count=428 397 242 75 155 167
is_linear=0
shrinkage=0.0231034


Tree=22
num_leaves=7
num_cat=0
split_feature=38 33 43 43 55 55
split_gain=0.878405 0.622386 0.668218 1.62121 0.433205 0.301664
threshold=208.21428680419925 6.2310433387756357 0.039317341521382339 0.10041177272796632 0.6729242503643037 -0.23802450299262998
decision_type=2 2 2 2 2 2
left_child=1 2 -1 -4 5 -3
right_child=-2 4 3 -5 -6 -7
leaf_value=-0.00063445390327710512 0.0042551867221697261 -0.021785224956012515 0.059903938907790548 -0.017990099773261586 -0.032936253364299041 0.024984948563103911
leaf_weight=108.08823323249817 29.411764144897461 91.911762952804565 26.470587730407715 31.617646455764771 113.23529195785522 26.470587730407715
leaf_count=111 31 125 27 34 64 36
internal_value=0 0 0.000977793 0.00293457 -0.000856598 0
internal_weight=0 397.794 166.176 58.0882 231.618 118.382
internal_count=428 397 172 61 225 161
is_linear=0
shrinkage=0.0231034


Tree=23
num_leaves=8
num_cat=0
split_feature=104 13 20 20 100 8 6
split_gain=0.608253 1.08427 0.833829 2.06352 0.242908 0.19058 0.167555
threshold=197.7638854980469 1.8001583814620974 49.799999237060554 50.784999847412116 1.0000000180025095e-35 12.808318614959719 2.5945273637771611
decision_type=2 2 2 2 2 2 2
left_child=-1 2 -2 -4 -5 -3 -6
right_child=1 5 3 4 6 -7 -8
leaf_value=-0.030678910841948955 -0.023840613406255842 -0.019955329700305668 0.058519954457095874 -0.0010806829614001632 0.050767733432157992 0.038114587349487666 0.0064817693583493841
leaf_weight=72.058822154998779 42.647058010101318 113.23529195785522 38.235293388366699 83.823527812957764 36.764705181121826 19.852940797805786 20.588234901428223
leaf_count=17 31 154 25 96 50 27 28
internal_value=0 0.000617396 0.00167407 0.00242346 0.000721387 -0.000802307 0.00185468
internal_weight=0 355.147 222.059 179.412 141.176 133.088 57.3529
internal_count=428 411 230 199 174 181 78
is_linear=0
shrinkage=0.0231034


Tree=24
num_leaves=8
num_cat=0
split_feature=38 11 11 39 9 100 43
split_gain=0.890391 0.567357 1.38417 1.75273 0.291174 0.198444 0.161112
threshold=208.21428680419925 0.87304291129112255 0.73009848594665538 200.25000000000003 1.4348630905151369 1.0000000180025095e-35 0.019656770862638954
decision_type=2 2 2 2 2 2 2
left_child=1 2 6 -4 5 -3 -1
right_child=-2 4 3 -5 -6 -7 -8
leaf_value=-0.023189375167405702 0.0028048677470519224 -0.031624514900980873 0.021190404474319802 0.057167944747873768 0.0071535375898347138 0.0046097674656394002 0.0089445870563181311
leaf_weight=60.294116497039795 29.411764144897461 141.17646789550781 31.617646455764771 22.058823108673096 62.499998807907104 42.647058010101318 37.499999284744263
leaf_count=46 31 111 34 21 85 58 42
internal_value=0 -1.61473e-05 0.000960796 0.00396041 -0.000805869 -0.00130546 -0.000268961
internal_weight=0 397.794 151.471 53.6765 246.324 183.824 97.7941
internal_count=428 397 143 55 254 169 88
is_linear=0
shrinkage=0.0231034


Tree=25
num_leaves=5
num_cat=0
split_feature=20 20 3 24
split_gain=1.64246 2.92635 0.455123 0.258158
threshold=51.420000076293952 50.125000000000007 48.815000534057624 -0.27932645380496973
decision_type=2 2 2 2
left_child=1 -1 -2 -4
right_child=2 -3 3 -5
leaf_value=-0.015255060601460341 0.035913237233787462 0.055847171054994968 0.0045032661802467313 -0.022653621839024137
leaf_weight=65.441175222396851 38.970587491989136 62.499998807907104 95.588233470916748 158.08823227882385
leaf_count=62 53 31 130 152
internal_value=0 0.00272974 -0.000292887 -0.000782694
internal_weight=0 127.941 292.647 253.676
internal_count=428 93 335 282
is_linear=0
shrinkage=0.0231034


Tree=26
num_leaves=7
num_cat=0
split_feature=20 20 110 10 39 110
split_gain=1.92493 2.73661 0.215732 0.217723 0.168055 0.113973
threshold=52.565000534057624 50.125000000000007 12.500000000000002 -0.29657401144504542 197.35833740234378 20.500000000000004
decision_type=2 2 2 2 2 2
left_child=1 -1 3 4 -2 -4
right_child=2 -3 5 -5 -6 -7
leaf_value=-0.014902616888212622 0.00053087391551296954 0.054556911720389734 0.029672729640979802 0.0052042640122834296 -0.022130246232198243 -0.010790195973033391
leaf_weight=65.441175222396851 24.264705419540405 74.999998569488525 32.352940559387207 74.264704465866089 130.14705634117126 19.11764669418335
leaf_count=62 33 39 44 101 123 26
internal_value=0 0.00276449 -0.000444343 -0.000838062 -0.00133372 0.00040666
internal_weight=0 140.441 280.147 228.676 154.412 51.4706
internal_count=428 101 327 257 156 70
is_linear=0
shrinkage=0.0231034


Tree=27
num_leaves=7
num_cat=0
split_feature=20 20 3 24 40 97
split_gain=1.64246 2.92635 0.315571 0.222919 0.172679 0.105482
threshold=51.420000076293952 50.125000000000007 48.815000534057624 -0.27932645380496973 14.991337776184084 1.1383282542228701
decision_type=2 2 2 2 2 2
left_child=1 -1 4 -4 -2 -5
right_child=2 -3 3 5 -6 -7
leaf_value=-0.014558315821805386 -0.00027059976466864839 0.053296461758740865 0.0037136845990356788 -0.029943529931061225 0.03663923231093856 -0.0011775468789583337
leaf_weight=65.441175222396851 18.382352590560913 62.499998807907104 95.588233470916748 128.67646813392639 20.588234901428223 29.411764144897461
leaf_count=62 25 31 130 112 28 40
internal_value=0 0.00272974 -0.000292887 -0.000716251 0.00123561 -0.00125004
internal_weight=0 127.941 292.647 253.676 38.9706 158.088
internal_count=428 93 335 282 53 152
is_linear=0
shrinkage=0.0231034


end of trees

feature_importances:
market_regime_duration_days=15
price_max_60d=13
volume_std_60d=11
market_volume_mean_30d=11
volume_mean_7d=9
market_return_7d=8
price_std_7d=7
price_std_14d=7
price_min_60d=7
price_lag_14d=6
market_volatility_30d=6
price_lag_30d=5
item_age_days=5
price_std_20d=4
price_min_20d=4
distance_to_resistance=4
volume_mean_30d=4
volume_log_change_1d=3
volume_zscore_30d=3
doy_cos=3
return_30d=2
price_accel_7d=2
volume_std_30d=2
volume_mean_60d=2
item_return_vs_market_14d=2
price_lag_7d=1
return_1d=1
return_3d=1
return_14d=1
return_60d=1
price_mean_60d=1
price_std_60d=1
autocorr_1d=1
macd_histogram=1
high_low_range_30d=1
volume_log_change_7d=1
volume_price_conf_1d=1
dow_cos=1
market_return_1d=1
item_return_vs_market_7d=1
market_return_30d=1

parameters:
[boosting: gbdt]
[objective: quantile]
[metric: quantile]
[tree_learner: serial]
[device_type: cpu]
[data_sample_strategy: bagging]
[data: ]
[valid: ]
[num_iterations: 1000]
[learning_rate: 0.0231034]
[num_leaves: 63]
[num_threads: -1]
[seed: 42]
[deterministic: 0]
[force_col_wise: 0]
[force_row_wise: 0]
[histogram_pool_size: -1]
[max_depth: 7]
[min_data_in_leaf: 25]
[min_sum_hessian_in_leaf: 0.001]
[bagging_fraction: 0.7]
[pos_bagging_fraction: 1]
[neg_bagging_fraction: 1]
[bagging_freq: 5]
[bagging_seed: 400]
[feature_fraction: 0.6]
[feature_fraction_bynode: 1]
[feature_fraction_seed: 30056]
[extra_trees: 0]
[extra_seed: 12879]
[early_stopping_round: 0]
[early_stopping_min_delta: 0]
[first_metric_only: 0]
[max_delta_step: 0]
[lambda_l1: 2]
[lambda_l2: 2]
[linear_lambda: 0]
[min_gain_to_split: 0.1]
[drop_rate: 0.1]
[max_drop: 50]
[skip_drop: 0.5]
[xgboost_dart_mode: 0]
[uniform_drop: 0]
[drop_seed: 17869]
[top_rate: 0.2]
[other_rate: 0.1]
[min_data_per_group: 100]
[max_cat_threshold: 32]
[cat_l2: 10]
[cat_smooth: 10]
[max_cat_to_onehot: 4]
[top_k: 20]
[monotone_constraints: ]
[monotone_constraints_method: basic]
[monotone_penalty: 0]
[feature_contri: ]
[forcedsplits_filename: ]
[refit_decay_rate: 0.9]
[cegb_tradeoff: 1]
[cegb_penalty_split: 0]
[cegb_penalty_feature_lazy: ]
[cegb_penalty_feature_coupled: ]
[path_smooth: 0]
[interaction_constraints: ]
[verbosity: -1]
[saved_feature_importance_type: 0]
[use_quantized_grad: 0]
[num_grad_quant_bins: 4]
[quant_train_renew_leaf: 0]
[stochastic_rounding: 1]
[linear_tree: 0]
[max_bin: 63]
[max_bin_by_feature: ]
[min_data_in_bin: 3]
[bin_construct_sample_cnt: 200000]
[data_random_seed: 175]
[is_enable_sparse: 1]
[enable_bundle: 1]
[use_missing: 1]
[zero_as_missing: 0]
[feature_pre_filter: 0]
[pre_partition: 0]
[two_round: 0]
[header: 0]
[label_column: ]
[weight_column: ]
[group_column: ]
[ignore_column: ]
[categorical_feature: ]
[forcedbins_filename: ]
[precise_float_parser: 0]
[parser_config_file: ]
[objective_seed: 16083]
[num_class: 1]
[is_unbalance: 0]
[scale_pos_weight: 1]
[sigmoid: 1]
[boost_from_average: 1]
[reg_sqrt: 0]
[alpha: 0.9]
[fair_c: 1]
[poisson_max_delta_step: 0.7]
[tweedie_variance_power: 1.5]
[lambdarank_truncation_level: 30]
[lambdarank_norm: 1]
[label_gain: ]
[lambdarank_position_bias_regularization: 0]
[eval_at: ]
[multi_error_top_k: 1]
[auc_mu_weights: ]
[num_machines: 1]
[local_listen_port: 12400]
[time_out: 120]
[machine_list_filename: ]
[machines: ]
[gpu_platform_id: -1]
[gpu_device_id: -1]
[gpu_use_dp: 0]
[num_gpu: 1]

end of parameters

pandas_categorical:[]
