tree
version=v4
num_class=1
num_tree_per_iteration=1
label_index=0
max_feature_idx=116
objective=quantile
feature_names=price_lag_1d price_lag_7d price_lag_14d price_lag_30d price_lag_60d return_1d return_3d return_7d return_14d return_30d return_60d price_std_7d price_std_14d price_std_20d price_min_20d price_max_20d price_std_30d price_mean_60d price_std_60d price_min_60d price_max_60d price_zscore_30d vol_regime_60_30 trend_divergence_30_60 price_accel_7d price_tier autocorr_1d autocorr_7d bb_pct_b macd_line macd_signal macd_histogram distance_to_support distance_to_resistance high_low_range_30d volume_missing volume_lag_1d volume_lag_7d volume_mean_7d volume_mean_30d volume_std_30d volume_mean_60d volume_std_60d volume_log_change_1d volume_log_change_7d volume_zscore_30d volume_price_conf_7d volume_price_conf_1d rsi_missing macd_missing is_weekend dow_sin dow_cos month_sin month_cos doy_cos item_age_days is_stattrak is_souvenir is_knife is_glove is_sticker is_case is_capsule is_agent is_music_kit is_graffiti is_charm is_patch quality_rank event_decay_major events_next_30d_major event_density_30d_major event_density_90d_major event_decay_operation events_next_30d_operation event_density_30d_operation event_density_90d_operation event_decay_case_drop events_next_30d_case_drop event_density_30d_case_drop event_density_90d_case_drop event_decay_update events_next_30d_update event_density_30d_update event_density_90d_update event_decay_game_update events_next_30d_game_update event_density_30d_game_update event_density_90d_game_update event_decay_major_weighted event_decay_operation_weighted event_decay_case_drop_weighted event_decay_update_weighted event_decay_game_update_weighted market_return_1d item_return_vs_market_1d market_return_7d item_return_vs_market_7d market_return_14d item_return_vs_market_14d market_return_30d item_return_vs_market_30d market_volatility_30d market_volume_mean_30d market_regime_crash market_regime_bear market_regime_range market_regime_bull market_regime_mania market_regime_duration_days market_return_30d_percentile supply_listings_log supply_listings_zscore supply_change_7d supply_skinport_qty_log supply_to_volume_ratio
feature_infos=[39.790000915527344:66.569999694824219] [39.790000915527344:66.569999694824219] [39.790000915527344:66.569999694824219] [39.790000915527344:66.569999694824219] [39.849998474121094:66.569999694824219] [-6.0415120124816895:6.2258315086364746] [-10.281366348266602:11.818019866943359] [-17.372880935668945:15.222199440002441] [-24.630624771118164:24.511468887329102] [-24.868003845214844:39.543319702148438] [-35.815872192382812:34.754096984863281] [0.042426407337188721:3.2751080989837646] [0.042426407337188721:4.7465720176696777] [0.042426407337188721:5.344205379486084] [38.569999694824219:61.619998931884766] [43.290000915527344:66.569999694824219] [0.042426407337188721:5.4625492095947266] [42.844001770019531:62.902332305908203] [0.042426407337188721:6.2239170074462891] [38.569999694824219:58.759998321533203] [46.650001525878906:66.569999694824219] [-3.4853887557983398:3.0036964416503906] [0.75597286224365234:4.9742584228515625] [-106.84011840820312:164.20773315429688] [-22.191015243530273:26.589687347412109] [3:3] [-17.983921051025391:24.913341522216797] [-165.46697998046875:159.38456726074219] [-0.22173035144805908:1.266255259513855] [-3.1355800628662109:3.1830518245697021] [-2.6216168403625488:2.7723205089569092] [-1.2678171396255493:0.94621419906616211] [0.018351990729570389:39.335178375244141] [0.054525628685951233:35.731788635253906] [0.12307692319154739:39.335178375244141] none [161:245] [161:245] [176:219] [176:219] [4.0414519309997559:20.361700057983398] [176:219] [4.0414519309997559:19.928762435913086] [-0.31321537494659424:0.36533302068710327] [-0.29612094163894653:0.40341803431510925] [-2.8260855674743652:2.671764612197876] [-17.372880935668945:15.222199440002441] [-6.0415120124816895:6.2258315086364746] [0:1] [0:1] [0:1] [-0.97492790222167969:0.97492790222167969] [-0.90096884965896606:1] [-0.86602538824081421:1] [-1:0.86602538824081421] [-1:0.99985265731811523] [0:234] none none none none none none none none none none none none none [0:0.98347145318984985] [0:1] [0:1] [0:1] none none none none none none none none none none none none none none none none none none none none none [-2.4910855293273926:2.5970833301544189] [-5.0148625373840332:6.6300463676452637] [-5.9873161315917969:6.6842527389526367] [-15.224418640136719:14.81980037689209] [-7.8436169624328613:8.0323085784912109] [-21.144741058349609:25.597810745239258] [-8.3750972747802734:10.840641021728516] [-26.866291046142578:40.982707977294922] [0.43699198961257935:3.9606008529663086] [195.10000610351562:203.39999389648438] none [0:1] [0:1] [0:1] [0:1] [1:30] [0.0086206896230578423:1] none none none none none
tree_sizes=1365 1380 1379 1589 1376 1274 1175 1472 1079 1471 969 1276 1281 1694 768 1069 1160 963

Tree=0
num_leaves=12
num_cat=0
split_feature=39 19 12 34 20 17 0 102 103 32 18
split_gain=10.4812 10.5292 6.1637 5.43832 3.9457 5.90584 3.77001 2.91202 2.78298 2.187 2.25834
threshold=200.841667175293 48.70000076293946 0.7716239094734193 20.020524024963382 60.579999923706062 51.857625961303718 46.039999008178718 -7.1465487480163565 2.5579372644424443 1.4754674434661867 3.209740519523621
decision_type=2 2 2 2 2 2 2 2 2 2 2
left_child=1 3 -2 8 5 -4 -5 -6 -1 -3 -11
right_child=2 9 4 6 7 -7 -8 -9 -10 10 -12
leaf_value=0.047145341313951844 0.16203292584107504 -0.20934918772229744 -0.13900412527987177 -0.022498455038708912 -0.011116290945150598 0.1630646784252745 -0.46470357645606636 -0.23555021648304011 -0.33322900717998721 -0.40235484314660841 -0.20673612700706262
leaf_weight=173.66069668531418 55.37007999420166 45.302792072296143 116.61273914575577 36.913384675979614 21.812454581260681 55.370077610015869 69.632066547870636 62.920542061328888 29.362919628620148 117.45168209075928 31.040800750255585
leaf_count=198 21 27 121 44 26 57 83 75 35 86 37
internal_value=-0.13132 -0.139219 -0.124761 -0.131975 -0.129015 -0.123526 -0.143351 -0.139736 -0.126113 -0.150537 -0.154253
internal_weight=0 503.364 312.086 309.569 256.716 171.983 106.545 84.733 203.024 193.795 148.492
internal_count=810 510 300 360 279 178 127 101 233 150 123
is_linear=0
shrinkage=1


Tree=1
num_leaves=12
num_cat=0
split_feature=39 19 16 13 30 42 20 56 28 32 18
split_gain=9.94793 10.9234 6.64088 5.55209 2.9845 2.97501 4.2092 2.65458 2.31321 2.187 2.25834
threshold=200.841667175293 48.70000076293946 0.87770369648933422 1.9500163197517397 -0.81580600142478932 16.279417991638187 60.579999923706062 132.50000000000003 0.50280985236167919 1.4754674434661867 3.209740519523621
decision_type=2 2 2 2 2 2 2 2 2 2 2
left_child=1 3 -2 4 -1 6 -4 -5 -7 -3 -11
right_child=2 9 5 7 -6 8 -8 -9 -10 10 -12
leaf_value=-0.076355593350007259 0.31238960070097782 -0.073174761230027488 0.20792078978515935 0.01800377155765668 0.1944000715983282 0.10333115100038259 -0.021965672013804817 -0.28268398981533971 -0.31736868481578334 -0.25417241038593047 -0.070724274245491325
leaf_weight=28.523979067802429 47.819614946842194 45.302792072296143 145.1367182135582 41.947028040885925 155.20400434732437 23.490335702896118 66.276304304599762 83.894056081771851 29.362920224666595 117.45168209075928 31.040800750255585
leaf_count=34 12 27 155 50 176 28 79 100 26 86 37
internal_value=0 -0.00769226 0.00639223 -0.000319481 0.00645412 0.0023379 0.00573747 -0.0104128 -0.0104711 -0.0192173 -0.0229337
internal_weight=0 503.364 312.086 309.569 183.728 264.266 211.413 125.841 52.8533 193.795 148.492
internal_count=810 510 300 360 210 288 234 150 54 150 123
is_linear=0
shrinkage=0.0622158


Tree=2
num_leaves=12
num_cat=0
split_feature=39 19 13 15 19 15 15 32 21 29 40
split_gain=9.03649 9.92755 6.40415 6.35883 5.03155 3.05833 4.1279 1.9909 1.35861 1.28176 1.27583
threshold=200.841667175293 48.70000076293946 0.81804955005645763 48.815000534057624 48.640001296997077 61.600000381469734 52.015001296997077 1.4754674434661867 0.78052991628646862 -0.32961982488632197 17.065809249877933
decision_type=2 2 2 2 2 2 2 2 2 2 2
left_child=1 3 -2 8 -5 6 -4 -3 -1 -9 -7
right_child=2 7 5 4 -6 10 -8 9 -10 -11 -12
leaf_value=0.18549225362845576 0.29295402367005569 -0.068622133020207948 -0.028956661953976739 -0.16943557920978136 0.21100593930779146 -0.2744361018481441 0.24827474634358906 -0.089154375213480713 0.012709073382932022 -0.23528647929971053 0.059475666439481975
leaf_weight=43.62490975856781 47.819614946842194 45.302792072296143 118.2906202673912 208.89619964361191 34.396562993526459 24.329276263713837 104.86757069826126 45.302790284156799 22.6513951420784 103.18969255685806 16.77881121635437
leaf_count=43 12 27 123 249 41 29 116 54 27 69 20
internal_value=0 -0.00769226 0.00572644 -0.000655068 -0.00541671 0.00174871 0.00474051 -0.0186828 0.0160984 -0.0222377 -0.0133575
internal_weight=0 503.364 312.086 309.569 243.293 264.266 223.158 193.795 66.2763 148.492 41.1081
internal_count=810 510 300 360 290 288 239 150 70 123 49
is_linear=0
shrinkage=0.0622158


Tree=3
num_leaves=14
num_cat=0
split_feature=39 19 15 42 20 98 34 42 15 32 102 104 18
split_gain=9.06247 10.0108 6.10445 6.01245 4.28253 3.84923 3.65392 3.2481 1.9775 3.32121 1.35861 1.34671 0.916313
threshold=200.841667175293 48.70000076293946 48.815000534057624 14.014407157897951 59.724998474121101 -0.54998505115509022 18.652060508728031 16.279417991638187 50.614999771118171 1.6641455888748171 1.0000000180025095e-35 200.27666473388675 4.1377780437469491
decision_type=2 2 2 2 2 2 2 2 2 2 2 2 2
left_child=1 2 10 4 11 12 -4 -7 -3 -10 -1 -2 -5
right_child=3 8 6 5 -6 7 -8 -9 9 -11 -12 -13 -14
leaf_value=0.17526923289720728 0.29713715857313933 -0.1541732165103081 0.051132765488307537 0.19504545089368711 -0.047993475720519881 -0.0012083213559380634 -0.20522709221524013 -0.24553973998633846 0.04429842412024295 -0.2206479366513551 0.011918367885145444 0.22420991740617077 0.023130828012130421
leaf_weight=43.62490975856781 65.437366724014282 50.336437225341797 138.42519253492355 46.141730844974518 23.490335702896118 97.317106246948242 104.86757010221481 36.074444711208344 31.040801346302032 112.41803634166718 22.6513951420784 25.168216824531555 18.456692337989807
leaf_count=43 33 6 165 55 28 98 125 34 28 116 27 30 22
internal_value=0 -0.0073821 -0.000319481 0.00605933 0.0173407 -0.000367351 -0.00499027 -0.00654089 -0.0184156 -0.0140082 0.0160984 0.0234633 0.0117691
internal_weight=0 503.364 309.569 312.086 114.096 197.99 243.293 133.392 193.795 143.459 66.2763 90.6056 64.5984
internal_count=810 510 360 300 91 209 290 132 150 144 70 63 77
is_linear=0
shrinkage=0.0622158


Tree=4
num_leaves=12
num_cat=0
split_feature=39 19 13 13 0 15 17 9 15 42 8
split_gain=9.14555 9.24052 6.32185 6.08596 2.74848 4.68651 2.25105 2.23693 2.22023 3.64527 0.903857
threshold=200.841667175293 48.70000076293946 2.0315685272216801 0.81804955005645763 47.449998855590827 52.015001296997077 53.872343063354499 -11.699980735778807 50.614999771118171 13.247891902923586 -1.4264597892761228
decision_type=2 2 2 2 2 2 2 2 2 2 2
left_child=1 2 6 -2 10 -6 -1 -4 -3 -10 -5
right_child=3 8 7 4 5 -7 -8 -9 9 -11 -12
leaf_value=0.15375449222245635 0.25624101337131167 -0.14458120250322415 0.08619352092240451 0.23920964794814406 -0.11036980036799868 0.072239908217487311 -0.1083940845075501 -0.25545587167293043 0.058867739756986649 -0.20844535985870874 0.038120513339109596
leaf_weight=151.8482421040535 47.819614946842194 50.336437225341797 26.846097946166992 37.752325236797333 67.954186618328094 140.10307425260544 42.785968601703644 88.088758885860443 26.84609854221344 116.61273914575577 18.456692337989807
leaf_count=172 12 6 32 45 63 158 51 105 23 121 22
internal_value=0 -0.00727872 -0.000487274 0.00622578 0.0023379 -0.000847852 0.00622829 -0.0120605 -0.017881 -0.013288 0.0143845
internal_weight=0 503.364 309.569 312.086 264.266 208.057 194.634 114.935 193.795 143.459 56.209
internal_count=810 510 360 300 288 221 223 137 150 144 67
is_linear=0
shrinkage=0.0622158


Tree=5
num_leaves=11
num_cat=0
split_feature=39 103 47 39 19 24 0 70 40 51
split_gain=11.8293 7.00853 5.41681 6.88329 5.90435 3.66156 2.70576 2.49257 1.62522 1.38538
threshold=201.23667144775393 1.5842481255531313 -2.347063302993774 197.1166687011719 50.11000061035157 7.9175062179565439 59.129999160766609 0.65379247069358837 14.82301712036133 -1.0000000180025095e-35
decision_type=2 2 2 2 2 2 2 2 2 2
left_child=2 -2 9 5 -5 -4 7 -3 -8 -1
right_child=1 6 3 4 -6 -7 8 -9 -10 -11
leaf_value=0.10257634441957426 0.23731083115573814 0.15911003074000793 -0.1325000534119532 0.021985967069277485 -0.22591466112790518 0.06164794401918363 -0.31152921324966715 -0.087342876550252663 0.058941028595378198 0.052840003958184403
leaf_weight=26.846099138259888 66.276307880878448 182.88904404640198 134.2304927110672 263.42733669281006 69.632067739963531 20.973514020442963 16.77881121635437 17.617751777172089 16.77881121635437 23.490335702896118
leaf_count=14 25 191 115 305 65 25 20 21 20 28
internal_value=0 0.00992651 -0.0054509 -0.00750314 -0.00232521 -0.0182876 0.00463182 0.00746834 -0.0110234 0.0134968
internal_weight=0 300.341 538.6 488.263 333.059 155.204 234.064 200.507 33.5576 50.3364
internal_count=829 277 552 510 370 140 252 212 40 42
is_linear=0
shrinkage=0.0622158


Tree=6
num_leaves=10
num_cat=0
split_feature=39 103 55 15 21 104 18 110 99
split_gain=10.9015 7.44281 6.95368 5.71328 3.65234 2.97399 2.74847 2.11107 2.07472
threshold=201.23667144775393 1.5842481255531313 0.99815866351127636 48.815000534057624 0.090892720967531218 199.9533386230469 3.5462518930435185 14.500000000000002 -1.1989079713821409
decision_type=2 2 2 2 2 2 2 2 2
left_child=2 -2 3 4 -1 -5 7 -3 -8
right_child=1 6 -4 5 -6 -7 8 -9 -10
leaf_value=0.14709934504505917 0.22254634178461338 0.22588737499423978 -0.12416086761594468 -0.1448257892880222 -0.011642835715700071 0.0028577992184907483 0.053306402281947302 -0.12949596315598016 -0.15710893502210657
leaf_weight=41.108088672161102 66.276307880878448 149.33142161369324 41.947031021118164 245.80958610773087 39.43020635843277 170.30493384599686 22.6513951420784 26.007157385349274 36.074444115161896
leaf_count=31 25 151 5 266 47 203 27 31 43
internal_value=0 0.00940774 -0.00535426 -0.00318567 0.0117092 -0.00617474 0.0039671 0.00794094 -0.00728343
internal_weight=0 300.341 538.6 496.653 80.5383 416.115 234.064 175.339 58.7258
internal_count=829 277 552 547 78 469 252 182 70
is_linear=0
shrinkage=0.0622158


Tree=7
num_leaves=13
num_cat=0
split_feature=39 19 39 20 14 103 21 42 28 103 110 14
split_gain=9.20372 6.17674 5.88675 5.20834 4.64561 4.57044 3.92656 2.0591 3.56754 1.69932 0.720039 0.452011
threshold=202.48332977294925 50.11000061035157 197.1166687011719 62.010000228881843 47.230001449584968 1.6152058839797976 -0.73655870556831349 14.148601055145265 0.52318620681762706 2.2243868112564091 5.5000000000000009 46.784999847412116
decision_type=2 2 2 2 2 2 2 2 2 2 2 2
left_child=1 2 4 -4 -1 -2 9 11 -9 -3 -8 -7
right_child=5 6 3 -5 -6 7 10 8 -10 -11 -12 -13
leaf_value=0.0019838401825801413 0.2669651713457154 0.20190504739986651 0.10786187466769176 -0.094007676009138466 -0.11415498190786785 0.18609929653536872 -0.31852470315886527 0.15658590624902025 -0.09778300612639651 -0.16823176748529395 -0.1163221839416836 0.38797928228975426
leaf_weight=69.632067739963531 42.785970985889435 17.617751777172089 292.79025691747665 84.732996642589569 91.444523513317108 16.77881121635437 51.17537659406662 72.148890018463135 31.040800750255585 19.295632898807526 29.362919628620148 20.134573459625244
leaf_count=65 15 21 331 101 73 20 25 59 37 23 35 24
internal_value=0 -0.00400099 -0.00110209 0.00308526 -0.0110454 0.0117203 -0.0168515 0.00586227 0.000949287 0 -0.0244339 0.0182131
internal_weight=0 656.052 538.6 377.523 161.077 182.889 117.452 140.103 103.19 36.9134 80.5383 36.9134
internal_count=829 674 570 432 138 155 104 140 96 44 60 44
is_linear=0
shrinkage=0.0622158


Tree=8
num_leaves=9
num_cat=0
split_feature=16 15 41 21 56 98 42 23
split_gain=8.58836 4.29542 4.70357 4.46481 3.06051 2.83995 3.49331 0.365593
threshold=0.87770369648933422 60.534999847412116 200.23205566406253 -0.086644556373357759 52.500000000000007 0.46376323699951177 15.560910701751711 0.87798792123794567
decision_type=2 2 2 2 2 2 2 2
left_child=-1 2 3 -2 -4 6 -3 -7
right_child=1 5 4 -5 -6 7 -8 -9
leaf_value=0.15779082128524335 0.012917927857797051 -0.21547464214736162 -0.0023278213284661743 -0.10705273542029155 0.20714277773367956 -0.1924170419667684 0.19453067663970697 -0.070315508730801404
leaf_weight=95.639229893684387 196.31209242343903 68.793125987052917 91.44452291727066 174.49963903427124 128.35790580511093 30.201860189437866 35.235503554344177 18.456692337989807
leaf_count=24 216 82 82 172 153 36 42 22
internal_value=0 -0.00171022 0.00065267 -0.00356146 0.00787852 -0.0109694 -0.00465131 -0.0233138
internal_weight=0 743.301 590.614 370.812 219.802 152.687 104.029 48.6586
internal_count=829 805 623 388 235 182 124 58
is_linear=0
shrinkage=0.0622158


Tree=9
num_leaves=13
num_cat=0
split_feature=39 19 39 47 103 104 21 22 24 103 20 110
split_gain=9.017 6.33403 5.73249 6.24697 4.57044 4.53949 3.92656 1.94891 2.38491 1.69932 1.19662 0.720039
threshold=202.48332977294925 50.11000061035157 197.1166687011719 -1.2407295703887937 1.6152058839797976 198.50666046142581 -0.73655870556831349 1.277322590351105 -3.6288945674896236 2.2243868112564091 51.430000305175788 5.5000000000000009
decision_type=2 2 2 2 2 2 2 2 2 2 2 2
left_child=1 2 3 -1 -2 -4 9 10 -9 -3 -6 -8
right_child=4 6 5 -5 7 -7 11 8 -10 -11 -12 -13
leaf_value=0.012114228306349964 0.2405386264300064 0.18853965855765359 0.26824943272192187 -0.10039236106415668 0.13256793201455044 0.0020212376904883305 -0.29204705130500241 0.13395622574736848 -0.10248897774635361 -0.15282487522304247 0.20971697194711225 -0.10674194072598464
leaf_weight=26.846099138259888 42.785970985889435 17.617751777172089 62.081602692604065 134.23049211502075 32.718683063983917 315.44165086746216 51.17537659406662 16.77881121635437 39.43020635843277 19.295632898807526 51.175374805927277 29.362919628620148
leaf_count=14 15 21 56 124 21 376 25 20 47 23 52 35
internal_value=0 -0.00384223 -0.000908806 -0.0107244 0.0117203 0.00322297 -0.0168515 0.00586227 -0.00262656 0 0.0118603 -0.0244339
internal_weight=0 656.052 538.6 161.077 182.889 377.523 117.452 140.103 56.209 36.9134 83.8941 80.5383
internal_count=829 674 570 138 155 432 104 140 67 44 73 60
is_linear=0
shrinkage=0.0622158


Tree=10
num_leaves=8
num_cat=0
split_feature=39 16 42 56 13 20 23
split_gain=6.47516 5.05453 4.65074 6.90923 3.49882 3.86882 3.36289
threshold=200.55000305175784 0.87770369648933422 11.577460289001467 4.5000000000000009 0.96805086731910717 59.654998779296882 1.5691595673561098
decision_type=2 2 2 2 2 2 2
left_child=2 -2 -1 -4 -3 -6 -5
right_child=1 4 3 6 5 -7 -8
leaf_value=0.25156007270011188 0.093780622320069659 -0.40965653966917159 -0.1717537912704781 -0.11071978559060947 0.13498100490834733 -0.033337608191263482 0.12571832624826268
leaf_weight=42.785970985889435 36.913387060165405 26.007157981395721 50.336437225341797 346.48245161771774 155.20400553941727 100.67286729812622 60.403720378875732
leaf_count=15 8 22 6 413 158 120 72
internal_value=0 0.00511757 -0.00618258 -0.00806776 0.00210046 0.00444208 -0.0052279
internal_weight=0 318.797 500.009 457.223 281.884 255.877 406.886
internal_count=814 308 506 491 300 278 485
is_linear=0
shrinkage=0.0622158


Tree=11
num_leaves=11
num_cat=0
split_feature=41 16 0 20 21 15 55 30 55 19
split_gain=7.66983 9.4471 5.49172 3.4633 3.85896 3.3721 3.30393 2.90649 2.1074 2.04729
threshold=198.83630371093753 0.87770369648933422 47.635000228881843 61.954999923706062 0.65691125392913829 50.614999771118171 -0.20454452931880948 -1.2917554974555967 0.46236594021320349 42.619998931884773
decision_type=2 2 2 2 2 2 2 2 2 2
left_child=2 -2 7 4 -3 -4 -5 -1 -7 -9
right_child=1 3 5 6 -6 8 -8 9 -10 -11
leaf_value=0.32125663676392691 0.21202710118335175 0.11993075256084576 -0.14542648447549403 -0.12546292122422986 -0.068422071106707352 -0.16455949711672188 0.10479929561568964 0.11789665674161491 -0.019373519188178839 -0.23814641816927623
leaf_weight=22.6513951420784 52.014317750930786 195.47315245866776 63.759486198425293 110.74015402793884 166.94917219877243 72.98782879114151 36.074444115161896 21.812454581260681 52.853257119655609 23.490335702896118
leaf_count=27 17 206 22 132 190 87 43 26 36 28
internal_value=0 0.0018461 -0.0110623 -0.000705564 0.00249616 -0.0164982 -0.0087643 0.0036854 -0.0100029 -0.00491144
internal_weight=0 561.251 257.555 509.237 362.422 189.601 146.815 67.9542 125.841 45.3028
internal_count=814 588 226 571 396 145 175 81 123 54
is_linear=0
shrinkage=0.0622158


Tree=12
num_leaves=11
num_cat=0
split_feature=39 42 55 17 15 70 55 28 98 5
split_gain=5.13836 4.60003 6.99413 3.09372 3.08329 2.48061 3.54504 2.26166 1.07292 0.70408
threshold=200.55000305175784 11.577460289001467 0.97702786326408397 54.114347457885749 59.57500076293946 0.50075820088386547 0.63395512104034435 0.54641261696815502 0.46376323699951177 0.90263807773590099
decision_type=2 2 2 2 2 2 2 2 2 2
left_child=1 -1 3 -3 5 6 -2 -6 -7 -9
right_child=4 2 -4 -5 7 8 -8 9 -10 -11
leaf_value=0.22271761376952767 0.23686338675253296 -0.0042689899916906601 -0.13050169071958709 -0.10262592318109982 0.068459995443073934 0.026401081693364557 0.074754542215402842 -0.097560583840193005 -0.11197208688290322 -0.14879997991077901
leaf_weight=42.785970985889435 89.76664000749588 230.70865422487259 61.242664515972137 165.27129048109055 31.040800750255585 22.6513951420784 116.61274272203445 23.490335702896118 18.456692337989807 16.77881121635437
leaf_count=15 107 275 19 197 37 27 67 28 22 20
internal_value=0 -0.0060785 -0.00795397 -0.00478042 0.00397686 0.00731695 0.0101448 -0.0070999 -0.00600747 -0.0167499
internal_weight=0 500.009 457.223 395.98 318.797 247.487 206.379 71.3099 41.1081 40.2691
internal_count=814 506 491 472 308 223 174 85 49 48
is_linear=0
shrinkage=0.0622158


Tree=13
num_leaves=15
num_cat=0
split_feature=41 14 20 21 104 20 100 55 33 10 7 56 14 4
split_gain=6.72222 5.04323 4.68386 4.92039 3.89784 3.58423 3.45794 3.16051 3.06236 3.00358 2.67894 2.25943 1.12212 0.439389
threshold=198.83630371093753 45.954999923706062 61.954999923706062 0.70764085650444042 197.75166320800784 53.129999160766609 0.050285806879401214 -0.20454452931880948 23.748758316040043 -6.2853622436523429 -1.094515800476074 180.50000000000003 50.11000061035157 56.565000534057624
decision_type=2 2 2 2 2 2 2 2 2 2 2 2 2 2
left_child=1 9 3 4 -2 -5 12 8 -4 13 -9 -11 -3 -1
right_child=2 6 7 5 -6 -7 -8 10 -10 11 -12 -13 -14 -15
leaf_value=0.33192393450951818 0.19091327319336765 -0.1223824202414576 -0.15018636738128283 -0.14813140895182667 0.10438480812085205 0.020379462969476604 0.097681974679098643 0.20914736304115369 0.060091649790668333 0.11082721760213465 -0.1050911824236926 -0.23664666138773907 -0.13314165409901157 0.11154353668942117
leaf_weight=17.617751777172089 35.235505938529968 78.02147513628006 91.444521129131317 62.920542657375336 213.92984539270401 102.35074841976166 27.685038506984711 19.295632898807526 19.295632898807526 28.523979067802429 16.77881121635437 24.329276263713837 62.08160388469696 19.295632898807526
leaf_count=21 6 48 109 66 219 122 33 23 23 34 20 29 38 23
internal_value=0 -0.0110623 0.00101135 0.00444281 0.00997493 -0.00372567 -0.0173906 -0.00841238 -0.0136738 0.000517003 0.00681225 -0.00855051 -0.0213436 0.0141368
internal_weight=0 257.555 561.251 414.437 249.165 165.271 167.788 146.815 110.74 89.7666 36.0744 52.8533 140.103 36.9134
internal_count=814 226 588 413 225 188 119 175 132 107 43 63 86 44
is_linear=0
shrinkage=0.0622158


Tree=14
num_leaves=6
num_cat=0
split_feature=39 48 19 21 11
split_gain=8.81071 4.12158 4.87365 5.82189 3.81041
threshold=194.84999847412112 1.0000000180025095e-35 50.11000061035157 -0.17756445705890653 0.51296475529670726
decision_type=2 2 2 2 2
left_child=-1 2 4 -4 -2
right_child=1 -3 3 -5 -6
leaf_value=-0.058679340726833458 0.20222188125509427 0.10132385908724936 -0.0088912837410686681 -0.24558317084366199 -0.014748254048654383
leaf_weight=62.08160388469696 41.947029232978821 42.785971581935883 91.44452291727066 72.148890018463135 508.39798045158386
leaf_count=38 32 6 82 59 597
internal_value=0 -0.00078504 -0.0019628 -0.0113513 0.00079488
internal_weight=0 756.724 713.938 163.593 550.345
internal_count=814 776 770 141 629
is_linear=0
shrinkage=0.0622158


Tree=15
num_leaves=9
num_cat=0
split_feature=39 42 17 41 19 21 104 1
split_gain=6.12618 4.21371 5.21281 3.52602 3.09053 5.61933 4.62827 2.94956
threshold=196.25000000000003 13.532228946685793 55.208904266357429 199.85357666015628 50.11000061035157 0.26394438743591314 198.30461883544925 48.914999008178718
decision_type=2 2 2 2 2 2 2 2
left_child=7 2 3 -2 6 -6 -3 -1
right_child=1 4 -4 -5 5 -7 -8 -9
leaf_value=0.080966663611060696 -0.041320258601151363 0.1239795995506015 -0.088646087452114275 0.24446925791504201 -0.0026631095498545953 -0.23030401102617845 -0.018099182353932149 -0.12133941335911154
leaf_weight=22.6513951420784 29.362920224666595 53.692196488380432 29.362919628620148 68.793127775192261 93.961344599723816 61.242662727832794 369.13384735584259 57.047959327697754
leaf_count=27 26 55 35 55 85 46 431 50
internal_value=0 6.67353e-05 0.0102773 0.0172336 -0.00215291 -0.00962742 0.000541727 -0.0179368
internal_weight=0 705.549 127.519 98.156 578.03 155.204 422.826 79.6994
internal_count=810 733 116 81 617 131 486 77
is_linear=0
shrinkage=0.0622158


Tree=16
num_leaves=10
num_cat=0
split_feature=39 20 40 56 39 1 103 18 7
split_gain=6.02731 4.12506 6.4255 4.18746 3.03102 2.94956 2.6705 2.14566 2.06455
threshold=196.25000000000003 61.954999923706062 16.556294441223148 104.50000000000001 199.77619171142581 48.914999008178718 2.4149249792099003 1.3544145822525027 -0.90710714459419239
decision_type=2 2 2 2 2 2 2 2 2
left_child=5 2 4 8 -2 -1 -5 -4 -3
right_child=1 3 7 6 -6 -7 -8 -9 -10
leaf_value=0.075929255758755698 -0.0042603931937765819 0.18700064596289967 -0.39169103522586179 -0.15268203690605722 0.12653116936008146 -0.11379018153469719 -0.03263935876979223 -0.030208181499370022 -0.098514033388102065
leaf_weight=22.6513951420784 184.56692516803741 21.812454581260681 26.007159173488617 72.98782879114151 266.78310191631317 57.047959327697754 63.759482622146606 45.302790284156799 24.329276263713837
leaf_count=27 193 26 4 87 264 50 76 54 29
internal_value=0 0 0.00277866 -0.00804038 0.00557903 -0.0179368 -0.0135556 -0.0142686 0.0075639
internal_weight=0 705.549 522.66 182.889 451.35 79.6994 136.747 71.3099 46.1417
internal_count=810 733 515 218 457 77 163 58 55
is_linear=0
shrinkage=0.0622158


Tree=17
num_leaves=8
num_cat=0
split_feature=39 32 19 20 28 1 39
split_gain=5.97641 4.28136 4.93509 5.23476 3.83789 2.94956 2.23413
threshold=196.25000000000003 1.0628261566162112 50.11000061035157 61.954999923706062 0.56509384512901317 48.914999008178718 201.23667144775393
decision_type=2 2 2 2 2 2 2
left_child=5 6 3 -3 -4 -1 -2
right_child=1 2 4 -5 -6 -7 -8
leaf_value=0.071205254396711437 0.047500094516686471 0.069830285698455924 -0.018229253566203505 -0.09894666721577268 -0.21571039287531973 -0.10671063140365054 0.1798230416162262
leaf_weight=22.6513951420784 26.846097946166992 381.71795755624771 95.639225721359253 106.54545122385025 61.242662727832794 57.047959327697754 33.557623624801636
leaf_count=27 32 419 87 127 46 50 22
internal_value=0 -6.67353e-05 -0.0016066 0.0014285 -0.0111732 -0.0179368 0.0155177
internal_weight=0 705.549 645.145 488.263 156.882 79.6994 60.4037
internal_count=810 733 679 546 133 77 54
is_linear=0
shrinkage=0.0622158


end of trees

feature_importances:
volume_mean_30d=20
price_min_60d=13
price_max_20d=11
price_max_60d=11
price_zscore_30d=9
volume_std_60d=9
market_volatility_30d=8
doy_cos=6
price_std_20d=5
price_std_60d=5
distance_to_support=5
item_age_days=5
market_volume_mean_30d=5
price_lag_1d=4
price_min_20d=4
price_std_30d=4
price_mean_60d=4
bb_pct_b=4
volume_mean_60d=4
price_lag_7d=3
volume_std_30d=3
item_return_vs_market_7d=3
market_regime_duration_days=3
return_7d=2
trend_divergence_30_60=2
price_accel_7d=2
macd_signal=2
high_low_range_30d=2
volume_price_conf_1d=2
event_decay_major=2
item_return_vs_market_30d=2
price_lag_60d=1
return_1d=1
return_14d=1
return_30d=1
return_60d=1
price_std_7d=1
price_std_14d=1
vol_regime_60_30=1
macd_line=1
distance_to_resistance=1
rsi_missing=1
dow_sin=1
market_return_14d=1
item_return_vs_market_14d=1

parameters:
[boosting: gbdt]
[objective: quantile]
[metric: quantile]
[tree_learner: serial]
[device_type: cpu]
[data_sample_strategy: bagging]
[data: ]
[valid: ]
[num_iterations: 1000]
[learning_rate: 0.0622158]
[num_leaves: 15]
[num_threads: -1]
[seed: 13]
[deterministic: 0]
[force_col_wise: 0]
[force_row_wise: 0]
[histogram_pool_size: -1]
[max_depth: 4]
[min_data_in_leaf: 20]
[min_sum_hessian_in_leaf: 0.001]
[bagging_fraction: 0.7]
[pos_bagging_fraction: 1]
[neg_bagging_fraction: 1]
[bagging_freq: 5]
[bagging_seed: 16376]
[feature_fraction: 0.75]
[feature_fraction_bynode: 1]
[feature_fraction_seed: 20348]
[extra_trees: 0]
[extra_seed: 30076]
[early_stopping_round: 0]
[early_stopping_min_delta: 0]
[first_metric_only: 0]
[max_delta_step: 0]
[lambda_l1: 0.5]
[lambda_l2: 1.5]
[linear_lambda: 0]
[min_gain_to_split: 0.1]
[drop_rate: 0.1]
[max_drop: 50]
[skip_drop: 0.5]
[xgboost_dart_mode: 0]
[uniform_drop: 0]
[drop_seed: 24096]
[top_rate: 0.2]
[other_rate: 0.1]
[min_data_per_group: 100]
[max_cat_threshold: 32]
[cat_l2: 10]
[cat_smooth: 10]
[max_cat_to_onehot: 4]
[top_k: 20]
[monotone_constraints: ]
[monotone_constraints_method: basic]
[monotone_penalty: 0]
[feature_contri: ]
[forcedsplits_filename: ]
[refit_decay_rate: 0.9]
[cegb_tradeoff: 1]
[cegb_penalty_split: 0]
[cegb_penalty_feature_lazy: ]
[cegb_penalty_feature_coupled: ]
[path_smooth: 0]
[interaction_constraints: ]
[verbosity: -1]
[saved_feature_importance_type: 0]
[use_quantized_grad: 0]
[num_grad_quant_bins: 4]
[quant_train_renew_leaf: 0]
[stochastic_rounding: 1]
[linear_tree: 0]
[max_bin: 63]
[max_bin_by_feature: ]
[min_data_in_bin: 3]
[bin_construct_sample_cnt: 200000]
[data_random_seed: 81]
[is_enable_sparse: 1]
[enable_bundle: 1]
[use_missing: 1]
[zero_as_missing: 0]
[feature_pre_filter: 0]
[pre_partition: 0]
[two_round: 0]
[header: 0]
[label_column: ]
[weight_column: ]
[group_column: ]
[ignore_column: ]
[categorical_feature: ]
[forcedbins_filename: ]
[precise_float_parser: 0]
[parser_config_file: ]
[objective_seed: 11872]
[num_class: 1]
[is_unbalance: 0]
[scale_pos_weight: 1]
[sigmoid: 1]
[boost_from_average: 1]
[reg_sqrt: 0]
[alpha: 0.5]
[fair_c: 1]
[poisson_max_delta_step: 0.7]
[tweedie_variance_power: 1.5]
[lambdarank_truncation_level: 30]
[lambdarank_norm: 1]
[label_gain: ]
[lambdarank_position_bias_regularization: 0]
[eval_at: ]
[multi_error_top_k: 1]
[auc_mu_weights: ]
[num_machines: 1]
[local_listen_port: 12400]
[time_out: 120]
[machine_list_filename: ]
[machines: ]
[gpu_platform_id: -1]
[gpu_device_id: -1]
[gpu_use_dp: 0]
[num_gpu: 1]

end of parameters

pandas_categorical:[]
