tree
version=v4
num_class=1
num_tree_per_iteration=1
label_index=0
max_feature_idx=116
objective=quantile
feature_names=price_lag_1d price_lag_7d price_lag_14d price_lag_30d price_lag_60d return_1d return_3d return_7d return_14d return_30d return_60d price_std_7d price_std_14d price_std_20d price_min_20d price_max_20d price_std_30d price_mean_60d price_std_60d price_min_60d price_max_60d price_zscore_30d vol_regime_60_30 trend_divergence_30_60 price_accel_7d price_tier autocorr_1d autocorr_7d bb_pct_b macd_line macd_signal macd_histogram distance_to_support distance_to_resistance high_low_range_30d volume_missing volume_lag_1d volume_lag_7d volume_mean_7d volume_mean_30d volume_std_30d volume_mean_60d volume_std_60d volume_log_change_1d volume_log_change_7d volume_zscore_30d volume_price_conf_7d volume_price_conf_1d rsi_missing macd_missing is_weekend dow_sin dow_cos month_sin month_cos doy_cos item_age_days is_stattrak is_souvenir is_knife is_glove is_sticker is_case is_capsule is_agent is_music_kit is_graffiti is_charm is_patch quality_rank event_decay_major events_next_30d_major event_density_30d_major event_density_90d_major event_decay_operation events_next_30d_operation event_density_30d_operation event_density_90d_operation event_decay_case_drop events_next_30d_case_drop event_density_30d_case_drop event_density_90d_case_drop event_decay_update events_next_30d_update event_density_30d_update event_density_90d_update event_decay_game_update events_next_30d_game_update event_density_30d_game_update event_density_90d_game_update event_decay_major_weighted event_decay_operation_weighted event_decay_case_drop_weighted event_decay_update_weighted event_decay_game_update_weighted market_return_1d item_return_vs_market_1d market_return_7d item_return_vs_market_7d market_return_14d item_return_vs_market_14d market_return_30d item_return_vs_market_30d market_volatility_30d market_volume_mean_30d market_regime_crash market_regime_bear market_regime_range market_regime_bull market_regime_mania market_regime_duration_days market_return_30d_percentile supply_listings_log supply_listings_zscore supply_change_7d supply_skinport_qty_log supply_to_volume_ratio
feature_infos=[39.849998474121094:66.220001220703125] [39.849998474121094:66.220001220703125] [39.790000915527344:66.220001220703125] [40.729999542236328:66.569999694824219] [39.849998474121094:66.569999694824219] [-6.0415120124816895:5.3940391540527344] [-10.281366348266602:9.4368009567260742] [-17.372880935668945:14.35562801361084] [-21.531669616699219:24.511468887329102] [-24.868003845214844:39.543319702148438] [-29.951061248779297:26.83879280090332] [0.042426407337188721:3.2751080989837646] [0.042426407337188721:4.732576847076416] [0.042426407337188721:5.307133674621582] [39.790000915527344:61.619998931884766] [43.779998779296875:66.220001220703125] [0.042426407337188721:5.4625492095947266] [43.426834106445312:62.902332305908203] [0.042426407337188721:6.0651006698608398] [39.790000915527344:58.759998321533203] [47.880001068115234:66.569999694824219] [-3.4853887557983398:3.0036964416503906] [0.75903922319412231:3.9533336162567139] [-39.368843078613281:101.21376037597656] [-22.131687164306641:18.705087661743164] [3:3] [-17.983921051025391:24.183246612548828] [-115.25129699707031:134.03640747070312] [-0.21316516399383545:1.1863726377487183] [-3.1017971038818359:3.1833817958831787] [-2.2667920589447021:2.7414813041687012] [-1.2685985565185547:0.94650393724441528] [0.018351990729570389:39.335178375244141] [0.054525628685951233:31.854576110839844] [0.12307692319154739:39.335178375244141] none [163:245] [161:245] [176:219] [176:219] [4.0414519309997559:20.036775588989258] [176:219] [4.0414519309997559:19.928762435913086] [-0.28488487005233765:0.30276116728782654] [-0.26826399564743042:0.40341803431510925] [-2.4042847156524658:2.6703879833221436] [-17.372880935668945:14.35562801361084] [-6.0415120124816895:5.3940391540527344] [0:1] [0:1] [0:1] [-0.97492790222167969:0.97492790222167969] [-0.90096884965896606:1] [-0.86602538824081421:1] [-1:0.86602538824081421] [-1:0.99985265731811523] [0:234] none none none none none none none none none none none none none [0:0.96721607446670532] [0:1] [0:1] [0:1] none none none none none none none none none none none none none none none none none none none none none [-2.0933716297149658:1.6730349063873291] [-4.7729063034057617:4.9617133140563965] [-5.9873161315917969:5.599886417388916] [-15.224418640136719:14.81980037689209] [-7.3588790893554688:5.6792440414428711] [-21.058666229248047:25.597810745239258] [-2.9261324405670166:2.6404297351837158] [-23.844234466552734:40.982707977294922] [0.43699198961257935:3.9010679721832275] [195.10000610351562:203.39999389648438] none none [0:1] none none [1:30] [0.040816325694322586:0.75268816947937012] none none none none none
tree_sizes=1025 864 759 758 1394 971 859 1081

Tree=0
num_leaves=9
num_cat=0
split_feature=15 33 15 8 1 7 97 99
split_gain=1.31472 2.39506 4.88428 1.68703 0.73481 0.594673 0.444859 0.370322
threshold=50.829999923706062 6.5258526802062997 56.260000228881843 3.068770289421082 48.189998626708991 -0.8553810417652129 -0.78838098049163807 -1.0400999188423155
decision_type=2 2 2 2 2 2 2 2
left_child=5 2 3 -2 -3 6 -1 -6
right_child=1 4 -4 -5 7 -7 -8 -9
leaf_value=6.7740809148300052 7.1166244044592037 6.9884549115035464 6.6427042905523948 6.8845650981137023 6.8508280524168113 6.6621700839523808 6.9979309083961079 6.6632018365365804
leaf_weight=25.647267997264862 33.707837700843811 12.45724445581436 45.432303309440613 19.052256226539612 45.432303309440613 158.28028082847595 16.121139883995056 90.131827056407928
leaf_count=35 28 17 62 26 62 90 22 87
internal_value=6.80006 6.8035 6.811 6.82368 6.79868 6.79675 6.80282 6.79713
internal_weight=0 246.214 98.1924 52.7601 148.021 200.049 41.7684 135.564
internal_count=429 282 116 54 166 147 57 149
is_linear=0
shrinkage=1


Tree=1
num_leaves=7
num_cat=0
split_feature=56 103 24 19 15 34
split_gain=1.84287 1.98597 1.49843 1.07636 1.95159 0.185428
threshold=10.500000000000002 1.6106976270675661 0.40686640143394476 46.854999542236335 49.86000061035157 11.994114398956301
decision_type=2 2 2 2 2 2
left_child=-1 2 -2 4 -3 -5
right_child=1 3 -4 5 -6 -7
leaf_value=-0.13223751258489064 0.29687017479463412 -0.089605606065401244 0.10680852085313781 0.042048716361016807 0.19444730695839638 -0.22208229518744471
leaf_weight=161.21139645576477 22.716151654720306 61.553443193435669 18.319477140903473 18.319477140903473 76.941803991794586 87.200711190700531
leaf_count=40 31 84 25 25 105 119
internal_value=0 0.00229386 0.0147028 3.27864e-06 0.00371824 -0.00456571
internal_weight=0 285.051 41.0356 244.015 138.495 105.52
internal_count=429 389 56 333 189 144
is_linear=0
shrinkage=0.0622158


Tree=2
num_leaves=6
num_cat=0
split_feature=56 18 3 15 39
split_gain=1.7746 2.41563 0.756791 1.51944 0.434608
threshold=10.500000000000002 1.3627039790153506 46.899999618530281 49.86000061035157 203.03666687011722
decision_type=2 2 2 2 2
left_child=-1 -2 3 -3 -4
right_child=1 2 4 -5 -6
leaf_value=-0.12401024651568074 0.25840495390406493 -0.013545015259081332 -0.074319367482725052 0.34627772133533674 0.067150930057248676
leaf_weight=161.21139645576477 28.578384339809418 38.104512453079224 173.66864329576492 15.388360798358915 29.311163425445557
leaf_count=40 39 52 237 21 40
internal_value=0 0.00213476 5.6138e-05 0.00664684 -0.00156465
internal_weight=0 285.051 256.473 53.4929 202.98
internal_count=429 389 350 73 277
is_linear=0
shrinkage=0.0622158


Tree=3
num_leaves=6
num_cat=0
split_feature=55 18 3 15 39
split_gain=1.7746 2.41563 0.756791 1.51944 0.434608
threshold=0.9805392622947694 1.3627039790153506 46.899999618530281 49.86000061035157 203.03666687011722
decision_type=2 2 2 2 2
left_child=1 -1 3 -3 -4
right_child=-2 2 4 -5 -6
leaf_value=0.24232807626311656 -0.11629484660041201 -0.012702300947010206 -0.069695526649487624 0.32473376688869932 0.06297307947932565
leaf_weight=28.578384339809418 161.21139645576477 38.104512453079224 173.66864329576492 15.388360798358915 29.311163425445557
leaf_count=39 40 52 237 21 40
internal_value=0 0.00213476 5.6138e-05 0.00664684 -0.00156465
internal_weight=0 285.051 256.473 53.4929 202.98
internal_count=429 389 350 73 277
is_linear=0
shrinkage=0.0622158


Tree=4
num_leaves=12
num_cat=0
split_feature=39 42 26 27 101 13 4 7 26 26 97
split_gain=0.979541 4.11965 1.2381 0.819494 0.760441 0.988122 0.359794 0.355623 0.158842 0.151631 0.12187
threshold=201.8619079589844 14.116540908813478 0.42396527528762823 -7.2627646923065177 1.0000000180025095e-35 1.5838451981544497 48.164999008178718 -0.43266890943050379 -0.047921560704708092 0.18305671215057376 -0.38863098621368403
decision_type=2 2 2 2 2 2 2 2 2 2 2
left_child=3 2 -2 4 5 -1 8 9 -5 -3 -8
right_child=1 7 -4 6 -6 -7 10 -9 -10 -11 -12
leaf_value=0.24724663260449484 0.22725143484356039 -0.1893332935491599 0.059055157325872264 0.052178846057540959 -0.089461686766081225 -0.0074569871387941819 -0.02942254994310534 -0.10516428763152404 -0.086640106082600185 0.10825391712871357 -0.11966249873761763
leaf_weight=19.785035312175751 23.448930621147156 14.65558171272278 19.785035192966461 14.65558171272278 21.983372569084167 22.716151654720306 52.760094165802002 64.484558820724487 15.388360798358915 14.655581712722777 161.94417649507523
leaf_count=27 23 20 18 20 30 31 72 34 21 20 113
internal_value=0 0.0041525 0.0197894 -0.00213002 0.0038123 0.00882531 -0.00383568 -0.00292676 0.00175989 0.00194971 -0.00476933
internal_weight=0 137.03 43.234 309.233 64.4846 42.5012 244.748 93.7957 30.0439 29.3112 214.704
internal_count=429 115 41 314 88 58 226 74 41 40 185
is_linear=0
shrinkage=0.0622158


Tree=5
num_leaves=8
num_cat=0
split_feature=19 22 8 24 19 3 6
split_gain=1.25587 0.957805 1.73744 0.842621 0.657335 0.250228 0.243176
threshold=46.854999542236335 0.99966445565223705 2.7044717073440556 -7.0791282653808585 46.665000915527351 48.269998550415046 -1.9092115759849546
decision_type=2 2 2 2 2 2 2
left_child=1 2 -1 -2 5 -3 -5
right_child=3 4 -4 6 -6 -7 -8
leaf_value=0.21311279912272096 0.11851011598578332 0.066328294303648255 -0.059262998257935892 -0.020207717971407742 0.22915244323114531 -0.14863038820537869 -0.06688635027684238
leaf_weight=16.121139883995056 26.380047082901001 47.63064056634903 18.319477140903473 39.570070505142212 19.052256226539612 42.501186966896057 205.91092127561569
leaf_count=22 36 65 25 45 26 58 146
internal_value=0 0.00336692 0.0121999 -0.00373876 0.000172034 -0.00179993 -0.0049503
internal_weight=0 143.625 34.4406 271.861 109.184 90.1318 245.481
internal_count=423 196 47 227 149 123 191
is_linear=0
shrinkage=0.0622158


Tree=6
num_leaves=7
num_cat=0
split_feature=11 7 103 104 2 39
split_gain=2.84577 1.06755 2.28308 1.22866 0.486303 0.687555
threshold=0.33795098960399633 -1.379659056663513 1.7518948912620547 198.82569122314456 50.719999313354499 202.72499847412112
decision_type=2 2 2 2 2 2
left_child=-1 2 -2 -4 5 -3
right_child=1 4 3 -5 -6 -7
leaf_value=0.088749918579606527 0.23341188312342229 -0.054039370962281313 0.15430959499493443 -0.14838444957065819 -0.09340611548113413 0.12662419574710837
leaf_weight=18.319476902484894 21.250593483448029 56.423989593982697 14.655581712722777 95.261281132698059 189.78978151082993 19.785035312175751
leaf_count=7 29 77 20 130 133 27
internal_value=0 -0.00154585 0.00289268 -0.000539175 -0.00385478 0
internal_weight=0 397.166 131.167 109.917 265.999 76.209
internal_count=423 416 179 150 237 104
is_linear=0
shrinkage=0.0622158


Tree=7
num_leaves=9
num_cat=0
split_feature=7 33 97 28 95 44 45 104
split_gain=1.09372 1.45883 1.18011 0.729761 0.472521 0.240145 0.155472 0.137474
threshold=-0.56187480688095082 8.8102769851684588 -1.4407455325126646 0.49665872752666479 -1.0509510040283201 -0.091436568647623048 0.83403483033180248 199.69666290283206
decision_type=2 2 2 2 2 2 2 2
left_child=1 2 -1 -4 -2 -3 -6 -7
right_child=4 5 3 -5 6 7 -8 -9
leaf_value=-0.26285530872917673 0.10300688602827988 0.18911303325486228 0.18609733039046208 0.052601125781455961 -0.051767434347611316 0.097412043861132003 -0.0034536217168222279 -0.13915258848005152
leaf_weight=15.388360798358915 33.707837700843811 14.655581712722777 32.975058853626251 18.319477140903473 188.32422357797623 20.51781439781189 35.906174957752228 55.691210508346558
leaf_count=21 28 20 45 25 149 28 31 76
internal_value=0 0.00252755 0.00950663 0.014091 -0.00395698 -0.00232861 -0.00503259 -0.00394113
internal_weight=0 157.548 66.6829 51.2945 257.938 90.8646 224.23 76.209
internal_count=423 215 91 70 208 124 180 104
is_linear=0
shrinkage=0.0622158


end of trees

feature_importances:
price_max_20d=5
return_7d=4
volume_mean_30d=4
price_lag_30d=3
price_min_60d=3
autocorr_1d=3
market_return_7d=3
return_14d=2
price_std_60d=2
price_accel_7d=2
distance_to_resistance=2
item_age_days=2
market_volatility_30d=2
market_volume_mean_30d=2
price_lag_7d=1
price_lag_14d=1
price_lag_60d=1
return_3d=1
price_std_7d=1
price_std_20d=1
vol_regime_60_30=1
autocorr_7d=1
bb_pct_b=1
high_low_range_30d=1
volume_std_60d=1
volume_log_change_7d=1
volume_zscore_30d=1
doy_cos=1
market_return_1d=1
market_return_14d=1
market_return_30d=1

parameters:
[boosting: gbdt]
[objective: quantile]
[metric: quantile]
[tree_learner: serial]
[device_type: cpu]
[data_sample_strategy: bagging]
[data: ]
[valid: ]
[num_iterations: 1000]
[learning_rate: 0.0622158]
[num_leaves: 15]
[num_threads: -1]
[seed: 91]
[deterministic: 0]
[force_col_wise: 0]
[force_row_wise: 0]
[histogram_pool_size: -1]
[max_depth: 4]
[min_data_in_leaf: 20]
[min_sum_hessian_in_leaf: 0.001]
[bagging_fraction: 0.7]
[pos_bagging_fraction: 1]
[neg_bagging_fraction: 1]
[bagging_freq: 5]
[bagging_seed: 2784]
[feature_fraction: 0.7]
[feature_fraction_bynode: 1]
[feature_fraction_seed: 29510]
[extra_trees: 0]
[extra_seed: 8681]
[early_stopping_round: 0]
[early_stopping_min_delta: 0]
[first_metric_only: 0]
[max_delta_step: 0]
[lambda_l1: 0.5]
[lambda_l2: 1.5]
[linear_lambda: 0]
[min_gain_to_split: 0.1]
[drop_rate: 0.1]
[max_drop: 50]
[skip_drop: 0.5]
[xgboost_dart_mode: 0]
[uniform_drop: 0]
[drop_seed: 8477]
[top_rate: 0.2]
[other_rate: 0.1]
[min_data_per_group: 100]
[max_cat_threshold: 32]
[cat_l2: 10]
[cat_smooth: 10]
[max_cat_to_onehot: 4]
[top_k: 20]
[monotone_constraints: ]
[monotone_constraints_method: basic]
[monotone_penalty: 0]
[feature_contri: ]
[forcedsplits_filename: ]
[refit_decay_rate: 0.9]
[cegb_tradeoff: 1]
[cegb_penalty_split: 0]
[cegb_penalty_feature_lazy: ]
[cegb_penalty_feature_coupled: ]
[path_smooth: 0]
[interaction_constraints: ]
[verbosity: -1]
[saved_feature_importance_type: 0]
[use_quantized_grad: 0]
[num_grad_quant_bins: 4]
[quant_train_renew_leaf: 0]
[stochastic_rounding: 1]
[linear_tree: 0]
[max_bin: 63]
[max_bin_by_feature: ]
[min_data_in_bin: 3]
[bin_construct_sample_cnt: 200000]
[data_random_seed: 335]
[is_enable_sparse: 1]
[enable_bundle: 1]
[use_missing: 1]
[zero_as_missing: 0]
[feature_pre_filter: 0]
[pre_partition: 0]
[two_round: 0]
[header: 0]
[label_column: ]
[weight_column: ]
[group_column: ]
[ignore_column: ]
[categorical_feature: ]
[forcedbins_filename: ]
[precise_float_parser: 0]
[parser_config_file: ]
[objective_seed: 29977]
[num_class: 1]
[is_unbalance: 0]
[scale_pos_weight: 1]
[sigmoid: 1]
[boost_from_average: 1]
[reg_sqrt: 0]
[alpha: 0.9]
[fair_c: 1]
[poisson_max_delta_step: 0.7]
[tweedie_variance_power: 1.5]
[lambdarank_truncation_level: 30]
[lambdarank_norm: 1]
[label_gain: ]
[lambdarank_position_bias_regularization: 0]
[eval_at: ]
[multi_error_top_k: 1]
[auc_mu_weights: ]
[num_machines: 1]
[local_listen_port: 12400]
[time_out: 120]
[machine_list_filename: ]
[machines: ]
[gpu_platform_id: -1]
[gpu_device_id: -1]
[gpu_use_dp: 0]
[num_gpu: 1]

end of parameters

pandas_categorical:[]
