tree
version=v4
num_class=1
num_tree_per_iteration=1
label_index=0
max_feature_idx=116
objective=quantile
feature_names=price_lag_1d price_lag_7d price_lag_14d price_lag_30d price_lag_60d return_1d return_3d return_7d return_14d return_30d return_60d price_std_7d price_std_14d price_std_20d price_min_20d price_max_20d price_std_30d price_mean_60d price_std_60d price_min_60d price_max_60d price_zscore_30d vol_regime_60_30 trend_divergence_30_60 price_accel_7d price_tier autocorr_1d autocorr_7d bb_pct_b macd_line macd_signal macd_histogram distance_to_support distance_to_resistance high_low_range_30d volume_missing volume_lag_1d volume_lag_7d volume_mean_7d volume_mean_30d volume_std_30d volume_mean_60d volume_std_60d volume_log_change_1d volume_log_change_7d volume_zscore_30d volume_price_conf_7d volume_price_conf_1d rsi_missing macd_missing is_weekend dow_sin dow_cos month_sin month_cos doy_cos item_age_days is_stattrak is_souvenir is_knife is_glove is_sticker is_case is_capsule is_agent is_music_kit is_graffiti is_charm is_patch quality_rank event_decay_major events_next_30d_major event_density_30d_major event_density_90d_major event_decay_operation events_next_30d_operation event_density_30d_operation event_density_90d_operation event_decay_case_drop events_next_30d_case_drop event_density_30d_case_drop event_density_90d_case_drop event_decay_update events_next_30d_update event_density_30d_update event_density_90d_update event_decay_game_update events_next_30d_game_update event_density_30d_game_update event_density_90d_game_update event_decay_major_weighted event_decay_operation_weighted event_decay_case_drop_weighted event_decay_update_weighted event_decay_game_update_weighted market_return_1d item_return_vs_market_1d market_return_7d item_return_vs_market_7d market_return_14d item_return_vs_market_14d market_return_30d item_return_vs_market_30d market_volatility_30d market_volume_mean_30d market_regime_crash market_regime_bear market_regime_range market_regime_bull market_regime_mania market_regime_duration_days market_return_30d_percentile supply_listings_log supply_listings_zscore supply_change_7d supply_skinport_qty_log supply_to_volume_ratio
feature_infos=[39.790000915527344:66.569999694824219] [39.790000915527344:66.569999694824219] [39.790000915527344:66.569999694824219] [39.849998474121094:66.569999694824219] [39.849998474121094:66.569999694824219] [-6.0415120124816895:6.1626429557800293] [-10.281366348266602:11.818019866943359] [-17.372880935668945:14.35562801361084] [-24.630624771118164:24.511468887329102] [-24.868003845214844:39.543319702148438] [-35.815872192382812:34.754096984863281] [0.042426407337188721:3.2751080989837646] [0.042426407337188721:4.7465720176696777] [0.042426407337188721:5.344205379486084] [39.790000915527344:61.619998931884766] [43.290000915527344:66.569999694824219] [0.042426407337188721:5.4625492095947266] [42.844001770019531:62.902332305908203] [0.042426407337188721:6.2239170074462891] [39.790000915527344:58.759998321533203] [46.650001525878906:66.569999694824219] [-3.4853887557983398:3.0036964416503906] [0.76277375221252441:4.9742584228515625] [-106.84011840820312:164.20773315429688] [-22.191015243530273:26.589687347412109] [3:3] [-16.605304718017578:24.183246612548828] [-165.46697998046875:159.38456726074219] [-0.22173035144805908:1.2130904197692871] [-3.135434627532959:3.1833817958831787] [-2.6213173866271973:2.772597074508667] [-1.2685985565185547:0.94650393724441528] [0.018351990729570389:39.335178375244141] [0.054525628685951233:35.731788635253906] [0.12307692319154739:39.335178375244141] none [161:245] [161:245] [176:219] [176:219] [4.0414519309997559:20.361700057983398] [176:219] [4.0414519309997559:19.928762435913086] [-0.31321537494659424:0.36533302068710327] [-0.29612094163894653:0.40341803431510925] [-2.8260855674743652:2.671764612197876] [-17.372880935668945:14.35562801361084] [-6.0415120124816895:5.4516053199768066] [0:1] [0:1] [0:1] [-0.97492790222167969:0.97492790222167969] [-0.90096884965896606:1] [-0.86602538824081421:1] [-1:0.86602538824081421] [-1:0.99985265731811523] [0:215] none none none none none none none none none none none none none [0:0.98347145318984985] [0:1] [0:1] [0:1] none none none none none none none none none none none none none none none none none none none none none [-2.4910855293273926:2.5970833301544189] [-5.0148625373840332:6.6300463676452637] [-4.9728598594665527:6.6842527389526367] [-15.224418640136719:14.81980037689209] [-7.8436169624328613:8.0323085784912109] [-21.058666229248047:25.597810745239258] [-8.3750972747802734:10.840641021728516] [-26.866291046142578:40.982707977294922] [0.43699198961257935:3.9606008529663086] [195.10000610351562:203.39999389648438] none [0:1] [0:1] [0:1] [0:1] [1:30] [0.0086206896230578423:1] none none none none none
tree_sizes=1141 1270 1276 1182 1065 1075 971 971 972 1280 1183 1389 1279 1603 1186 1175 1079 975 1390 1182 1078 769 772 1071 1068 1072 1299 1186 1061 1180 1083 1076 1291 1076 1181 976 1062 1080 1293 874 1074 870 1177 879 1179 1184

Tree=0
num_leaves=10
num_cat=0
split_feature=14 21 104 14 56 29 102 20 32
split_gain=5.88084 9.77348 8.26837 3.26112 4.39632 3.06994 1.21936 0.819018 0.144088
threshold=50.11000061035157 0.99589151144027721 198.37128448486331 54.299999237060554 134.50000000000003 1.6566983461380007 15.12460231781006 65.36999893188478 17.531001091003422
decision_type=2 2 2 2 2 2 2 2 2
left_child=6 3 -3 -2 -5 -4 7 8 -1
right_child=1 2 5 4 -6 -7 -8 -9 -10
leaf_value=-15.865007814088246 -16.071186290554145 -16.227782841828919 -16.08245720118131 -16.129365784943953 -16.25984280459727 -16.241773498821356 -16.269653517732422 -16.162837023470846 -16.109985851307016
leaf_weight=393.93104243278503 134.89655190706253 32.275861322879791 33.10344934463501 67.86207115650177 23.172414541244507 12.413793504238127 17.37931090593338 20.689655840396881 16.551724672317505
leaf_count=404 100 12 40 82 28 15 21 25 20
internal_value=-16.114 -16.1168 -16.1245 -16.114 -16.1178 -16.1168 -16.1123 -16.112 -16.1117
internal_weight=0 303.724 77.7931 225.931 91.0345 45.5172 448.552 431.172 410.483
internal_count=747 277 67 210 110 55 470 449 424
is_linear=0
shrinkage=1


Tree=1
num_leaves=11
num_cat=0
split_feature=21 103 34 14 56 41 38 20 39 18
split_gain=5.72576 13.8901 4.19696 3.83251 4.02689 3.42512 1.77381 0.683109 0.578802 0.548528
threshold=0.99589151144027721 0.91825532913208019 21.781381607055668 54.299999237060554 134.50000000000003 201.35504150390628 193.78571319580081 65.36999893188478 196.31666564941409 4.7958583831787118
decision_type=2 2 2 2 2 2 2 2 2 2
left_child=3 -2 6 7 8 -4 -3 -1 -5 -9
right_child=1 2 5 4 -6 -7 -8 9 -10 -11
leaf_value=0.20842671736116994 -0.11093388682511454 -0.109755402774289 -0.17126671443812319 -0.13720612242040015 -0.1421880598049183 0.068799230785775642 0.11100021672199506 -0.070750917878798891 0.042939639924591537 0.018262140213737694
leaf_weight=438.62069487571716 24.827585220336914 18.206897139549255 18.206897139549259 13.241379737854002 23.172414541244507 12.413793504238127 120.82759010791779 12.41379350423813 54.620691418647766 15.724138438701628
leaf_count=395 3 22 22 16 28 15 146 15 66 19
internal_value=0 -0.00376485 -0.0010136 0.00123663 -0.00336128 -0.00941857 0.00068448 0.00218981 0 -0.0010108
internal_weight=0 194.483 169.655 557.793 91.0345 30.6207 139.034 466.759 67.8621 28.1379
internal_count=747 208 205 539 110 37 168 429 82 34
is_linear=0
shrinkage=0.0251338


Tree=2
num_leaves=11
num_cat=0
split_feature=21 55 34 14 56 99 38 98 70 30
split_gain=5.72576 13.8901 4.19696 3.83251 4.02689 3.42512 1.77381 0.650652 0.612049 0.605803
threshold=0.99589151144027721 0.99374407529830944 21.781381607055668 54.299999237060554 134.50000000000003 2.1466740369796757 193.78571319580081 1.7012454867362978 0.74704343080520641 -1.2742419242858884
decision_type=2 2 2 2 2 2 2 2 2 2
left_child=3 2 6 8 7 -4 -2 -5 -1 -10
right_child=1 -3 5 4 -6 -7 -8 -9 9 -11
leaf_value=0.17072503242087861 -0.10699682867884945 -0.10814569290693897 -0.16696212523414899 0.014992950449419918 -0.13861432868513657 0.007504191227247466 0.10821035567918906 -0.13375760648881552 -0.068972676039621386 0.3292650768080545
leaf_weight=434.48276370763779 18.206897139549255 24.827585220336914 18.206897139549259 55.448277652263641 23.172414541244507 12.413793504238127 120.82759010791779 12.413793504238127 12.413793504238127 19.862069606781006
leaf_count=390 22 3 22 67 28 15 146 15 15 24
internal_value=0 -0.00376485 -0.0010136 0.00123663 -0.00336128 -0.00941857 0.00068448 0 0.00218981 -0.000565875
internal_weight=0 194.483 169.655 557.793 91.0345 30.6207 139.034 67.8621 466.759 32.2759
internal_count=747 208 205 539 110 37 168 82 429 39
is_linear=0
shrinkage=0.0251338


Tree=3
num_leaves=10
num_cat=0
split_feature=14 28 104 31 54 11 32 17 20
split_gain=5.76335 9.77348 8.26837 2.8869 2.87002 2.27567 1.5224 2.2853 0.852905
threshold=50.11000061035157 0.73839151859283458 198.37128448486331 0.28400909900665289 1.0000000180025095e-35 0.81502357125282299 17.531001091003422 49.560520172119148 65.36999893188478
decision_type=2 2 2 2 2 2 2 2 2
left_child=6 4 -3 -4 5 -2 8 -8 -1
right_child=1 2 3 -5 -6 -7 7 -9 -10
leaf_value=0.23247863039882039 -0.090446539812127538 -0.10542757699240905 0.064456281182291519 -0.11607191738779718 0.039053704738857789 -0.047866041928162635 -0.16276572686150917 0.12865185277400262 -0.044108616254568904
leaf_weight=397.24138736724854 16.551724672317505 32.275861322879791 27.310345709323883 18.206897139549255 128.27586203813553 81.103450894355774 12.41379350423813 18.206897139549255 20.689655840396881
leaf_count=408 20 12 33 22 92 98 15 22 25
internal_value=0 -0.00280952 -0.0104653 -0.00284392 -4.51653e-05 -0.00338885 0.00166716 -0.00340316 0.00210234
internal_weight=0 303.724 77.7931 45.5172 225.931 97.6552 448.552 30.6207 417.931
internal_count=747 277 67 55 210 118 470 37 433
is_linear=0
shrinkage=0.0251338


Tree=4
num_leaves=9
num_cat=0
split_feature=14 28 104 55 98 42 10 20
split_gain=5.52669 9.45334 7.63686 2.69729 2.49638 1.81375 1.33832 0.836317
threshold=50.11000061035157 0.73839151859283458 198.37128448486331 1.0000000180025095e-35 6.7279882431030282 15.576741218566896 16.896352767944339 65.36999893188478
decision_type=2 2 2 2 2 2 2 2
left_child=6 3 -3 5 -4 -2 7 -1
right_child=1 2 4 -5 -6 -7 -8 -9
leaf_value=0.22319307655582887 -0.10369928330631399 -0.10277777775260032 0.014779419245589447 0.03807213539921344 -0.13539848554449355 0.079380051891032796 -0.13916027773445189 -0.042999997607013458
leaf_weight=406.34483593702316 69.517243623733521 32.275861322879791 31.448276877403259 129.1034482717514 14.068965971469877 27.310345709323883 21.517242074012756 20.689655840396881
leaf_count=419 84 12 38 93 17 33 26 25
internal_value=0 -0.00267278 -0.0101997 0 -0.00284392 -0.00322532 0.00171348 0.00206244
internal_weight=0 303.724 77.7931 225.931 45.5172 96.8276 448.552 427.034
internal_count=747 277 67 210 55 117 470 444
is_linear=0
shrinkage=0.0251338


Tree=5
num_leaves=9
num_cat=0
split_feature=102 19 21 97 70 3 32 4
split_gain=5.99545 3.74058 9.17225 5.58055 3.67255 0.542713 0.548656 0.313724
threshold=18.142310142517093 48.914999008178718 0.99589151144027721 0.10404499992728235 1.0000000180025095e-35 56.370000839233406 17.531001091003422 52.670000076293952
decision_type=2 2 2 2 2 2 2 2
left_child=1 5 4 -4 -3 6 -1 -7
right_child=-2 2 3 -5 -6 7 -8 -9
leaf_value=0.2233287581805502 -0.13993959122404795 0.094001250729801922 -0.10294262744538879 -0.061776174703157119 -0.1298562736504536 -0.046311831928796413 -0.050146370796682299 0.17261223688817046
leaf_weight=409.65518087148666 20.689655840396881 174.62068992853165 28.965516984462738 28.137931942939758 17.37931090593338 36.413794279098511 33.931035578250885 26.482759475708008
leaf_count=423 25 130 17 34 21 44 41 32
internal_value=0 0.000497713 -0.00197432 -0.0107938 0.00053937 0.00176386 0.00207925 -6.28856e-05
internal_weight=0 755.586 249.103 57.1034 192 506.483 443.586 62.8966
internal_count=767 742 202 51 151 540 464 76
is_linear=0
shrinkage=0.0251338


Tree=6
num_leaves=8
num_cat=0
split_feature=102 21 55 70 19 19 0
split_gain=6.04843 3.52674 9.71671 2.79259 2.56347 2.1642 0.554804
threshold=18.142310142517093 0.99589151144027721 0.99374407529830944 0.73469588160514843 48.914999008178718 48.409999847412116 57.340000152587898
decision_type=2 2 2 2 2 2 2
left_child=1 3 4 6 -3 -5 -1
right_child=-2 2 -4 5 -6 -7 -8
leaf_value=0.17432148536172506 -0.13642237274077262 0.10259963742764711 -0.073953948592514362 0.0046126009303131934 -0.099443681830998734 -0.12659248759921821 -0.0032066588351195848
leaf_weight=466.75862562656403 20.689655840396881 134.89655607938766 16.551723480224609 17.37931090593338 40.551725447177887 17.37931090593338 62.068967521190643
leaf_count=411 25 163 2 21 49 21 75
internal_value=0 0.000552735 -0.00233307 0.00158161 -0.000424603 -0.00506855 0.00207057
internal_weight=0 755.586 192 563.586 175.448 34.7586 528.828
internal_count=767 742 214 528 212 42 486
is_linear=0
shrinkage=0.0251338


Tree=7
num_leaves=8
num_cat=0
split_feature=102 21 55 70 19 19 0
split_gain=6.04843 3.27372 9.84273 2.76047 2.20743 2.1642 0.535397
threshold=18.142310142517093 0.99589151144027721 0.99374407529830944 0.73469588160514843 48.914999008178718 48.409999847412116 57.340000152587898
decision_type=2 2 2 2 2 2 2
left_child=1 3 4 6 -3 -5 -1
right_child=-2 2 -4 5 -6 -7 -8
leaf_value=0.16994011805185041 -0.13299355544368696 0.10002091515197524 -0.072095202310453743 0.0044966685833186231 -0.096944280820022877 -0.12341073300544564 -0.0031260632036347138
leaf_weight=466.75862562656403 20.689655840396881 134.89655607938766 16.551723480224609 17.37931090593338 40.551725447177887 17.37931090593338 62.068967521190643
leaf_count=411 25 163 2 21 49 21 75
internal_value=0 0.000552735 -0.00222501 0.00154474 -0.000306384 -0.00506855 0.00203127
internal_weight=0 755.586 192 563.586 175.448 34.7586 528.828
internal_count=767 742 214 528 212 42 486
is_linear=0
shrinkage=0.0251338


Tree=8
num_leaves=8
num_cat=0
split_feature=102 21 55 17 20 55 0
split_gain=5.23558 3.09344 9.96941 2.02633 1.50668 2.22514 0.725056
threshold=18.142310142517093 0.99589151144027721 0.99374407529830944 53.914035797119148 63.849998474121101 -0.84831994771957386 57.340000152587898
decision_type=2 2 2 2 2 2 2
left_child=1 4 3 -3 6 -6 -1
right_child=-2 2 -4 -5 5 -7 -8
leaf_value=0.19842309842509409 -0.12965091747203444 0.081893947500978975 -0.070283173449258773 -0.09450769933964609 -0.094676670999969417 0.074680006229306373 -0.04498867243805587
leaf_weight=454.3448321223259 20.689655840396881 136.55172854661942 16.551723480224609 38.896552979946136 33.931035578250885 50.48276025056839 24.827587008476257
leaf_count=396 25 165 2 47 41 61 30
internal_value=0 0.000580245 -0.00211696 -0.000188165 0.00154474 -0.00136973 0.00211146
internal_weight=0 755.586 192 175.448 563.586 84.4138 479.172
internal_count=767 742 214 212 528 102 426
is_linear=0
shrinkage=0.0251338


Tree=9
num_leaves=11
num_cat=0
split_feature=21 55 34 70 53 19 19 14 27 96
split_gain=5.18329 8.67009 4.04114 2.67237 2.37169 2.1642 1.6159 0.722305 0.563009 0.190182
threshold=0.99589151144027721 0.99374407529830944 21.781381607055668 0.73469588160514843 0.68301269412040722 48.409999847412116 48.914999008178718 54.299999237060554 -18.691385269165036 -2.6847045421600337
decision_type=2 2 2 2 2 2 2 2 2 2
left_child=3 2 6 7 -4 -5 -2 9 -9 -1
right_child=1 -3 4 5 -6 -7 -8 8 -10 -11
leaf_value=0.078692239346739551 0.097926660738635748 -0.068516687821019384 -0.15111217387554338 0.0067632378118498053 -0.031335658898821013 -0.11792936035294668 -0.092132358494201982 -0.098639025388958634 0.010205867959235648 0.20669479761162643
leaf_weight=28.137931942939758 120.82759010791779 16.551723480224609 15.724138438701628 17.37931090593338 19.034483373165131 17.37931090593338 34.75862181186676 23.172414541244507 59.586208820343018 423.72414147853851
leaf_count=34 146 2 19 21 23 21 42 28 72 359
internal_value=0 -0.00318848 -0.00150317 0.00144508 -0.00919812 -0.00506855 7.88471e-05 0.00191988 0 0.0023171
internal_weight=0 206.897 190.345 569.379 34.7586 34.7586 155.586 534.621 82.7586 451.862
internal_count=767 232 230 535 42 42 188 493 100 393
is_linear=0
shrinkage=0.0251338


Tree=10
num_leaves=10
num_cat=0
split_feature=14 21 104 34 16 55 32 15 20
split_gain=5.82404 7.20603 4.71063 2.73534 2.16658 1.49375 0.687643 0.879944 0.686279
threshold=50.11000061035157 0.99589151144027721 199.53000640869143 13.295719146728517 2.0509349107742314 0.33662487566471105 17.531001091003422 57.479999542236335 63.849998474121101
decision_type=2 2 2 2 2 2 2 2 2
left_child=6 3 -3 -2 -5 -4 8 -8 -1
right_child=1 2 5 4 -6 -7 7 -9 -10
leaf_value=0.18824093239629197 0.049732518220536981 -0.066794600749669683 -0.12259426448575997 -0.090121396205050497 -0.0060164052155822897 0.072889384789389666 -0.15726971010160665 0.16596458017752405 -0.016491292518429953
leaf_weight=422.89656001329422 110.89655292034149 28.965516984462738 14.896552205085753 40.551723659038544 61.241381287574768 23.172414541244507 12.41379350423813 16.551724672317505 24.000000774860382
leaf_count=430 98 17 18 22 74 28 15 20 29
internal_value=0 -0.00289426 -0.0100689 -0.000496782 -0.00355678 -0.00333919 0.00167201 -0.00161774 0.00194298
internal_weight=0 279.724 67.0345 212.69 101.793 38.069 475.862 28.9655 446.897
internal_count=751 257 63 194 96 46 494 35 459
is_linear=0
shrinkage=0.0251338


Tree=11
num_leaves=12
num_cat=0
split_feature=19 21 12 55 38 10 56 56 20 27 10
split_gain=4.48866 6.17897 5.27321 3.8088 2.05428 1.46021 2.00932 1.39416 0.547546 0.405667 0.347848
threshold=48.914999008178718 0.78052991628646862 1.6601686477661135 -0.77873522043228138 208.64285278320315 18.335251808166507 92.500000000000014 84.500000000000014 65.36999893188478 15.847517013549806 -8.1585569381713849
decision_type=2 2 2 2 2 2 2 2 2 2 2
left_child=5 3 -3 -2 -5 8 -7 -4 9 -1 -10
right_child=1 2 7 4 -6 6 -8 -9 10 -11 -12
leaf_value=0.19506394389244805 -0.1480519296137828 -0.065115796329242276 0.15807641181127677 0.086062566226767112 -0.0017353235097937643 0.13544107033763308 -0.14423288163540435 -0.053276428552796233 0.054788816376509189 0.044756563212812267 -0.022981790586916823
leaf_weight=355.86207628250122 22.344828307628632 28.137930750846863 19.862069606781006 145.65517294406891 24.827585816383362 21.517242074012756 19.034483373165131 14.896552205085753 12.41379350423813 76.137933492660522 14.896552205085753
leaf_count=367 27 16 24 113 12 26 23 18 15 92 18
internal_value=0 -0.00275134 -0.00957779 -0.000375674 0.00077756 0.00133823 -0.00298524 -0.00211886 0.00177744 0.00201952 -0.00111567
internal_weight=0 255.724 62.8966 192.828 170.483 499.862 40.5517 34.7586 459.31 432 27.3103
internal_count=751 210 58 152 125 541 49 42 492 459 33
is_linear=0
shrinkage=0.0251338


Tree=12
num_leaves=11
num_cat=0
split_feature=14 21 17 34 54 103 39 32 15 27
split_gain=5.31648 6.81708 4.31109 3.12081 2.45473 2.26208 0.766825 0.956316 0.606346 0.197714
threshold=50.11000061035157 1.1279275417327883 53.302751541137702 13.295719146728517 1.0000000180025095e-35 2.235803604125977 197.7416687011719 15.760748386383058 52.924999237060554 -50.637357711791985
decision_type=2 2 2 2 2 2 2 2 2 2
left_child=6 3 -3 -2 -4 -5 7 8 -1 -8
right_child=1 2 4 5 -6 -7 9 -9 -10 -11
leaf_value=0.18318809343081233 0.052107674686063962 -0.11761998387455247 -0.11548586858718324 -0.0769253836068097 0.00451997189104234 0.0080456838473955336 -0.0034152987264218135 -0.11073940349855332 -0.0050080064741428584 0.18350156950051336
leaf_weight=79.448275446891785 113.37931162118912 20.689654648303986 12.413793504238127 63.724138200283051 25.655173242092133 43.862070381641388 9.9310348033905012 17.37931090593338 42.206897914409637 326.89655989408493
leaf_count=51 101 7 15 50 31 53 12 21 51 359
internal_value=0 -0.00282004 -0.0104221 -0.000666061 -0.0044178 -0.00380876 0.00154102 0 0.000764835 0.0021885
internal_weight=0 279.724 58.7586 220.966 38.069 107.586 475.862 139.034 121.655 336.828
internal_count=751 257 53 204 46 103 494 123 102 371
is_linear=0
shrinkage=0.0251338


Tree=13
num_leaves=14
num_cat=0
split_feature=14 21 104 22 10 54 15 41 70 31 6 36 104
split_gain=3.49341 8.29061 4.81013 1.94267 2.6297 1.89225 0.692793 1.39002 1.95256 0.504209 0.273651 0.147676 0.137547
threshold=50.11000061035157 0.99589151144027721 199.14666748046878 1.3993045687675478 0.44211569428443914 1.0000000180025095e-35 52.924999237060554 198.864372253418 0.52643263339996349 0.47336855530738836 3.0316454172134404 214.50000000000003 199.20999908447268
decision_type=2 2 2 2 2 2 2 2 2 2 2 2 2
left_child=6 3 -3 11 -5 -4 9 8 -8 -1 -11 -2 -9
right_child=1 2 5 4 -6 -7 7 12 -10 10 -12 -13 -14
leaf_value=0.18826887192286793 0.011195127928493641 -0.060522945527931221 -0.11293163406333595 -0.14986042167759836 -0.0030318435400177391 0.00440636766696249 -0.0010966900035514456 -0.0026147822151151661 -0.14690848814474533 0.050694573242334992 -0.059500699455848252 -0.003354139533266378 0.13835216366139927
leaf_weight=297.93103873729706 128.27586203813553 24.827585816383362 14.896552205085753 12.413793504238127 57.931036353111267 27.310345709323883 41.379311680793762 13.241379737854002 12.413793504238127 13.241379737854006 12.413793504238127 14.068965971469877 85.24138206243515
leaf_count=279 92 12 18 15 70 33 50 16 15 16 15 17 103
internal_value=0 -0.00207776 -0.00976094 0.000243106 -0.00302169 -0.00374623 0.00145369 0 -0.00317665 0.00211104 -0.000550061 0.0020374 0.00182648
internal_weight=0 279.724 67.0345 212.69 70.3448 42.2069 475.862 152.276 53.7931 323.586 25.6552 142.345 98.4828
internal_count=751 257 63 194 85 51 494 184 65 310 31 109 119
is_linear=0
shrinkage=0.0251338


Tree=14
num_leaves=10
num_cat=0
split_feature=14 21 104 34 103 56 19 15 41
split_gain=5.21282 6.81708 4.74548 3.12081 2.26208 1.855 0.749223 0.802913 1.44531
threshold=50.11000061035157 1.1279275417327883 198.37128448486331 13.295719146728517 2.235803604125977 88.500000000000014 39.819999694824226 52.924999237060554 197.62083435058597
decision_type=2 2 2 2 2 2 2 2 2
left_child=6 3 -3 -2 -5 -4 -1 -8 -9
right_child=1 2 5 4 -6 -7 7 8 -10
leaf_value=-0.058005218741181468 0.050874210883010418 -0.059001771849981198 0.0042956187526146132 -0.073170920166157644 0.0075620884744246651 -0.11009322909730949 0.18437806606034784 -0.060602807395503042 0.058849040354147918
leaf_weight=11.586207270622252 113.37931162118912 21.517240881919861 24.827587008476257 63.724138200283051 43.862070381641388 12.413793504238127 312.00000470876694 31.448276877403259 120.82759010791779
leaf_count=14 101 8 30 50 53 15 296 38 146
internal_value=0 -0.00282004 -0.0104221 -0.000666061 -0.00380876 -0.00401866 0.00149735 0.00169579 2.60956e-05
internal_weight=0 279.724 58.7586 220.966 107.586 37.2414 475.862 464.276 152.276
internal_count=751 257 53 204 103 45 494 480 184
is_linear=0
shrinkage=0.0251338


Tree=15
num_leaves=10
num_cat=0
split_feature=21 104 30 70 17 10 10 24 95
split_gain=4.33395 10.1764 3.56617 1.51692 1.9173 1.13298 1.01564 0.851976 0.301544
threshold=0.99589151144027721 198.37128448486331 1.7595935463905337 0.7723645567893983 55.646999359130866 13.953812599182131 8.7769675254821795 3.9418003559112553 1.3182218074798586
decision_type=2 2 2 2 2 2 2 2 2
left_child=3 -2 5 6 -5 -3 8 -8 -1
right_child=1 2 -4 4 -6 -7 7 -9 -10
leaf_value=0.12057922002205534 -0.078672823220102356 0.080040747474060647 -0.10732616413108016 0.054175360305330711 -0.1442547889111955 -0.10697779598188106 0.0032822855123687145 -0.1311070889031872 -0.020862285598610329
leaf_weight=403.03448861837387 33.103448152542114 124.13793504238129 17.37931090593338 12.41379350423813 12.413793504238127 24.000000774860382 56.275863885879517 15.724138438701628 22.344828307628632
leaf_count=379 22 150 21 15 15 29 68 19 27
internal_value=0 -0.003321 -0.000600351 0.00103032 -0.00475644 0.000516613 0.00137415 -0.00117391 0.00186532
internal_weight=0 198.621 165.517 522.207 24.8276 148.138 497.379 72 425.379
internal_count=745 222 200 523 30 179 493 87 406
is_linear=0
shrinkage=0.0251338


Tree=16
num_leaves=9
num_cat=0
split_feature=21 104 34 39 0 42 17 96
split_gain=3.81717 11.465 2.71424 1.81145 1.42885 1.44853 0.636691 0.20954
threshold=1.1279275417327883 198.37128448486331 23.66174411773682 206.53333282470706 54.415000915527351 13.790804862976076 54.983251571655281 -2.4069687128067012
decision_type=2 2 2 2 2 2 2 2
left_child=3 -2 6 4 7 -6 -3 -1
right_child=1 2 -4 -5 5 -7 -8 -9
leaf_value=-0.013099114413015041 -0.076695473525560415 0.07802901659812711 -0.12934852718352627 -0.0012312071766359409 -0.097814395932066478 0.0016889114402052633 -0.10428903379502351 0.15085516729820175
leaf_weight=29.793104410171509 30.620689451694489 107.58621037006378 21.517242074012756 19.86206841468811 24.000000774860382 103.44827920198441 17.37931090593338 366.62069553136826
leaf_count=36 19 130 26 6 29 125 21 353
internal_value=0 -0.00355939 -0.00043752 0.000668537 0.000995337 -0.00120166 0.00081097 0.00176562
internal_weight=0 177.103 146.483 543.724 523.862 127.448 124.966 396.414
internal_count=745 196 177 549 543 154 151 389
is_linear=0
shrinkage=0.0251338


Tree=17
num_leaves=8
num_cat=0
split_feature=10 55 19 17 55 8 15
split_gain=3.45913 4.39561 3.74289 7.49022 5.50144 0.895762 0.270096
threshold=21.007048606872562 0.068612210452556624 48.914999008178718 52.088640213012702 -0.77873522043228138 13.179648876190187 52.924999237060554
decision_type=2 2 2 2 2 2 2
left_child=2 -2 5 -4 -5 6 -1
right_child=1 -3 3 4 -6 -7 -8
leaf_value=0.17801790439916196 -0.13248221247382583 0.1325045927006103 -0.09019000653752543 -0.11873981463613127 0.071271123136202499 -0.085194344429965513 0.012224387113881643
leaf_weight=264.82759237289429 19.862069606781006 14.896552205085753 42.206894934177399 24.827587008476257 174.62069231271744 20.689655840396881 158.89655685424805
leaf_count=284 24 18 6 30 166 25 192
internal_value=0 -0.00801825 2.09551e-05 -0.00245594 -0.000280011 0.00142553 0.0017157
internal_weight=0 34.7586 686.069 241.655 199.448 444.414 423.724
internal_count=745 42 703 202 196 501 476
is_linear=0
shrinkage=0.0251338


Tree=18
num_leaves=12
num_cat=0
split_feature=10 102 96 55 97 17 15 70 17 31 31
split_gain=3.23386 2.85762 2.37594 9.44072 2.31481 1.10675 1.41488 0.93784 1.83073 0.907661 0.123441
threshold=11.200847625732424 12.723214149475099 2.0100293159484868 0.99374407529830944 -0.046788899227976792 53.668878555297859 62.560001373291023 0.7723645567893983 55.646999359130866 0.57699528336524974 0.31713446974754339
decision_type=2 2 2 2 2 2 2 2 2 2 2
left_child=2 5 7 10 -3 -2 -7 9 -9 -1 -4
right_child=1 4 3 -5 -6 6 -8 8 -10 -11 -12
leaf_value=0.092674220655705672 0.094163910822457883 -0.09923636115386332 0.10456049859776985 -0.051347009418875697 -0.098338064548932042 -0.11012108337578447 0.11987656267805712 0.27142370345747396 -0.13768717497131516 -0.07478240116183929 -0.051141549755313612
leaf_weight=470.89655977487564 35.586208045482635 18.206897139549259 50.48276025056839 17.379309713840485 13.241379737854002 28.965518176555634 15.724138438701628 19.862069606781006 12.413793504238127 22.344828307628632 15.724138438701628
leaf_count=461 43 22 61 3 16 35 19 24 15 27 19
internal_value=0 -0.00394635 0.000695789 -0.00313954 -0.0104116 -0.00105364 -0.00386261 0.001356 -0.00246975 0.0016595 0.000870492
internal_weight=0 111.724 609.103 83.5862 31.4483 80.2759 44.6897 525.517 32.2759 493.241 66.2069
internal_count=745 135 610 83 38 97 54 527 39 488 80
is_linear=0
shrinkage=0.0251338


Tree=19
num_leaves=10
num_cat=0
split_feature=14 17 54 111 32 56 20 56 46
split_gain=3.20914 8.67057 3.07304 3.58824 2.22847 3.21224 0.340531 0.27079 0.257819
threshold=50.11000061035157 51.564666748046882 1.0000000180025095e-35 0.35429067909717565 17.531001091003422 176.50000000000003 65.36999893188478 20.500000000000004 2.8340206146240239
decision_type=2 2 2 2 2 2 2 2 2
left_child=4 -2 3 -3 6 -6 7 -1 -4
right_child=1 2 8 -5 5 -7 -8 -9 -10
leaf_value=0.040985120755947416 -0.050056462197683393 -0.033042223610875353 0.16287982559289879 -0.12175676287561264 0.10085475950870437 -0.12992041498928542 -0.01427446785745699 0.15793469857558612 -0.01492975352719276
leaf_weight=80.27586168050766 36.41379189491272 95.172416865825653 121.65517336130142 27.310345709323883 14.896552205085756 12.413793504238127 15.724138438701628 301.24138903617859 15.724138438701628
leaf_count=52 8 115 102 33 18 15 19 364 19
internal_value=0 -0.00231232 -0.000590523 -0.00355038 0.00108108 -0.0056033 0.00161029 0.00179091 0.0018694
internal_weight=0 296.276 259.862 122.483 424.552 27.3103 397.241 381.517 137.379
internal_count=745 277 269 148 468 33 435 416 121
is_linear=0
shrinkage=0.0251338


Tree=20
num_leaves=9
num_cat=0
split_feature=96 43 0 42 20 56 8 4
split_gain=2.52073 2.37765 2.15339 3.08685 3.46511 1.46565 1.2394 0.11309
threshold=3.0815296173095708 0.037214402109384544 56.284999847412116 15.317660808563234 62.909999847412116 1.0000000180025095e-35 13.179648876190187 61.835000991821296
decision_type=2 2 2 2 2 2 2 2
left_child=2 -2 5 4 -4 -1 -7 -5
right_child=1 -3 3 7 -6 6 -8 -9
leaf_value=-4.5892240382883988e-06 -0.10114301910196563 -0.047265445468148849 -0.015719416750583238 0.16968058265904695 -0.083003844948946026 0.092779125582571245 -0.079402470845341758 -0.012749983042009994
leaf_weight=24.827585220336914 20.689655840396881 18.206896543502808 52.13793271780014 50.48276025056839 33.931035578250885 478.34483647346497 14.896552205085753 12.413793504238127
leaf_count=3 25 13 63 61 41 479 18 15
internal_value=0 -0.0063841 0.000136845 -0.00247598 -0.00562045 0.000938268 0.00128035 0.00144091
internal_weight=0 38.8966 667.034 148.966 86.069 518.069 493.241 62.8966
internal_count=718 38 680 180 104 500 497 76
is_linear=0
shrinkage=0.0251338


Tree=21
num_leaves=6
num_cat=0
split_feature=30 47 20 39 3
split_gain=4.31984 3.29179 2.20241 1.81016 1.29061
threshold=1.7595935463905337 3.0562850236892705 62.909999847412116 206.53333282470706 53.754999160766609
decision_type=2 2 2 2 2
left_child=1 3 -2 4 -1
right_child=2 -3 -4 -5 -6
leaf_value=0.14197884733289362 -0.049667078069111359 -0.010280475926619653 -0.080917640072372288 -4.4738792422038473e-06 -0.014159422363187461
leaf_weight=427.03448939323425 14.068965971469881 22.344827711582184 16.551724672317505 19.034482181072235 206.89655840396881
leaf_count=408 17 18 20 5 250
internal_value=0 0.000135169 -0.00941857 0.000499481 0.000766918
internal_weight=0 675.31 30.6207 652.966 633.931
internal_count=718 681 37 663 658
is_linear=0
shrinkage=0.0251338


Tree=22
num_leaves=6
num_cat=0
split_feature=47 30 15 39 55
split_gain=3.46552 3.07907 2.17601 1.81016 1.30374
threshold=3.0562850236892705 1.7595935463905337 62.560001373291023 206.53333282470706 -0.7338583469390868
decision_type=2 2 2 2 2
left_child=1 3 -3 4 -1
right_child=-2 2 -4 -5 -6
leaf_value=-0.014968446962329946 -0.04404371304944716 -0.048418753963924678 -0.091791717711029591 -4.3614335031180615e-06 0.087265326047220107
leaf_weight=206.06897217035294 23.172413945198059 14.068965971469881 15.724138438701628 19.034482181072235 427.86207562685013
leaf_count=249 19 17 19 5 409
internal_value=0 0.000100208 -0.00768463 0.000499481 0.000766918
internal_weight=0 682.759 29.7931 652.966 633.931
internal_count=718 699 36 663 658
is_linear=0
shrinkage=0.0251338


Tree=23
num_leaves=9
num_cat=0
split_feature=14 15 100 56 8 22 20 1
split_gain=4.15996 4.97121 4.61671 2.36795 0.847011 1.16903 0.62171 0.286192
threshold=50.11000061035157 53.335000991821296 9.3266248703002947 92.500000000000014 13.179648876190187 1.0096268057823183 63.849998474121101 41.220001220703132
decision_type=2 2 2 2 2 2 2 2
left_child=4 -2 3 -3 6 -6 7 -1
right_child=1 2 -4 -5 5 -7 -8 -9
leaf_value=-0.034194688678969833 -0.211695390093984 0.12397184747029306 -0.089484639897518453 -0.062130796523514019 0.074604486313294416 -0.08633958976593932 -0.015764527952896321 0.14678264422232876
leaf_weight=10.758621037006376 25.655171453952789 121.65517455339432 14.896552205085753 101.79310673475266 14.068965971469881 12.413793504238127 21.517242074012756 383.17242079973221
leaf_count=13 4 120 18 123 17 15 26 382
internal_value=0 -0.0027439 -0.00147976 -0.000445052 0.00123137 -0.00276874 0.00154981 0.00181365
internal_weight=0 264 238.345 223.448 441.931 26.4828 415.448 393.931
internal_count=718 265 261 243 453 32 421 395
is_linear=0
shrinkage=0.0251338


Tree=24
num_leaves=9
num_cat=0
split_feature=30 111 3 70 102 31 42 96
split_gain=3.19475 1.39976 1.33679 1.75746 2.18671 1.45163 1.52889 0.301466
threshold=1.7595935463905337 0.23356989771127704 53.754999160766609 0.73469588160514843 6.9371092319488534 0.5370146930217744 14.797884941101076 -2.4069687128067012
decision_type=2 2 2 2 2 2 2 2
left_child=2 -2 5 4 -4 7 -7 -1
right_child=1 -3 3 -5 -6 6 -8 -9
leaf_value=-0.028219391733984977 -0.074327699607484823 -0.010652696259348693 0.028481240386303792 -0.067329233372661626 -0.09099587929613713 0.091078100086207675 -0.084169544832215185 0.11201296776158337
leaf_weight=24.827587008476257 18.206897139549259 12.413793504238127 171.31035035848618 19.034483373165131 22.344828307628632 18.206897139549259 12.413793504238127 407.1724179983139
leaf_count=30 22 15 207 23 27 22 15 357
internal_value=0 -0.00741344 0.000781517 -0.000789485 0 0.00155813 -0.00340316 0.00197143
internal_weight=0 30.6207 675.31 212.69 193.655 462.621 30.6207 432
internal_count=718 37 681 257 234 424 37 387
is_linear=0
shrinkage=0.0251338


Tree=25
num_leaves=9
num_cat=0
split_feature=14 33 28 111 19 15 42 56
split_gain=3.09376 3.23564 2.816 2.67134 2.17482 0.887993 1.81752 0.796761
threshold=50.11000061035157 1.2460429668426516 0.53008362650871288 0.23356989771127704 39.819999694824226 52.924999237060554 15.317660808563234 152.50000000000003
decision_type=2 2 2 2 2 2 2 2
left_child=4 -2 7 -4 -1 -6 -7 -3
right_child=1 2 3 -5 5 6 -8 -9
leaf_value=-0.082054041448053061 -0.088708803953392631 0.0044668301888719838 -0.085367407717147861 -0.054386630104579989 0.19442994630328517 0.041445809988965861 -0.085196808593880277 -0.12732396373387778
leaf_weight=15.724138438701628 24.000000178813934 145.6551741361618 21.517242074012756 78.620691001415253 309.51724541187286 130.75862491130829 18.206897139549255 14.068965971469877
leaf_count=19 20 131 26 77 284 158 22 17
internal_value=0 -0.0020841 -0.00114975 -0.00448336 0.0012309 0.00159483 0 0.000790825
internal_weight=0 283.862 259.862 100.138 474.207 458.483 148.966 159.724
internal_count=754 271 251 103 483 464 180 148
is_linear=0
shrinkage=0.0251338


Tree=26
num_leaves=11
num_cat=0
split_feature=15 42 28 111 28 104 55 56 15 41
split_gain=2.95973 3.57681 2.77303 2.70011 1.70873 5.74632 0.675192 0.558233 0.346647 1.03482
threshold=59.679998397827156 15.681700706481935 0.30744867026805883 0.84614261984825145 0.79053321480751049 198.37128448486331 -0.81994155049324025 176.50000000000003 52.015001296997077 197.97499847412112
decision_type=2 2 2 2 2 2 2 2 2 2
left_child=4 2 6 -4 8 -6 -2 -7 -1 -10
right_child=1 -3 3 -5 5 7 -8 -9 9 -11
leaf_value=0.15303129444561045 -0.10438044070667242 0.10156313617547856 -0.097647183774665594 0.0015632486642948751 -0.081301567042008305 0.11157212094379974 0.073989050383421059 -0.083055486132656925 -0.037599235148147121 0.063335486468016164
leaf_weight=288.00000095367432 12.413793504238127 52.965518951416016 42.206897914409637 12.413793504238127 19.862069010734558 88.551726996898651 26.482759475708008 19.034483373165131 33.10344934463501 163.03448623418808
leaf_count=222 15 64 51 15 15 107 32 23 40 170
internal_value=0 -0.00284329 -0.00586103 -0.00950636 0.00111096 -0.00136422 -4.83975e-05 0.000729679 0.00181514 0.000792471
internal_weight=0 146.483 93.5172 54.6207 611.586 127.448 38.8966 107.586 484.138 196.138
internal_count=754 177 113 66 577 145 47 130 432 210
is_linear=0
shrinkage=0.0251338


Tree=27
num_leaves=10
num_cat=0
split_feature=19 20 21 12 55 19 10 99 20
split_gain=2.94409 4.91575 4.33227 3.88842 2.46241 2.01609 2.14839 3.00704 0.62509
threshold=48.914999008178718 50.614999771118171 0.83532181382179271 1.2250016331672671 -0.84831994771957386 39.819999694824226 13.953812599182131 0.14475423097610476 65.36999893188478
decision_type=2 2 2 2 2 2 2 2 2
left_child=5 -2 4 -4 -3 -1 8 -8 -7
right_child=1 2 3 -5 -6 6 7 -9 -10
leaf_value=-0.077948288669284105 -0.0031963759715887053 -0.1017569600166499 -0.084024963456411764 -0.022754470216983583 0.092772132201658725 0.14918503126422175 -0.11392704495343596 0.054165709505565263 -0.0045417892580582164
leaf_weight=15.724138438701628 24.827585220336914 17.37931090593338 17.379310309886932 37.241380512714386 153.10344964265823 414.62069827318192 21.517242074012756 30.620690643787384 25.655173242092133
leaf_count=19 3 21 12 45 131 429 26 37 31
internal_value=0 -0.00237478 -0.00106874 -0.00724219 0.00077756 0.000948408 0.00127827 -0.00335557 0.00188723
internal_weight=0 249.931 225.103 54.6207 170.483 508.138 492.414 52.1379 440.276
internal_count=754 212 209 57 152 542 523 63 460
is_linear=0
shrinkage=0.0251338


Tree=28
num_leaves=9
num_cat=0
split_feature=14 15 56 8 19 41 15 7
split_gain=4.48944 6.88751 3.39541 3.51249 2.22295 0.680597 1.85906 0.26726
threshold=50.11000061035157 53.335000991821296 92.500000000000014 3.0586135387420659 39.819999694824226 197.97499847412112 52.015001296997077 5.9184827804565439
decision_type=2 2 2 2 2 2 2 2
left_child=4 -2 7 -4 -1 6 -6 -3
right_child=1 2 3 -5 5 -7 -8 -9
leaf_value=-0.075989149306011694 -0.15745013969198582 0.18668251473782915 -0.050316831664298803 -0.07790412586085671 0.14543543942390802 0.135983819315104 -0.057940608142048156 -0.019831320394733017
leaf_weight=15.724138438701628 42.206894934177399 111.72413975000381 82.758623361587524 33.10344934463501 80.27586168050766 340.96552526950836 37.241380512714386 14.068965971469877
leaf_count=19 6 108 100 40 52 367 45 17
internal_value=0 -0.00266928 -0.000909793 -0.00407415 0.00131854 0.00168547 0 0.00181032
internal_weight=0 283.862 241.655 115.862 474.207 458.483 117.517 125.793
internal_count=754 271 265 140 483 464 97 125
is_linear=0
shrinkage=0.0251338


Tree=29
num_leaves=10
num_cat=0
split_feature=15 42 4 110 13 42 0 14 17
split_gain=2.7051 3.38071 2.73083 1.45313 1.43594 1.36396 4.30138 1.32119 0.546104
threshold=59.679998397827156 15.681700706481935 52.98500061035157 2.5000000000000004 2.3553110361099248 16.493077278137211 51.679998397827156 39.819999694824226 55.063665390014656
decision_type=2 2 2 2 2 2 2 2 2
left_child=5 2 3 -2 -4 7 -7 -1 -9
right_child=1 -3 4 -5 -6 6 -8 8 -10
leaf_value=-0.061614765932219748 -0.099477452109999032 0.097943400665977051 -0.11784737874786409 0.00031349397966646945 -0.018273340868749599 0.0008412869172578618 -0.082732318034804006 0.14152248771047565 -0.017169871071664261
leaf_weight=14.896552205085753 19.034483373165131 52.965518951416016 15.724138438701631 45.517242848873138 13.241379737854002 38.896552383899689 19.034482777118683 490.75862699747086 48.000001549720764
leaf_count=18 23 64 19 55 16 38 14 449 58
internal_value=0 -0.00270178 -0.00563979 -0.0022356 -0.0122066 0.00107697 -0.00241771 0.00148984 0.00173157
internal_weight=0 146.483 93.5172 64.5517 28.9655 611.586 57.931 553.655 538.759
internal_count=754 177 113 78 35 577 52 525 507
is_linear=0
shrinkage=0.0251338


Tree=30
num_leaves=9
num_cat=0
split_feature=15 55 17 98 41 8 17 33
split_gain=2.54685 2.57778 2.78475 2.54036 1.35809 0.918397 0.483696 0.459268
threshold=59.679998397827156 -0.84831994771957386 55.063665390014656 -0.39167128503322596 204.17317962646487 13.179648876190187 54.983251571655281 3.6362162828445439
decision_type=2 2 2 2 2 2 2 2
left_child=4 -2 3 -3 5 6 -1 -4
right_child=1 2 7 -5 -6 -7 -8 -9
leaf_value=0.1252540274258894 -0.071136463879373321 0.0067639824123449238 -0.029732118278538659 -0.096977202322430039 -0.00097672194180786721 -0.072530635315699407 -0.0044175650584839608 0.07005614064454016
leaf_weight=476.68966281414032 16.551724672317505 14.068965971469877 18.206897139549255 28.965518176555634 27.31034392118454 19.862069606781006 49.655174016952515 72.827588558197021
leaf_count=459 20 17 22 35 6 24 60 88
internal_value=0 -0.00255898 -0.00117345 -0.00649398 0.00109042 0.0013998 0.00163419 0.00108886
internal_weight=0 150.621 134.069 43.0345 573.517 546.207 526.345 91.0345
internal_count=731 182 162 52 549 543 519 110
is_linear=0
shrinkage=0.0251338


Tree=31
num_leaves=9
num_cat=0
split_feature=10 56 16 7 39 70 3 31
split_gain=2.9474 2.44489 3.95887 3.44216 1.72253 0.988737 2.33983 0.587004
threshold=11.200847625732424 92.500000000000014 1.8477552533149721 -0.87114140391349781 206.53333282470706 0.73469588160514843 58.07500076293946 0.5370146930217744
decision_type=2 2 2 2 2 2 2 2
left_child=4 -2 -3 -4 5 7 -7 -1
right_child=1 2 3 -5 -6 6 -8 -9
leaf_value=0.096228989604157503 0.11580226193995623 0.0020878656412367386 -0.001455164749408461 -0.10570499853059948 -0.00095217317446692849 0.059225562415385569 -0.069348531790942428 -0.032155410748936131
leaf_weight=518.06897389888763 32.275863111019135 29.793104410171509 14.068965971469877 30.620690643787384 22.344827115535736 31.448276877403259 13.241379737854002 32.275863111019135
leaf_count=500 39 36 17 37 9 38 16 39
internal_value=0 -0.00346969 -0.00604507 -0.010767 0.00102311 0.00131647 -0.00202145 0.00163473
internal_weight=0 106.759 74.4828 44.6897 617.379 595.034 44.6897 550.345
internal_count=731 129 90 54 602 593 54 539
is_linear=0
shrinkage=0.0251338


Tree=32
num_leaves=11
num_cat=0
split_feature=14 47 110 99 56 39 15 14 46 7
split_gain=3.37654 4.00865 2.87173 2.02881 1.37736 0.904588 1.50841 1.75852 0.304773 0.102891
threshold=50.11000061035157 2.4400726556777959 1.5000000000000002 -0.08610720187425612 137.50000000000003 197.7416687011719 52.015001296997077 48.579999923706062 8.748697757720949 2.9301705360412602
decision_type=2 2 2 2 2 2 2 2 2 2
left_child=5 2 3 -2 -4 6 9 -8 -7 -1
right_child=1 -3 4 -5 -6 8 7 -9 -10 -11
leaf_value=0.038952453993607465 -0.064151390039814946 -0.033388324031294256 0.044328931094095338 0.02456546226441271 -0.047789047253202065 0.14697408759534236 -0.065608058672161129 0.0027988958069308893 -0.062406075816688139 -0.026554015800132471
leaf_weight=67.862068176269531 39.724138021469116 19.034482777118683 161.37931317090988 16.551724672317505 36.413794279098511 301.2413866519928 23.172414541244507 29.793104410171509 13.241379737854002 15.724138438701628
leaf_count=37 30 14 159 20 44 328 28 36 16 19
internal_value=0 -0.00218886 -0.00123312 -0.00622507 7.25542e-05 0.00134935 -0.000196037 -0.00365377 0.00209942 0.00170479
internal_weight=0 273.103 254.069 56.2759 197.793 451.034 136.552 52.9655 314.483 83.5862
internal_count=731 267 253 50 203 464 120 64 344 56
is_linear=0
shrinkage=0.0251338


Tree=33
num_leaves=9
num_cat=0
split_feature=47 10 18 7 8 20 70 2
split_gain=3.3518 2.84336 1.68998 1.824 1.59178 1.09508 1.38527 0.42822
threshold=3.0562850236892705 6.4180924892425546 4.5118343830108651 -0.87114140391349781 3.0586135387420659 65.36999893188478 0.74704343080520641 42.569999694824226
decision_type=2 2 2 2 2 2 2 2
left_child=1 5 4 -4 -3 7 -7 -1
right_child=-2 2 3 -5 -6 6 -8 -9
leaf_value=-0.025886611569775075 -0.023005545698461881 0.076466165354722143 -0.0033893938187813145 -0.10361628972927465 -0.046330107658662974 0.0011942342588130018 -0.10974212528108859 0.13167734451464216
leaf_weight=24.827587008476257 25.655172646045685 52.965518951416016 14.896552205085756 14.068965971469877 57.931036353111267 46.344829082489014 14.896552205085753 472.55173045396805
leaf_count=30 22 64 18 17 70 56 18 436
internal_value=0 0.000630624 -0.00250319 -0.00797106 -0.000820029 0.00146173 -0.00147953 0.00187549
internal_weight=0 698.483 139.862 28.9655 110.897 558.621 61.2414 497.379
internal_count=731 709 169 35 134 540 74 466
is_linear=0
shrinkage=0.0251338


Tree=34
num_leaves=10
num_cat=0
split_feature=14 47 110 99 55 8 15 15 31
split_gain=3.55875 4.00865 2.87173 2.02881 1.10622 0.755109 0.576159 2.00739 0.1622
threshold=50.11000061035157 2.4400726556777959 1.5000000000000002 -0.08610720187425612 -0.051476858556270592 13.179648876190187 52.924999237060554 53.23500061035157 0.57699528336524974
decision_type=2 2 2 2 2 2 2 2 2
left_child=5 2 3 -2 -4 6 8 -8 -1
right_child=1 -3 4 -5 -6 -7 7 -9 -10
leaf_value=0.12836778797024717 -0.059934744993058162 -0.031384694186837071 -0.030420622170908785 0.022026150087285618 0.11239336698986416 -0.067275729672787152 -0.057470456552494165 0.027723020309141002 -0.021817126956759147
leaf_weight=294.62069380283356 39.724138021469116 19.034482777118683 81.103450894355774 16.551724672317505 116.68965655565262 24.000000774860382 18.206897139549255 99.310348033905029 14.896552205085753
leaf_count=275 30 14 98 20 105 29 22 120 18
internal_value=0 -0.00218886 -0.00123312 -0.00622507 7.25542e-05 0.00144148 0.00172188 0 0.00229407
internal_weight=0 273.103 254.069 56.2759 197.793 451.034 427.034 117.517 309.517
internal_count=731 267 253 50 203 464 435 142 293
is_linear=0
shrinkage=0.0251338


Tree=35
num_leaves=8
num_cat=0
split_feature=33 11 104 14 20 38 13
split_gain=3.1652 2.15583 5.77501 1.74188 0.624873 0.615752 0.381633
threshold=0.29003328084945684 1.0199812054634096 197.9929122924805 50.420000076293952 63.849998474121101 198.50000000000003 1.7250195145606997
decision_type=2 2 2 2 2 2 2
left_child=-1 4 -3 -4 6 -6 -2
right_child=1 2 3 -5 5 -7 -8
leaf_value=-0.011995164075132018 0.12350242070892349 -0.11233479762397397 0.059728104551597522 -0.036183010690241296 -0.055318694128396718 0.026471336063702035 0.0058028495150323307
leaf_weight=16.551724076271057 254.8965528011322 23.172413945198059 181.24138396978378 144.82758969068527 14.896552205085756 14.896552205085753 105.10345166921616
leaf_count=11 200 19 201 157 18 18 127
internal_value=0 0.000227589 -0.00116519 -0.000216028 0.00153976 -0.00150488 0.00186319
internal_weight=0 739.034 349.241 326.069 389.793 29.7931 360
internal_count=751 740 377 358 363 36 327
is_linear=0
shrinkage=0.0251338


Tree=36
num_leaves=9
num_cat=0
split_feature=19 14 56 8 39 0 39 21
split_gain=4.78004 10.7522 6.6084 1.52061 2.75139 0.883543 0.815562 0.151336
threshold=49.605001449584968 50.73500061035157 140.50000000000003 14.39116954803467 200.81666564941409 60.545000076293952 198.34523773193362 1.3067914843559267
decision_type=2 2 2 2 2 2 2 2
left_child=3 -2 7 5 -5 6 -1 -3
right_child=1 2 -4 4 -6 -7 -8 -9
leaf_value=0.0032888071324147523 -0.13994015519183176 0.10381831316151897 -0.089040072414240848 -0.084777084953281734 0.06386225386244547 -0.078614303580756328 0.12712346224953866 -0.023074072924468187
leaf_weight=184.55172711610794 53.793101608753204 115.03448408842087 18.206897139549255 12.41379350423813 16.551724672317505 14.068965971469877 327.72414672374725 13.241379737854002
leaf_count=178 11 103 22 15 20 17 369 16
internal_value=0 -0.0035837 0 0.000931536 -0.00444144 0.00127886 0.00148837 0.0019854
internal_weight=0 200.276 146.483 555.31 28.9655 526.345 512.276 128.276
internal_count=751 152 141 599 35 564 547 119
is_linear=0
shrinkage=0.0251338


Tree=37
num_leaves=9
num_cat=0
split_feature=38 42 41 20 22 56 10 33
split_gain=3.64627 4.16186 5.43523 3.05525 1.79309 1.66888 0.747367 0.399128
threshold=199.34285736083987 16.493077278137211 198.754997253418 63.849998474121101 1.6324698925018313 203.50000000000003 13.953812599182131 3.6362162828445439
decision_type=2 2 2 2 2 2 2 2
left_child=1 3 -3 5 -5 -1 -2 -8
right_child=6 2 -4 4 -6 -7 7 -9
leaf_value=0.054702144702465726 0.050932490562885603 -0.065744315564893269 0.24667128831104015 -0.086802153997385223 -0.00098549526468245377 -0.065359865870592018 -0.076638424709126907 0.012247553858613335
leaf_weight=239.17241853475571 382.34483337402344 28.137930750846863 17.37931090593338 23.172414541244507 14.896552205085753 20.689655840396881 13.241379737854006 16.551724672317505
leaf_count=244 363 16 21 28 18 25 16 20
internal_value=0 -0.00165047 -0.00872009 -0.000473374 -0.00711432 0.000414764 0.00184453 -0.00150488
internal_weight=0 343.448 45.5172 297.931 38.069 259.862 412.138 29.7931
internal_count=751 352 37 315 46 269 399 36
is_linear=0
shrinkage=0.0251338


Tree=38
num_leaves=11
num_cat=0
split_feature=42 18 15 55 16 7 4 104 16 100
split_gain=3.96415 9.031 2.27162 1.98909 3.08765 0.968695 0.927796 0.563779 1.1705 0.286942
threshold=16.493077278137211 1.3376432657241824 59.679998397827156 -0.7338583469390868 2.3354122638702397 -1.0000000180025095e-35 45.854999542236335 199.03666687011722 1.664566218852997 -12.045184612274168
decision_type=2 2 2 2 2 2 2 2 2 2
left_child=2 -2 7 4 -4 -5 -3 8 -1 -9
right_child=1 6 3 5 -6 -7 -8 9 -10 -11
leaf_value=0.11894079637574233 -0.04764995254993188 -0.068988856248878336 -0.084620483050962939 0.076110966829123369 0.001926018026251436 -0.060887561005214932 0.064146373121592867 -0.03847386714890088 -0.035120504590814151 0.093050501235771799
leaf_weight=122.48275661468506 33.103446960449219 12.413793504238127 17.379310905933384 47.172415316104889 14.068965971469877 38.068966746330261 54.620691418647766 13.241379737854002 74.482761025428772 328.55173236131668
leaf_count=58 4 15 21 57 17 46 66 16 90 361
internal_value=0 -0.00469004 0.000665655 -0.00243018 -0.00780736 -0.000119276 0.000274631 0.00138442 0.000167661 0.00201091
internal_weight=0 100.138 655.448 116.69 31.4483 85.2414 67.0345 538.759 196.966 341.793
internal_count=751 85 666 141 38 103 81 525 148 377
is_linear=0
shrinkage=0.0251338


Tree=39
num_leaves=7
num_cat=0
split_feature=33 100 56 14 17 104
split_gain=3.1652 1.92485 1.91238 1.89159 3.34127 0.475198
threshold=0.29003328084945684 12.645969867706301 122.50000000000001 50.11000061035157 51.564666748046882 198.78569030761722
decision_type=2 2 2 2 2 2
left_child=-1 3 -3 5 -5 -2
right_child=1 2 -4 4 -6 -7
leaf_value=-0.038349901178370956 0.025867915758529703 0.0061796735823684097 -0.080120854785324033 -0.046452326543096639 0.00040151718524782207 0.10785058369879234
leaf_weight=16.551724076271057 143.99999988079071 13.241379737854006 14.896552205085753 36.41379189491272 234.2069017291069 296.27587103843689
leaf_count=11 102 16 18 8 247 349
internal_value=0 0.000227589 -0.00609507 0.000517284 -0.00108111 0.00155689
internal_weight=0 739.034 28.1379 710.897 270.621 440.276
internal_count=751 740 34 706 255 451
is_linear=0
shrinkage=0.0251338


Tree=40
num_leaves=9
num_cat=0
split_feature=33 21 14 56 6 15 56 97
split_gain=2.56534 2.74004 2.91582 3.00508 2.28811 0.842212 1.53149 0.43364
threshold=0.29003328084945684 0.99589151144027721 50.11000061035157 179.50000000000003 1.1912363767623904 59.679998397827156 137.50000000000003 2.9627844095230107
decision_type=2 2 2 2 2 2 2 2
left_child=-1 5 3 -3 -4 7 -7 -2
right_child=1 2 4 -5 -6 6 -8 -9
leaf_value=-0.0043625341609477147 0.11530119821482937 0.083972079203857755 -0.0080066981982192496 -0.065241157494737523 -0.071255107035534004 0.026901863981395706 -0.047391988354735001 -0.022728063929611433
leaf_weight=16.551724076271057 413.79310846328735 100.1379342675209 27.310345113277435 23.172414541244507 43.034483551979065 91.034485697746277 26.482759475708008 23.172414541244507
leaf_count=11 374 121 24 28 43 110 32 28
internal_value=0 0.000338738 -0.00218462 0 -0.00625135 0.00126649 -0.000456778 0.00178739
internal_weight=0 748.138 193.655 123.31 70.3448 554.483 117.517 436.966
internal_count=771 760 216 149 67 544 142 402
is_linear=0
shrinkage=0.0251338


Tree=41
num_leaves=7
num_cat=0
split_feature=102 33 37 28 42 39
split_gain=3.49574 2.78941 1.69883 1.54777 2.8426 1.20166
threshold=16.379364013671879 0.29003328084945684 195.50000000000003 0.79053321480751049 14.329013347625734 206.53333282470706
decision_type=2 2 2 2 2 2
left_child=1 -1 -2 5 -5 -3
right_child=2 3 -4 4 -6 -7
leaf_value=-0.0042528869506722718 -0.075603128378514822 0.039295271363655224 -0.033589736339386216 0.013013586168499076 -0.04349388742389966 -0.0020416679309699444
leaf_weight=15.72413784265518 13.241379737854006 551.17242443561554 15.724138438701628 72.000002324581146 67.862070560455322 28.96551638841629
leaf_count=10 16 558 19 87 73 8
internal_value=0 0.000132553 -0.00867698 0.000398158 -0.00191043 0.000999174
internal_weight=0 735.724 28.9655 720 139.862 580.138
internal_count=771 736 35 726 160 566
is_linear=0
shrinkage=0.0251338


Tree=42
num_leaves=10
num_cat=0
split_feature=19 15 21 6 55 31 42 15 39
split_gain=2.25793 5.24654 3.1877 3.10173 2.05584 1.78967 3.15486 0.784275 0.77876
threshold=48.914999008178718 50.55999946594239 0.78052991628646862 1.1912363767623904 -0.84831994771957386 0.5088067650794984 14.860476493835451 52.924999237060554 198.60434722900393
decision_type=2 2 2 2 2 2 2 2 2
left_child=5 -2 4 -4 -3 7 -7 -1 -9
right_child=1 2 3 -5 -6 6 -8 8 -10
leaf_value=0.1277315795368508 -0.0041459955951999262 -0.055232333824936503 -0.0023433205967288676 -0.068371024834637778 0.080211373673948441 0.060990993447108975 -0.089781283284737029 -0.025548875539533045 0.068730181683975863
leaf_weight=266.48276364803314 24.827585220336914 16.551724672317505 30.620690047740936 36.413793683052063 156.41379457712173 35.586208045482635 15.724138438701628 91.862071931362152 90.206899464130402
leaf_count=268 3 20 28 35 135 43 19 111 109
internal_value=0 -0.00202194 -0.000760375 -0.00544898 0.000922315 0.000839382 -0.00344932 0.00138924 0
internal_weight=0 264.828 240 67.0345 172.966 499.862 51.3103 448.552 182.069
internal_count=771 221 218 63 155 550 62 488 220
is_linear=0
shrinkage=0.0251338


Tree=43
num_leaves=7
num_cat=0
split_feature=33 28 104 102 39 102
split_gain=2.44943 2.2836 4.5906 1.33245 1.12359 1.28267
threshold=0.29003328084945684 0.79053321480751049 198.37128448486331 18.142310142517093 206.53333282470706 12.723214149475099
decision_type=2 2 2 2 2 2
left_child=-1 4 -3 -4 5 -2
right_child=1 2 3 -5 -6 -7
leaf_value=-0.0040417908293329903 0.042360149039557739 -0.040682293266848281 0.0049050068645314793 -0.075235869401899941 -0.0018861482218428204 -0.021449941962777299
leaf_weight=16.551724076271057 535.44828599691391 26.48275887966156 115.03448647260666 13.241379737854002 28.96551638841629 28.965518176555634
leaf_count=11 539 23 139 16 8 35
internal_value=0 0.000116463 -0.00255776 -0.000370159 0.000857812 0.00114113
internal_weight=0 748.138 154.759 128.276 593.379 564.414
internal_count=771 760 178 155 582 574
is_linear=0
shrinkage=0.0251338


Tree=44
num_leaves=10
num_cat=0
split_feature=14 15 6 110 56 31 42 20 15
split_gain=2.63373 5.16702 3.11286 1.96963 1.44276 1.34009 4.70191 0.725435 0.326168
threshold=50.11000061035157 50.55999946594239 1.1912363767623904 4.5000000000000009 125.50000000000001 0.5370146930217744 14.797884941101076 63.849998474121101 52.924999237060554
decision_type=2 2 2 2 2 2 2 2 2
left_child=5 -2 4 -4 -3 7 -7 8 -1
right_child=1 2 3 -5 -6 6 -8 -9 -10
leaf_value=0.15127152683479234 -0.0039402051287737785 0.025289651858830881 -0.053294339972903566 -0.024857803106027618 -0.03782703692524788 0.092648614507743407 -0.057593398384426418 -0.0088888322943143708 0.0099568344740943414
leaf_weight=270.62069422006607 24.827585220336914 164.68965691328049 34.758621215820312 41.379311680793762 46.344829082489014 31.448276877403259 13.241379737854002 18.206897139549255 119.17241764068604
leaf_count=264 3 145 33 50 56 38 16 22 144
internal_value=0 -0.00200294 -0.000946605 -0.0053174 0.000520335 0.000986421 -0.00294203 0.00148132 0.00175294
internal_weight=0 312 287.172 76.1379 211.034 452.69 44.6897 408 389.793
internal_count=771 287 284 83 201 484 54 430 408
is_linear=0
shrinkage=0.0251338


Tree=45
num_leaves=10
num_cat=0
split_feature=19 17 56 10 97 12 30 19 3
split_gain=4.1186 10.6444 4.35912 2.14175 2.06469 1.48283 0.88682 0.452284 0.414143
threshold=48.914999008178718 52.088640213012702 140.50000000000003 16.896352767944339 0.10404499992728235 1.7836541533470156 1.1513420939445498 39.819999694824226 58.515001296997077
decision_type=2 2 2 2 2 2 2 2 2
left_child=3 -2 6 7 -5 -4 -3 -1 -9
right_child=1 2 5 4 -6 -7 -8 8 -10
leaf_value=-0.056145855458650515 -0.17968771320738622 0.083099773420113598 -0.071323392321992446 -0.087898270452809887 0.081527112317196532 -0.067803503045937505 -0.015362116409635586 0.10517057465600117 -0.0086654218572334071
leaf_weight=11.586207270622252 34.758619427680969 132.41379618644714 16.551724672317508 21.517242074012756 16.551724672317505 12.413793504238127 20.689655840396881 432.82759541273117 24.000000774860382
leaf_count=14 6 142 20 26 20 15 25 451 29
internal_value=0 -0.00302364 -0.000431991 0.00110741 -0.0044178 -0.00938291 0.00112283 0.00161429 0.00177344
internal_weight=0 216.828 182.069 506.483 38.069 28.9655 153.103 468.414 456.828
internal_count=748 208 202 540 46 35 167 494 480
is_linear=0
shrinkage=0.0251338


end of trees

feature_importances:
price_min_20d=24
price_max_20d=24
item_age_days=22
price_zscore_30d=19
doy_cos=19
price_min_60d=18
price_max_60d=17
price_mean_60d=14
market_volume_mean_30d=14
return_60d=13
volume_std_60d=13
volume_mean_30d=12
event_decay_major=11
item_return_vs_market_30d=10
macd_histogram=9
return_14d=8
distance_to_resistance=8
price_lag_1d=7
bb_pct_b=7
high_low_range_30d=7
volume_mean_60d=7
macd_signal=6
distance_to_support=6
price_lag_30d=5
return_7d=5
volume_mean_7d=5
volume_price_conf_1d=5
item_return_vs_market_1d=5
price_lag_60d=4
return_3d=4
price_std_30d=4
month_cos=4
market_return_7d=4
market_return_14d=4
market_regime_duration_days=4
market_return_30d_percentile=4
price_std_14d=3
price_std_60d=3
vol_regime_60_30=3
autocorr_7d=3
item_return_vs_market_7d=3
item_return_vs_market_14d=3
market_volatility_30d=3
price_std_7d=2
price_std_20d=2
volume_price_conf_7d=2
price_lag_7d=1
price_lag_14d=1
price_accel_7d=1
macd_line=1
volume_lag_1d=1
volume_lag_7d=1
volume_log_change_1d=1
month_sin=1
market_return_1d=1

parameters:
[boosting: gbdt]
[objective: quantile]
[metric: quantile]
[tree_learner: serial]
[device_type: cpu]
[data_sample_strategy: bagging]
[data: ]
[valid: ]
[num_iterations: 1000]
[learning_rate: 0.0251338]
[num_leaves: 55]
[num_threads: -1]
[seed: 13]
[deterministic: 0]
[force_col_wise: 0]
[force_row_wise: 0]
[histogram_pool_size: -1]
[max_depth: 4]
[min_data_in_leaf: 15]
[min_sum_hessian_in_leaf: 0.001]
[bagging_fraction: 0.7]
[pos_bagging_fraction: 1]
[neg_bagging_fraction: 1]
[bagging_freq: 5]
[bagging_seed: 16376]
[feature_fraction: 0.75]
[feature_fraction_bynode: 1]
[feature_fraction_seed: 20348]
[extra_trees: 0]
[extra_seed: 30076]
[early_stopping_round: 0]
[early_stopping_min_delta: 0]
[first_metric_only: 0]
[max_delta_step: 0]
[lambda_l1: 1]
[lambda_l2: 0.5]
[linear_lambda: 0]
[min_gain_to_split: 0.1]
[drop_rate: 0.1]
[max_drop: 50]
[skip_drop: 0.5]
[xgboost_dart_mode: 0]
[uniform_drop: 0]
[drop_seed: 24096]
[top_rate: 0.2]
[other_rate: 0.1]
[min_data_per_group: 100]
[max_cat_threshold: 32]
[cat_l2: 10]
[cat_smooth: 10]
[max_cat_to_onehot: 4]
[top_k: 20]
[monotone_constraints: ]
[monotone_constraints_method: basic]
[monotone_penalty: 0]
[feature_contri: ]
[forcedsplits_filename: ]
[refit_decay_rate: 0.9]
[cegb_tradeoff: 1]
[cegb_penalty_split: 0]
[cegb_penalty_feature_lazy: ]
[cegb_penalty_feature_coupled: ]
[path_smooth: 0]
[interaction_constraints: ]
[verbosity: -1]
[saved_feature_importance_type: 0]
[use_quantized_grad: 0]
[num_grad_quant_bins: 4]
[quant_train_renew_leaf: 0]
[stochastic_rounding: 1]
[linear_tree: 0]
[max_bin: 63]
[max_bin_by_feature: ]
[min_data_in_bin: 3]
[bin_construct_sample_cnt: 200000]
[data_random_seed: 81]
[is_enable_sparse: 1]
[enable_bundle: 1]
[use_missing: 1]
[zero_as_missing: 0]
[feature_pre_filter: 0]
[pre_partition: 0]
[two_round: 0]
[header: 0]
[label_column: ]
[weight_column: ]
[group_column: ]
[ignore_column: ]
[categorical_feature: ]
[forcedbins_filename: ]
[precise_float_parser: 0]
[parser_config_file: ]
[objective_seed: 11872]
[num_class: 1]
[is_unbalance: 0]
[scale_pos_weight: 1]
[sigmoid: 1]
[boost_from_average: 1]
[reg_sqrt: 0]
[alpha: 0.1]
[fair_c: 1]
[poisson_max_delta_step: 0.7]
[tweedie_variance_power: 1.5]
[lambdarank_truncation_level: 30]
[lambdarank_norm: 1]
[label_gain: ]
[lambdarank_position_bias_regularization: 0]
[eval_at: ]
[multi_error_top_k: 1]
[auc_mu_weights: ]
[num_machines: 1]
[local_listen_port: 12400]
[time_out: 120]
[machine_list_filename: ]
[machines: ]
[gpu_platform_id: -1]
[gpu_device_id: -1]
[gpu_use_dp: 0]
[num_gpu: 1]

end of parameters

pandas_categorical:[]
